{"learner":{"attributes":{"scikit_learn":"{\"_estimator_type\": \"classifier\"}"},"feature_names":["deep_ela.large_50d_v1.X0","deep_ela.large_50d_v1.X1","deep_ela.large_50d_v1.X2","deep_ela.large_50d_v1.X3","deep_ela.large_50d_v1.X4","deep_ela.large_50d_v1.X5","deep_ela.large_50d_v1.X6","deep_ela.large_50d_v1.X7","deep_ela.large_50d_v1.X8","deep_ela.large_50d_v1.X9","deep_ela.large_50d_v1.X10","deep_ela.large_50d_v1.X11","deep_ela.large_50d_v1.X12","deep_ela.large_50d_v1.X13","deep_ela.large_50d_v1.X14","deep_ela.large_50d_v1.X15","deep_ela.large_50d_v1.X16","deep_ela.large_50d_v1.X17","deep_ela.large_50d_v1.X18","deep_ela.large_50d_v1.X19","deep_ela.large_50d_v1.X20","deep_ela.large_50d_v1.X21","deep_ela.large_50d_v1.X22","deep_ela.large_50d_v1.X23","deep_ela.large_50d_v1.X24","deep_ela.large_50d_v1.X25","deep_ela.large_50d_v1.X26","deep_ela.large_50d_v1.X27","deep_ela.large_50d_v1.X28","deep_ela.large_50d_v1.X29","deep_ela.large_50d_v1.X30","deep_ela.large_50d_v1.X31","deep_ela.large_50d_v1.X32","deep_ela.large_50d_v1.X33","deep_ela.large_50d_v1.X34","deep_ela.large_50d_v1.X35","deep_ela.large_50d_v1.X36","deep_ela.large_50d_v1.X37","deep_ela.large_50d_v1.X38","deep_ela.large_50d_v1.X39","deep_ela.large_50d_v1.X40","deep_ela.large_50d_v1.X41","deep_ela.large_50d_v1.X42","deep_ela.large_50d_v1.X43","deep_ela.large_50d_v1.X44","deep_ela.large_50d_v1.X45","deep_ela.large_50d_v1.X46","deep_ela.large_50d_v1.X47","dim","ela_meta.lin_simple.adj_r2","ela_meta.lin_simple.intercept","ela_meta.lin_simple.coef.min","ela_meta.lin_simple.coef.max","ela_meta.lin_simple.coef.max_by_min","ela_meta.lin_w_interact.adj_r2","ela_meta.quad_simple.adj_r2","ela_meta.quad_simple.cond","ela_meta.quad_w_interact.adj_r2","ela_distr.skewness","ela_distr.kurtosis","ela_distr.number_of_peaks","nbc.nn_nb.sd_ratio","nbc.nn_nb.mean_ratio","nbc.nn_nb.cor","nbc.dist_ratio.coeff_var","nbc.nb_fitness.cor","disp.ratio_mean_02","disp.ratio_mean_05","disp.ratio_mean_10","disp.ratio_mean_25","disp.ratio_median_02","disp.ratio_median_05","disp.ratio_median_10","disp.ratio_median_25","disp.diff_mean_02","disp.diff_mean_05","disp.diff_mean_10","disp.diff_mean_25","disp.diff_median_02","disp.diff_median_05","disp.diff_median_10","disp.diff_median_25","pca.expl_var.cov_x","pca.expl_var.cor_x","pca.expl_var.cov_init","pca.expl_var.cor_init","pca.expl_var_PC1.cov_x","pca.expl_var_PC1.cor_x","pca.expl_var_PC1.cov_init","pca.expl_var_PC1.cor_init","ic.h_max","ic.eps_s","ic.eps_max","ic.eps_ratio","ic.m0"],"feature_types":["float","float","float","float","float","float","float","float","float","float","float","float","float","float","float","float","float","float","float","float","float","float","float","float","float","float","float","float","float","float","float","float","float","float","float","float","float","float","float","float","float","float","float","float","float","float","float","float","float","float","float","float","float","float","float","float","float","float","float","float","float","float","float","float","float","float","float","float","float","float","float","float","float","float","float","float","float","float","float","float","float","float","float","float","float","float","float","float","float","float","float","float","float","float","float"],"gradient_booster":{"model":{"cats":{"enc":[],"feature_segments":[],"sorted_idx":[]},"gbtree_model_param":{"num_parallel_tree":"1","num_trees":"100"},"iteration_indptr":[0,1,2,3,4,5,6,7,8,9,10,11,12,13,14,15,16,17,18,19,20,21,22,23,24,25,26,27,28,29,30,31,32,33,34,35,36,37,38,39,40,41,42,43,44,45,46,47,48,49,50,51,52,53,54,55,56,57,58,59,60,61,62,63,64,65,66,67,68,69,70,71,72,73,74,75,76,77,78,79,80,81,82,83,84,85,86,87,88,89,90,91,92,93,94,95,96,97,98,99,100],"tree_info":[0,0,0,0,0,0,0,0,0,0,0,0,0,0,0,0,0,0,0,0,0,0,0,0,0,0,0,0,0,0,0,0,0,0,0,0,0,0,0,0,0,0,0,0,0,0,0,0,0,0,0,0,0,0,0,0,0,0,0,0,0,0,0,0,0,0,0,0,0,0,0,0,0,0,0,0,0,0,0,0,0,0,0,0,0,0,0,0,0,0,0,0,0,0,0,0,0,0,0,0],"trees":[{"base_weights":[-5.3288918E-8,-4.9978197E-1,2.5869071E0,5.923682E-1,-1.1006395E0,4.117274E0,-3.154639E-1,-8.489893E-1,1.9999999E0,3.7894738E-1,-1.1484135E0,4.9830503E0,-3.529412E-1,-1.011236E0,3.7894738E-1,3.2969282E0,-8.108108E-1,-3.5550937E-1,2E-1,9.473684E-2,1.6020366E0,-2.2500001E-1,9.473684E-2,2.3684211E-1,-3.4296978E-1,5.1133003E0,-6.666667E-1,-3.0937502E-1,9.473684E-2,1.6229508E0,3.7894738E-1,-2.8636363E-1,9.473684E-2],"categories":[],"categories_nodes":[],"categories_segments":[],"categories_sizes":[],"default_left":[0,0,0,0,0,0,0,0,0,0,0,0,0,0,0,0,0,0,0,0,0,0,0,0,0,0,0,0,0,0,0,0,0],"id":0,"left_children":[1,3,5,7,9,11,-1,13,15,-1,17,19,21,23,-1,25,27,-1,-1,-1,-1,-1,-1,-1,-1,29,31,-1,-1,-1,-1,-1,-1],"loss_changes":[1.9651921E2,8.424797E1,1.413683E2,9.4745605E1,1.0770332E1,6.959485E1,0E0,9.282942E0,8.834056E1,0E0,6.201294E0,2.2895233E1,1.239938E0,6.191105E0,0E0,1.20598495E2,2.367621E0,0E0,0E0,0E0,0E0,0E0,0E0,0E0,0E0,6.042389E0,1.9984045E0,0E0,0E0,0E0,0E0,0E0,0E0],"parents":[2147483647,0,0,1,1,2,2,3,3,4,4,5,5,7,7,8,8,10,10,11,11,12,12,13,13,15,15,16,16,25,25,26,26],"right_children":[2,4,6,8,10,12,-1,14,16,-1,18,20,22,24,-1,26,28,-1,-1,-1,-1,-1,-1,-1,-1,30,32,-1,-1,-1,-1,-1,-1],"split_conditions":[9.3121654E-1,8.669097E-1,6.69623E-1,6.1685998E-2,-9.906867E-1,9.9027205E-1,-3.154639E-1,6.902894E-1,7.909597E-1,3.7894738E-1,9.9999905E-1,-9.5451224E-1,9.965294E-1,-6.441542E-1,3.7894738E-1,8.633051E-1,-8.946414E-1,-3.5550937E-1,2E-1,9.473684E-2,1.6020366E0,-2.2500001E-1,9.473684E-2,2.3684211E-1,-3.4296978E-1,-3.2529032E-1,-7.6664984E-1,-3.0937502E-1,9.473684E-2,1.6229508E0,3.7894738E-1,-2.8636363E-1,9.473684E-2],"split_indices":[0,57,10,52,46,1,0,42,30,0,31,15,1,38,0,36,4,0,0,0,0,0,0,0,0,26,9,0,0,0,0,0,0],"split_type":[0,0,0,0,0,0,0,0,0,0,0,0,0,0,0,0,0,0,0,0,0,0,0,0,0,0,0,0,0,0,0,0,0],"sum_hessian":[1.5E2,1.2638889E2,2.3611113E1,4.4861115E1,8.152778E1,1.6527779E1,7.0833335E0,2.2361113E1,2.2500002E1,1.1111112E0,8.041667E1,1.3750001E1,2.777778E0,2.1250002E1,1.1111112E0,1.5277779E1,7.2222223E0,7.916667E1,1.25E0,1.1111112E0,1.2638889E1,1.6666667E0,1.1111112E0,1.1111112E0,2.013889E1,1.0277779E1,5E0,6.1111116E0,1.1111112E0,9.166667E0,1.1111112E0,3.888889E0,1.1111112E0],"tree_param":{"num_deleted":"0","num_feature":"95","num_nodes":"33","size_leaf_vector":"1"}},{"base_weights":[-1.2931165E-1,-6.3914335E-1,8.1449944E-1,-8.6058617E-1,6.9672364E-1,1.4864787E0,-3.199574E-1,8.457675E-1,-9.971802E-1,-2.9621696E-1,1.9133812E0,1.8911443E0,-6.2306553E-1,-2.2537307E-1,4.9584472E-1,-1.0755589E0,4.06128E-2,1.7053662E-1,6.3584197E-1,-1.0083509E-1,1.9970754E0,-3.083343E-1,1.7639115E-1,-1.101917E0,7.994165E-2,-2.776065E-1,5.1966244E-1,2.049627E0,1.239764E-1,-3.380305E-1,-9.199759E-2,2.742734E-1,6.376138E-1],"categories":[],"categories_nodes":[],"categories_segments":[],"categories_sizes":[],"default_left":[0,0,0,0,0,0,0,0,0,0,0,0,0,0,0,0,0,0,0,0,0,0,0,0,0,0,0,0,0,0,0,0,0],"id":1,"left_children":[1,3,5,7,9,11,-1,13,15,-1,17,19,21,-1,-1,23,25,-1,-1,-1,27,-1,-1,29,-1,-1,-1,31,-1,-1,-1,-1,-1],"loss_changes":[6.9959404E1,2.8482113E1,6.611606E1,1.979266E1,3.0483633E1,3.364518E1,0E0,9.705418E0,6.203903E0,0E0,1.1352558E0,8.258736E0,3.973216E0,0E0,0E0,2.7857666E0,1.1867354E1,0E0,0E0,0E0,1.7201157E0,0E0,0E0,1.0238419E0,0E0,0E0,0E0,6.026993E-1,0E0,0E0,0E0,0E0,0E0],"parents":[2147483647,0,0,1,1,2,2,3,3,4,4,5,5,7,7,8,8,10,10,11,11,12,12,15,15,16,16,20,20,23,23,27,27],"right_children":[2,4,6,8,10,12,-1,14,16,-1,18,20,22,-1,-1,24,26,-1,-1,-1,28,-1,-1,30,-1,-1,-1,32,-1,-1,-1,-1,-1],"split_conditions":[8.496463E-1,1.1341342E0,6.69623E-1,-1.2149047E0,5.739673E-1,-1.23681605E-1,-3.199574E-1,-2.1041691E-1,5.2E0,-2.9621696E-1,1.2142142E0,-9.8075265E-1,9.9999535E-1,-2.2537307E-1,4.9584472E-1,9.999987E-1,5.9554046E-1,1.7053662E-1,6.3584197E-1,-1.0083509E-1,6.785461E-1,-3.083343E-1,1.7639115E-1,9.001972E-1,7.994165E-2,-2.776065E-1,5.1966244E-1,5.064051E-1,1.239764E-1,-3.380305E-1,-9.199759E-2,2.742734E-1,6.376138E-1],"split_indices":[0,91,10,58,62,65,0,0,60,0,91,15,31,0,0,31,16,0,0,0,63,0,0,16,0,0,0,94,0,0,0,0,0],"split_type":[0,0,0,0,0,0,0,0,0,0,0,0,0,0,0,0,0,0,0,0,0,0,0,0,0,0,0,0,0,0,0,0,0],"sum_hessian":[1.43308E2,9.3255615E1,5.0052387E1,8.030026E1,1.2955357E1,3.7032578E1,1.3019811E1,5.5668254E0,7.473344E1,5.5128446E0,7.442512E0,3.1158998E1,5.873578E0,1.8920089E0,3.6748166E0,6.9451744E1,5.2816887E0,1.4883063E0,5.954206E0,1.3160182E0,2.9842981E1,4.515775E0,1.357803E0,6.828942E1,1.1623211E0,3.6502314E0,1.6314573E0,2.8599924E1,1.243058E0,6.581587E1,2.4735487E0,2.6062295E0,2.5993694E1],"tree_param":{"num_deleted":"0","num_feature":"95","num_nodes":"33","size_leaf_vector":"1"}},{"base_weights":[-1.2563008E-1,3.4917945E-1,-9.069508E-1,8.5582423E-1,-9.0040946E-1,-1.0555952E0,3.1144878E-1,1.1872423E0,-7.555427E-1,-1.3031255E-1,-3.162073E-1,2.121284E-2,-3.2555306E-1,1.910682E-1,1.5867275E0,1.9557445E-1,-2.9599187E-1,3.4517866E-1,-2.498162E-1,-9.421454E-1,1.0755489E0,7.1720265E-2,1.6622926E0,-7.902677E-2,-3.048922E-1,-1.881413E-1,4.400762E-1,5.1197195E-1,7.785998E-2],"categories":[],"categories_nodes":[],"categories_segments":[],"categories_sizes":[],"default_left":[0,0,0,0,0,0,0,0,0,0,0,0,0,0,0,0,0,0,0,0,0,0,0,0,0,0,0,0,0],"id":2,"left_children":[1,3,5,7,9,11,-1,13,15,17,-1,-1,-1,19,21,-1,-1,-1,-1,23,25,-1,27,-1,-1,-1,-1,-1,-1],"loss_changes":[4.5416393E1,4.9100674E1,1.4462524E1,3.017778E1,2.525526E0,1.5242043E0,0E0,1.7949036E1,3.8842049E0,5.3528123E0,0E0,0E0,0E0,1.5311183E1,2.9224472E0,0E0,0E0,0E0,0E0,7.3871136E-2,6.5700197E0,0E0,1.4640732E0,0E0,0E0,0E0,0E0,0E0,0E0],"parents":[2147483647,0,0,1,1,2,2,3,3,4,4,5,5,7,7,8,8,9,9,13,13,14,14,19,19,20,20,22,22],"right_children":[2,4,6,8,10,12,-1,14,16,18,-1,-1,-1,20,22,-1,-1,-1,-1,24,26,-1,28,-1,-1,-1,-1,-1,-1],"split_conditions":[1.01872765E-1,-2.381798E-1,9.9047536E-1,-6.3122374E-1,-9.415733E-1,-9.98884E-1,3.1144878E-1,1.007378E0,-4.515248E-1,2.7581695E-1,-3.162073E-1,2.121284E-2,-3.2555306E-1,5.535536E-1,5.014423E-1,1.9557445E-1,-2.9599187E-1,3.4517866E-1,-2.498162E-1,-3.7832165E-1,-3.2790488E-1,7.1720265E-2,1E0,-7.902677E-2,-3.048922E-1,-1.881413E-1,4.400762E-1,5.1197195E-1,7.785998E-2],"split_indices":[10,29,0,39,18,41,0,59,18,20,0,0,0,91,94,0,0,0,0,42,34,0,47,0,0,0,0,0,0],"split_type":[0,0,0,0,0,0,0,0,0,0,0,0,0,0,0,0,0,0,0,0,0,0,0,0,0,0,0,0,0],"sum_hessian":[1.20569595E2,7.533906E1,4.523054E1,5.3829174E1,2.150988E1,4.2444286E1,2.7862577E0,4.4864807E1,8.964367E0,3.8845048E0,1.7625376E1,1.0506598E0,4.1393627E1,1.3264972E1,3.1599836E1,1.007485E0,7.9568815E0,1.1497512E0,2.7347536E0,5.786281E0,7.4786906E0,1.8988389E0,2.9700998E1,1.0183582E0,4.767923E0,1.2851518E0,6.193539E0,2.8582167E1,1.1188307E0],"tree_param":{"num_deleted":"0","num_feature":"95","num_nodes":"29","size_leaf_vector":"1"}},{"base_weights":[-1.22534074E-1,2.9404128E-1,-8.450709E-1,9.328833E-1,-4.7686094E-1,-1.012273E0,2.63399E-1,1.2754955E0,-2.687131E-1,9.3560827E-1,-9.2599005E-1,-3.146537E-1,2.68032E-2,1.3947406E0,-1.8611409E-1,6.002753E-1,-2.7267638E-1,-1.8844064E-1,4.0990525E-1,-9.97579E-1,8.813405E-2,4.4062394E-1,-3.8502973E-2,3.4176314E-1,-1.6652276E-1,-2.5614733E-3,-3.1357506E-1],"categories":[],"categories_nodes":[],"categories_segments":[],"categories_sizes":[],"default_left":[0,0,0,0,0,0,0,0,0,0,0,0,0,0,0,0,0,0,0,0,0,0,0,0,0,0,0],"id":3,"left_children":[1,3,5,7,9,11,-1,13,15,17,19,-1,-1,21,-1,23,-1,-1,-1,25,-1,-1,-1,-1,-1,-1,-1],"loss_changes":[3.0347853E1,3.2048706E1,1.1499115E1,1.4928667E1,1.9734211E1,1.4649696E0,0E0,7.137291E0,5.378379E0,6.0265656E0,2.3075142E0,0E0,0E0,3.1652946E0,0E0,3.301845E0,0E0,0E0,0E0,1.0291843E0,0E0,0E0,0E0,0E0,0E0,0E0,0E0],"parents":[2147483647,0,0,1,1,2,2,3,3,4,4,5,5,7,7,8,8,9,9,10,10,13,13,15,15,19,19],"right_children":[2,4,6,8,10,12,-1,14,16,18,20,-1,-1,22,-1,24,-1,-1,-1,26,-1,-1,-1,-1,-1,-1,-1],"split_conditions":[6.9374606E-2,-8.37924E-1,9.9047536E-1,3.6373335E-1,-6.6737145E-2,7.469593E-1,2.63399E-1,9.4686145E-1,8.8526106E-1,-8.296747E-1,9.304465E-1,-3.146537E-1,2.68032E-2,9.58562E-1,-1.8611409E-1,7.4458694E-1,-2.7267638E-1,-1.8844064E-1,4.0990525E-1,-8.022469E-1,8.813405E-2,4.4062394E-1,-3.8502973E-2,3.4176314E-1,-1.6652276E-1,-2.5614733E-3,-3.1357506E-1],"split_indices":[10,18,0,20,12,45,0,30,12,9,9,0,0,55,0,43,0,0,0,18,0,0,0,0,0,0,0],"split_type":[0,0,0,0,0,0,0,0,0,0,0,0,0,0,0,0,0,0,0,0,0,0,0,0,0,0,0],"sum_hessian":[9.900088E1,6.317225E1,3.5828632E1,3.4430107E1,2.8742142E1,3.3035473E1,2.7931602E0,2.6743273E1,7.686834E0,6.673004E0,2.2069138E1,3.202033E1,1.0151439E0,2.5409424E1,1.3338479E0,3.2872503E0,4.399584E0,1.3421772E0,5.330827E0,2.1017754E1,1.0513843E0,2.4266027E1,1.1433976E0,2.2511358E0,1.0361143E0,1.0206813E0,1.9997072E1],"tree_param":{"num_deleted":"0","num_feature":"95","num_nodes":"27","size_leaf_vector":"1"}},{"base_weights":[-1.183391E-1,1.874261E-1,-2.974331E-1,5.3824776E-1,-8.316085E-1,-2.481816E-1,9.145202E-1,-9.360942E-1,5.8186952E-2,-2.9754135E-1,6.7683804E-1,1.1113485E0,-4.8862162E-1,-2.9641053E-1,-3.9065022E-2,3.5489014E-1,-2.0143485E-1,1.175108E0,-7.2147265E-2,7.4274346E-2,-2.3051225E-1,2.0908471E-2,3.776339E-1],"categories":[],"categories_nodes":[],"categories_segments":[],"categories_sizes":[],"default_left":[0,0,0,0,0,0,0,0,0,0,0,0,0,0,0,0,0,0,0,0,0,0,0],"id":4,"left_children":[1,3,-1,5,7,9,11,13,-1,-1,15,17,19,-1,-1,-1,-1,21,-1,-1,-1,-1,-1],"loss_changes":[2.1816877E1,2.2201824E1,0E0,1.3801649E1,1.8936005E0,1.1424201E1,9.171333E0,4.8545456E-1,0E0,0E0,5.953871E0,2.6704674E0,1.1248513E0,0E0,0E0,0E0,0E0,2.3749504E0,0E0,0E0,0E0,0E0,0E0],"parents":[2147483647,0,0,1,1,3,3,4,4,5,5,6,6,7,7,10,10,11,11,12,12,17,17],"right_children":[2,4,-1,6,8,10,12,14,-1,-1,16,18,20,-1,-1,-1,-1,22,-1,-1,-1,-1,-1],"split_conditions":[6.043429E-1,-2.381798E-1,-2.974331E-1,9.6222705E-1,9.968749E-1,9.8912585E-1,-6.3122374E-1,9.238103E-1,5.8186952E-2,-2.9754135E-1,8.723602E-1,9.001878E-1,1.873171E-1,-2.9641053E-1,-3.9065022E-2,3.5489014E-1,-2.0143485E-1,-6.759708E-1,-7.2147265E-2,7.4274346E-2,-2.3051225E-1,2.0908471E-2,3.776339E-1],"split_indices":[10,29,0,59,33,44,39,0,0,0,15,30,15,0,0,0,0,14,0,0,0,0,0],"split_type":[0,0,0,0,0,0,0,0,0,0,0,0,0,0,0,0,0,0,0,0,0,0,0],"sum_hessian":[8.002581E1,5.985104E1,2.0174772E1,4.48741E1,1.4976939E1,1.4632279E1,3.024182E1,1.36713295E1,1.3056098E0,8.071447E0,6.5608315E0,2.6703846E1,3.537974E0,1.2631181E1,1.0401486E0,4.859322E0,1.7015094E0,2.5625935E1,1.0779119E0,1.0058793E0,2.532095E0,1.9321842E0,2.369375E1],"tree_param":{"num_deleted":"0","num_feature":"95","num_nodes":"23","size_leaf_vector":"1"}},{"base_weights":[-1.1935762E-1,1.5480882E-1,-2.856482E-1,-2.5309548E-1,8.6946505E-1,6.0532995E-2,-2.874824E-1,1.0625042E0,-4.613277E-1,6.9268143E-1,-4.1072312E-1,1.1183975E0,3.5113644E-2,-1.940159E-1,-1.3661617E-2,1.0003718E0,-1.9408341E-1,1.9995154E-1,-2.781103E-1,3.5060918E-1,9.949772E-2,-5.7636213E-2,3.5487866E-1,-2.067792E-1,2.7309644E-1],"categories":[],"categories_nodes":[],"categories_segments":[],"categories_sizes":[],"default_left":[0,0,0,0,0,0,0,0,0,0,0,0,0,0,0,0,0,0,0,0,0,0,0,0,0],"id":5,"left_children":[1,3,-1,5,7,9,-1,11,13,15,17,19,-1,-1,-1,21,-1,23,-1,-1,-1,-1,-1,-1,-1],"loss_changes":[1.5233871E1,1.4961627E1,0E0,7.3494806E0,5.268631E0,7.3627453E0,0E0,7.435322E-1,2.0593393E-1,4.9834366E0,4.675251E0,2.2603607E-1,0E0,0E0,0E0,2.1751804E0,0E0,5.2680154E0,0E0,0E0,0E0,0E0,0E0,0E0,0E0],"parents":[2147483647,0,0,1,1,3,3,4,4,5,5,7,7,8,8,9,9,10,10,11,11,15,15,17,17],"right_children":[2,4,-1,6,8,10,-1,12,14,16,18,20,-1,-1,-1,22,-1,24,-1,-1,-1,-1,-1,-1,-1],"split_conditions":[6.043429E-1,9.024801E-1,-2.856482E-1,9.686253E-1,-1.0974907E-1,-9.027357E-1,-2.874824E-1,6.785461E-1,7.0835537E-1,9.4686145E-1,-1.4118926E-1,-3.68234E-1,3.5113644E-2,-1.940159E-1,-1.3661617E-2,-3.7517628E-1,-1.9408341E-1,6E-1,-2.781103E-1,3.5060918E-1,9.949772E-2,-5.7636213E-2,3.5487866E-1,-2.067792E-1,2.7309644E-1],"split_indices":[10,0,0,57,65,18,0,63,34,30,81,29,0,0,0,78,0,94,0,0,0,0,0,0,0],"split_type":[0,0,0,0,0,0,0,0,0,0,0,0,0,0,0,0,0,0,0,0,0,0,0,0,0],"sum_hessian":[6.5074066E1,4.9569454E1,1.5504612E1,3.1968592E1,1.760086E1,2.2760166E1,9.2084255E0,1.5547245E1,2.053616E0,9.520028E0,1.3240138E1,1.4506726E1,1.0405192E0,1.0361944E0,1.0174217E0,7.9477944E0,1.572234E0,6.3464775E0,6.8936605E0,1.3178658E1,1.3280685E0,1.0482252E0,6.899569E0,2.831642E0,3.5148358E0],"tree_param":{"num_deleted":"0","num_feature":"95","num_nodes":"25","size_leaf_vector":"1"}},{"base_weights":[-1.1783691E-1,1.2935811E-1,-9.0998006E-1,4.4834185E-1,-6.68442E-1,-2.8382987E-1,-7.243948E-2,8.4992665E-1,-2.5658017E-1,7.319528E-2,-2.8153592E-1,9.417999E-1,-1.0885796E-1,5.3191906E-1,-2.6851737E-1,2.0309162E-1,-1.8763234E-1,-4.757421E-2,1.0144552E0,2.9284427E-1,-1.8487245E-1,3.316306E-1,2.7149048E-2],"categories":[],"categories_nodes":[],"categories_segments":[],"categories_sizes":[],"default_left":[0,0,0,0,0,0,0,0,0,0,0,0,0,0,0,0,0,0,0,0,0,0,0],"id":6,"left_children":[1,3,5,7,9,-1,-1,11,13,15,-1,17,-1,19,-1,-1,-1,-1,21,-1,-1,-1,-1],"loss_changes":[1.0700425E1,1.1004957E1,8.493233E-2,8.8945465E0,2.5551472E0,0E0,0E0,2.5432081E0,6.46289E0,2.2126431E0,0E0,1.6514816E0,0E0,3.635307E0,0E0,0E0,0E0,0E0,1.3815498E0,0E0,0E0,0E0,0E0],"parents":[2147483647,0,0,1,1,2,2,3,3,4,4,7,7,8,8,9,9,11,11,13,13,18,18],"right_children":[2,4,6,8,10,-1,-1,12,14,16,-1,18,-1,20,-1,-1,-1,-1,22,-1,-1,-1,-1],"split_conditions":[6.043429E-1,3.021452E-1,9.6783E-1,-8.022469E-1,8.8526106E-1,-2.8382987E-1,-7.243948E-2,6.824282E-1,7.191417E-1,-2.381798E-1,-2.8153592E-1,-9.9370116E-1,-1.0885796E-1,-2.998609E-1,-2.6851737E-1,2.0309162E-1,-1.8763234E-1,-4.757421E-2,9.0506256E-1,2.9284427E-1,-1.8487245E-1,3.316306E-1,2.7149048E-2],"split_indices":[10,20,0,18,12,0,0,63,73,29,0,17,0,7,0,0,0,0,30,0,0,0,0],"split_type":[0,0,0,0,0,0,0,0,0,0,0,0,0,0,0,0,0,0,0,0,0,0,0],"sum_hessian":[5.304476E1,4.1066353E1,1.1978407E1,2.9649605E1,1.1416748E1,1.0970454E1,1.0079527E0,1.8757818E1,1.0891786E1,3.2417035E0,8.175045E0,1.7644613E1,1.1132053E0,4.9480276E0,5.943758E0,1.7555383E0,1.486165E0,1.019619E0,1.6624994E1,3.6756997E0,1.272328E0,1.4955908E1,1.6690863E0],"tree_param":{"num_deleted":"0","num_feature":"95","num_nodes":"23","size_leaf_vector":"1"}},{"base_weights":[-1.20560594E-1,1.1762779E-1,-8.477343E-1,3.9212918E-1,-6.8978006E-1,-2.76724E-1,-1.8403854E-2,-2.5366065E-1,7.0537263E-1,-2.52984E-1,1.2587246E-2,-2.6300836E-1,4.8947722E-1,8.9435035E-1,-2.5201726E-1,2.5510955E-1,-1.3492213E-1,-1.4236571E-2,9.740546E-1,1.24578945E-1,-1.972775E-1,3.1251857E-1,1.5877087E-2],"categories":[],"categories_nodes":[],"categories_segments":[],"categories_sizes":[],"default_left":[0,0,0,0,0,0,0,0,0,0,0,0,0,0,0,0,0,0,0,0,0,0,0],"id":7,"left_children":[1,3,5,7,9,-1,-1,11,13,-1,-1,-1,15,17,19,-1,-1,-1,21,-1,-1,-1,-1],"loss_changes":[7.7311378E0,7.820948E0,5.889983E-1,5.4508386E0,1.0469451E0,0E0,0E0,4.710822E0,3.4483051E0,0E0,0E0,0E0,2.0294418E0,1.1794777E0,1.2789314E0,0E0,0E0,0E0,8.1541824E-1,0E0,0E0,0E0,0E0],"parents":[2147483647,0,0,1,1,2,2,3,3,4,4,7,7,8,8,12,12,13,13,14,14,18,18],"right_children":[2,4,6,8,10,-1,-1,12,14,-1,-1,-1,16,18,20,-1,-1,-1,22,-1,-1,-1,-1],"split_conditions":[5.502914E-1,-2.381798E-1,9.725561E-1,9.6222705E-1,9.94003E-1,-2.76724E-1,-1.8403854E-2,9.8384905E-1,8.283728E-1,-2.52984E-1,1.2587246E-2,-2.6300836E-1,8.3803976E-1,-9.5451224E-1,7.59682E-1,2.5510955E-1,-1.3492213E-1,-1.4236571E-2,7.2114074E-1,1.24578945E-1,-1.972775E-1,3.1251857E-1,1.5877087E-2],"split_indices":[10,29,0,59,33,0,0,44,36,0,0,0,15,15,69,0,0,0,20,0,0,0,0],"split_type":[0,0,0,0,0,0,0,0,0,0,0,0,0,0,0,0,0,0,0,0,0,0,0],"sum_hessian":[4.306022E1,3.306718E1,9.993036E0,2.5061235E1,8.005948E0,8.968383E0,1.0246533E0,8.247732E0,1.6813501E1,6.491716E0,1.5142318E0,4.3886476E0,3.859085E0,1.4096801E1,2.7167013E0,2.856209E0,1.0028759E0,1.1314852E0,1.2965316E1,1.0179716E0,1.6987295E0,1.1956004E1,1.0093112E0],"tree_param":{"num_deleted":"0","num_feature":"95","num_nodes":"23","size_leaf_vector":"1"}},{"base_weights":[-1.19021356E-1,-4.075804E-1,4.274357E-1,-3.2009125E-2,-8.771275E-1,6.454834E-1,-1.9397385E-1,-4.758551E-1,3.126459E-1,-5.909334E-2,-2.7791867E-1,2.7782524E-1,-1.5935619E-1,1.1980012E-1,-6.9785E-1,5.4652774E-1,-1.5636472E-1,1.1163778E-1,-1.6126129E-1,-2.2173643E-2,-2.4400873E-1,-1.4714597E-1,7.985505E-1,2.7606E-1,3.1986747E-2],"categories":[],"categories_nodes":[],"categories_segments":[],"categories_sizes":[],"default_left":[0,0,0,0,0,0,0,0,0,0,0,0,0,0,0,0,0,0,0,0,0,0,0,0,0],"id":8,"left_children":[1,3,5,7,9,11,-1,13,15,-1,-1,-1,17,-1,19,21,-1,-1,-1,-1,-1,-1,23,-1,-1],"loss_changes":[5.934725E0,4.2782173E0,3.488125E0,2.382984E0,1.798954E-1,2.7221498E0,0E0,1.5960324E0,2.0059025E0,0E0,0E0,0E0,9.638699E-1,0E0,3.5592294E-1,2.3204181E0,0E0,0E0,0E0,0E0,0E0,0E0,4.3364954E-1,0E0,0E0],"parents":[2147483647,0,0,1,1,2,2,3,3,4,4,5,5,7,7,8,8,12,12,14,14,15,15,22,22],"right_children":[2,4,6,8,10,12,-1,14,16,-1,-1,-1,18,-1,20,22,-1,-1,-1,-1,-1,-1,24,-1,-1],"split_conditions":[9.1083974E-1,9.3707174E-1,6.69623E-1,-3.8400975E-1,-9.9999964E-1,5.849531E-1,-1.9397385E-1,8.145875E-1,-1.7679761E-1,-5.909334E-2,-2.7791867E-1,2.7782524E-1,5.2183685E0,1.1980012E-1,-3.582671E-1,-9.1874E-1,-1.5636472E-1,1.1163778E-1,-1.6126129E-1,-2.2173643E-2,-2.4400873E-1,-1.4714597E-1,1E0,2.7606E-1,3.1986747E-2],"split_indices":[0,57,10,65,2,49,0,90,65,0,0,0,56,0,74,15,0,0,0,0,0,0,47,0,0],"split_type":[0,0,0,0,0,0,0,0,0,0,0,0,0,0,0,0,0,0,0,0,0,0,0,0,0],"sum_hessian":[3.5531727E1,2.3419237E1,1.2112491E1,1.3605185E1,9.814053E0,1.040006E1,1.7124312E0,5.7804556E0,7.8247285E0,1.0004749E0,8.813578E0,7.599806E0,2.8002536E0,1.0079377E0,4.772518E0,6.3798795E0,1.4448488E0,1.1708279E0,1.6294256E0,1.0017033E0,3.7708147E0,1.062352E0,5.317528E0,4.2418513E0,1.0756766E0],"tree_param":{"num_deleted":"0","num_feature":"95","num_nodes":"25","size_leaf_vector":"1"}},{"base_weights":[-1.18644595E-1,1.4884385E-1,-6.6081977E-1,5.5207163E-1,-4.407855E-1,-8.600624E-1,1.3759787E-1,8.1213635E-1,-2.2831614E-1,4.7620958E-1,-2.456125E-1,-7.7200815E-2,-2.7074063E-1,3.4224067E-3,2.801047E-1,8.569995E-2,-1.9194157E-1,1.019959E-2,1.9616355E-1],"categories":[],"categories_nodes":[],"categories_segments":[],"categories_sizes":[],"default_left":[0,0,0,0,0,0,0,0,0,0,0,0,0,0,0,0,0,0,0],"id":9,"left_children":[1,3,5,7,9,11,-1,13,15,17,-1,-1,-1,-1,-1,-1,-1,-1,-1],"loss_changes":[4.5764694E0,5.3534236E0,2.710833E0,2.8660188E0,3.6076207E0,1.9841194E-3,0E0,9.7487354E-1,1.0460987E0,2.4034655E-1,0E0,0E0,0E0,0E0,0E0,0E0,0E0,0E0,0E0],"parents":[2147483647,0,0,1,1,2,2,3,3,4,4,5,5,7,7,8,8,9,9],"right_children":[2,4,6,8,10,12,-1,14,16,18,-1,-1,-1,-1,-1,-1,-1,-1,-1],"split_conditions":[6.9374606E-2,-8.022469E-1,9.9047536E-1,3.6373335E-1,-6.6737145E-2,-9.569522E-1,1.3759787E-1,1.8E0,8.8526106E-1,3.1763998E-1,-2.456125E-1,-7.7200815E-2,-2.7074063E-1,3.4224067E-3,2.801047E-1,8.569995E-2,-1.9194157E-1,1.019959E-2,1.9616355E-1],"split_indices":[10,18,0,20,12,38,0,60,12,63,0,0,0,0,0,0,0,0,0],"split_type":[0,0,0,0,0,0,0,0,0,0,0,0,0,0,0,0,0,0,0],"sum_hessian":[2.9878069E1,2.0493052E1,9.385017E0,1.2208063E1,8.284988E0,8.163775E0,1.2212421E0,9.126101E0,3.081962E0,2.3420784E0,5.9429097E0,1.0012486E0,7.1625266E0,1.3468823E0,7.7792187E0,1.5062765E0,1.5756857E0,1.0127478E0,1.3293307E0],"tree_param":{"num_deleted":"0","num_feature":"95","num_nodes":"19","size_leaf_vector":"1"}},{"base_weights":[-1.0759445E-1,-3.6852896E-1,3.6377925E-1,-5.8979917E-1,2.7939865E-1,-1.6179366E-1,5.675853E-1,-7.4982744E-1,9.6784525E-2,-1.5917537E-1,6.2714845E-1,7.859239E-1,-8.446895E-2,3.584255E-2,-8.447366E-1,2.2718577E-1,4.0270023E-2,2.6478058E-1,3.3389423E-2,-2.7357355E-1,-5.5002633E-2],"categories":[],"categories_nodes":[],"categories_segments":[],"categories_sizes":[],"default_left":[0,0,0,0,0,0,0,0,0,0,0,0,0,0,0,0,0,0,0,0,0],"id":10,"left_children":[1,3,5,7,9,-1,11,13,-1,-1,15,17,-1,-1,19,-1,-1,-1,-1,-1,-1],"loss_changes":[3.347783E0,2.6472008E0,2.1122828E0,2.1734476E0,1.7654564E0,0E0,1.7960181E0,1.0543108E0,0E0,0E0,1.5601802E-1,3.5963106E-1,0E0,0E0,3.0118132E-1,0E0,0E0,0E0,0E0,0E0,0E0],"parents":[2147483647,0,0,1,1,2,2,3,3,4,4,6,6,7,7,10,10,11,11,14,14],"right_children":[2,4,6,8,10,-1,12,14,-1,-1,16,18,-1,-1,20,-1,-1,-1,-1,-1,-1],"split_conditions":[9.1083974E-1,7.577578E-1,-9.732729E-1,8.445811E-1,5.7753485E-1,-1.6179366E-1,6.354133E-1,-1.0901884E0,9.6784525E-2,-1.5917537E-1,-6.9791746E-1,-3.5499772E-1,-8.446895E-2,3.584255E-2,5.4E0,2.2718577E-1,4.0270023E-2,2.6478058E-1,3.3389423E-2,-2.7357355E-1,-5.5002633E-2],"split_indices":[0,91,15,16,62,0,49,58,0,0,39,29,0,0,60,0,0,0,0,0,0],"split_type":[0,0,0,0,0,0,0,0,0,0,0,0,0,0,0,0,0,0,0,0,0],"sum_hessian":[2.5128298E1,1.6315075E1,8.813223E0,1.222865E1,4.0864253E0,1.319618E0,7.493605E0,1.0555513E1,1.6731366E0,1.0695202E0,3.016905E0,6.020127E0,1.4734781E0,1.0135207E0,9.541992E0,1.9624463E0,1.0544586E0,4.9959006E0,1.0242267E0,8.318358E0,1.2236339E0],"tree_param":{"num_deleted":"0","num_feature":"95","num_nodes":"21","size_leaf_vector":"1"}},{"base_weights":[-9.50181E-2,1.3973416E-1,-6.0633916E-1,4.6466187E-1,-3.749274E-1,-2.5113457E-1,4.3542635E-2,7.196203E-1,-1.980802E-1,1.1592274E-1,-2.1923973E-1,2.5480992E-1,1.7275495E-2,6.911359E-2,-1.7200139E-1],"categories":[],"categories_nodes":[],"categories_segments":[],"categories_sizes":[],"default_left":[0,0,0,0,0,0,0,0,0,0,0,0,0,0,0],"id":11,"left_children":[1,3,5,7,9,-1,-1,11,13,-1,-1,-1,-1,-1,-1],"loss_changes":[2.7910917E0,2.894188E0,1.3843079E0,1.9027076E0,2.1378133E0,0E0,0E0,6.1581707E-1,7.2347796E-1,0E0,0E0,0E0,0E0,0E0,0E0],"parents":[2147483647,0,0,1,1,2,2,3,3,4,4,7,7,8,8],"right_children":[2,4,6,8,10,-1,-1,12,14,-1,-1,-1,-1,-1,-1],"split_conditions":[1.01872765E-1,-8.022469E-1,9.7040063E-1,2.7581695E-1,-6.6737145E-2,-2.5113457E-1,4.3542635E-2,8.1988186E-2,8.8526106E-1,1.1592274E-1,-2.1923973E-1,2.5480992E-1,1.7275495E-2,6.911359E-2,-1.7200139E-1],"split_indices":[10,18,0,20,12,0,0,51,12,0,0,0,0,0,0],"split_type":[0,0,0,0,0,0,0,0,0,0,0,0,0,0,0],"sum_hessian":[2.15467E1,1.52650795E1,6.281621E0,9.416925E0,5.848154E0,4.718607E0,1.5630137E0,6.7387066E0,2.6782186E0,1.8355173E0,4.0126367E0,5.3978667E0,1.3408397E0,1.43073E0,1.2474886E0],"tree_param":{"num_deleted":"0","num_feature":"95","num_nodes":"15","size_leaf_vector":"1"}},{"base_weights":[-8.870054E-2,1.5508033E-1,-5.038719E-1,-1.8070431E-1,5.758414E-1,-7.468562E-1,8.342197E-2,-3.5835055E-1,1.1458351E-1,2.289304E-1,-3.445767E-2,-5.897504E-2,-2.4540026E-1,5.9627317E-2,-2.1421461E-1,-1.4544703E-1,1.5914121E-1],"categories":[],"categories_nodes":[],"categories_segments":[],"categories_sizes":[],"default_left":[0,0,0,0,0,0,0,0,0,0,0,0,0,0,0,0,0],"id":12,"left_children":[1,3,5,7,9,11,-1,13,-1,-1,-1,-1,-1,15,-1,-1,-1],"loss_changes":[2.0656517E0,1.9601358E0,1.6327257E0,9.432367E-1,8.726964E-1,7.383108E-2,0E0,1.0308869E0,0E0,0E0,0E0,0E0,0E0,1.277237E0,0E0,0E0,0E0],"parents":[2147483647,0,0,1,1,2,2,3,3,4,4,5,5,7,7,13,13],"right_children":[2,4,6,8,10,12,-1,14,-1,-1,-1,-1,-1,16,-1,-1,-1],"split_conditions":[9.814899E-1,7.787474E-1,9.981489E-1,4.678405E-1,1.0428618E-2,-5.1947486E-1,8.342197E-2,-6.98802E-1,1.1458351E-1,2.289304E-1,-3.445767E-2,-5.897504E-2,-2.4540026E-1,-9.2898226E-1,-2.1421461E-1,-1.4544703E-1,1.5914121E-1],"split_indices":[57,0,34,37,10,10,0,24,0,0,0,0,0,17,0,0,0],"split_type":[0,0,0,0,0,0,0,0,0,0,0,0,0,0,0,0,0],"sum_hessian":[1.8637337E1,1.21371155E1,6.500221E0,7.0674944E0,5.069621E0,4.9934216E0,1.5067992E0,5.6475005E0,1.4199936E0,3.905858E0,1.163763E0,1.0025195E0,3.9909022E0,2.9791236E0,2.668377E0,1.3678012E0,1.6113224E0],"tree_param":{"num_deleted":"0","num_feature":"95","num_nodes":"17","size_leaf_vector":"1"}},{"base_weights":[-8.131248E-2,7.342763E-2,-2.1582893E-1,2.9753697E-1,-4.5713478E-1,4.4914132E-1,-1.5068382E-1,1.716236E-2,-2.1319984E-1,-6.053742E-2,5.702161E-1,-2.5546132E-2,6.7427087E-1,2.3909234E-1,5.0162837E-2],"categories":[],"categories_nodes":[],"categories_segments":[],"categories_sizes":[],"default_left":[0,0,0,0,0,0,0,0,0,0,0,0,0,0,0],"id":13,"left_children":[1,3,-1,5,7,9,-1,-1,-1,-1,11,-1,13,-1,-1],"loss_changes":[1.7630394E0,1.9013883E0,0E0,1.5647142E0,6.6701305E-1,8.8835764E-1,0E0,0E0,0E0,0E0,6.394212E-1,0E0,3.3195925E-1,0E0,0E0],"parents":[2147483647,0,0,1,1,3,3,4,4,5,5,10,10,12,12],"right_children":[2,4,-1,6,8,10,-1,-1,-1,-1,12,-1,14,-1,-1],"split_conditions":[6.69623E-1,2.7581695E-1,-2.1582893E-1,8.520274E-1,8.8526106E-1,-9.953597E-1,-1.5068382E-1,1.716236E-2,-2.1319984E-1,-6.053742E-2,-9.1874E-1,-2.5546132E-2,-8.022469E-1,2.3909234E-1,5.0162837E-2],"split_indices":[10,20,0,90,12,24,0,0,0,0,15,0,18,0,0],"split_type":[0,0,0,0,0,0,0,0,0,0,0,0,0,0,0],"sum_hessian":[1.631996E1,1.3847053E1,2.472907E0,1.0043772E1,3.8032804E0,8.811925E0,1.2318467E0,1.5114124E0,2.291868E0,1.2774298E0,7.5344954E0,1.0572493E0,6.477246E0,4.754867E0,1.7223788E0],"tree_param":{"num_deleted":"0","num_feature":"95","num_nodes":"15","size_leaf_vector":"1"}},{"base_weights":[-8.809564E-2,4.83887E-2,-2.0170419E-1,2.2760521E-1,-4.8285E-1,-2.3349898E-1,4.6344453E-1,-1.9240153E-1,-8.563581E-3,-1.9643967E-1,8.545755E-2,-7.431029E-2,6.700095E-1,1.9940285E-2,2.3318358E-1],"categories":[],"categories_nodes":[],"categories_segments":[],"categories_sizes":[],"default_left":[0,0,0,0,0,0,0,0,0,0,0,0,0,0,0],"id":14,"left_children":[1,3,-1,5,7,9,11,-1,-1,-1,-1,-1,13,-1,-1],"loss_changes":[1.2678308E0,1.3942976E0,0E0,1.2791059E0,2.4978924E-1,1.1274278E0,1.2616271E0,0E0,0E0,0E0,0E0,0E0,3.4000444E-1,0E0,0E0],"parents":[2147483647,0,0,1,1,3,3,4,4,5,5,6,6,12,12],"right_children":[2,4,-1,6,8,10,12,-1,-1,-1,-1,-1,14,-1,-1],"split_conditions":[6.69623E-1,-2.381798E-1,-2.0170419E-1,9.6222705E-1,9.999647E-1,9.8912585E-1,-4.323668E-1,-1.9240153E-1,-8.563581E-3,-1.9643967E-1,8.545755E-2,-7.431029E-2,3.257126E-3,1.9940285E-2,2.3318358E-1],"split_indices":[10,29,0,59,31,44,14,0,0,0,0,0,51,0,0],"split_type":[0,0,0,0,0,0,0,0,0,0,0,0,0,0,0],"sum_hessian":[1.4491325E1,1.2490625E1,2.0006995E0,9.767171E0,2.7234552E0,3.3084795E0,6.458691E0,1.713865E0,1.00959E0,1.6799034E0,1.628576E0,1.4089448E0,5.049746E0,1.0064814E0,4.043265E0],"tree_param":{"num_deleted":"0","num_feature":"95","num_nodes":"15","size_leaf_vector":"1"}},{"base_weights":[-9.447616E-2,-3.0798593E-1,2.6153418E-1,-5.028207E-1,1.3522467E-1,-9.038955E-2,4.586902E-1,-6.7562956E-1,2.3664495E-2,1.4010327E-1,-9.7963065E-2,2.0168841E-1,-4.479528E-2,-4.2951062E-2,-2.3089118E-1],"categories":[],"categories_nodes":[],"categories_segments":[],"categories_sizes":[],"default_left":[0,0,0,0,0,0,0,0,0,0,0,0,0,0,0],"id":15,"left_children":[1,3,5,7,9,-1,11,13,-1,-1,-1,-1,-1,-1,-1],"loss_changes":[1.1316955E0,8.541196E-1,7.7349293E-1,7.102827E-1,6.9914234E-1,0E0,7.0252264E-1,1.4726186E-1,0E0,0E0,0E0,0E0,0E0,0E0,0E0],"parents":[2147483647,0,0,1,1,2,2,3,3,4,4,6,6,7,7],"right_children":[2,4,6,8,10,-1,12,14,-1,-1,-1,-1,-1,-1,-1],"split_conditions":[9.1083974E-1,7.577578E-1,-9.3725365E-1,7.6576245E-1,-3.399621E-1,-9.038955E-2,6.592262E-1,-9.9995375E-1,2.3664495E-2,1.4010327E-1,-9.7963065E-2,2.0168841E-1,-4.479528E-2,-4.2951062E-2,-2.3089118E-1],"split_indices":[0,91,15,16,42,0,54,40,0,0,0,0,0,0,0],"split_type":[0,0,0,0,0,0,0,0,0,0,0,0,0,0,0],"sum_hessian":[1.2828749E1,8.10365E0,4.725099E0,5.5356784E0,2.567972E0,1.0887518E0,3.636347E0,4.143331E0,1.3923475E0,1.4876926E0,1.0802792E0,2.6127172E0,1.0236299E0,1.0003445E0,3.1429865E0],"tree_param":{"num_deleted":"0","num_feature":"95","num_nodes":"15","size_leaf_vector":"1"}},{"base_weights":[-8.671967E-2,9.000851E-2,-4.8212096E-1,3.6633337E-1,-3.2315853E-1,-2.0302725E-1,1.5604356E-2,5.844052E-1,-2.5567984E-2,-1.968158E-1,5.096491E-2,2.1270068E-1,2.7593886E-2],"categories":[],"categories_nodes":[],"categories_segments":[],"categories_sizes":[],"default_left":[0,0,0,0,0,0,0,0,0,0,0,0,0],"id":16,"left_children":[1,3,5,7,9,-1,-1,11,-1,-1,-1,-1,-1],"loss_changes":[9.2299527E-1,1.2077775E0,4.5578688E-1,6.59015E-1,8.2630944E-1,0E0,0E0,1.9855893E-1,0E0,0E0,0E0,0E0,0E0],"parents":[2147483647,0,0,1,1,2,2,3,3,4,4,7,7],"right_children":[2,4,6,8,10,-1,-1,12,-1,-1,-1,-1,-1],"split_conditions":[6.9374606E-2,-8.022469E-1,9.7040063E-1,1.7045236E-1,1.2827712E-1,-2.0302725E-1,1.5604356E-2,8.0310985E-2,-2.5567984E-2,-1.968158E-1,5.096491E-2,2.1270068E-1,2.7593886E-2],"split_indices":[10,18,0,20,18,0,0,51,0,0,0,0,0],"split_type":[0,0,0,0,0,0,0,0,0,0,0,0,0],"sum_hessian":[1.1587558E1,8.541997E0,3.045561E0,5.1865807E0,3.3554163E0,2.0364673E0,1.0090939E0,3.2991369E0,1.8874437E0,1.8056474E0,1.5497688E0,2.2819304E0,1.0172065E0],"tree_param":{"num_deleted":"0","num_feature":"95","num_nodes":"13","size_leaf_vector":"1"}},{"base_weights":[-7.919335E-2,1.7136703E-1,-3.443999E-1,5.5641294E-1,-2.5042373E-1,2.3970827E-2,-1.8433553E-1,1.9425152E-1,4.7664393E-2,-1.7663154E-1,5.4830402E-2,1.01257175E-1,-1.05874E-1],"categories":[],"categories_nodes":[],"categories_segments":[],"categories_sizes":[],"default_left":[0,0,0,0,0,0,0,0,0,0,0,0,0],"id":17,"left_children":[1,3,5,7,9,11,-1,-1,-1,-1,-1,-1,-1],"loss_changes":[8.2266784E-1,1.2074909E0,6.031592E-1,3.2868028E-2,6.687248E-1,5.2853185E-1,0E0,0E0,0E0,0E0,0E0,0E0,0E0],"parents":[2147483647,0,0,1,1,2,2,3,3,4,4,5,5],"right_children":[2,4,6,8,10,12,-1,-1,-1,-1,-1,-1,-1],"split_conditions":[-3.833865E-1,-8.022469E-1,5.846413E-1,1.7045236E-1,4.1143698E-1,8.013859E-1,-1.8433553E-1,1.9425152E-1,4.7664393E-2,-1.7663154E-1,5.4830402E-2,1.01257175E-1,-1.05874E-1],"split_indices":[10,18,54,20,64,30,0,0,0,0,0,0,0],"split_type":[0,0,0,0,0,0,0,0,0,0,0,0,0],"sum_hessian":[1.0492042E1,5.576933E0,4.915108E0,2.7486064E0,2.8283262E0,2.4645355E0,2.4505727E0,1.7246087E0,1.0239978E0,1.3863543E0,1.4419719E0,1.4023066E0,1.062229E0],"tree_param":{"num_deleted":"0","num_feature":"95","num_nodes":"13","size_leaf_vector":"1"}},{"base_weights":[-6.9303945E-2,1.23646684E-1,-3.6890313E-1,-9.3201615E-2,3.2986534E-1,3.0901095E-2,-1.6341019E-1,4.693642E-1,-2.2749081E-2,1.8208228E-1,4.5791596E-2],"categories":[],"categories_nodes":[],"categories_segments":[],"categories_sizes":[],"default_left":[0,0,0,0,0,0,0,0,0,0,0],"id":18,"left_children":[1,3,5,-1,7,-1,-1,9,-1,-1,-1],"loss_changes":[6.544796E-1,7.433624E-1,4.1922623E-1,0E0,3.3762622E-1,0E0,0E0,8.6464286E-2,0E0,0E0,0E0],"parents":[2147483647,0,0,1,1,2,2,4,4,7,7],"right_children":[2,4,6,-1,8,-1,-1,10,-1,-1,-1],"split_conditions":[-5.3776485E-1,-6.921733E-1,-9.999997E-1,-9.3201615E-2,9.8110145E-1,3.0901095E-2,-1.6341019E-1,-1.5470868E-1,-2.2749081E-2,1.8208228E-1,4.5791596E-2],"split_indices":[26,5,2,0,57,0,0,81,0,0,0],"split_type":[0,0,0,0,0,0,0,0,0,0,0],"sum_hessian":[9.532582E0,6.1555324E0,3.37705E0,1.8186793E0,4.336853E0,1.0289739E0,2.348076E0,3.1104014E0,1.2264516E0,1.5296603E0,1.580741E0],"tree_param":{"num_deleted":"0","num_feature":"95","num_nodes":"11","size_leaf_vector":"1"}},{"base_weights":[-5.3984202E-2,-2.7019745E-1,2.1549039E-1,-1.6134289E-1,-3.9037958E-2,-1.1051641E-1,1.7405878E-1,9.118468E-2,-9.3039416E-2,-9.556935E-2,5.954403E-2],"categories":[],"categories_nodes":[],"categories_segments":[],"categories_sizes":[],"default_left":[0,0,0,0,0,0,0,0,0,0,0],"id":19,"left_children":[1,3,5,-1,7,9,-1,-1,-1,-1,-1],"loss_changes":[6.376613E-1,3.4778893E-1,6.5664583E-1,0E0,4.919327E-1,2.8638968E-1,0E0,0E0,0E0,0E0,0E0],"parents":[2147483647,0,0,1,1,2,2,4,4,5,5],"right_children":[2,4,6,-1,8,10,-1,-1,-1,-1,-1],"split_conditions":[8.496463E-1,2E0,5.649319E-1,-1.6134289E-1,-1.345909E-1,-3.7252173E-1,1.7405878E-1,9.118468E-2,-9.3039416E-2,-9.556935E-2,5.954403E-2],"split_indices":[0,60,94,0,1,15,0,0,0,0,0],"split_type":[0,0,0,0,0,0,0,0,0,0,0],"sum_hessian":[8.945019E0,4.961484E0,3.9835346E0,1.6846263E0,3.2768576E0,2.4713707E0,1.5121639E0,1.3931061E0,1.8837516E0,1.4584371E0,1.0129337E0],"tree_param":{"num_deleted":"0","num_feature":"95","num_nodes":"11","size_leaf_vector":"1"}},{"base_weights":[-4.331748E-2,1.0895487E-1,-3.5890332E-1,3.052606E-1,-2.1935801E-1,-1.2079123E-2,-1.4760359E-1,-4.199331E-2,1.7351943E-1,3.8571816E-2,-1.3594885E-1],"categories":[],"categories_nodes":[],"categories_segments":[],"categories_sizes":[],"default_left":[0,0,0,0,0,0,0,0,0,0,0],"id":20,"left_children":[1,3,5,7,9,-1,-1,-1,-1,-1,-1],"loss_changes":[4.8717332E-1,5.2175236E-1,1.1877912E-1,6.6885495E-1,3.2039452E-1,0E0,0E0,0E0,0E0,0E0,0E0],"parents":[2147483647,0,0,1,1,2,2,3,3,4,4],"right_children":[2,4,6,8,10,-1,-1,-1,-1,-1,-1],"split_conditions":[-3.5740468E-1,-6.594241E-1,-9.0865946E-1,-3.882271E-1,5.238878E-1,-1.2079123E-2,-1.4760359E-1,-4.199331E-2,1.7351943E-1,3.8571816E-2,-1.3594885E-1],"split_indices":[29,24,18,14,35,0,0,0,0,0,0],"split_type":[0,0,0,0,0,0,0,0,0,0,0],"sum_hessian":[8.324088E0,6.056526E0,2.2675622E0,3.8341908E0,2.2223353E0,1.0519232E0,1.2156389E0,1.6431806E0,2.1910102E0,1.0740702E0,1.1482651E0],"tree_param":{"num_deleted":"0","num_feature":"95","num_nodes":"11","size_leaf_vector":"1"}},{"base_weights":[-4.6130344E-2,-2.2227703E-1,2.2449353E-1,-3.8257107E-1,3.1397715E-2,1.2385758E-1,-1.6843421E-2,-1.8248817E-1,-5.4528047E-3],"categories":[],"categories_nodes":[],"categories_segments":[],"categories_sizes":[],"default_left":[0,0,0,0,0,0,0,0,0],"id":21,"left_children":[1,3,5,7,-1,-1,-1,-1,-1],"loss_changes":[4.6904004E-1,3.4548578E-1,2.32735E-1,3.2829708E-1,0E0,0E0,0E0,0E0,0E0],"parents":[2147483647,0,0,1,1,2,2,3,3],"right_children":[2,4,6,8,-1,-1,-1,-1,-1],"split_conditions":[9.024801E-1,7.577578E-1,9.4479895E-1,4.658237E0,3.1397715E-2,1.2385758E-1,-1.6843421E-2,-1.8248817E-1,-5.4528047E-3],"split_indices":[0,91,12,59,0,0,0,0,0],"split_type":[0,0,0,0,0,0,0,0,0],"sum_hessian":[7.7926297E0,4.8284707E0,2.9641593E0,3.125764E0,1.7027067E0,1.4917511E0,1.4724082E0,1.5168394E0,1.6089246E0],"tree_param":{"num_deleted":"0","num_feature":"95","num_nodes":"9","size_leaf_vector":"1"}},{"base_weights":[-4.1529804E-2,1.3313173E-1,-3.1755733E-1,-7.464646E-2,3.006883E-1,-1.1047104E-2,-1.5226287E-1,4.5665824E-3,1.4098033E-1],"categories":[],"categories_nodes":[],"categories_segments":[],"categories_sizes":[],"default_left":[0,0,0,0,0,0,0,0,0],"id":22,"left_children":[1,3,5,-1,7,-1,-1,-1,-1],"loss_changes":[4.4861537E-1,4.5026982E-1,1.7127568E-1,0E0,2.1173498E-1,0E0,0E0,0E0,0E0],"parents":[2147483647,0,0,1,1,2,2,4,4],"right_children":[2,4,6,-1,8,-1,-1,-1,-1],"split_conditions":[-5.528008E-1,-6.921733E-1,-9.999994E-1,-7.464646E-2,7.596834E-2,-1.1047104E-2,-1.5226287E-1,4.5665824E-3,1.4098033E-1],"split_indices":[26,5,3,0,9,0,0,0,0],"split_type":[0,0,0,0,0,0,0,0,0],"sum_hessian":[7.428266E0,4.866552E0,2.5617142E0,1.3360229E0,3.5305288E0,1.5157611E0,1.045953E0,1.7197602E0,1.8107686E0],"tree_param":{"num_deleted":"0","num_feature":"95","num_nodes":"9","size_leaf_vector":"1"}},{"base_weights":[-4.1945174E-2,1.0281672E-1,-1.6141757E-1,-3.1019875E-1,8.341637E-2,9.493872E-3,-4.5648915E-1,-2.1054262E-2,-1.6947177E-1],"categories":[],"categories_nodes":[],"categories_segments":[],"categories_sizes":[],"default_left":[0,0,0,0,0,0,0,0,0],"id":23,"left_children":[1,-1,3,5,-1,-1,7,-1,-1],"loss_changes":[4.2735475E-1,0E0,5.3457284E-1,2.9425013E-1,0E0,0E0,1.2717706E-1,0E0,0E0],"parents":[2147483647,0,0,2,2,3,3,6,6],"right_children":[2,-1,4,6,-1,-1,8,-1,-1],"split_conditions":[3.1419852E-1,1.0281672E-1,7.6576245E-1,-9.220861E-1,8.341637E-2,9.493872E-3,-9.894911E-1,-2.1054262E-2,-1.6947177E-1],"split_indices":[66,0,16,13,0,0,8,0,0],"split_type":[0,0,0,0,0,0,0,0,0],"sum_hessian":[7.0952206E0,1.2386104E0,5.85661E0,4.595113E0,1.2614971E0,1.6119813E0,2.9831316E0,1.0147436E0,1.968388E0],"tree_param":{"num_deleted":"0","num_feature":"95","num_nodes":"9","size_leaf_vector":"1"}},{"base_weights":[-3.2114506E-2,-1.2456309E-1,8.858055E-2,2.8950632E-1,-7.799942E-2,4.6221793E-1,-3.537934E-2,1.6976798E-1,4.6104565E-2],"categories":[],"categories_nodes":[],"categories_segments":[],"categories_sizes":[],"default_left":[0,0,0,0,0,0,0,0,0],"id":24,"left_children":[1,-1,3,5,-1,7,-1,-1,-1],"loss_changes":[3.9539462E-1,0E0,5.460663E-1,3.878647E-1,0E0,2.5955796E-2,0E0,0E0,0E0],"parents":[2147483647,0,0,2,2,3,3,5,5],"right_children":[2,-1,4,6,-1,8,-1,-1,-1],"split_conditions":[-9.3725365E-1,-1.2456309E-1,-8.022469E-1,4.2545596E-1,-7.799942E-2,-4.0352407E-1,-3.537934E-2,1.6976798E-1,4.6104565E-2],"split_indices":[15,0,18,43,0,10,0,0,0],"split_type":[0,0,0,0,0,0,0,0,0],"sum_hessian":[6.7558913E0,1.033936E0,5.7219553E0,3.7372286E0,1.9847268E0,2.530223E0,1.2070057E0,1.2695131E0,1.2607096E0],"tree_param":{"num_deleted":"0","num_feature":"95","num_nodes":"9","size_leaf_vector":"1"}},{"base_weights":[-2.557846E-2,1.680336E-1,-2.2401156E-1,1.2962787E-1,-4.4678323E-2,2.4214096E-2,-1.4047296E-1],"categories":[],"categories_nodes":[],"categories_segments":[],"categories_sizes":[],"default_left":[0,0,0,0,0,0,0],"id":25,"left_children":[1,3,5,-1,-1,-1,-1],"loss_changes":[3.2242954E-1,4.2619684E-1,3.42139E-1,0E0,0E0,0E0,0E0],"parents":[2147483647,0,0,1,1,2,2],"right_children":[2,4,6,-1,-1,-1,-1],"split_conditions":[-4.0352407E-1,-8.022469E-1,5.846413E-1,1.2962787E-1,-4.4678323E-2,2.4214096E-2,-1.4047296E-1],"split_indices":[10,18,54,0,0,0,0],"split_type":[0,0,0,0,0,0,0],"sum_hessian":[6.41268E0,3.3233097E0,3.0893705E0,1.614795E0,1.7085146E0,1.6723355E0,1.4170351E0],"tree_param":{"num_deleted":"0","num_feature":"95","num_nodes":"7","size_leaf_vector":"1"}},{"base_weights":[-2.3321647E-2,1.2253167E-1,-9.466748E-2,-5.7912584E-2,2.91042E-1,-2.359748E-2,1.3271883E-1],"categories":[],"categories_nodes":[],"categories_segments":[],"categories_sizes":[],"default_left":[0,0,0,0,0,0,0],"id":26,"left_children":[1,3,-1,-1,5,-1,-1],"loss_changes":[3.4296325E-1,3.477351E-1,0E0,0E0,2.5710383E-1,0E0,0E0],"parents":[2147483647,0,0,1,1,4,4],"right_children":[2,4,-1,-1,6,-1,-1],"split_conditions":[-3.5740468E-1,9.6222705E-1,-9.466748E-2,-5.7912584E-2,-1.9824392E-1,-2.359748E-2,1.3271883E-1],"split_indices":[29,59,0,0,14,0,0],"split_type":[0,0,0,0,0,0,0],"sum_hessian":[6.1391616E0,4.482625E0,1.6565368E0,1.5097321E0,2.9728928E0,1.0030723E0,1.9698204E0],"tree_param":{"num_deleted":"0","num_feature":"95","num_nodes":"7","size_leaf_vector":"1"}},{"base_weights":[-2.2468964E-2,-1.844455E-1,2.0636725E-1,-3.603743E-1,4.7593016E-2,1.1653096E-1,-2.8605063E-2,-1.8047003E-2,-1.4781332E-1],"categories":[],"categories_nodes":[],"categories_segments":[],"categories_sizes":[],"default_left":[0,0,0,0,0,0,0,0,0],"id":27,"left_children":[1,3,5,7,-1,-1,-1,-1,-1],"loss_changes":[2.936514E-1,3.3274767E-1,2.1995789E-1,1.0240978E-1,0E0,0E0,0E0,0E0,0E0],"parents":[2147483647,0,0,1,1,2,2,3,3],"right_children":[2,4,6,8,-1,-1,-1,-1,-1],"split_conditions":[9.7978675E-1,7.2440195E-1,7.5881517E-1,-7.9336673E-1,4.7593016E-2,1.1653096E-1,-2.8605063E-2,-1.8047003E-2,-1.4781332E-1],"split_indices":[44,16,36,36,0,0,0,0,0],"split_type":[0,0,0,0,0,0,0,0,0],"sum_hessian":[5.8954625E0,3.5656106E0,2.329852E0,2.3236895E0,1.2419212E0,1.2737802E0,1.0560719E0,1.1559306E0,1.1677588E0],"tree_param":{"num_deleted":"0","num_feature":"95","num_nodes":"9","size_leaf_vector":"1"}},{"base_weights":[-2.1677898E-2,6.849235E-2,-1.476495E-1,1.1554355E-1,-1.1780333E-1,9.137201E-2,-4.2331573E-2],"categories":[],"categories_nodes":[],"categories_segments":[],"categories_sizes":[],"default_left":[0,0,0,0,0,0,0],"id":28,"left_children":[1,-1,3,5,-1,-1,-1],"loss_changes":[2.4318829E-1,0E0,3.6978E-1,1.9812307E-1,0E0,0E0,0E0],"parents":[2147483647,0,0,2,2,3,3],"right_children":[2,-1,4,6,-1,-1,-1],"split_conditions":[-9.999998E-1,6.849235E-2,8.900469E-1,-7.520229E-1,-1.1780333E-1,9.137201E-2,-4.2331573E-2],"split_indices":[2,0,12,38,0,0,0],"split_type":[0,0,0,0,0,0,0],"sum_hessian":[5.6519985E0,1.621607E0,4.0303917E0,2.1979492E0,1.8324425E0,1.1581808E0,1.0397682E0],"tree_param":{"num_deleted":"0","num_feature":"95","num_nodes":"7","size_leaf_vector":"1"}},{"base_weights":[-1.6358953E-2,-1.6368131E-1,2.0185202E-1,-3.3187076E-1,3.5950713E-2,9.842686E-2,-6.9265985E-3,-1.3304467E-1,-1.6013598E-2],"categories":[],"categories_nodes":[],"categories_segments":[],"categories_sizes":[],"default_left":[0,0,0,0,0,0,0,0,0],"id":29,"left_children":[1,3,5,7,-1,-1,-1,-1,-1],"loss_changes":[2.400175E-1,2.4937841E-1,9.3975216E-2,7.033187E-2,0E0,0E0,0E0,0E0,0E0],"parents":[2147483647,0,0,1,1,2,2,3,3],"right_children":[2,4,6,8,-1,-1,-1,-1,-1],"split_conditions":[9.024801E-1,7.577578E-1,9.4479895E-1,-2.827408E-2,3.5950713E-2,9.842686E-2,-6.9265985E-3,-1.3304467E-1,-1.6013598E-2],"split_indices":[0,91,12,42,0,0,0,0,0],"split_type":[0,0,0,0,0,0,0,0,0],"sum_hessian":[5.438418E0,3.395729E0,2.042689E0,2.0243084E0,1.3714205E0,1.0146843E0,1.0280048E0,1.0222E0,1.0021086E0],"tree_param":{"num_deleted":"0","num_feature":"95","num_nodes":"9","size_leaf_vector":"1"}},{"base_weights":[-1.5920823E-2,-9.0703234E-2,9.7287074E-2,-1.2780347E-1,1.2812813E-1,-9.534954E-2,5.2798443E-2],"categories":[],"categories_nodes":[],"categories_segments":[],"categories_sizes":[],"default_left":[0,0,0,0,0,0,0],"id":30,"left_children":[1,-1,3,5,-1,-1,-1],"loss_changes":[2.3254357E-1,0E0,4.4406205E-1,2.8038898E-1,0E0,0E0,0E0],"parents":[2147483647,0,0,2,2,3,3],"right_children":[2,-1,4,6,-1,-1,-1],"split_conditions":[7.995333E-2,-9.0703234E-2,5.649319E-1,9.7978675E-1,1.2812813E-1,-9.534954E-2,5.2798443E-2],"split_indices":[34,0,94,44,0,0,0],"split_type":[0,0,0,0,0,0,0],"sum_hessian":[5.26452E0,1.0180613E0,4.2464585E0,2.8879466E0,1.358512E0,1.7482244E0,1.1397222E0],"tree_param":{"num_deleted":"0","num_feature":"95","num_nodes":"7","size_leaf_vector":"1"}},{"base_weights":[-1.2236989E-2,1.3298328E-1,-7.48429E-2,1.1657447E-1,-8.926135E-2,4.0298738E-2,-8.1494644E-2],"categories":[],"categories_nodes":[],"categories_segments":[],"categories_sizes":[],"default_left":[0,0,0,0,0,0,0],"id":31,"left_children":[1,3,-1,-1,5,-1,-1],"loss_changes":[2.4052334E-1,2.8380677E-1,0E0,0E0,1.6531543E-1,0E0,0E0],"parents":[2147483647,0,0,1,1,4,4],"right_children":[2,4,-1,-1,6,-1,-1],"split_conditions":[-8.022469E-1,-4.1546136E-1,-7.48429E-2,1.1657447E-1,5.824986E-1,4.0298738E-2,-8.1494644E-2],"split_indices":[18,10,0,0,54,0,0],"split_type":[0,0,0,0,0,0,0],"sum_hessian":[5.0184426E0,3.3855288E0,1.6329137E0,1.2265091E0,2.1590197E0,1.0883261E0,1.0706935E0],"tree_param":{"num_deleted":"0","num_feature":"95","num_nodes":"7","size_leaf_vector":"1"}},{"base_weights":[-8.462287E-3,1.2620243E-1,-6.9319814E-2,8.385464E-2,-3.3161312E-2],"categories":[],"categories_nodes":[],"categories_segments":[],"categories_sizes":[],"default_left":[0,0,0,0,0],"id":32,"left_children":[1,3,-1,-1,-1],"loss_changes":[2.0425639E-1,1.8646336E-1,0E0,0E0,0E0],"parents":[2147483647,0,0,1,1],"right_children":[2,4,-1,-1,-1],"split_conditions":[-5.528008E-1,-6.817737E-1,-6.9319814E-2,8.385464E-2,-3.3161312E-2],"split_indices":[26,24,0,0,0],"split_type":[0,0,0,0,0],"sum_hessian":[4.8410125E0,3.286125E0,1.5548874E0,1.8848262E0,1.4012988E0],"tree_param":{"num_deleted":"0","num_feature":"95","num_nodes":"5","size_leaf_vector":"1"}},{"base_weights":[-9.147892E-3,1.4410545E-1,-1.8517849E-1,-2.4565814E-2,9.5912896E-2,3.1002851E-2,-1.11981675E-1],"categories":[],"categories_nodes":[],"categories_segments":[],"categories_sizes":[],"default_left":[0,0,0,0,0,0,0],"id":33,"left_children":[1,3,5,-1,-1,-1,-1],"loss_changes":[1.8150817E-1,1.7025094E-1,2.072785E-1,0E0,0E0,0E0,0E0],"parents":[2147483647,0,0,1,1,2,2],"right_children":[2,4,6,-1,-1,-1,-1],"split_conditions":[-9.0865946E-1,2.812813E-1,7.191417E-1,-2.4565814E-2,9.5912896E-2,3.1002851E-2,-1.11981675E-1],"split_indices":[18,91,73,0,0,0,0],"split_type":[0,0,0,0,0,0,0],"sum_hessian":[4.739013E0,2.6303637E0,2.1086497E0,1.3835334E0,1.2468303E0,1.0099864E0,1.0986632E0],"tree_param":{"num_deleted":"0","num_feature":"95","num_nodes":"7","size_leaf_vector":"1"}},{"base_weights":[-8.625452E-3,1.0364964E-1,-7.042797E-2,-4.9997177E-2,2.472208E-1,-4.444644E-3,1.108286E-1],"categories":[],"categories_nodes":[],"categories_segments":[],"categories_sizes":[],"default_left":[0,0,0,0,0,0,0],"id":34,"left_children":[1,3,-1,-1,5,-1,-1],"loss_changes":[1.664116E-1,2.132432E-1,0E0,0E0,1.1108421E-1,0E0,0E0],"parents":[2147483647,0,0,1,1,4,4],"right_children":[2,4,-1,-1,6,-1,-1],"split_conditions":[-3.5740468E-1,9.6222705E-1,-7.042797E-2,-4.9997177E-2,6.851552E-2,-4.444644E-3,1.108286E-1],"split_indices":[29,59,0,0,14,0,0],"split_type":[0,0,0,0,0,0,0],"sum_hessian":[4.59602E0,3.433128E0,1.1628922E0,1.1351463E0,2.2979817E0,1.0103573E0,1.2876246E0],"tree_param":{"num_deleted":"0","num_feature":"95","num_nodes":"7","size_leaf_vector":"1"}},{"base_weights":[-8.244936E-3,1.01834506E-1,-7.285579E-2,2.4811897E-1,-4.2799685E-2,1.0579667E-1,3.995881E-3],"categories":[],"categories_nodes":[],"categories_segments":[],"categories_sizes":[],"default_left":[0,0,0,0,0,0,0],"id":35,"left_children":[1,3,-1,5,-1,-1,-1],"loss_changes":[1.659069E-1,1.9367602E-1,0E0,7.222308E-2,0E0,0E0,0E0],"parents":[2147483647,0,0,1,1,3,3],"right_children":[2,4,-1,6,-1,-1,-1],"split_conditions":[6.9374606E-2,-8.022469E-1,-7.285579E-2,-4.143398E-3,-4.2799685E-2,1.0579667E-1,3.995881E-3],"split_indices":[10,18,0,20,0,0,0],"split_type":[0,0,0,0,0,0,0],"sum_hessian":[4.466543E0,3.4253051E0,1.041238E0,2.133832E0,1.2914732E0,1.1291649E0,1.0046672E0],"tree_param":{"num_deleted":"0","num_feature":"95","num_nodes":"7","size_leaf_vector":"1"}},{"base_weights":[-6.613379E-3,1.3983506E-1,-5.1525395E-2,1.0241754E-1,-3.0462889E-2],"categories":[],"categories_nodes":[],"categories_segments":[],"categories_sizes":[],"default_left":[0,0,0,0,0],"id":36,"left_children":[1,3,-1,-1,-1],"loss_changes":[1.5343168E-1,1.9946325E-1,0E0,0E0,0E0],"parents":[2147483647,0,0,1,1],"right_children":[2,4,-1,-1,-1],"split_conditions":[9.139389E-1,-1.5149845E-1,-5.1525395E-2,1.0241754E-1,-3.0462889E-2],"split_indices":[12,81,0,0,0],"split_type":[0,0,0,0,0],"sum_hessian":[4.351215E0,2.3873105E0,1.9639041E0,1.0751709E0,1.3121397E0],"tree_param":{"num_deleted":"0","num_feature":"95","num_nodes":"5","size_leaf_vector":"1"}},{"base_weights":[-3.7577434E-4,1.1836398E-1,-5.7390656E-2,7.560168E-2,-3.6556024E-2],"categories":[],"categories_nodes":[],"categories_segments":[],"categories_sizes":[],"default_left":[0,0,0,0,0],"id":37,"left_children":[1,3,-1,-1,-1],"loss_changes":[1.418479E-1,1.5461573E-1,0E0,0E0,0E0],"parents":[2147483647,0,0,1,1],"right_children":[2,4,-1,-1,-1],"split_conditions":[9.814899E-1,-6.151153E-1,-5.7390656E-2,7.560168E-2,-3.6556024E-2],"split_indices":[57,26,0,0,0],"split_type":[0,0,0,0,0],"sum_hessian":[4.258126E0,2.859696E0,1.3984298E0,1.8059226E0,1.0537734E0],"tree_param":{"num_deleted":"0","num_feature":"95","num_nodes":"5","size_leaf_vector":"1"}},{"base_weights":[-3.6673148E-3,-1.4354362E-1,5.792848E-2,-8.533874E-2,3.1168897E-2],"categories":[],"categories_nodes":[],"categories_segments":[],"categories_sizes":[],"default_left":[0,0,0,0,0],"id":38,"left_children":[1,3,-1,-1,-1],"loss_changes":[1.7031315E-1,1.551488E-1,0E0,0E0,0E0],"parents":[2147483647,0,0,1,1],"right_children":[2,4,-1,-1,-1],"split_conditions":[9.024801E-1,7.577578E-1,5.792848E-2,-8.533874E-2,3.1168897E-2],"split_indices":[0,91,0,0,0],"split_type":[0,0,0,0,0],"sum_hessian":[4.1810794E0,2.6018922E0,1.5791874E0,1.5624456E0,1.0394465E0],"tree_param":{"num_deleted":"0","num_feature":"95","num_nodes":"5","size_leaf_vector":"1"}},{"base_weights":[-2.2182856E-3,1.3544874E-1,-4.9281847E-2,-1.9056939E-2,8.44976E-2],"categories":[],"categories_nodes":[],"categories_segments":[],"categories_sizes":[],"default_left":[0,0,0,0,0],"id":39,"left_children":[1,3,-1,-1,-1],"loss_changes":[1.3596846E-1,1.1401345E-1,0E0,0E0,0E0],"parents":[2147483647,0,0,1,1],"right_children":[2,4,-1,-1,-1],"split_conditions":[-9.0865946E-1,2.812813E-1,-4.9281847E-2,-1.9056939E-2,8.44976E-2],"split_indices":[18,91,0,0,0],"split_type":[0,0,0,0,0],"sum_hessian":[4.097272E0,2.304096E0,1.7931758E0,1.2155E0,1.088596E0],"tree_param":{"num_deleted":"0","num_feature":"95","num_nodes":"5","size_leaf_vector":"1"}},{"base_weights":[1.8649491E-3,1.2582742E-1,-4.9181346E-2,-6.0993284E-2,1.0574996E-1],"categories":[],"categories_nodes":[],"categories_segments":[],"categories_sizes":[],"default_left":[0,0,0,0,0],"id":40,"left_children":[1,3,-1,-1,-1],"loss_changes":[1.2407892E-1,3.287464E-1,0E0,0E0,0E0],"parents":[2147483647,0,0,1,1],"right_children":[2,4,-1,-1,-1],"split_conditions":[-6.817737E-1,5.2916664E-1,-4.9181346E-2,-6.0993284E-2,1.0574996E-1],"split_indices":[24,94,0,0,0],"split_type":[0,0,0,0,0],"sum_hessian":[4.0333014E0,2.4458E0,1.5875014E0,1.0394849E0,1.4063152E0],"tree_param":{"num_deleted":"0","num_feature":"95","num_nodes":"5","size_leaf_vector":"1"}},{"base_weights":[9.963353E-4,-1.08249225E-1,5.897386E-2,-7.733281E-2,3.5211187E-2],"categories":[],"categories_nodes":[],"categories_segments":[],"categories_sizes":[],"default_left":[0,0,0,0,0],"id":41,"left_children":[1,3,-1,-1,-1],"loss_changes":[1.2631072E-1,1.5841448E-1,0E0,0E0,0E0],"parents":[2147483647,0,0,1,1],"right_children":[2,4,-1,-1,-1],"split_conditions":[9.4665873E-1,4.658237E0,5.897386E-2,-7.733281E-2,3.5211187E-2],"split_indices":[0,59,0,0,0],"split_type":[0,0,0,0,0],"sum_hessian":[3.9156692E0,2.7988603E0,1.116809E0,1.5975678E0,1.2012925E0],"tree_param":{"num_deleted":"0","num_feature":"95","num_nodes":"5","size_leaf_vector":"1"}},{"base_weights":[3.939318E-3,1.3561049E-1,-4.3066964E-2,9.523901E-2,-3.3061415E-2],"categories":[],"categories_nodes":[],"categories_segments":[],"categories_sizes":[],"default_left":[0,0,0,0,0],"id":42,"left_children":[1,3,-1,-1,-1],"loss_changes":[1.1348898E-1,1.7231368E-1,0E0,0E0,0E0],"parents":[2147483647,0,0,1,1],"right_children":[2,4,-1,-1,-1],"split_conditions":[-3.833865E-1,-8.022469E-1,-4.3066964E-2,9.523901E-2,-3.3061415E-2],"split_indices":[10,18,0,0,0],"split_type":[0,0,0,0,0],"sum_hessian":[3.841225E0,2.0720575E0,1.7691675E0,1.0234457E0,1.0486118E0],"tree_param":{"num_deleted":"0","num_feature":"95","num_nodes":"5","size_leaf_vector":"1"}},{"base_weights":[7.234702E-3,5.734218E-2,-1.0146607E-1,-7.9043895E-2,2.8843949E-2],"categories":[],"categories_nodes":[],"categories_segments":[],"categories_sizes":[],"default_left":[0,0,0,0,0],"id":43,"left_children":[1,-1,3,-1,-1],"loss_changes":[1.1465594E-1,0E0,1.4213522E-1,0E0,0E0],"parents":[2147483647,0,0,2,2],"right_children":[2,-1,4,-1,-1],"split_conditions":[-9.999998E-1,5.734218E-2,2.7185324E-1,-7.9043895E-2,2.8843949E-2],"split_indices":[2,0,45,0,0],"split_type":[0,0,0,0,0],"sum_hessian":[3.7652967E0,1.1170315E0,2.6482654E0,1.2720526E0,1.3762126E0],"tree_param":{"num_deleted":"0","num_feature":"95","num_nodes":"5","size_leaf_vector":"1"}},{"base_weights":[6.418717E-3,1.0641263E-1,-5.2671514E-2,7.8942314E-2,-1.6392063E-2],"categories":[],"categories_nodes":[],"categories_segments":[],"categories_sizes":[],"default_left":[0,0,0,0,0],"id":44,"left_children":[1,3,-1,-1,-1],"loss_changes":[1.0420506E-1,1.06653064E-1,0E0,0E0,0E0],"parents":[2147483647,0,0,1,1],"right_children":[2,4,-1,-1,-1],"split_conditions":[7.5885504E-2,-9.509209E-1,-5.2671514E-2,7.8942314E-2,-1.6392063E-2],"split_indices":[20,8,0,0,0],"split_type":[0,0,0,0,0],"sum_hessian":[3.6995447E0,2.6556778E0,1.0438669E0,1.0246552E0,1.6310226E0],"tree_param":{"num_deleted":"0","num_feature":"95","num_nodes":"5","size_leaf_vector":"1"}},{"base_weights":[6.862603E-3,1.2631096E-1,-4.071839E-2,-2.9511962E-2,8.572082E-2],"categories":[],"categories_nodes":[],"categories_segments":[],"categories_sizes":[],"default_left":[0,0,0,0,0],"id":45,"left_children":[1,3,-1,-1,-1],"loss_changes":[9.6257135E-2,1.3720085E-1,0E0,0E0,0E0],"parents":[2147483647,0,0,1,1],"right_children":[2,4,-1,-1,-1],"split_conditions":[9.139389E-1,6.506281E-1,-4.071839E-2,-2.9511962E-2,8.572082E-2],"split_indices":[12,23,0,0,0],"split_type":[0,0,0,0,0],"sum_hessian":[3.6449177E0,2.0455377E0,1.59938E0,1.0079476E0,1.0375903E0],"tree_param":{"num_deleted":"0","num_feature":"95","num_nodes":"5","size_leaf_vector":"1"}},{"base_weights":[8.57222E-3,1.097328E-1,-4.7286045E-2,7.84194E-2,-2.915914E-2],"categories":[],"categories_nodes":[],"categories_segments":[],"categories_sizes":[],"default_left":[0,0,0,0,0],"id":46,"left_children":[1,3,-1,-1,-1],"loss_changes":[9.43284E-2,1.3329922E-1,0E0,0E0,0E0],"parents":[2147483647,0,0,1,1],"right_children":[2,4,-1,-1,-1],"split_conditions":[-8.022469E-1,6.159922E-1,-4.7286045E-2,7.84194E-2,-2.915914E-2],"split_indices":[18,35,0,0,0],"split_type":[0,0,0,0,0],"sum_hessian":[3.5819514E0,2.4377983E0,1.1441531E0,1.2548563E0,1.1829418E0],"tree_param":{"num_deleted":"0","num_feature":"95","num_nodes":"5","size_leaf_vector":"1"}},{"base_weights":[6.7531555E-3,1.0962621E-1,-4.814843E-2,-1.4865388E-2,7.254939E-2],"categories":[],"categories_nodes":[],"categories_segments":[],"categories_sizes":[],"default_left":[0,0,0,0,0],"id":47,"left_children":[1,3,-1,-1,-1],"loss_changes":[9.538954E-2,8.340108E-2,0E0,0E0,0E0],"parents":[2147483647,0,0,1,1],"right_children":[2,4,-1,-1,-1],"split_conditions":[9.814899E-1,6.886135E-1,-4.814843E-2,-1.4865388E-2,7.254939E-2],"split_indices":[57,0,0,0,0],"split_type":[0,0,0,0,0],"sum_hessian":[3.5215778E0,2.393736E0,1.127842E0,1.3697381E0,1.0239977E0],"tree_param":{"num_deleted":"0","num_feature":"95","num_nodes":"5","size_leaf_vector":"1"}},{"base_weights":[7.0708E-3,3.887097E-2,-3.9330214E-2],"categories":[],"categories_nodes":[],"categories_segments":[],"categories_sizes":[],"default_left":[0,0,0],"id":48,"left_children":[1,-1,-1],"loss_changes":[9.269587E-2,0E0,0E0],"parents":[2147483647,0,0],"right_children":[2,-1,-1],"split_conditions":[-1.540539E-1,3.887097E-2,-3.9330214E-2],"split_indices":[43,0,0],"split_type":[0,0,0],"sum_hessian":[3.47298E0,1.8738918E0,1.5990882E0],"tree_param":{"num_deleted":"0","num_feature":"95","num_nodes":"3","size_leaf_vector":"1"}},{"base_weights":[4.8594777E-3,3.801343E-2,-4.1855536E-2],"categories":[],"categories_nodes":[],"categories_segments":[],"categories_sizes":[],"default_left":[0,0,0],"id":49,"left_children":[1,-1,-1],"loss_changes":[9.5958546E-2,0E0,0E0],"parents":[2147483647,0,0],"right_children":[2,-1,-1],"split_conditions":[-9.0865946E-1,3.801343E-2,-4.1855536E-2],"split_indices":[18,0,0],"split_type":[0,0,0],"sum_hessian":[3.4495625E0,1.9370748E0,1.5124878E0],"tree_param":{"num_deleted":"0","num_feature":"95","num_nodes":"3","size_leaf_vector":"1"}},{"base_weights":[2.5276402E-3,1.1690444E-1,-4.3115046E-2,-3.486894E-2,8.800589E-2],"categories":[],"categories_nodes":[],"categories_segments":[],"categories_sizes":[],"default_left":[0,0,0,0,0],"id":50,"left_children":[1,3,-1,-1,-1],"loss_changes":[9.081944E-2,1.5892509E-1,0E0,0E0,0E0],"parents":[2147483647,0,0,1,1],"right_children":[2,4,-1,-1,-1],"split_conditions":[-6.817737E-1,-9.333636E-1,-4.3115046E-2,-3.486894E-2,8.800589E-2],"split_indices":[24,17,0,0,0],"split_type":[0,0,0,0,0],"sum_hessian":[3.425087E0,2.0345232E0,1.3905638E0,1.0234984E0,1.0110247E0],"tree_param":{"num_deleted":"0","num_feature":"95","num_nodes":"5","size_leaf_vector":"1"}},{"base_weights":[4.4363774E-3,3.9246947E-2,-4.0195897E-2],"categories":[],"categories_nodes":[],"categories_segments":[],"categories_sizes":[],"default_left":[0,0,0],"id":51,"left_children":[1,-1,-1],"loss_changes":[9.3798116E-2,0E0,0E0],"parents":[2147483647,0,0],"right_children":[2,-1,-1],"split_conditions":[5.888093E-1,3.9246947E-2,-4.0195897E-2],"split_indices":[66,0,0],"split_type":[0,0,0],"sum_hessian":[3.3595586E0,1.7848257E0,1.574733E0],"tree_param":{"num_deleted":"0","num_feature":"95","num_nodes":"3","size_leaf_vector":"1"}},{"base_weights":[2.8872495E-3,3.6300335E-2,-3.700685E-2],"categories":[],"categories_nodes":[],"categories_segments":[],"categories_sizes":[],"default_left":[0,0,0],"id":52,"left_children":[1,-1,-1],"loss_changes":[7.959081E-2,0E0,0E0],"parents":[2147483647,0,0],"right_children":[2,-1,-1],"split_conditions":[-4.1546136E-1,3.6300335E-2,-3.700685E-2],"split_indices":[10,0,0],"split_type":[0,0,0],"sum_hessian":[3.3366742E0,1.7452947E0,1.5913795E0],"tree_param":{"num_deleted":"0","num_feature":"95","num_nodes":"3","size_leaf_vector":"1"}},{"base_weights":[1.8538801E-3,3.5570998E-2,-4.0981866E-2],"categories":[],"categories_nodes":[],"categories_segments":[],"categories_sizes":[],"default_left":[0,0,0],"id":53,"left_children":[1,-1,-1],"loss_changes":[8.5948974E-2,0E0,0E0],"parents":[2147483647,0,0],"right_children":[2,-1,-1],"split_conditions":[-9.0865946E-1,3.5570998E-2,-4.0981866E-2],"split_indices":[18,0,0],"split_type":[0,0,0],"sum_hessian":[3.3161702E0,1.8773198E0,1.4388503E0],"tree_param":{"num_deleted":"0","num_feature":"95","num_nodes":"3","size_leaf_vector":"1"}},{"base_weights":[1.7120521E-5,9.953599E-2,-4.346224E-2,6.851354E-2,-2.0775642E-2],"categories":[],"categories_nodes":[],"categories_segments":[],"categories_sizes":[],"default_left":[0,0,0,0,0],"id":54,"left_children":[1,3,-1,-1,-1],"loss_changes":[7.634064E-2,8.406812E-2,0E0,0E0,0E0],"parents":[2147483647,0,0,1,1],"right_children":[2,4,-1,-1,-1],"split_conditions":[5.846413E-1,-9.118846E-1,-4.346224E-2,6.851354E-2,-2.0775642E-2],"split_indices":[54,18,0,0,0],"split_type":[0,0,0,0,0],"sum_hessian":[3.2942421E0,2.1384635E0,1.1557786E0,1.0125198E0,1.1259438E0],"tree_param":{"num_deleted":"0","num_feature":"95","num_nodes":"5","size_leaf_vector":"1"}},{"base_weights":[1.1555285E-3,4.803389E-2,-9.8345414E-2,-7.594836E-2,2.6117358E-2],"categories":[],"categories_nodes":[],"categories_segments":[],"categories_sizes":[],"default_left":[0,0,0,0,0],"id":55,"left_children":[1,-1,3,-1,-1],"loss_changes":[8.30058E-2,0E0,1.1489144E-1,0E0,0E0],"parents":[2147483647,0,0,2,2],"right_children":[2,-1,4,-1,-1],"split_conditions":[7.191417E-1,4.803389E-2,6.293501E-2,-7.594836E-2,2.6117358E-2],"split_indices":[73,0,17,0,0],"split_type":[0,0,0,0,0],"sum_hessian":[3.2525077E0,1.0176322E0,2.2348754E0,1.0187416E0,1.2161338E0],"tree_param":{"num_deleted":"0","num_feature":"95","num_nodes":"5","size_leaf_vector":"1"}},{"base_weights":[1.4006055E-4,3.5476714E-2,-3.7638694E-2],"categories":[],"categories_nodes":[],"categories_segments":[],"categories_sizes":[],"default_left":[0,0,0],"id":56,"left_children":[1,-1,-1],"loss_changes":[7.7150814E-2,0E0,0E0],"parents":[2147483647,0,0],"right_children":[2,-1,-1],"split_conditions":[-4.1546136E-1,3.5476714E-2,-3.7638694E-2],"split_indices":[10,0,0],"split_type":[0,0,0],"sum_hessian":[3.2003129E0,1.6794555E0,1.5208575E0],"tree_param":{"num_deleted":"0","num_feature":"95","num_nodes":"3","size_leaf_vector":"1"}},{"base_weights":[-4.3527494E-4,9.220159E-2,-4.30198E-2,5.6575038E-2,-1.6060613E-2],"categories":[],"categories_nodes":[],"categories_segments":[],"categories_sizes":[],"default_left":[0,0,0,0,0],"id":57,"left_children":[1,3,-1,-1,-1],"loss_changes":[6.85857E-2,5.42766E-2,0E0,0E0,0E0],"parents":[2147483647,0,0,1,1],"right_children":[2,4,-1,-1,-1],"split_conditions":[9.814899E-1,-9.027357E-1,-4.30198E-2,5.6575038E-2,-1.6060613E-2],"split_indices":[57,18,0,0,0],"split_type":[0,0,0,0,0],"sum_hessian":[3.1803932E0,2.1453412E0,1.035052E0,1.1143663E0,1.030975E0],"tree_param":{"num_deleted":"0","num_feature":"95","num_nodes":"5","size_leaf_vector":"1"}},{"base_weights":[-8.4874657E-4,3.7473377E-2,-3.7195668E-2],"categories":[],"categories_nodes":[],"categories_segments":[],"categories_sizes":[],"default_left":[0,0,0],"id":58,"left_children":[1,-1,-1],"loss_changes":[7.971357E-2,0E0,0E0],"parents":[2147483647,0,0],"right_children":[2,-1,-1],"split_conditions":[-2.837976E-1,3.7473377E-2,-3.7195668E-2],"split_indices":[43,0,0],"split_type":[0,0,0],"sum_hessian":[3.1474679E0,1.5500188E0,1.5974491E0],"tree_param":{"num_deleted":"0","num_feature":"95","num_nodes":"3","size_leaf_vector":"1"}},{"base_weights":[-5.414755E-4,-3.0386776E-2,4.117129E-2],"categories":[],"categories_nodes":[],"categories_segments":[],"categories_sizes":[],"default_left":[0,0,0],"id":59,"left_children":[1,-1,-1],"loss_changes":[7.119458E-2,0E0,0E0],"parents":[2147483647,0,0],"right_children":[2,-1,-1],"split_conditions":[9.024801E-1,-3.0386776E-2,4.117129E-2],"split_indices":[0,0,0],"split_type":[0,0,0],"sum_hessian":[3.1275222E0,1.9595152E0,1.168007E0],"tree_param":{"num_deleted":"0","num_feature":"95","num_nodes":"3","size_leaf_vector":"1"}},{"base_weights":[2.2597075E-3,3.168356E-2,-3.5597328E-2],"categories":[],"categories_nodes":[],"categories_segments":[],"categories_sizes":[],"default_left":[0,0,0],"id":60,"left_children":[1,-1,-1],"loss_changes":[6.387308E-2,0E0,0E0],"parents":[2147483647,0,0],"right_children":[2,-1,-1],"split_conditions":[9.139389E-1,3.168356E-2,-3.5597328E-2],"split_indices":[12,0,0],"split_type":[0,0,0],"sum_hessian":[3.1082728E0,1.7441063E0,1.3641665E0],"tree_param":{"num_deleted":"0","num_feature":"95","num_nodes":"3","size_leaf_vector":"1"}},{"base_weights":[6.1466993E-4,9.226407E-2,-4.1914955E-2,6.782192E-2,-2.7157316E-2],"categories":[],"categories_nodes":[],"categories_segments":[],"categories_sizes":[],"default_left":[0,0,0,0,0],"id":61,"left_children":[1,3,-1,-1,-1],"loss_changes":[6.5509774E-2,9.572944E-2,0E0,0E0,0E0],"parents":[2147483647,0,0,1,1],"right_children":[2,4,-1,-1,-1],"split_conditions":[-8.37924E-1,6.159922E-1,-4.1914955E-2,6.782192E-2,-2.7157316E-2],"split_indices":[18,35,0,0,0],"split_type":[0,0,0,0,0],"sum_hessian":[3.091273E0,2.0771956E0,1.0140772E0,1.062557E0,1.0146388E0],"tree_param":{"num_deleted":"0","num_feature":"95","num_nodes":"5","size_leaf_vector":"1"}},{"base_weights":[2.7722563E-4,9.045398E-2,-4.0900644E-2,5.6950565E-2,-1.5517068E-2],"categories":[],"categories_nodes":[],"categories_segments":[],"categories_sizes":[],"default_left":[0,0,0,0,0],"id":62,"left_children":[1,3,-1,-1,-1],"loss_changes":[6.2200397E-2,5.2767362E-2,0E0,0E0,0E0],"parents":[2147483647,0,0,1,1],"right_children":[2,4,-1,-1,-1],"split_conditions":[-1.3436547E-2,6.7844385E-1,-4.0900644E-2,5.6950565E-2,-1.5517068E-2],"split_indices":[20,72,0,0,0],"split_type":[0,0,0,0,0],"sum_hessian":[3.047986E0,2.039567E0,1.0084189E0,1.0031637E0,1.0364033E0],"tree_param":{"num_deleted":"0","num_feature":"95","num_nodes":"5","size_leaf_vector":"1"}},{"base_weights":[3.9218704E-4,3.163973E-2,-3.3816494E-2],"categories":[],"categories_nodes":[],"categories_segments":[],"categories_sizes":[],"default_left":[0,0,0],"id":63,"left_children":[1,-1,-1],"loss_changes":[5.9655756E-2,0E0,0E0],"parents":[2147483647,0,0],"right_children":[2,-1,-1],"split_conditions":[9.061646E-1,3.163973E-2,-3.3816494E-2],"split_indices":[57,0,0],"split_type":[0,0,0],"sum_hessian":[3.019048E0,1.600203E0,1.4188448E0],"tree_param":{"num_deleted":"0","num_feature":"95","num_nodes":"3","size_leaf_vector":"1"}},{"base_weights":[-2.8122778E-4,3.0213704E-2,-3.5907704E-2],"categories":[],"categories_nodes":[],"categories_segments":[],"categories_sizes":[],"default_left":[0,0,0],"id":64,"left_children":[1,-1,-1],"loss_changes":[6.0330894E-2,0E0,0E0],"parents":[2147483647,0,0],"right_children":[2,-1,-1],"split_conditions":[-9.0865946E-1,3.0213704E-2,-3.5907704E-2],"split_indices":[18,0,0],"split_type":[0,0,0],"sum_hessian":[3.003099E0,1.7118609E0,1.2912382E0],"tree_param":{"num_deleted":"0","num_feature":"95","num_nodes":"3","size_leaf_vector":"1"}},{"base_weights":[-1.646114E-3,2.930549E-2,-3.5371237E-2],"categories":[],"categories_nodes":[],"categories_segments":[],"categories_sizes":[],"default_left":[0,0,0],"id":65,"left_children":[1,-1,-1],"loss_changes":[5.7565868E-2,0E0,0E0],"parents":[2147483647,0,0],"right_children":[2,-1,-1],"split_conditions":[-1.5478629E-2,2.930549E-2,-3.5371237E-2],"split_indices":[43,0,0],"split_type":[0,0,0],"sum_hessian":[2.9875543E0,1.6972108E0,1.2903435E0],"tree_param":{"num_deleted":"0","num_feature":"95","num_nodes":"3","size_leaf_vector":"1"}},{"base_weights":[-2.7044395E-3,2.9213121E-2,-3.2625414E-2],"categories":[],"categories_nodes":[],"categories_segments":[],"categories_sizes":[],"default_left":[0,0,0],"id":66,"left_children":[1,-1,-1],"loss_changes":[5.2752845E-2,0E0,0E0],"parents":[2147483647,0,0],"right_children":[2,-1,-1],"split_conditions":[-8.0514705E-1,2.9213121E-2,-3.2625414E-2],"split_indices":[26,0,0],"split_type":[0,0,0],"sum_hessian":[2.9726386E0,1.5713944E0,1.4012442E0],"tree_param":{"num_deleted":"0","num_feature":"95","num_nodes":"3","size_leaf_vector":"1"}},{"base_weights":[-2.7766742E-3,2.9168166E-2,-3.2080427E-2],"categories":[],"categories_nodes":[],"categories_segments":[],"categories_sizes":[],"default_left":[0,0,0],"id":67,"left_children":[1,-1,-1],"loss_changes":[5.1629018E-2,0E0,0E0],"parents":[2147483647,0,0],"right_children":[2,-1,-1],"split_conditions":[5.888093E-1,2.9168166E-2,-3.2080427E-2],"split_indices":[66,0,0],"split_type":[0,0,0],"sum_hessian":[2.9584491E0,1.543271E0,1.4151782E0],"tree_param":{"num_deleted":"0","num_feature":"95","num_nodes":"3","size_leaf_vector":"1"}},{"base_weights":[-2.7013493E-3,-2.8874693E-2,3.625535E-2],"categories":[],"categories_nodes":[],"categories_segments":[],"categories_sizes":[],"default_left":[0,0,0],"id":68,"left_children":[1,-1,-1],"loss_changes":[5.7235096E-2,0E0,0E0],"parents":[2147483647,0,0],"right_children":[2,-1,-1],"split_conditions":[-8.958416E-1,-2.8874693E-2,3.625535E-2],"split_indices":[4,0,0],"split_type":[0,0,0],"sum_hessian":[2.94559E0,1.8021111E0,1.143479E0],"tree_param":{"num_deleted":"0","num_feature":"95","num_nodes":"3","size_leaf_vector":"1"}},{"base_weights":[-1.4048914E-5,-2.6452499E-2,3.584236E-2],"categories":[],"categories_nodes":[],"categories_segments":[],"categories_sizes":[],"default_left":[0,0,0],"id":69,"left_children":[1,-1,-1],"loss_changes":[5.193959E-2,0E0,0E0],"parents":[2147483647,0,0],"right_children":[2,-1,-1],"split_conditions":[9.024801E-1,-2.6452499E-2,3.584236E-2],"split_indices":[0,0,0],"split_type":[0,0,0],"sum_hessian":[2.930514E0,1.8371173E0,1.0933967E0],"tree_param":{"num_deleted":"0","num_feature":"95","num_nodes":"3","size_leaf_vector":"1"}},{"base_weights":[2.3983016E-3,3.2361723E-2,-3.380423E-2],"categories":[],"categories_nodes":[],"categories_segments":[],"categories_sizes":[],"default_left":[0,0,0],"id":70,"left_children":[1,-1,-1],"loss_changes":[5.9690386E-2,0E0,0E0],"parents":[2147483647,0,0],"right_children":[2,-1,-1],"split_conditions":[9.061646E-1,3.2361723E-2,-3.380423E-2],"split_indices":[57,0,0],"split_type":[0,0,0],"sum_hessian":[2.9162788E0,1.5543159E0,1.3619629E0],"tree_param":{"num_deleted":"0","num_feature":"95","num_nodes":"3","size_leaf_vector":"1"}},{"base_weights":[1.3058799E-3,2.8299656E-2,-3.40716E-2],"categories":[],"categories_nodes":[],"categories_segments":[],"categories_sizes":[],"default_left":[0,0,0],"id":71,"left_children":[1,-1,-1],"loss_changes":[5.239554E-2,0E0,0E0],"parents":[2147483647,0,0],"right_children":[2,-1,-1],"split_conditions":[-6.817737E-1,2.8299656E-2,-3.40716E-2],"split_indices":[24,0,0],"split_type":[0,0,0],"sum_hessian":[2.9003801E0,1.7014338E0,1.1989462E0],"tree_param":{"num_deleted":"0","num_feature":"95","num_nodes":"3","size_leaf_vector":"1"}},{"base_weights":[-5.8478245E-4,2.9001176E-2,-3.4649312E-2],"categories":[],"categories_nodes":[],"categories_segments":[],"categories_sizes":[],"default_left":[0,0,0],"id":72,"left_children":[1,-1,-1],"loss_changes":[5.460433E-2,0E0,0E0],"parents":[2147483647,0,0],"right_children":[2,-1,-1],"split_conditions":[-9.0865946E-1,2.9001176E-2,-3.4649312E-2],"split_indices":[18,0,0],"split_type":[0,0,0],"sum_hessian":[2.8868554E0,1.6495365E0,1.237319E0],"tree_param":{"num_deleted":"0","num_feature":"95","num_nodes":"3","size_leaf_vector":"1"}},{"base_weights":[-1.8878796E-3,3.2742154E-2,-2.8250327E-2],"categories":[],"categories_nodes":[],"categories_segments":[],"categories_sizes":[],"default_left":[0,0,0],"id":73,"left_children":[1,-1,-1],"loss_changes":[4.9957108E-2,0E0,0E0],"parents":[2147483647,0,0],"right_children":[2,-1,-1],"split_conditions":[7.944273E-1,3.2742154E-2,-2.8250327E-2],"split_indices":[57,0,0],"split_type":[0,0,0],"sum_hessian":[2.8728096E0,1.2210121E0,1.6517974E0],"tree_param":{"num_deleted":"0","num_feature":"95","num_nodes":"3","size_leaf_vector":"1"}},{"base_weights":[-1.6135167E-4,-2.5767002E-2,3.471398E-2],"categories":[],"categories_nodes":[],"categories_segments":[],"categories_sizes":[],"default_left":[0,0,0],"id":74,"left_children":[1,-1,-1],"loss_changes":[4.8274245E-2,0E0,0E0],"parents":[2147483647,0,0],"right_children":[2,-1,-1],"split_conditions":[9.024801E-1,-2.5767002E-2,3.471398E-2],"split_indices":[0,0,0],"split_type":[0,0,0],"sum_hessian":[2.8591206E0,1.7920549E0,1.0670658E0],"tree_param":{"num_deleted":"0","num_feature":"95","num_nodes":"3","size_leaf_vector":"1"}},{"base_weights":[2.2224337E-3,-3.300608E-2,2.6779179E-2],"categories":[],"categories_nodes":[],"categories_segments":[],"categories_sizes":[],"default_left":[0,0,0],"id":75,"left_children":[1,-1,-1],"loss_changes":[4.73948E-2,0E0,0E0],"parents":[2147483647,0,0],"right_children":[2,-1,-1],"split_conditions":[2.6926926E-1,-3.300608E-2,2.6779179E-2],"split_indices":[91,0,0],"split_type":[0,0,0],"sum_hessian":[2.8459408E0,1.1277169E0,1.7182238E0],"tree_param":{"num_deleted":"0","num_feature":"95","num_nodes":"3","size_leaf_vector":"1"}},{"base_weights":[-7.9226855E-5,2.6260072E-2,-3.2659266E-2],"categories":[],"categories_nodes":[],"categories_segments":[],"categories_sizes":[],"default_left":[0,0,0],"id":76,"left_children":[1,-1,-1],"loss_changes":[4.607223E-2,0E0,0E0],"parents":[2147483647,0,0],"right_children":[2,-1,-1],"split_conditions":[-9.027357E-1,2.6260072E-2,-3.2659266E-2],"split_indices":[18,0,0],"split_type":[0,0,0],"sum_hessian":[2.834133E0,1.6780359E0,1.1560969E0],"tree_param":{"num_deleted":"0","num_feature":"95","num_nodes":"3","size_leaf_vector":"1"}},{"base_weights":[-1.7465268E-3,3.46974E-2,-2.5671294E-2],"categories":[],"categories_nodes":[],"categories_segments":[],"categories_sizes":[],"default_left":[0,0,0],"id":77,"left_children":[1,-1,-1],"loss_changes":[4.7513038E-2,0E0,0E0],"parents":[2147483647,0,0],"right_children":[2,-1,-1],"split_conditions":[-6.7629325E-1,3.46974E-2,-2.5671294E-2],"split_indices":[29,0,0],"split_type":[0,0,0],"sum_hessian":[2.8222394E0,1.0174437E0,1.8047957E0],"tree_param":{"num_deleted":"0","num_feature":"95","num_nodes":"3","size_leaf_vector":"1"}},{"base_weights":[1.1507733E-3,2.904345E-2,-3.0923475E-2],"categories":[],"categories_nodes":[],"categories_segments":[],"categories_sizes":[],"default_left":[0,0,0],"id":78,"left_children":[1,-1,-1],"loss_changes":[4.7969483E-2,0E0,0E0],"parents":[2147483647,0,0],"right_children":[2,-1,-1],"split_conditions":[9.061646E-1,2.904345E-2,-3.0923475E-2],"split_indices":[57,0,0],"split_type":[0,0,0],"sum_hessian":[2.8102257E0,1.5024512E0,1.3077744E0],"tree_param":{"num_deleted":"0","num_feature":"95","num_nodes":"3","size_leaf_vector":"1"}},{"base_weights":[3.040558E-4,2.6503598E-2,-3.2293834E-2],"categories":[],"categories_nodes":[],"categories_segments":[],"categories_sizes":[],"default_left":[0,0,0],"id":79,"left_children":[1,-1,-1],"loss_changes":[4.5600794E-2,0E0,0E0],"parents":[2147483647,0,0],"right_children":[2,-1,-1],"split_conditions":[-6.817737E-1,2.6503598E-2,-3.2293834E-2],"split_indices":[24,0,0],"split_type":[0,0,0],"sum_hessian":[2.797401E0,1.6408101E0,1.1565908E0],"tree_param":{"num_deleted":"0","num_feature":"95","num_nodes":"3","size_leaf_vector":"1"}},{"base_weights":[-1.3314532E-3,3.0805936E-2,-2.7142495E-2],"categories":[],"categories_nodes":[],"categories_segments":[],"categories_sizes":[],"default_left":[0,0,0],"id":80,"left_children":[1,-1,-1],"loss_changes":[4.4392277E-2,0E0,0E0],"parents":[2147483647,0,0],"right_children":[2,-1,-1],"split_conditions":[-8.5382146E-1,3.0805936E-2,-2.7142495E-2],"split_indices":[26,0,0],"split_type":[0,0,0],"sum_hessian":[2.7855632E0,1.2154186E0,1.5701447E0],"tree_param":{"num_deleted":"0","num_feature":"95","num_nodes":"3","size_leaf_vector":"1"}},{"base_weights":[3.5792196E-5,-2.374792E-2,3.201081E-2],"categories":[],"categories_nodes":[],"categories_segments":[],"categories_sizes":[],"default_left":[0,0,0],"id":81,"left_children":[1,-1,-1],"loss_changes":[4.032284E-2,0E0,0E0],"parents":[2147483647,0,0],"right_children":[2,-1,-1],"split_conditions":[9.024801E-1,-2.374792E-2,3.201081E-2],"split_indices":[0,0,0],"split_type":[0,0,0],"sum_hessian":[2.7734396E0,1.7396811E0,1.0337584E0],"tree_param":{"num_deleted":"0","num_feature":"95","num_nodes":"3","size_leaf_vector":"1"}},{"base_weights":[2.228306E-3,2.7914738E-2,-2.9586785E-2],"categories":[],"categories_nodes":[],"categories_segments":[],"categories_sizes":[],"default_left":[0,0,0],"id":82,"left_children":[1,-1,-1],"loss_changes":[4.363774E-2,0E0,0E0],"parents":[2147483647,0,0],"right_children":[2,-1,-1],"split_conditions":[-3.833865E-1,2.7914738E-2,-2.9586785E-2],"split_indices":[10,0,0],"split_type":[0,0,0],"sum_hessian":[2.762379E0,1.4941704E0,1.2682085E0],"tree_param":{"num_deleted":"0","num_feature":"95","num_nodes":"3","size_leaf_vector":"1"}},{"base_weights":[1.1115214E-3,2.7173793E-2,-3.1713843E-2],"categories":[],"categories_nodes":[],"categories_segments":[],"categories_sizes":[],"default_left":[0,0,0],"id":83,"left_children":[1,-1,-1],"loss_changes":[4.542407E-2,0E0,0E0],"parents":[2147483647,0,0],"right_children":[2,-1,-1],"split_conditions":[-9.0865946E-1,2.7173793E-2,-3.1713843E-2],"split_indices":[18,0,0],"split_type":[0,0,0],"sum_hessian":[2.750907E0,1.5798333E0,1.1710737E0],"tree_param":{"num_deleted":"0","num_feature":"95","num_nodes":"3","size_leaf_vector":"1"}},{"base_weights":[-4.465575E-4,3.0270927E-2,-2.5835726E-2],"categories":[],"categories_nodes":[],"categories_segments":[],"categories_sizes":[],"default_left":[0,0,0],"id":84,"left_children":[1,-1,-1],"loss_changes":[4.1157268E-2,0E0,0E0],"parents":[2147483647,0,0],"right_children":[2,-1,-1],"split_conditions":[7.944273E-1,3.0270927E-2,-2.5835726E-2],"split_indices":[57,0,0],"split_type":[0,0,0],"sum_hessian":[2.7392647E0,1.1733857E0,1.5658789E0],"tree_param":{"num_deleted":"0","num_feature":"95","num_nodes":"3","size_leaf_vector":"1"}},{"base_weights":[8.776962E-4,2.7621282E-2,-2.850196E-2],"categories":[],"categories_nodes":[],"categories_segments":[],"categories_sizes":[],"default_left":[0,0,0],"id":85,"left_children":[1,-1,-1],"loss_changes":[4.1344453E-2,0E0,0E0],"parents":[2147483647,0,0],"right_children":[2,-1,-1],"split_conditions":[5.888093E-1,2.7621282E-2,-2.850196E-2],"split_indices":[66,0,0],"split_type":[0,0,0],"sum_hessian":[2.7279437E0,1.4185569E0,1.3093866E0],"tree_param":{"num_deleted":"0","num_feature":"95","num_nodes":"3","size_leaf_vector":"1"}},{"base_weights":[3.72395E-4,-2.5634624E-2,3.2860536E-2],"categories":[],"categories_nodes":[],"categories_segments":[],"categories_sizes":[],"default_left":[0,0,0],"id":86,"left_children":[1,-1,-1],"loss_changes":[4.418791E-2,0E0,0E0],"parents":[2147483647,0,0],"right_children":[2,-1,-1],"split_conditions":[3.641067E-1,-2.5634624E-2,3.2860536E-2],"split_indices":[7,0,0],"split_type":[0,0,0],"sum_hessian":[2.7176054E0,1.6430856E0,1.0745198E0],"tree_param":{"num_deleted":"0","num_feature":"95","num_nodes":"3","size_leaf_vector":"1"}},{"base_weights":[2.2175524E-3,-2.7605562E-2,2.9267615E-2],"categories":[],"categories_nodes":[],"categories_segments":[],"categories_sizes":[],"default_left":[0,0,0],"id":87,"left_children":[1,-1,-1],"loss_changes":[4.2276286E-2,0E0,0E0],"parents":[2147483647,0,0],"right_children":[2,-1,-1],"split_conditions":[5.4439104E-1,-2.7605562E-2,2.9267615E-2],"split_indices":[94,0,0],"split_type":[0,0,0],"sum_hessian":[2.7062478E0,1.3785379E0,1.3277099E0],"tree_param":{"num_deleted":"0","num_feature":"95","num_nodes":"3","size_leaf_vector":"1"}},{"base_weights":[2.0053708E-3,-2.386923E-2,3.170034E-2],"categories":[],"categories_nodes":[],"categories_segments":[],"categories_sizes":[],"default_left":[0,0,0],"id":88,"left_children":[1,-1,-1],"loss_changes":[3.9646618E-2,0E0,0E0],"parents":[2147483647,0,0],"right_children":[2,-1,-1],"split_conditions":[-8.958416E-1,-2.386923E-2,3.170034E-2],"split_indices":[4,0,0],"split_type":[0,0,0],"sum_hessian":[2.6944666E0,1.6380185E0,1.0564481E0],"tree_param":{"num_deleted":"0","num_feature":"95","num_nodes":"3","size_leaf_vector":"1"}},{"base_weights":[3.540584E-3,2.8040616E-2,-2.7624983E-2],"categories":[],"categories_nodes":[],"categories_segments":[],"categories_sizes":[],"default_left":[0,0,0],"id":89,"left_children":[1,-1,-1],"loss_changes":[4.0286582E-2,0E0,0E0],"parents":[2147483647,0,0],"right_children":[2,-1,-1],"split_conditions":[5.888093E-1,2.8040616E-2,-2.7624983E-2],"split_indices":[66,0,0],"split_type":[0,0,0],"sum_hessian":[2.6839938E0,1.3948058E0,1.2891881E0],"tree_param":{"num_deleted":"0","num_feature":"95","num_nodes":"3","size_leaf_vector":"1"}},{"base_weights":[2.5952968E-3,2.5138127E-2,-3.0178046E-2],"categories":[],"categories_nodes":[],"categories_segments":[],"categories_sizes":[],"default_left":[0,0,0],"id":90,"left_children":[1,-1,-1],"loss_changes":[3.921212E-2,0E0,0E0],"parents":[2147483647,0,0],"right_children":[2,-1,-1],"split_conditions":[-9.027357E-1,2.5138127E-2,-3.0178046E-2],"split_indices":[18,0,0],"split_type":[0,0,0],"sum_hessian":[2.6739306E0,1.6016004E0,1.0723302E0],"tree_param":{"num_deleted":"0","num_feature":"95","num_nodes":"3","size_leaf_vector":"1"}},{"base_weights":[4.3459347E-4,2.6279332E-2,-2.8132087E-2],"categories":[],"categories_nodes":[],"categories_segments":[],"categories_sizes":[],"default_left":[0,0,0],"id":91,"left_children":[1,-1,-1],"loss_changes":[3.830018E-2,0E0,0E0],"parents":[2147483647,0,0],"right_children":[2,-1,-1],"split_conditions":[9.061646E-1,2.6279332E-2,-2.8132087E-2],"split_indices":[57,0,0],"split_type":[0,0,0],"sum_hessian":[2.6638699E0,1.4201185E0,1.2437514E0],"tree_param":{"num_deleted":"0","num_feature":"95","num_nodes":"3","size_leaf_vector":"1"}},{"base_weights":[-2.0948063E-4,2.448248E-2,-2.9434914E-2],"categories":[],"categories_nodes":[],"categories_segments":[],"categories_sizes":[],"default_left":[0,0,0],"id":92,"left_children":[1,-1,-1],"loss_changes":[3.727344E-2,0E0,0E0],"parents":[2147483647,0,0],"right_children":[2,-1,-1],"split_conditions":[-6.817737E-1,2.448248E-2,-2.9434914E-2],"split_indices":[24,0,0],"split_type":[0,0,0],"sum_hessian":[2.6534872E0,1.5362018E0,1.1172854E0],"tree_param":{"num_deleted":"0","num_feature":"95","num_nodes":"3","size_leaf_vector":"1"}},{"base_weights":[-1.5177805E-3,2.498384E-2,-2.792739E-2],"categories":[],"categories_nodes":[],"categories_segments":[],"categories_sizes":[],"default_left":[0,0,0],"id":93,"left_children":[1,-1,-1],"loss_changes":[3.6046594E-2,0E0,0E0],"parents":[2147483647,0,0],"right_children":[2,-1,-1],"split_conditions":[-8.0514705E-1,2.498384E-2,-2.792739E-2],"split_indices":[26,0,0],"split_type":[0,0,0],"sum_hessian":[2.6437018E0,1.4196634E0,1.2240384E0],"tree_param":{"num_deleted":"0","num_feature":"95","num_nodes":"3","size_leaf_vector":"1"}},{"base_weights":[-1.8845915E-3,2.5349917E-2,-2.8385513E-2],"categories":[],"categories_nodes":[],"categories_segments":[],"categories_sizes":[],"default_left":[0,0,0],"id":94,"left_children":[1,-1,-1],"loss_changes":[3.7104838E-2,0E0,0E0],"parents":[2147483647,0,0],"right_children":[2,-1,-1],"split_conditions":[-7.5791675E-1,2.5349917E-2,-2.8385513E-2],"split_indices":[13,0,0],"split_type":[0,0,0],"sum_hessian":[2.6338217E0,1.4095634E0,1.2242582E0],"tree_param":{"num_deleted":"0","num_feature":"95","num_nodes":"3","size_leaf_vector":"1"}},{"base_weights":[-2.1693083E-3,2.9989531E-2,-2.3775754E-2],"categories":[],"categories_nodes":[],"categories_segments":[],"categories_sizes":[],"default_left":[0,0,0],"id":95,"left_children":[1,-1,-1],"loss_changes":[3.645974E-2,0E0,0E0],"parents":[2147483647,0,0],"right_children":[2,-1,-1],"split_conditions":[5.6663305E-1,2.9989531E-2,-2.3775754E-2],"split_indices":[33,0,0],"split_type":[0,0,0],"sum_hessian":[2.6247692E0,1.0012615E0,1.6235076E0],"tree_param":{"num_deleted":"0","num_feature":"95","num_nodes":"3","size_leaf_vector":"1"}},{"base_weights":[1.9931498E-4,-2.864868E-2,2.6931303E-2],"categories":[],"categories_nodes":[],"categories_segments":[],"categories_sizes":[],"default_left":[0,0,0],"id":96,"left_children":[1,-1,-1],"loss_changes":[3.9563153E-2,0E0,0E0],"parents":[2147483647,0,0],"right_children":[2,-1,-1],"split_conditions":[2.2E0,-2.864868E-2,2.6931303E-2],"split_indices":[60,0,0],"split_type":[0,0,0],"sum_hessian":[2.6154954E0,1.2325505E0,1.3829451E0],"tree_param":{"num_deleted":"0","num_feature":"95","num_nodes":"3","size_leaf_vector":"1"}},{"base_weights":[-3.4425303E-4,2.5406716E-2,-2.838939E-2],"categories":[],"categories_nodes":[],"categories_segments":[],"categories_sizes":[],"default_left":[0,0,0],"id":97,"left_children":[1,-1,-1],"loss_changes":[3.691617E-2,0E0,0E0],"parents":[2147483647,0,0],"right_children":[2,-1,-1],"split_conditions":[-9.237648E-1,2.5406716E-2,-2.838939E-2],"split_indices":[18,0,0],"split_type":[0,0,0],"sum_hessian":[2.604839E0,1.4231546E0,1.1816845E0],"tree_param":{"num_deleted":"0","num_feature":"95","num_nodes":"3","size_leaf_vector":"1"}},{"base_weights":[-1.0802265E-3,-3.1182863E-2,2.4057059E-2],"categories":[],"categories_nodes":[],"categories_segments":[],"categories_sizes":[],"default_left":[0,0,0],"id":98,"left_children":[1,-1,-1],"loss_changes":[3.8391553E-2,0E0,0E0],"parents":[2147483647,0,0],"right_children":[2,-1,-1],"split_conditions":[2.6926926E-1,-3.1182863E-2,2.4057059E-2],"split_indices":[91,0,0],"split_type":[0,0,0],"sum_hessian":[2.5953906E0,1.0223911E0,1.5729995E0],"tree_param":{"num_deleted":"0","num_feature":"95","num_nodes":"3","size_leaf_vector":"1"}},{"base_weights":[-2.7606927E-3,-2.4221024E-2,2.9170545E-2],"categories":[],"categories_nodes":[],"categories_segments":[],"categories_sizes":[],"default_left":[0,0,0],"id":99,"left_children":[1,-1,-1],"loss_changes":[3.5809245E-2,0E0,0E0],"parents":[2147483647,0,0],"right_children":[2,-1,-1],"split_conditions":[3.641067E-1,-2.4221024E-2,2.9170545E-2],"split_indices":[7,0,0],"split_type":[0,0,0],"sum_hessian":[2.5857117E0,1.5610303E0,1.0246814E0],"tree_param":{"num_deleted":"0","num_feature":"95","num_nodes":"3","size_leaf_vector":"1"}}]},"name":"gbtree"},"learner_model_param":{"base_score":"[1.6666667E-1]","boost_from_average":"1","num_class":"0","num_feature":"95","num_target":"1"},"objective":{"name":"binary:logistic","reg_loss_param":{"scale_pos_weight":"1"}}},"version":[3,2,0]}