{"learner":{"attributes":{"scikit_learn":"{\"_estimator_type\": \"classifier\"}"},"feature_names":["ela_meta.lin_simple.adj_r2","ela_meta.lin_simple.intercept","ela_meta.lin_simple.coef.min","ela_meta.lin_simple.coef.max","ela_meta.lin_simple.coef.max_by_min","ela_meta.lin_w_interact.adj_r2","ela_meta.quad_simple.adj_r2","ela_meta.quad_simple.cond","ela_meta.quad_w_interact.adj_r2","ela_distr.skewness","ela_distr.kurtosis","ela_distr.number_of_peaks","nbc.nn_nb.sd_ratio","nbc.nn_nb.mean_ratio","nbc.nn_nb.cor","nbc.dist_ratio.coeff_var","nbc.nb_fitness.cor","disp.ratio_mean_02","disp.ratio_mean_05","disp.ratio_mean_10","disp.ratio_mean_25","disp.ratio_median_02","disp.ratio_median_05","disp.ratio_median_10","disp.ratio_median_25","disp.diff_mean_02","disp.diff_mean_05","disp.diff_mean_10","disp.diff_mean_25","disp.diff_median_02","disp.diff_median_05","disp.diff_median_10","disp.diff_median_25","pca.expl_var.cov_init","pca.expl_var.cor_init","pca.expl_var_PC1.cov_init","pca.expl_var_PC1.cor_init","ic.h_max","ic.eps_s","ic.eps_max","ic.eps_ratio","ic.m0"],"feature_types":["float","float","float","float","float","float","float","float","float","float","float","float","float","float","float","float","float","float","float","float","float","float","float","float","float","float","float","float","float","float","float","float","float","float","float","float","float","float","float","float","float","float"],"gradient_booster":{"model":{"cats":{"enc":[],"feature_segments":[],"sorted_idx":[]},"gbtree_model_param":{"num_parallel_tree":"1","num_trees":"100"},"iteration_indptr":[0,1,2,3,4,5,6,7,8,9,10,11,12,13,14,15,16,17,18,19,20,21,22,23,24,25,26,27,28,29,30,31,32,33,34,35,36,37,38,39,40,41,42,43,44,45,46,47,48,49,50,51,52,53,54,55,56,57,58,59,60,61,62,63,64,65,66,67,68,69,70,71,72,73,74,75,76,77,78,79,80,81,82,83,84,85,86,87,88,89,90,91,92,93,94,95,96,97,98,99,100],"tree_info":[0,0,0,0,0,0,0,0,0,0,0,0,0,0,0,0,0,0,0,0,0,0,0,0,0,0,0,0,0,0,0,0,0,0,0,0,0,0,0,0,0,0,0,0,0,0,0,0,0,0,0,0,0,0,0,0,0,0,0,0,0,0,0,0,0,0,0,0,0,0,0,0,0,0,0,0,0,0,0,0,0,0,0,0,0,0,0,0,0,0,0,0,0,0,0,0,0,0,0,0],"trees":[{"base_weights":[-5.3537104E-8,-1.1847826E0,1.4469025E0,2E-1,-3.5868973E-1,5.001733E0,4.8346522E-1,5.4022136E0,-2.6808512E-1,1.6739299E0,-2.0820193E-1,4.864864E-2,1.6955513E0,1.5068492E0,-1.1026253E0,1.7125506E0,-9.9526066E-1,-1.1594203E0,5.9999996E-1,5.9999996E-1,-3.4938574E-1,-3.5647923E-1,2E-1],"categories":[],"categories_nodes":[],"categories_segments":[],"categories_sizes":[],"default_left":[0,0,0,0,0,0,0,0,0,0,0,0,0,0,0,0,0,0,0,0,0,0,0],"id":0,"left_children":[1,3,5,-1,-1,7,9,11,-1,-1,13,-1,-1,15,17,-1,19,21,-1,-1,-1,-1,-1],"loss_changes":[8.6056104E2,6.3413086E0,7.7159924E2,0E0,0E0,1.183512E2,6.3183295E2,5.8163208E1,0E0,0E0,2.447976E2,0E0,0E0,5.8126794E2,2.0777206E1,0E0,2.0168335E1,6.2436523E0,0E0,0E0,0E0,0E0,0E0],"parents":[2147483647,0,0,1,1,2,2,5,5,6,6,7,7,10,10,13,13,14,14,16,16,17,17],"right_children":[2,4,6,-1,-1,8,10,12,-1,-1,14,-1,-1,16,18,-1,20,22,-1,-1,-1,-1,-1],"split_conditions":[4.4016063E-1,7.9593223E-1,3.143816E-1,2E-1,-3.5868973E-1,-1.00295015E-1,-1.1017461E0,4.4512704E-1,-2.6808512E-1,1.6739299E0,7.0256996E-1,4.864864E-2,1.6955513E0,9.265315E-1,1.4227142E1,1.7125506E0,3.9886144E-1,3.0922058E-1,5.9999996E-1,5.9999996E-1,-3.4938574E-1,-3.5647923E-1,2E-1],"split_indices":[41,8,17,0,0,16,10,35,0,0,24,0,0,8,10,0,19,3,0,0,0,0,0],"split_type":[0,0,0,0,0,0,0,0,0,0,0,0,0,0,0,0,0,0,0,0,0,0,0],"sum_hessian":[5.0000003E2,2.75E2,2.2500002E2,1.25E0,2.7375E2,4.7083336E1,1.7791667E2,4.4166668E1,2.9166667E0,2.0416668E1,1.575E2,2.0833335E0,4.2083336E1,5.3750004E1,1.0375001E2,1.9583334E1,3.4166668E1,1.0250001E2,1.25E0,1.25E0,3.2916668E1,1.0125001E2,1.25E0],"tree_param":{"num_deleted":"0","num_feature":"42","num_nodes":"23","size_leaf_vector":"1"}},{"base_weights":[-1.7284301E-1,-3.404383E-1,5.943311E-1,-3.3990407E-1,1.0570219E0,1.5974092E-1,1.797555E0,1.620485E0,-9.700407E-1,7.2394174E-1,1.9012712E0,-2.5833893E-1,1.8523227E0,3.0895016E-1,-1.0926672E0,5.061935E-1,-2.7522153E-1,1.5449645E-1,5.73209E-1,-3.2080236E-1,3.4489235E-1,5.822456E-1,2.2964294E-1,2.358831E-1,-3.4486753E-1],"categories":[],"categories_nodes":[],"categories_segments":[],"categories_sizes":[],"default_left":[0,0,0,0,0,0,0,0,0,0,0,0,0,0,0,0,0,0,0,0,0,0,0,0,0],"id":1,"left_children":[1,-1,3,-1,5,7,9,11,13,15,17,19,21,-1,23,-1,-1,-1,-1,-1,-1,-1,-1,-1,-1],"loss_changes":[3.5168094E2,0E0,2.1319978E2,0E0,1.3907469E2,1.5988507E2,1.1407379E1,1.8864853E1,1.4544109E1,2.0093664E1,3.7594604E-1,7.525778E0,2.140091E0,0E0,6.466877E0,0E0,0E0,0E0,0E0,0E0,0E0,0E0,0E0,0E0,0E0],"parents":[2147483647,0,0,2,2,4,4,5,5,6,6,7,7,8,8,9,9,10,10,11,11,12,12,14,14],"right_children":[2,-1,4,-1,6,8,10,12,14,16,18,20,22,-1,24,-1,-1,-1,-1,-1,-1,-1,-1,-1,-1],"split_conditions":[4.248996E-1,-3.404383E-1,5.739673E-1,-3.3990407E-1,1.1341342E0,3.523859E-1,2.711993E-1,4.974975E-1,2.9429132E-1,2.588401E-1,1.1484104E0,9.957593E-1,4.3275347E0,3.0895016E-1,6.6917264E-1,5.061935E-1,-2.7522153E-1,1.5449645E-1,5.73209E-1,-3.2080236E-1,3.4489235E-1,5.822456E-1,2.2964294E-1,2.358831E-1,-3.4486753E-1],"split_indices":[41,0,13,0,38,18,8,38,17,9,7,8,7,0,9,0,0,0,0,0,0,0,0,0,0],"split_type":[0,0,0,0,0,0,0,0,0,0,0,0,0,0,0,0,0,0,0,0,0,0,0,0,0],"sum_hessian":[4.7462872E2,2.1036949E2,2.6425925E2,5.5524208E1,2.0873503E2,9.492865E1,1.1380637E2,4.121092E1,5.3717728E1,1.072871E1,1.0307767E2,4.5141053E0,3.669681E1,2.6760926E0,5.1041637E1,6.742986E0,3.9857237E0,1.0718354E0,1.0200583E2,3.0168827E0,1.4972227E0,3.3207203E1,3.4896095E0,1.1232533E0,4.9918385E1],"tree_param":{"num_deleted":"0","num_feature":"42","num_nodes":"25","size_leaf_vector":"1"}},{"base_weights":[-1.7190483E-1,-3.27888E-1,4.844658E-1,-3.2587516E-1,8.529838E-1,1.25868E-1,1.411655E0,1.2648801E0,-8.984151E-1,5.898259E-1,1.4872637E0,-2.0891382E-1,1.4385664E0,8.023793E-1,-1.0301026E0,4.0458822E-1,-2.5464675E-1,9.4167626E-1,4.5715156E-1,-2.8789288E-1,2.91475E-1,4.5830292E-1,-1.8907826E-1,7.2359875E-2,2.9656556E-1,1.9496192E-1,-3.302989E-1,4.2229685E-1,-2.3354717E-1],"categories":[],"categories_nodes":[],"categories_segments":[],"categories_sizes":[],"default_left":[0,0,0,0,0,0,0,0,0,0,0,0,0,0,0,0,0,0,0,0,0,0,0,0,0,0,0,0,0],"id":2,"left_children":[1,-1,3,-1,5,7,9,11,13,15,17,19,21,23,25,-1,-1,27,-1,-1,-1,-1,-1,-1,-1,-1,-1,-1,-1],"loss_changes":[2.3527809E2,0E0,1.3256613E2,0E0,7.487671E1,9.607676E1,5.60907E0,1.0269848E1,1.0553959E1,1.2554365E1,4.5944214E-1,5.3450093E0,7.409088E0,1.4637136E-1,5.568577E0,0E0,0E0,7.974777E0,0E0,0E0,0E0,0E0,0E0,0E0,0E0,0E0,0E0,0E0,0E0],"parents":[2147483647,0,0,2,2,4,4,5,5,6,6,7,7,8,8,9,9,10,10,11,11,12,12,13,13,14,14,17,17],"right_children":[2,-1,4,-1,6,8,10,12,14,16,18,20,22,24,26,-1,-1,28,-1,-1,-1,-1,-1,-1,-1,-1,-1,-1,-1],"split_conditions":[4.248996E-1,-3.27888E-1,5.739673E-1,-3.2587516E-1,1.1341342E0,3.523859E-1,2.711993E-1,4.974975E-1,2.9429132E-1,2.588401E-1,1.1581582E0,9.957593E-1,4.975808E0,1.327203E-1,4.3373495E-1,4.0458822E-1,-2.5464675E-1,5.97718E-1,4.5715156E-1,-2.8789288E-1,2.91475E-1,4.5830292E-1,-1.8907826E-1,7.2359875E-2,2.9656556E-1,1.9496192E-1,-3.302989E-1,4.2229685E-1,-2.3354717E-1],"split_indices":[41,0,13,0,38,18,8,38,17,9,38,8,7,0,41,0,0,22,0,0,0,0,0,0,0,0,0,0,0],"split_type":[0,0,0,0,0,0,0,0,0,0,0,0,0,0,0,0,0,0,0,0,0,0,0,0,0,0,0,0,0],"sum_hessian":[3.8730072E2,1.6087997E2,2.2642073E2,4.2657234E1,1.837635E2,8.037717E1,1.0338633E2,3.7945988E1,4.243118E1,9.4517355E0,9.393459E1,3.9790897E0,3.39669E1,2.6832266E0,3.974795E1,6.228923E0,3.2228127E0,7.5818934E0,8.63527E1,2.5466504E0,1.4324392E0,3.281504E1,1.1518577E0,1.2402653E0,1.4429613E0,1.2787361E0,3.8469215E1,6.108754E0,1.4731395E0],"tree_param":{"num_deleted":"0","num_feature":"42","num_nodes":"29","size_leaf_vector":"1"}},{"base_weights":[-1.6745545E-1,-3.189486E-1,4.2637613E-1,-3.1506398E-1,7.467209E-1,1.0654595E-1,1.2281177E0,1.0359875E0,-8.719641E-1,5.064738E-1,1.2942946E0,1.1484115E0,-2.1377368E-1,2.3567797E-1,-9.526379E-1,3.4826028E-1,-2.359152E-1,7.902188E-1,3.986871E-1,-3.7163474E-2,3.8734087E-1,1.4925262E-1,-3.1843126E-1,3.6203748E-1,-2.102921E-1],"categories":[],"categories_nodes":[],"categories_segments":[],"categories_sizes":[],"default_left":[0,0,0,0,0,0,0,0,0,0,0,0,0,0,0,0,0,0,0,0,0,0,0,0,0],"id":3,"left_children":[1,-1,3,-1,5,7,9,11,13,15,17,19,-1,-1,21,-1,-1,23,-1,-1,-1,-1,-1,-1,-1],"loss_changes":[1.6419481E2,0E0,8.868495E1,0E0,4.7108467E1,6.1735584E1,3.5182495E0,7.65168E0,5.1781425E0,8.513951E0,3.3740234E-1,6.160301E0,0E0,0E0,5.583391E0,0E0,0E0,5.552238E0,0E0,0E0,0E0,0E0,0E0,0E0,0E0],"parents":[2147483647,0,0,2,2,4,4,5,5,6,6,7,7,8,8,9,9,10,10,11,11,14,14,17,17],"right_children":[2,-1,4,-1,6,8,10,12,14,16,18,20,-1,-1,22,-1,-1,24,-1,-1,-1,-1,-1,-1,-1],"split_conditions":[4.248996E-1,-3.189486E-1,5.739673E-1,-3.1506398E-1,1.1341342E0,3.6083135E-1,2.711993E-1,4.975808E0,6.8549734E-1,2.588401E-1,1.1581582E0,4.974975E-1,-2.1377368E-1,2.3567797E-1,2.9429132E-1,3.4826028E-1,-2.359152E-1,5.97718E-1,3.986871E-1,-3.7163474E-2,3.8734087E-1,1.4925262E-1,-3.1843126E-1,3.6203748E-1,-2.102921E-1],"split_indices":[41,0,13,0,38,18,8,7,9,9,38,38,0,0,17,0,0,22,0,0,0,0,0,0,0],"split_type":[0,0,0,0,0,0,0,0,0,0,0,0,0,0,0,0,0,0,0,0,0,0,0,0,0],"sum_hessian":[3.0684332E2,1.2201362E2,1.8482971E2,3.2543964E1,1.5228575E2,6.5887726E1,8.6398026E1,3.3760986E1,3.212674E1,7.984304E0,7.841372E1,3.204395E1,1.7170383E0,1.0855098E0,3.1041231E1,5.36888E0,2.6154242E0,6.576277E0,7.183744E1,3.2454147E0,2.8798532E1,1.9170415E0,2.912419E1,5.28938E0,1.286897E0],"tree_param":{"num_deleted":"0","num_feature":"42","num_nodes":"25","size_leaf_vector":"1"}},{"base_weights":[-1.6271403E-1,-3.122824E-1,3.857456E-1,-3.0606765E-1,6.7317E-1,8.997825E-2,1.1171075E0,1.0229238E0,-6.9149226E-1,4.4516808E-1,1.1796539E0,1.1276059E0,-1.8006955E-1,5.0150204E-1,-9.2995155E-1,3.105776E-1,-2.1843041E-1,6.824329E-1,3.6458784E-1,-5.5773683E-2,3.716048E-1,-2.5320482E-1,3.247502E-1,2.4014276E-1,-3.1001538E-1,3.2152212E-1,-1.9063231E-1],"categories":[],"categories_nodes":[],"categories_segments":[],"categories_sizes":[],"default_left":[0,0,0,0,0,0,0,0,0,0,0,0,0,0,0,0,0,0,0,0,0,0,0,0,0,0,0],"id":4,"left_children":[1,-1,3,-1,5,7,9,11,13,15,17,19,-1,21,23,-1,-1,25,-1,-1,-1,-1,-1,-1,-1,-1,-1],"loss_changes":[1.1662859E2,0E0,6.100686E1,0E0,3.214128E1,4.074234E1,2.442871E0,4.9983997E0,9.136983E0,6.029332E0,3.0477142E-1,3.7669601E0,0E0,5.3906736E0,5.4363384E0,0E0,0E0,4.047325E0,0E0,0E0,0E0,0E0,0E0,0E0,0E0,0E0,0E0],"parents":[2147483647,0,0,2,2,4,4,5,5,6,6,7,7,8,8,9,9,10,10,11,11,13,13,14,14,17,17],"right_children":[2,-1,4,-1,6,8,10,12,14,16,18,20,-1,22,24,-1,-1,26,-1,-1,-1,-1,-1,-1,-1,-1,-1],"split_conditions":[4.248996E-1,-3.122824E-1,5.739673E-1,-3.0606765E-1,1.1341342E0,3.490663E-1,2.711993E-1,4.975808E0,2.9429132E-1,2.588401E-1,1.1581582E0,4.974975E-1,-1.8006955E-1,1.11243226E-1,6.436074E-1,3.105776E-1,-2.1843041E-1,5.97718E-1,3.6458784E-1,-5.5773683E-2,3.716048E-1,-2.5320482E-1,3.247502E-1,2.4014276E-1,-3.1001538E-1,3.2152212E-1,-1.9063231E-1],"split_indices":[41,0,13,0,38,18,8,7,17,9,38,38,0,0,9,0,0,22,0,0,0,0,0,0,0,0,0],"split_type":[0,0,0,0,0,0,0,0,0,0,0,0,0,0,0,0,0,0,0,0,0,0,0,0,0,0,0],"sum_hessian":[2.4029904E2,9.20327E1,1.4826636E2,2.4732887E1,1.2353346E2,5.3912457E1,6.962101E1,2.4433706E1,2.9478748E1,6.619948E0,6.300106E1,2.324018E1,1.1935265E0,4.72697E0,2.475178E1,4.482915E0,2.1370327E0,5.5612383E0,5.7439823E1,1.7595226E0,2.1480658E1,1.289034E0,3.437936E0,1.0159491E0,2.373583E1,4.437223E0,1.1240153E0],"tree_param":{"num_deleted":"0","num_feature":"42","num_nodes":"27","size_leaf_vector":"1"}},{"base_weights":[-1.5810147E-1,-3.0703345E-1,3.5837206E-1,-2.979614E-1,6.2430996E-1,8.064316E-2,1.0410244E0,9.2103916E-1,-6.4293265E-1,3.951448E-1,1.102815E0,1.0253674E0,-1.6520542E-1,4.2256767E-1,-8.79519E-1,2.820661E-1,-2.0196897E-1,5.9729636E-1,3.4230617E-1,-4.5448657E-2,3.4421855E-1,-2.2448273E-1,2.884562E-1,-3.0201447E-1,2.284191E-1,-8.91013E-2,2.8534833E-1],"categories":[],"categories_nodes":[],"categories_segments":[],"categories_sizes":[],"default_left":[0,0,0,0,0,0,0,0,0,0,0,0,0,0,0,0,0,0,0,0,0,0,0,0,0,0,0],"id":5,"left_children":[1,-1,3,-1,5,7,9,11,13,15,17,19,-1,21,23,-1,-1,25,-1,-1,-1,-1,-1,-1,-1,-1,-1],"loss_changes":[8.3971245E1,0E0,4.299305E1,0E0,2.2371964E1,2.7404366E1,1.8002281E0,3.759962E0,6.4927015E0,4.3893433E0,2.9529572E-1,3.0147762E0,0E0,3.929804E0,4.981449E0,0E0,0E0,2.0712554E0,0E0,0E0,0E0,0E0,0E0,0E0,0E0,0E0,0E0],"parents":[2147483647,0,0,2,2,4,4,5,5,6,6,7,7,8,8,9,9,10,10,11,11,13,13,14,14,17,17],"right_children":[2,-1,4,-1,6,8,10,12,14,16,18,20,-1,22,24,-1,-1,26,-1,-1,-1,-1,-1,-1,-1,-1,-1],"split_conditions":[4.248996E-1,-3.0703345E-1,5.739673E-1,-2.979614E-1,1.1341342E0,3.490663E-1,2.711993E-1,4.975808E0,2.9429132E-1,2.588401E-1,1.1581582E0,4.974975E-1,-1.6520542E-1,1.11243226E-1,2.852853E-1,2.820661E-1,-2.0196897E-1,3.360842E-1,3.4230617E-1,-4.5448657E-2,3.4421855E-1,-2.2448273E-1,2.884562E-1,-3.0201447E-1,2.284191E-1,-8.91013E-2,2.8534833E-1],"split_indices":[41,0,13,0,38,18,8,7,17,9,38,38,0,0,40,0,0,5,0,0,0,0,0,0,0,0,0],"split_type":[0,0,0,0,0,0,0,0,0,0,0,0,0,0,0,0,0,0,0,0,0,0,0,0,0,0,0],"sum_hessian":[1.860652E2,6.9177605E1,1.1688759E2,1.8768036E1,9.811955E1,4.309247E1,5.502709E1,1.981059E1,2.328188E1,5.4504027E0,4.9576683E1,1.8782421E1,1.0281682E0,4.0874343E0,1.9194445E1,3.6885095E0,1.7618932E0,4.652367E0,4.4924316E1,1.7418782E0,1.7040545E1,1.1659938E0,2.9214404E0,1.8172308E1,1.0221373E0,1.3645378E0,3.2878294E0],"tree_param":{"num_deleted":"0","num_feature":"42","num_nodes":"27","size_leaf_vector":"1"}},{"base_weights":[-1.5257087E-1,-3.026082E-1,3.3649802E-1,-2.900785E-1,5.848906E-1,1.3981615E-1,1.0496207E0,8.673173E-1,-4.621397E-1,5.137634E-1,3.2633856E-1,-6.0244936E-2,1.0026522E0,3.1365097E-1,-6.3294256E-1,2.4137115E-1,-5.8852054E-2,3.201375E-1,7.319705E-2,-2.3836596E-1,2.3868899E-1],"categories":[],"categories_nodes":[],"categories_segments":[],"categories_sizes":[],"default_left":[0,0,0,0,0,0,0,0,0,0,0,0,0,0,0,0,0,0,0,0,0],"id":6,"left_children":[1,-1,3,-1,5,7,9,11,13,15,-1,-1,17,-1,19,-1,-1,-1,-1,-1,-1],"loss_changes":[6.096724E1,0E0,3.0644463E1,0E0,1.6122591E1,1.8500978E1,2.251091E-1,2.9568653E0,6.6539483E0,1.075261E0,0E0,0E0,5.753212E-1,0E0,5.601637E0,0E0,0E0,0E0,0E0,0E0,0E0],"parents":[2147483647,0,0,2,2,4,4,5,5,6,6,7,7,8,8,9,9,12,12,14,14],"right_children":[2,-1,4,-1,6,8,10,12,14,16,-1,-1,18,-1,20,-1,-1,-1,-1,-1,-1],"split_conditions":[4.248996E-1,-3.026082E-1,5.739673E-1,-2.900785E-1,1.1781782E0,3.490663E-1,2.711993E-1,4.974975E-1,1.9828779E-1,2.2778791E-1,3.2633856E-1,-6.0244936E-2,4.906504E0,3.1365097E-1,4.0516633E-1,2.4137115E-1,-5.8852054E-2,3.201375E-1,7.319705E-2,-2.3836596E-1,2.3868899E-1],"split_indices":[41,0,13,0,38,18,8,38,9,9,0,0,7,0,15,0,0,0,0,0,0],"split_type":[0,0,0,0,0,0,0,0,0,0,0,0,0,0,0,0,0,0,0,0,0],"sum_hessian":[1.4379904E2,5.1894463E1,9.190458E1,1.4247718E1,7.765686E1,4.033177E1,3.732509E1,1.8061949E1,2.2269823E1,3.4437156E0,3.3881374E1,1.9767286E0,1.608522E1,1.745096E0,2.0524727E1,2.3484402E0,1.0952755E0,1.445059E1,1.63463E0,1.8837503E1,1.6872236E0],"tree_param":{"num_deleted":"0","num_feature":"42","num_nodes":"21","size_leaf_vector":"1"}},{"base_weights":[-1.3977905E-1,-2.985606E-1,3.2002395E-1,-2.8190777E-1,5.4917735E-1,1.5377769E-1,3.0597752E-1,5.015782E-1,-8.293375E-1,-3.5689217E-1,8.2985896E-1,8.934697E-3,-2.8032875E-1,2.1657546E-1,-2.090135E-1,2.9386002E-1,-1.8512267E-1],"categories":[],"categories_nodes":[],"categories_segments":[],"categories_sizes":[],"default_left":[0,0,0,0,0,0,0,0,0,0,0,0,0,0,0,0,0],"id":7,"left_children":[1,-1,3,-1,5,7,-1,9,11,13,15,-1,-1,-1,-1,-1,-1],"loss_changes":[4.4932964E1,0E0,2.2030716E1,0E0,1.1698147E1,1.2654685E1,0E0,7.9229684E0,9.063611E-1,3.5037422E0,4.9092607E0,0E0,0E0,0E0,0E0,0E0,0E0],"parents":[2147483647,0,0,2,2,4,4,5,5,7,7,8,8,9,9,10,10],"right_children":[2,-1,4,-1,6,8,-1,10,12,14,16,-1,-1,-1,-1,-1,-1],"split_conditions":[4.248996E-1,-2.985606E-1,5.739673E-1,-2.8190777E-1,1.1821822E0,4.975808E0,3.0597752E-1,4.8638225E-1,4.2812076E-1,3.2954988E-1,-1.00295015E-1,8.934697E-3,-2.8032875E-1,2.1657546E-1,-2.090135E-1,2.9386002E-1,-1.8512267E-1],"split_indices":[41,0,13,0,38,7,0,35,36,18,16,0,0,0,0,0,0],"split_type":[0,0,0,0,0,0,0,0,0,0,0,0,0,0,0,0,0],"sum_hessian":[1.1242875E2,3.8898018E1,7.353073E1,1.08399515E1,6.269078E1,3.4793232E1,2.7897549E1,2.6062725E1,8.730506E0,7.185398E0,1.8877327E1,1.0296628E0,7.7008433E0,1.4518512E0,5.7335467E0,1.7400414E1,1.4769127E0],"tree_param":{"num_deleted":"0","num_feature":"42","num_nodes":"17","size_leaf_vector":"1"}},{"base_weights":[-1.383725E-1,-2.945274E-1,2.8847098E-1,-2.7305573E-1,4.9827126E-1,1.065017E-1,9.446602E-1,4.321419E-1,-8.1864524E-1,2.7611846E-1,3.0481312E-1,-3.5821173E-1,7.177649E-1,-5.1563542E-2,-2.6698166E-1,-9.986345E-2,2.0026492E-1,1.9701274E-1,-2.1829459E-1,-8.467432E-2,2.9919603E-1],"categories":[],"categories_nodes":[],"categories_segments":[],"categories_sizes":[],"default_left":[0,0,0,0,0,0,0,0,0,0,0,0,0,0,0,0,0,0,0,0,0],"id":8,"left_children":[1,-1,3,-1,5,7,9,11,13,15,-1,17,19,-1,-1,-1,-1,-1,-1,-1,-1],"loss_changes":[3.2354E1,0E0,1.5522987E1,0E0,8.930915E0,8.979469E0,8.653736E-1,5.185516E0,2.0668507E-1,1.1017662E0,0E0,2.9009495E0,4.8577137E0,0E0,0E0,0E0,0E0,0E0,0E0,0E0,0E0],"parents":[2147483647,0,0,2,2,4,4,5,5,6,6,7,7,8,8,9,9,11,11,12,12],"right_children":[2,-1,4,-1,6,8,10,12,14,16,-1,18,20,-1,-1,-1,-1,-1,-1,-1,-1],"split_conditions":[4.248996E-1,-2.945274E-1,5.739673E-1,-2.7305573E-1,1.1741742E0,4.975808E0,2.711993E-1,4.8638225E-1,9.962647E-2,5.904859E-1,3.0481312E-1,3.2954988E-1,5.175175E-1,-5.1563542E-2,-2.6698166E-1,-9.986345E-2,2.0026492E-1,1.9701274E-1,-2.1829459E-1,-8.467432E-2,2.9919603E-1],"split_indices":[41,0,13,0,38,7,8,35,0,13,0,18,38,0,0,0,0,0,0,0,0],"split_type":[0,0,0,0,0,0,0,0,0,0,0,0,0,0,0,0,0,0,0,0,0],"sum_hessian":[8.8087105E1,2.9163633E1,5.8923473E1,8.279823E0,5.064365E1,2.7631594E1,2.3012056E1,2.0831913E1,6.79968E0,2.689708E0,2.032235E1,5.4624653E0,1.5369448E1,1.013767E0,5.7859135E0,1.1109135E0,1.5787945E0,1.2502288E0,4.2122364E0,3.3557549E0,1.2013693E1],"tree_param":{"num_deleted":"0","num_feature":"42","num_nodes":"21","size_leaf_vector":"1"}},{"base_weights":[-1.3375282E-1,-2.9019123E-1,2.6414955E-1,-2.6324382E-1,4.5823956E-1,2.6192987E-2,8.447376E-1,5.39863E-1,-5.999798E-1,1.5278536E-1,2.8271845E-1,-1.09502465E-1,6.612144E-1,1.5047878E-1,-2.6603875E-1,2.0050882E-1,-1.6954769E-1,2.513248E-1,-2.8540177E-2,2.149106E-1,-1.0921105E-1],"categories":[],"categories_nodes":[],"categories_segments":[],"categories_sizes":[],"default_left":[0,0,0,0,0,0,0,0,0,0,0,0,0,0,0,0,0,0,0,0,0],"id":9,"left_children":[1,-1,3,-1,5,7,9,11,13,15,-1,-1,17,19,-1,-1,-1,-1,-1,-1,-1],"loss_changes":[2.3534353E1,0E0,1.1102908E1,0E0,6.9800644E0,7.0243797E0,1.3494854E0,1.5557799E0,2.2560644E0,1.8313054E0,0E0,0E0,1.5364895E0,1.3036349E0,0E0,0E0,0E0,0E0,0E0,0E0,0E0],"parents":[2147483647,0,0,2,2,4,4,5,5,6,6,7,7,8,8,9,9,12,12,13,13],"right_children":[2,-1,4,-1,6,8,10,12,14,16,-1,-1,18,20,-1,-1,-1,-1,-1,-1,-1],"split_conditions":[4.248996E-1,-2.9019123E-1,5.739673E-1,-2.6324382E-1,1.1341342E0,3.6083135E-1,2.9435104E-1,3.6447397E-1,1.5062726E0,3.8780397E-1,2.8271845E-1,-1.09502465E-1,4.3275347E0,9.799101E-1,-2.6603875E-1,2.0050882E-1,-1.6954769E-1,2.513248E-1,-2.8540177E-2,2.149106E-1,-1.0921105E-1],"split_indices":[41,0,13,0,38,18,12,19,7,9,0,0,7,9,0,0,0,0,0,0,0],"split_type":[0,0,0,0,0,0,0,0,0,0,0,0,0,0,0,0,0,0,0,0,0],"sum_hessian":[6.918632E1,2.1892826E1,4.7293495E1,6.3604736E0,4.093302E1,1.9831812E1,2.110121E1,1.0970329E1,8.861483E0,2.9269252E0,1.8174284E1,1.0598176E0,9.910512E0,2.5817196E0,6.2797627E0,1.743748E0,1.1831772E0,7.9478316E0,1.9626805E0,1.0426475E0,1.5390722E0],"tree_param":{"num_deleted":"0","num_feature":"42","num_nodes":"21","size_leaf_vector":"1"}},{"base_weights":[-1.3037269E-1,-2.85261E-1,2.3336342E-1,-2.523248E-1,4.0926763E-1,7.5596824E-2,8.8943905E-1,6.225075E-1,-2.9193187E-1,8.485772E-2,2.860449E-1,-7.57461E-2,8.202667E-1,5.2341217E-1,-5.5665547E-1,2.760854E-1,4.256547E-2,-1.1108601E-2,2.2353223E-1,-2.3455307E-1,1.841296E-1],"categories":[],"categories_nodes":[],"categories_segments":[],"categories_sizes":[],"default_left":[0,0,0,0,0,0,0,0,0,0,0,0,0,0,0,0,0,0,0,0,0],"id":10,"left_children":[1,-1,3,-1,5,7,9,11,13,-1,-1,-1,15,17,19,-1,-1,-1,-1,-1,-1],"loss_changes":[1.7007835E1,0E0,7.8611526E0,0E0,5.516327E0,4.5343637E0,2.8174973E-1,1.7683413E0,3.2336655E0,0E0,0E0,0E0,3.8471937E-1,5.067539E-1,3.319857E0,0E0,0E0,0E0,0E0,0E0,0E0],"parents":[2147483647,0,0,2,2,4,4,5,5,6,6,7,7,8,8,12,12,13,13,14,14],"right_children":[2,-1,4,-1,6,8,10,12,14,-1,-1,-1,16,18,20,-1,-1,-1,-1,-1,-1],"split_conditions":[4.248996E-1,-2.85261E-1,5.739673E-1,-2.523248E-1,1.1821822E0,3.4306517E-1,2.711993E-1,3.472005E-1,4.6425703E-1,8.485772E-2,2.860449E-1,-7.57461E-2,4.906504E0,7.245704E-1,4.0516633E-1,2.760854E-1,4.256547E-2,-1.1108601E-2,2.2353223E-1,-2.3455307E-1,1.841296E-1],"split_indices":[41,0,13,0,38,18,8,23,41,0,0,0,7,37,15,0,0,0,0,0,0],"split_type":[0,0,0,0,0,0,0,0,0,0,0,0,0,0,0,0,0,0,0,0,0],"sum_hessian":[5.5244755E1,1.647258E1,3.8772175E1,4.9226294E0,3.3849545E1,2.0654314E1,1.3195232E1,8.022483E0,1.263183E1,1.7774144E0,1.1417818E1,1.4279069E0,6.594576E0,2.8565385E0,9.775292E0,5.4364586E0,1.1581173E0,1.0457866E0,1.8107518E0,8.476431E0,1.2988611E0],"tree_param":{"num_deleted":"0","num_feature":"42","num_nodes":"21","size_leaf_vector":"1"}},{"base_weights":[-1.1432571E-1,-2.7946764E-1,2.2194952E-1,-2.4029985E-1,3.8435474E-1,7.0514596E-1,-3.744475E-2,1.5985006E-1,2.828155E-1,4.1259873E-1,-5.9260017E-1,2.3740862E-1,-2.137871E-1,7.378826E-1,9.334163E-3,4.474033E-2,-2.331077E-1,2.476483E-1,6.650786E-2,1.8992738E-1,-1.5520673E-1],"categories":[],"categories_nodes":[],"categories_segments":[],"categories_sizes":[],"default_left":[0,0,0,0,0,0,0,0,0,0,0,0,0,0,0,0,0,0,0,0,0],"id":11,"left_children":[1,-1,3,-1,5,7,9,11,-1,13,15,-1,-1,17,19,-1,-1,-1,-1,-1,-1],"loss_changes":[1.2692167E1,0E0,5.7894144E0,0E0,3.9707017E0,2.0008297E0,3.6279287E0,4.004317E0,0E0,1.0515207E0,1.0014212E0,0E0,0E0,1.8391848E-2,1.8437877E0,0E0,0E0,0E0,0E0,0E0,0E0],"parents":[2147483647,0,0,2,2,4,4,5,5,6,6,7,7,9,9,10,10,13,13,14,14],"right_children":[2,-1,4,-1,6,8,10,12,-1,14,16,-1,-1,18,20,-1,-1,-1,-1,-1,-1],"split_conditions":[4.248996E-1,-2.7946764E-1,5.739673E-1,-2.4029985E-1,-1.7369266E-1,3.2700676E-1,3.2439682E-1,3.8780397E-1,2.828155E-1,4.9116465E-1,2.972471E-1,2.3740862E-1,-2.137871E-1,5.443645E-1,2.4640906E0,4.474033E-2,-2.331077E-1,2.476483E-1,6.650786E-2,1.8992738E-1,-1.5520673E-1],"split_indices":[41,0,13,0,16,12,22,9,0,41,17,0,0,20,7,0,0,0,0,0,0],"split_type":[0,0,0,0,0,0,0,0,0,0,0,0,0,0,0,0,0,0,0,0,0],"sum_hessian":[4.4432003E1,1.2436927E1,3.1995077E1,3.8449042E0,2.8150173E1,1.5608036E1,1.2542136E1,5.2441254E0,1.0363911E1,7.0686426E0,5.473494E0,3.0960884E0,2.1480367E0,3.4533257E0,3.6153166E0,1.1280369E0,4.345457E0,2.4399855E0,1.0133404E0,1.562653E0,2.0526638E0],"tree_param":{"num_deleted":"0","num_feature":"42","num_nodes":"21","size_leaf_vector":"1"}},{"base_weights":[-1.0580939E-1,-2.725736E-1,2.04936E-1,-2.273214E-1,3.5662195E-1,9.497557E-2,2.5443003E-1,3.2922417E-1,-6.279842E-1,7.200023E-1,-1.4337151E-1,-4.26543E-2,-2.183942E-1,-2.6708517E-2,2.714953E-1,-2.2232683E-1,5.8406346E-2],"categories":[],"categories_nodes":[],"categories_segments":[],"categories_sizes":[],"default_left":[0,0,0,0,0,0,0,0,0,0,0,0,0,0,0,0,0],"id":12,"left_children":[1,-1,3,-1,5,7,-1,9,11,13,15,-1,-1,-1,-1,-1,-1],"loss_changes":[9.348716E0,0E0,4.256059E0,0E0,3.039156E0,3.07862E0,0E0,2.5897725E0,1.1480296E-1,1.208386E0,1.544184E0,0E0,0E0,0E0,0E0,0E0,0E0],"parents":[2147483647,0,0,2,2,4,4,5,5,7,7,8,8,9,9,10,10],"right_children":[2,-1,4,-1,6,8,-1,10,12,14,16,-1,-1,-1,-1,-1,-1],"split_conditions":[4.248996E-1,-2.725736E-1,5.739673E-1,-2.273214E-1,1.1981982E0,4.975808E0,2.5443003E-1,1.3716938E0,6.861262E-1,1.8197147E0,5.455455E-1,-4.26543E-2,-2.183942E-1,-2.6708517E-2,2.714953E-1,-2.2232683E-1,5.8406346E-2],"split_indices":[41,0,13,0,38,7,0,10,6,4,38,0,0,0,0,0,0],"split_type":[0,0,0,0,0,0,0,0,0,0,0,0,0,0,0,0,0],"sum_hessian":[3.5729862E1,9.434143E0,2.6295717E1,3.0354993E0,2.3260218E1,1.5957974E1,7.3022437E0,1.2464067E1,3.493908E0,6.5360537E0,5.9280133E0,1.0098264E0,2.4840813E0,1.3128664E0,5.2231874E0,1.7108668E0,4.2171464E0],"tree_param":{"num_deleted":"0","num_feature":"42","num_nodes":"17","size_leaf_vector":"1"}},{"base_weights":[-1.0719241E-1,-2.6439473E-1,1.6881865E-1,-5.9732646E-1,3.3516392E-1,-3.4665048E-2,-2.1055509E-1,6.744341E-1,-3.568062E-2,1.15058206E-1,2.602492E-1,-5.47966E-1,3.4665257E-1,1.9223583E-1,-1.7020676E-1,-1.5912356E-2,-2.1949966E-1,-2.4353336E-1,2.1987036E-1,-1.9953236E-1,1.05159335E-1],"categories":[],"categories_nodes":[],"categories_segments":[],"categories_sizes":[],"default_left":[0,0,0,0,0,0,0,0,0,0,0,0,0,0,0,0,0,0,0,0,0],"id":13,"left_children":[1,-1,3,5,7,-1,-1,9,11,13,-1,15,17,-1,-1,-1,-1,19,-1,-1,-1],"loss_changes":[6.6841655E0,0E0,3.1807246E0,1.4708722E-1,2.5222068E0,0E0,0E0,1.0254288E0,2.2339983E0,1.736312E0,0E0,4.019177E-1,1.6803927E0,0E0,0E0,0E0,0E0,1.0738283E0,0E0,0E0,0E0],"parents":[2147483647,0,0,2,2,3,3,4,4,7,7,8,8,9,9,11,11,12,12,17,17],"right_children":[2,-1,4,6,8,-1,-1,10,12,14,-1,16,18,-1,-1,-1,-1,20,-1,-1,-1],"split_conditions":[4.248996E-1,-2.6439473E-1,2.6065448E-1,-1.0304773E0,-1.7369266E-1,-3.4665048E-2,-2.1055509E-1,3.2700676E-1,5.265541E-1,3.8780397E-1,2.602492E-1,2.1483305E0,5.415415E-1,1.9223583E-1,-1.7020676E-1,-1.5912356E-2,-2.1949966E-1,2.912185E0,2.1987036E-1,-1.9953236E-1,1.05159335E-1],"split_indices":[41,0,14,10,16,0,0,12,12,9,0,7,38,0,0,0,0,7,0,0,0],"split_type":[0,0,0,0,0,0,0,0,0,0,0,0,0,0,0,0,0,0,0,0,0],"sum_hessian":[2.9586823E1,7.2000175E0,2.2386805E1,3.5313587E0,1.8855446E1,1.004921E0,2.5264378E0,9.419394E0,9.436053E0,2.8263535E0,6.5930395E0,3.847543E0,5.58851E0,1.6309105E0,1.195443E0,1.3903604E0,2.4571826E0,2.3568087E0,3.2317014E0,1.3085879E0,1.0482208E0],"tree_param":{"num_deleted":"0","num_feature":"42","num_nodes":"21","size_leaf_vector":"1"}},{"base_weights":[-1.07074074E-1,-2.5483155E-1,1.4221966E-1,-2.0332524E-1,2.7540597E-1,3.0783696E-2,7.3449093E-1,3.9772898E-1,-3.614124E-1,4.769923E-2,2.4519381E-1,5.868806E-1,-4.1113097E-2,9.077833E-2,-6.177069E-1,2.2192474E-1,3.4510775E-4,-2.0336685E-1,-5.738011E-2],"categories":[],"categories_nodes":[],"categories_segments":[],"categories_sizes":[],"default_left":[0,0,0,0,0,0,0,0,0,0,0,0,0,0,0,0,0,0,0],"id":14,"left_children":[1,-1,3,-1,5,7,9,11,13,-1,-1,15,-1,-1,17,-1,-1,-1,-1],"loss_changes":[4.8274145E0,0E0,2.359385E0,0E0,1.9793193E0,1.967607E0,1.6332221E-1,7.9087436E-1,1.3185806E0,0E0,0E0,4.8066127E-1,0E0,0E0,1.914382E-3,0E0,0E0,0E0,0E0],"parents":[2147483647,0,0,2,2,4,4,5,5,6,6,7,7,8,8,11,11,14,14],"right_children":[2,-1,4,-1,6,8,10,12,14,-1,-1,16,-1,-1,18,-1,-1,-1,-1],"split_conditions":[4.248996E-1,-2.5483155E-1,5.739673E-1,-2.0332524E-1,1.1901902E0,3.143816E-1,1.0058243E-1,-1.0259394E-1,4.7068274E-1,4.769923E-2,2.4519381E-1,4.0472803E0,-4.1113097E-2,9.077833E-2,1.0429127E1,2.2192474E-1,3.4510775E-4,-2.0336685E-1,-5.738011E-2],"split_indices":[41,0,13,0,38,17,3,16,41,0,0,7,0,0,10,0,0,0,0],"split_type":[0,0,0,0,0,0,0,0,0,0,0,0,0,0,0,0,0,0,0],"sum_hessian":[2.443194E1,5.5367723E0,1.8895168E1,2.068929E0,1.682624E1,1.1673238E1,5.1530013E0,6.0234704E0,5.649768E0,1.0156223E0,4.137379E0,4.377639E0,1.6458317E0,1.5230929E0,4.126675E0,3.2630665E0,1.1145723E0,3.0995877E0,1.0270872E0],"tree_param":{"num_deleted":"0","num_feature":"42","num_nodes":"19","size_leaf_vector":"1"}},{"base_weights":[-9.796788E-2,-2.4390036E-1,1.2394745E-1,-1.6164608E-1,2.639947E-1,6.030094E-1,-5.102243E-2,5.424688E-2,2.4798514E-1,3.046325E-1,-1.8661974E-1,1.6692662E-1,-1.5557003E-1,-5.59087E-2,5.411348E-1,2.1613292E-1,-2.584936E-3],"categories":[],"categories_nodes":[],"categories_segments":[],"categories_sizes":[],"default_left":[0,0,0,0,0,0,0,0,0,0,0,0,0,0,0,0,0],"id":15,"left_children":[1,-1,3,-1,5,7,9,11,-1,13,-1,-1,-1,-1,15,-1,-1],"loss_changes":[3.5607066E0,0E0,1.7673323E0,0E0,1.64606E0,8.586645E-1,1.96902E0,1.2095802E0,0E0,8.0576724E-1,0E0,0E0,0E0,0E0,4.353279E-1,0E0,0E0],"parents":[2147483647,0,0,2,2,4,4,5,5,6,6,7,7,9,9,14,14],"right_children":[2,-1,4,-1,6,8,10,12,-1,14,-1,-1,-1,-1,16,-1,-1],"split_conditions":[4.248996E-1,-2.4390036E-1,2.5527194E-1,-1.6164608E-1,8.507673E-1,3.2700676E-1,3.6083135E-1,3.8780397E-1,2.4798514E-1,4.974975E-1,-1.8661974E-1,1.6692662E-1,-1.5557003E-1,-5.59087E-2,3.759752E-1,2.1613292E-1,-2.584936E-3],"split_indices":[41,0,14,0,8,12,18,9,0,38,0,0,0,0,15,0,0],"split_type":[0,0,0,0,0,0,0,0,0,0,0,0,0,0,0,0,0],"sum_hessian":[2.0804928E1,4.2967634E0,1.6508165E1,2.3830523E0,1.4125113E1,6.363085E0,7.7620273E0,2.2019095E0,4.1611753E0,5.0705447E0,2.6914828E0,1.1885476E0,1.013362E0,1.7173063E0,3.3532383E0,2.2944014E0,1.0588369E0],"tree_param":{"num_deleted":"0","num_feature":"42","num_nodes":"17","size_leaf_vector":"1"}},{"base_weights":[-9.047578E-2,-2.3210815E-1,1.11184746E-1,-1.8952888E-1,2.511455E-1,5.3703314E-1,-1.0078387E-1,6.7358243E-1,-4.8129532E-2,-5.004886E-1,1.9647346E-1,2.1448255E-2,2.4046282E-1,1.0567598E-2,-2.196654E-1],"categories":[],"categories_nodes":[],"categories_segments":[],"categories_sizes":[],"default_left":[0,0,0,0,0,0,0,0,0,0,0,0,0,0,0],"id":16,"left_children":[1,-1,3,-1,5,7,9,11,-1,13,-1,-1,-1,-1,-1],"loss_changes":[2.648969E0,0E0,1.7430625E0,0E0,1.4161274E0,8.344879E-1,2.414891E0,4.4894505E-1,0E0,6.5719247E-1,0E0,0E0,0E0,0E0,0E0],"parents":[2147483647,0,0,2,2,4,4,5,5,6,6,7,7,9,9],"right_children":[2,-1,4,-1,6,8,10,12,-1,14,-1,-1,-1,-1,-1],"split_conditions":[3.6034706E-1,-2.3210815E-1,5.739673E-1,-1.8952888E-1,1.3716938E0,8.640826E0,4.0516633E-1,1.8197147E0,-4.8129532E-2,3.523859E-1,1.9647346E-1,2.1448255E-2,2.4046282E-1,1.0567598E-2,-2.196654E-1],"split_indices":[15,0,13,0,10,7,15,4,0,18,0,0,0,0,0],"split_type":[0,0,0,0,0,0,0,0,0,0,0,0,0,0,0],"sum_hessian":[1.7601984E1,3.3649724E0,1.4237011E1,1.6998602E0,1.2537151E1,6.627431E0,5.9097204E0,5.5709877E0,1.0564429E0,4.086165E0,1.8235554E0,1.2496699E0,4.321318E0,1.4898673E0,2.5962975E0],"tree_param":{"num_deleted":"0","num_feature":"42","num_nodes":"15","size_leaf_vector":"1"}},{"base_weights":[-8.98932E-2,-2.1885929E-1,9.3956925E-2,4.7200364E-1,-1.6310586E-1,2.0489885E-1,-7.0967466E-2,1.9224487E-1,-1.9864915E-1,1.9896217E-1,-1.6348542E-1],"categories":[],"categories_nodes":[],"categories_segments":[],"categories_sizes":[],"default_left":[0,0,0,0,0,0,0,0,0,0,0],"id":17,"left_children":[1,-1,3,5,7,-1,-1,9,-1,-1,-1],"loss_changes":[1.9487145E0,0E0,1.3699509E0,1.0050391E0,1.6635463E0,0E0,0E0,2.38723E0,0E0,0E0,0E0],"parents":[2147483647,0,0,2,2,3,3,4,4,7,7],"right_children":[2,-1,4,6,8,-1,-1,10,-1,-1,-1],"split_conditions":[4.248996E-1,-2.1885929E-1,4.9116465E-1,-1.01524375E-1,7.1631235E-1,2.0489885E-1,-7.0967466E-2,9.7097397E-1,-1.9864915E-1,1.9896217E-1,-1.6348542E-1],"split_indices":[41,0,41,16,24,0,0,8,0,0,0],"split_type":[0,0,0,0,0,0,0,0,0,0,0],"sum_hessian":[1.4988185E1,2.683584E0,1.2304601E1,4.6418986E0,7.6627016E0,3.6046135E0,1.0372851E0,4.834859E0,2.827843E0,3.0113835E0,1.8234752E0],"tree_param":{"num_deleted":"0","num_feature":"42","num_nodes":"11","size_leaf_vector":"1"}},{"base_weights":[-9.188937E-2,-2.0606877E-1,7.7735305E-2,4.3125287E-1,-1.5654415E-1,1.8530625E-1,-2.8051779E-2,-1.7509001E-1,1.5842916E-1,1.767671E-1,-1.1926843E-1],"categories":[],"categories_nodes":[],"categories_segments":[],"categories_sizes":[],"default_left":[0,0,0,0,0,0,0,0,0,0,0],"id":18,"left_children":[1,-1,3,5,7,-1,-1,-1,9,-1,-1],"loss_changes":[1.4515634E0,0E0,1.0347307E0,5.3919226E-1,1.1359959E0,0E0,0E0,0E0,1.4920055E0,0E0,0E0],"parents":[2147483647,0,0,2,2,3,3,4,4,8,8],"right_children":[2,-1,4,6,8,-1,-1,-1,10,-1,-1],"split_conditions":[3.6034706E-1,-2.0606877E-1,7.80917E-1,1.3716938E0,3.0562738E-1,1.8530625E-1,-2.8051779E-2,-1.7509001E-1,9.7097397E-1,1.767671E-1,-1.1926843E-1],"split_indices":[15,0,37,10,14,0,0,0,8,0,0],"split_type":[0,0,0,0,0,0,0,0,0,0,0],"sum_hessian":[1.2853147E1,2.174826E0,1.0678321E1,3.9209754E0,6.757345E0,2.7624521E0,1.1585233E0,2.5061543E0,4.2511907E0,2.3615973E0,1.8895936E0],"tree_param":{"num_deleted":"0","num_feature":"42","num_nodes":"11","size_leaf_vector":"1"}},{"base_weights":[-8.665013E-2,-5.4006696E-1,1.2632461E-1,-2.0054528E-2,-2.0210041E-1,-1.4479108E-1,2.6148608E-1,4.5655757E-1,-8.521103E-2,4.3299142E-2,2.0867099E-1,-8.564332E-2,1.2491067E-1],"categories":[],"categories_nodes":[],"categories_segments":[],"categories_sizes":[],"default_left":[0,0,0,0,0,0,0,0,0,0,0,0,0],"id":19,"left_children":[1,3,5,-1,-1,-1,7,9,-1,11,-1,-1,-1],"loss_changes":[1.2647523E0,2.1731257E-1,8.868262E-1,0E0,0E0,0E0,1.0034835E0,6.051879E-1,0E0,5.3874713E-1,0E0,0E0,0E0],"parents":[2147483647,0,0,1,1,2,2,6,6,7,7,9,9],"right_children":[2,4,6,-1,-1,-1,8,10,-1,12,-1,-1,-1],"split_conditions":[5.415415E-1,-1.965953E-1,5.766318E-1,-2.0054528E-2,-2.0210041E-1,-1.4479108E-1,8.640826E0,4.8638225E-1,-8.521103E-2,1.1821822E0,2.0867099E-1,-8.564332E-2,1.2491067E-1],"split_indices":[38,1,13,0,0,0,7,35,0,38,0,0,0],"split_type":[0,0,0,0,0,0,0,0,0,0,0,0,0],"sum_hessian":[1.1390741E1,3.1495714E0,8.24117E0,1.0237565E0,2.125815E0,1.0299548E0,7.211215E0,5.4319177E0,1.7792971E0,2.4232373E0,3.0086803E0,1.412885E0,1.0103524E0],"tree_param":{"num_deleted":"0","num_feature":"42","num_nodes":"13","size_leaf_vector":"1"}},{"base_weights":[-8.446006E-2,-1.8672124E-1,6.9369875E-2,3.134034E-1,-1.991651E-1,1.7500608E-1,-8.387562E-2,-4.8497963E-1,1.4506127E-1,-9.381922E-2,5.548265E-2,1.098811E-2,-2.0023176E-1],"categories":[],"categories_nodes":[],"categories_segments":[],"categories_sizes":[],"default_left":[0,0,0,0,0,0,0,0,0,0,0,0,0],"id":20,"left_children":[1,-1,3,5,7,-1,9,11,-1,-1,-1,-1,-1],"loss_changes":[9.712154E-1,0E0,6.928732E-1,6.311451E-1,1.2475643E0,0E0,2.4674772E-1,4.202608E-1,0E0,0E0,0E0,0E0,0E0],"parents":[2147483647,0,0,2,2,3,3,4,4,6,6,7,7],"right_children":[2,-1,4,6,8,-1,10,12,-1,-1,-1,-1,-1],"split_conditions":[4.894895E-1,-1.8672124E-1,1.3716938E0,7.9576564E-1,6.0361445E-1,1.7500608E-1,4.109958E-1,5.6489676E-1,1.4506127E-1,-9.381922E-2,5.548265E-2,1.098811E-2,-2.0023176E-1],"split_indices":[38,0,10,37,41,0,5,20,0,0,0,0,0],"split_type":[0,0,0,0,0,0,0,0,0,0,0,0,0],"sum_hessian":[1.021472E1,1.594098E0,8.620622E0,4.428813E0,4.1918087E0,2.3581102E0,2.070703E0,3.1589339E0,1.0328747E0,1.0302527E0,1.0404503E0,1.0257701E0,2.133164E0],"tree_param":{"num_deleted":"0","num_feature":"42","num_nodes":"13","size_leaf_vector":"1"}},{"base_weights":[-7.8088894E-2,-4.682523E-1,1.0845958E-1,-1.9333586E-2,-1.837368E-1,1.4618954E-1,-9.974517E-2,1.3701448E-1,-3.1400794E-1,-1.7426363E-1,7.2118014E-2],"categories":[],"categories_nodes":[],"categories_segments":[],"categories_sizes":[],"default_left":[0,0,0,0,0,0,0,0,0,0,0],"id":21,"left_children":[1,3,5,-1,-1,-1,7,-1,9,-1,-1],"loss_changes":[7.85481E-1,1.6161168E-1,6.5129125E-1,0E0,0E0,0E0,8.3029205E-1,0E0,8.4271896E-1,0E0,0E0],"parents":[2147483647,0,0,1,1,2,2,6,6,8,8],"right_children":[2,4,6,-1,-1,-1,8,-1,10,-1,-1],"split_conditions":[5.415415E-1,-1.1181285E-1,3.490663E-1,-1.9333586E-2,-1.837368E-1,1.4618954E-1,-1.0866095E0,1.3701448E-1,6.13253E-1,-1.7426363E-1,7.2118014E-2],"split_indices":[38,1,18,0,0,0,10,0,41,0,0],"split_type":[0,0,0,0,0,0,0,0,0,0,0],"sum_hessian":[9.094123E0,2.4532022E0,6.64092E0,1.0262753E0,1.426927E0,1.8798901E0,4.76103E0,1.009E0,3.7520301E0,2.5005758E0,1.2514546E0],"tree_param":{"num_deleted":"0","num_feature":"42","num_nodes":"11","size_leaf_vector":"1"}},{"base_weights":[-6.5036535E-2,-1.6430628E-1,7.3854625E-2,2.3626526E-1,-2.6198962E-1,-5.962744E-2,4.24123E-1,4.393961E-2,-1.5797053E-1,7.5153145E-3,1.6059217E-1],"categories":[],"categories_nodes":[],"categories_segments":[],"categories_sizes":[],"default_left":[0,0,0,0,0,0,0,0,0,0,0],"id":22,"left_children":[1,-1,3,5,7,-1,9,-1,-1,-1,-1],"loss_changes":[6.5923214E-1,0E0,5.009343E-1,5.706476E-1,4.1190517E-1,0E0,1.851688E-1,0E0,0E0,0E0,0E0],"parents":[2147483647,0,0,2,2,3,3,4,4,6,6],"right_children":[2,-1,4,6,8,-1,10,-1,-1,-1,-1],"split_conditions":[4.894895E-1,-1.6430628E-1,5.2051606E0,3.0148295E-1,7.8006357E-1,-5.962744E-2,5.455455E-1,4.393961E-2,-1.5797053E-1,7.5153145E-3,1.6059217E-1],"split_indices":[38,0,7,14,8,0,38,0,0,0,0],"split_type":[0,0,0,0,0,0,0,0,0,0,0],"sum_hessian":[8.230612E0,1.1815171E0,7.049094E0,4.9512343E0,2.0978599E0,1.4757668E0,3.4754677E0,1.0001915E0,1.0976684E0,1.0242944E0,2.4511733E0],"tree_param":{"num_deleted":"0","num_feature":"42","num_nodes":"11","size_leaf_vector":"1"}},{"base_weights":[-6.940632E-2,-2.7765706E-1,1.9482298E-1,3.3032354E-2,-1.5911935E-1,-8.813274E-2,1.3556348E-1],"categories":[],"categories_nodes":[],"categories_segments":[],"categories_sizes":[],"default_left":[0,0,0,0,0,0,0],"id":23,"left_children":[1,3,5,-1,-1,-1,-1],"loss_changes":[5.271933E-1,5.700347E-1,6.825149E-1,0E0,0E0,0E0,0E0],"parents":[2147483647,0,0,1,1,2,2],"right_children":[2,4,6,-1,-1,-1,-1],"split_conditions":[8.018018E-1,5.59693E-1,5.836024E-1,3.3032354E-2,-1.5911935E-1,-8.813274E-2,1.3556348E-1],"split_indices":[38,20,13,0,0,0,0],"split_type":[0,0,0,0,0,0,0],"sum_hessian":[7.59775E0,4.220539E0,3.377211E0,1.8880945E0,2.3324447E0,1.1150068E0,2.2622042E0],"tree_param":{"num_deleted":"0","num_feature":"42","num_nodes":"7","size_leaf_vector":"1"}},{"base_weights":[-6.243611E-2,-1.3774043E-1,6.656082E-2,3.874325E-1,-1.5292165E-1,1.4775595E-1,2.799907E-2,1.2571822E-1,-1.521084E-1,1.4561646E-1,-1.03404246E-1],"categories":[],"categories_nodes":[],"categories_segments":[],"categories_sizes":[],"default_left":[0,0,0,0,0,0,0,0,0,0,0],"id":24,"left_children":[1,-1,3,5,7,-1,-1,9,-1,-1,-1],"loss_changes":[4.4574642E-1,0E0,5.5193716E-1,5.060357E-2,5.443825E-1,0E0,0E0,7.64107E-1,0E0,0E0,0E0],"parents":[2147483647,0,0,2,2,3,3,4,4,7,7],"right_children":[2,-1,4,6,8,-1,-1,10,-1,-1,-1],"split_conditions":[4.4016063E-1,-1.3774043E-1,4.9116465E-1,-1.1588278E-1,7.1631235E-1,1.4775595E-1,2.799907E-2,9.696463E-1,-1.521084E-1,1.4561646E-1,-1.03404246E-1],"split_indices":[41,0,41,16,24,0,0,8,0,0,0],"split_type":[0,0,0,0,0,0,0,0,0,0,0],"sum_hessian":[7.113395E0,1.1175067E0,5.995888E0,2.1246111E0,3.8712773E0,1.0682528E0,1.0563582E0,2.5274463E0,1.3438312E0,1.4142429E0,1.1132033E0],"tree_param":{"num_deleted":"0","num_feature":"42","num_nodes":"11","size_leaf_vector":"1"}},{"base_weights":[-5.739661E-2,1.866853E-1,-2.3140337E-1,9.950442E-2,-2.918394E-2,-1.557301E-1,1.1068434E-1,-6.820602E-2,1.18982516E-1],"categories":[],"categories_nodes":[],"categories_segments":[],"categories_sizes":[],"default_left":[0,0,0,0,0,0,0,0,0],"id":25,"left_children":[1,3,5,-1,-1,-1,7,-1,-1],"loss_changes":[3.6081052E-1,1.8320301E-1,5.310704E-1,0E0,0E0,0E0,3.8231316E-1,0E0,0E0],"parents":[2147483647,0,0,1,1,2,2,6,6],"right_children":[2,4,6,-1,-1,-1,8,-1,-1],"split_conditions":[3.1227934E-1,5.610101E-1,1.1061062E0,9.950442E-2,-2.918394E-2,-1.557301E-1,5.878884E-1,-6.820602E-2,1.18982516E-1],"split_indices":[17,12,38,0,0,0,13,0,0],"split_type":[0,0,0,0,0,0,0,0,0],"sum_hessian":[6.4781423E0,2.6658509E0,3.8122916E0,1.6535116E0,1.0123392E0,1.7896999E0,2.0225916E0,1.0207007E0,1.0018909E0],"tree_param":{"num_deleted":"0","num_feature":"42","num_nodes":"9","size_leaf_vector":"1"}},{"base_weights":[-4.8466057E-2,-9.396357E-2,9.20214E-2,-5.655595E-2,3.10445E-1,1.2981152E-2,1.24695644E-1],"categories":[],"categories_nodes":[],"categories_segments":[],"categories_sizes":[],"default_left":[0,0,0,0,0,0,0],"id":26,"left_children":[1,-1,3,-1,5,-1,-1],"loss_changes":[2.9212186E-1,0E0,3.892896E-1,0E0,7.794258E-2,0E0,0E0],"parents":[2147483647,0,0,2,2,4,4],"right_children":[2,-1,4,-1,6,-1,-1],"split_conditions":[5.415415E-1,-9.396357E-2,4.828148E-1,-5.655595E-2,1.8E0,1.2981152E-2,1.24695644E-1],"split_indices":[38,0,35,0,11,0,0],"split_type":[0,0,0,0,0,0,0],"sum_hessian":[6.0791903E0,1.681317E0,4.3978734E0,1.9851162E0,2.4127572E0,1.0803885E0,1.3323686E0],"tree_param":{"num_deleted":"0","num_feature":"42","num_nodes":"7","size_leaf_vector":"1"}},{"base_weights":[-3.639555E-2,1.5289664E-1,-2.592265E-1,3.1680474E-1,-4.271674E-2,5.909536E-3,-1.18678816E-1,1.3753973E-1,4.8581217E-3],"categories":[],"categories_nodes":[],"categories_segments":[],"categories_sizes":[],"default_left":[0,0,0,0,0,0,0,0,0],"id":27,"left_children":[1,3,5,7,-1,-1,-1,-1,-1],"loss_changes":[3.296505E-1,2.5548354E-1,1.4202651E-1,1.2480906E-1,0E0,0E0,0E0,0E0,0E0],"parents":[2147483647,0,0,1,1,2,2,3,3],"right_children":[2,4,6,8,-1,-1,-1,-1,-1],"split_conditions":[1.3716938E0,4.3275347E0,-1.6422413E-1,3.0498132E-1,-4.271674E-2,5.909536E-3,-1.18678816E-1,1.3753973E-1,4.8581217E-3],"split_indices":[10,7,16,17,0,0,0,0,0],"split_type":[0,0,0,0,0,0,0,0,0],"sum_hessian":[5.875641E0,3.3465943E0,2.5290465E0,2.1051733E0,1.2414207E0,1.1113943E0,1.4176521E0,1.0739623E0,1.0312111E0],"tree_param":{"num_deleted":"0","num_feature":"42","num_nodes":"9","size_leaf_vector":"1"}},{"base_weights":[-2.802775E-2,1.3542074E-1,-2.2099847E-1,8.396525E-2,-3.5846513E-2,-1.0106727E-1,8.289071E-3],"categories":[],"categories_nodes":[],"categories_segments":[],"categories_sizes":[],"default_left":[0,0,0,0,0,0,0],"id":28,"left_children":[1,3,5,-1,-1,-1,-1],"loss_changes":[2.3998857E-1,1.8906048E-1,1.08259484E-1,0E0,0E0,0E0,0E0],"parents":[2147483647,0,0,1,1,2,2],"right_children":[2,4,6,-1,-1,-1,-1],"split_conditions":[1.3716938E0,4.3275347E0,5.076305E-1,8.396525E-2,-3.5846513E-2,-1.0106727E-1,8.289071E-3],"split_indices":[10,7,41,0,0,0,0],"split_type":[0,0,0,0,0,0,0],"sum_hessian":[5.6599755E0,3.225863E0,2.4341125E0,1.9964489E0,1.2294141E0,1.418102E0,1.0160106E0],"tree_param":{"num_deleted":"0","num_feature":"42","num_nodes":"7","size_leaf_vector":"1"}},{"base_weights":[-2.705711E-2,-8.2720466E-2,9.679507E-2,-4.968774E-2,3.0886084E-1,1.128857E-1,2.4412032E-2],"categories":[],"categories_nodes":[],"categories_segments":[],"categories_sizes":[],"default_left":[0,0,0,0,0,0,0],"id":29,"left_children":[1,-1,3,-1,5,-1,-1],"loss_changes":[2.276347E-1,0E0,3.3471733E-1,0E0,1.795894E-2,0E0,0E0],"parents":[2147483647,0,0,2,2,4,4],"right_children":[2,-1,4,-1,6,-1,-1],"split_conditions":[5.415415E-1,-8.2720466E-2,2E0,-4.968774E-2,7.8828454E-1,1.128857E-1,2.4412032E-2],"split_indices":[38,0,11,0,37,0,0],"split_type":[0,0,0,0,0,0,0],"sum_hessian":[5.5243382E0,1.4289285E0,4.09541E0,1.9282656E0,2.1671443E0,1.167126E0,1.0000181E0],"tree_param":{"num_deleted":"0","num_feature":"42","num_nodes":"7","size_leaf_vector":"1"}},{"base_weights":[-1.829889E-2,1.8436435E-1,-1.7954418E-1,-4.0069935E-3,9.078946E-2,-1.2799719E-1,2.6910607E-2],"categories":[],"categories_nodes":[],"categories_segments":[],"categories_sizes":[],"default_left":[0,0,0,0,0,0,0],"id":30,"left_children":[1,3,5,-1,-1,-1,-1],"loss_changes":[2.4122037E-1,8.156664E-2,3.07961E-1,0E0,0E0,0E0,0E0],"parents":[2147483647,0,0,1,1,2,2],"right_children":[2,4,6,-1,-1,-1,-1],"split_conditions":[3.143816E-1,1.3338166E-1,1.1061062E0,-4.0069935E-3,9.078946E-2,-1.2799719E-1,2.6910607E-2],"split_indices":[17,2,38,0,0,0,0],"split_type":[0,0,0,0,0,0,0],"sum_hessian":[5.3686786E0,2.3152938E0,3.053385E0,1.1985695E0,1.1167241E0,1.2872845E0,1.7661006E0],"tree_param":{"num_deleted":"0","num_feature":"42","num_nodes":"7","size_leaf_vector":"1"}},{"base_weights":[-1.6297722E-2,6.1396327E-2,-1.5168716E-1,-1.0441343E-1,2.7160691E-2],"categories":[],"categories_nodes":[],"categories_segments":[],"categories_sizes":[],"default_left":[0,0,0,0,0],"id":31,"left_children":[1,-1,3,-1,-1],"loss_changes":[2.1655545E-1,0E0,2.417137E-1,0E0,0E0],"parents":[2147483647,0,0,2,2],"right_children":[2,-1,4,-1,-1],"split_conditions":[3.490663E-1,6.1396327E-2,1.1341342E0,-1.0441343E-1,2.7160691E-2],"split_indices":[18,0,38,0,0],"split_type":[0,0,0,0,0],"sum_hessian":[5.20139E0,1.781853E0,3.4195368E0,1.6472871E0,1.7722498E0],"tree_param":{"num_deleted":"0","num_feature":"42","num_nodes":"5","size_leaf_vector":"1"}},{"base_weights":[-1.484897E-2,1.3034762E-1,-1.9044657E-1,7.721186E-2,-2.765561E-2,-9.143134E-2,7.6992097E-3],"categories":[],"categories_nodes":[],"categories_segments":[],"categories_sizes":[],"default_left":[0,0,0,0,0,0,0],"id":32,"left_children":[1,3,5,-1,-1,-1,-1],"loss_changes":[1.7975445E-1,1.3453126E-1,8.581336E-2,0E0,0E0,0E0,0E0],"parents":[2147483647,0,0,1,1,2,2],"right_children":[2,4,6,-1,-1,-1,-1],"split_conditions":[1.3716938E0,5.02008E-1,7.8828454E-1,7.721186E-2,-2.765561E-2,-9.143134E-2,7.6992097E-3],"split_indices":[10,41,37,0,0,0,0],"split_type":[0,0,0,0,0,0,0],"sum_hessian":[5.076606E0,2.9199088E0,2.156697E0,1.7591809E0,1.1607279E0,1.1422048E0,1.0144924E0],"tree_param":{"num_deleted":"0","num_feature":"42","num_nodes":"7","size_leaf_vector":"1"}},{"base_weights":[-1.6393576E-2,-7.672173E-2,9.099395E-2,-6.341664E-2,2.9146677E-1,1.3660985E-1,-1.2591013E-2],"categories":[],"categories_nodes":[],"categories_segments":[],"categories_sizes":[],"default_left":[0,0,0,0,0,0,0],"id":33,"left_children":[1,-1,3,-1,5,-1,-1],"loss_changes":[1.7688996E-1,0E0,3.5642114E-1,0E0,2.0190564E-1,0E0,0E0],"parents":[2147483647,0,0,2,2,4,4],"right_children":[2,-1,4,-1,6,-1,-1],"split_conditions":[5.175175E-1,-7.672173E-2,3.0562738E-1,-6.341664E-2,4.269611E0,1.3660985E-1,-1.2591013E-2],"split_indices":[38,0,14,0,7,0,0],"split_type":[0,0,0,0,0,0,0],"sum_hessian":[4.9767704E0,1.1135123E0,3.8632581E0,1.5184525E0,2.3448057E0,1.3268996E0,1.0179061E0],"tree_param":{"num_deleted":"0","num_feature":"42","num_nodes":"7","size_leaf_vector":"1"}},{"base_weights":[-1.3515691E-2,4.8012193E-2,-1.4097747E-1,-1.11872576E-1,2.3412768E-2],"categories":[],"categories_nodes":[],"categories_segments":[],"categories_sizes":[],"default_left":[0,0,0,0,0],"id":34,"left_children":[1,-1,3,-1,-1],"loss_changes":[1.503858E-1,0E0,2.2534159E-1,0E0,0E0],"parents":[2147483647,0,0,2,2],"right_children":[2,-1,4,-1,-1],"split_conditions":[3.2439682E-1,4.8012193E-2,1.038038E0,-1.11872576E-1,2.3412768E-2],"split_indices":[22,0,38,0,0],"split_type":[0,0,0,0,0],"sum_hessian":[4.7781777E0,1.9150217E0,2.8631563E0,1.0493377E0,1.8138185E0],"tree_param":{"num_deleted":"0","num_feature":"42","num_nodes":"5","size_leaf_vector":"1"}},{"base_weights":[-1.7454484E-2,-6.720078E-2,8.490655E-2,-1.2923846E-1,1.2455125E-1,3.6466874E-2,-1.0318432E-1],"categories":[],"categories_nodes":[],"categories_segments":[],"categories_sizes":[],"default_left":[0,0,0,0,0,0,0],"id":35,"left_children":[1,-1,3,5,-1,-1,-1],"loss_changes":[1.390209E-1,0E0,3.733466E-1,2.3053473E-1,0E0,0E0,0E0],"parents":[2147483647,0,0,2,2,3,3],"right_children":[2,-1,4,6,-1,-1,-1],"split_conditions":[3.2700676E-1,-6.720078E-2,8.018018E-1,5.59693E-1,1.2455125E-1,3.6466874E-2,-1.0318432E-1],"split_indices":[12,0,38,20,0,0,0],"split_type":[0,0,0,0,0,0,0],"sum_hessian":[4.6758537E0,1.1556268E0,3.5202272E0,2.5047903E0,1.0154369E0,1.3554229E0,1.1493675E0],"tree_param":{"num_deleted":"0","num_feature":"42","num_nodes":"7","size_leaf_vector":"1"}},{"base_weights":[-1.4099318E-2,1.20623276E-1,-5.4244157E-2,7.527748E-2,-2.3192853E-2],"categories":[],"categories_nodes":[],"categories_segments":[],"categories_sizes":[],"default_left":[0,0,0,0,0],"id":36,"left_children":[1,3,-1,-1,-1],"loss_changes":[1.4473136E-1,1.1293434E-1,0E0,0E0,0E0],"parents":[2147483647,0,0,1,1],"right_children":[2,4,-1,-1,-1],"split_conditions":[1.3716938E0,7.8560406E-1,-5.4244157E-2,7.527748E-2,-2.3192853E-2],"split_indices":[10,37,0,0,0],"split_type":[0,0,0,0,0],"sum_hessian":[4.4728336E0,2.6266756E0,1.8461578E0,1.4224988E0,1.2041768E0],"tree_param":{"num_deleted":"0","num_feature":"42","num_nodes":"5","size_leaf_vector":"1"}},{"base_weights":[-1.0241161E-2,-7.056304E-2,9.42972E-2,-5.8589578E-2,2.4608046E-1,1.2086981E-1,-1.6688917E-2],"categories":[],"categories_nodes":[],"categories_segments":[],"categories_sizes":[],"default_left":[0,0,0,0,0,0,0],"id":37,"left_children":[1,-1,3,-1,5,-1,-1],"loss_changes":[1.4937854E-1,0E0,2.4175082E-1,0E0,1.8014127E-1,0E0,0E0],"parents":[2147483647,0,0,2,2,4,4],"right_children":[2,-1,4,-1,6,-1,-1],"split_conditions":[5.175175E-1,-7.056304E-2,3.2700676E-1,-5.8589578E-2,4.4095654E0,1.2086981E-1,-1.6688917E-2],"split_indices":[38,0,12,0,7,0,0],"split_type":[0,0,0,0,0,0,0],"sum_hessian":[4.4086018E0,1.0020906E0,3.4065108E0,1.0728557E0,2.3336554E0,1.3148531E0,1.0188022E0],"tree_param":{"num_deleted":"0","num_feature":"42","num_nodes":"7","size_leaf_vector":"1"}},{"base_weights":[-1.1271163E-2,-5.993377E-2,8.538541E-2,-4.683903E-2,7.538887E-2],"categories":[],"categories_nodes":[],"categories_segments":[],"categories_sizes":[],"default_left":[0,0,0,0,0],"id":38,"left_children":[1,-1,3,-1,-1],"loss_changes":[1.1278963E-1,0E0,2.0647739E-1,0E0,0E0],"parents":[2147483647,0,0,2,2],"right_children":[2,-1,4,-1,-1],"split_conditions":[3.7490275E-2,-5.993377E-2,1.8639659E0,-4.683903E-2,7.538887E-2],"split_indices":[2,0,4,0,0],"split_type":[0,0,0,0,0],"sum_hessian":[4.254036E0,1.0802808E0,3.1737552E0,1.3164123E0,1.857343E0],"tree_param":{"num_deleted":"0","num_feature":"42","num_nodes":"5","size_leaf_vector":"1"}},{"base_weights":[-1.3937658E-2,-1.2697661E-1,4.489453E-2,2.7441448E-2,-9.990825E-2],"categories":[],"categories_nodes":[],"categories_segments":[],"categories_sizes":[],"default_left":[0,0,0,0,0],"id":39,"left_children":[1,3,-1,-1,-1],"loss_changes":[1.1466297E-1,1.9251418E-1,0E0,0E0,0E0],"parents":[2147483647,0,0,1,1],"right_children":[2,4,-1,-1,-1],"split_conditions":[1.1341342E0,5.657531E-1,4.489453E-2,2.7441448E-2,-9.990825E-2],"split_indices":[38,20,0,0,0],"split_type":[0,0,0,0,0],"sum_hessian":[4.1732197E0,2.6002352E0,1.5729847E0,1.5320652E0,1.06817E0],"tree_param":{"num_deleted":"0","num_feature":"42","num_nodes":"5","size_leaf_vector":"1"}},{"base_weights":[-1.5892847E-2,-6.0939748E-2,8.250593E-2,-4.60103E-2,7.450025E-2],"categories":[],"categories_nodes":[],"categories_segments":[],"categories_sizes":[],"default_left":[0,0,0,0,0],"id":40,"left_children":[1,-1,3,-1,-1],"loss_changes":[1.10508315E-1,0E0,1.9636859E-1,0E0,0E0],"parents":[2147483647,0,0,2,2],"right_children":[2,-1,4,-1,-1],"split_conditions":[5.415415E-1,-6.0939748E-2,3.0562738E-1,-4.60103E-2,7.450025E-2],"split_indices":[38,0,14,0,0],"split_type":[0,0,0,0,0],"sum_hessian":[4.0883584E0,1.0417218E0,3.0466368E0,1.2887144E0,1.7579223E0],"tree_param":{"num_deleted":"0","num_feature":"42","num_nodes":"5","size_leaf_vector":"1"}},{"base_weights":[-1.7660487E-2,3.675526E-2,-1.3946058E-1,3.22639E-2,-9.573042E-2],"categories":[],"categories_nodes":[],"categories_segments":[],"categories_sizes":[],"default_left":[0,0,0,0,0],"id":41,"left_children":[1,-1,3,-1,-1],"loss_changes":[1.0253931E-1,0E0,1.739002E-1,0E0,0E0],"parents":[2147483647,0,0,2,2],"right_children":[2,-1,4,-1,-1],"split_conditions":[4.9116465E-1,3.675526E-2,7.3333335E-1,3.22639E-2,-9.573042E-2],"split_indices":[41,0,33,0,0],"split_type":[0,0,0,0,0],"sum_hessian":[4.004947E0,1.8592604E0,2.1456869E0,1.0724242E0,1.0732626E0],"tree_param":{"num_deleted":"0","num_feature":"42","num_nodes":"5","size_leaf_vector":"1"}},{"base_weights":[-1.8470787E-2,-1.5150753E-1,3.9611194E-2,-9.6466616E-2,2.587671E-2],"categories":[],"categories_nodes":[],"categories_segments":[],"categories_sizes":[],"default_left":[0,0,0,0,0],"id":42,"left_children":[1,3,-1,-1,-1],"loss_changes":[1.18732646E-1,1.523822E-1,0E0,0E0,0E0],"parents":[2147483647,0,0,1,1],"right_children":[2,4,-1,-1,-1],"split_conditions":[7.297297E-1,9.2611676E-1,3.9611194E-2,-9.6466616E-2,2.587671E-2],"split_indices":[38,6,0,0,0],"split_type":[0,0,0,0,0],"sum_hessian":[3.9307034E0,2.0829272E0,1.8477763E0,1.0089263E0,1.0740008E0],"tree_param":{"num_deleted":"0","num_feature":"42","num_nodes":"5","size_leaf_vector":"1"}},{"base_weights":[-1.997803E-2,1.03473485E-1,-4.614307E-2,9.167459E-2,-4.5579024E-2],"categories":[],"categories_nodes":[],"categories_segments":[],"categories_sizes":[],"default_left":[0,0,0,0,0],"id":43,"left_children":[1,3,-1,-1,-1],"loss_changes":[9.6213624E-2,2.0778589E-1,0E0,0E0,0E0],"parents":[2147483647,0,0,1,1],"right_children":[2,4,-1,-1,-1],"split_conditions":[9.75312E-1,6.3963896E-1,-4.614307E-2,9.167459E-2,-4.5579024E-2],"split_indices":[8,23,0,0,0],"split_type":[0,0,0,0,0],"sum_hessian":[3.8601482E0,2.1259444E0,1.7342038E0,1.07712E0,1.0488243E0],"tree_param":{"num_deleted":"0","num_feature":"42","num_nodes":"5","size_leaf_vector":"1"}},{"base_weights":[-1.3872846E-2,1.01849906E-1,-4.8261147E-2,6.7922026E-2,-1.9666074E-2],"categories":[],"categories_nodes":[],"categories_segments":[],"categories_sizes":[],"default_left":[0,0,0,0,0],"id":44,"left_children":[1,3,-1,-1,-1],"loss_changes":[9.764066E-2,8.333774E-2,0E0,0E0,0E0],"parents":[2147483647,0,0,1,1],"right_children":[2,4,-1,-1,-1],"split_conditions":[1.3716938E0,4.7751004E-1,-4.8261147E-2,6.7922026E-2,-1.9666074E-2],"split_indices":[10,41,0,0,0],"split_type":[0,0,0,0,0],"sum_hessian":[3.7766829E0,2.2849815E0,1.4917016E0,1.1080635E0,1.1769179E0],"tree_param":{"num_deleted":"0","num_feature":"42","num_nodes":"5","size_leaf_vector":"1"}},{"base_weights":[-9.701114E-3,8.5102536E-2,-5.2640177E-2,-4.4362877E-2,6.855874E-2],"categories":[],"categories_nodes":[],"categories_segments":[],"categories_sizes":[],"default_left":[0,0,0,0,0],"id":45,"left_children":[1,3,-1,-1,-1],"loss_changes":[8.928272E-2,1.5686806E-1,0E0,0E0,0E0],"parents":[2147483647,0,0,1,1],"right_children":[2,4,-1,-1,-1],"split_conditions":[5.2051606E0,1.9302468E0,-5.2640177E-2,-4.4362877E-2,6.855874E-2],"split_indices":[7,4,0,0,0],"split_type":[0,0,0,0,0],"sum_hessian":[3.7310781E0,2.6831584E0,1.0479199E0,1.010577E0,1.6725814E0],"tree_param":{"num_deleted":"0","num_feature":"42","num_nodes":"5","size_leaf_vector":"1"}},{"base_weights":[-1.2866068E-2,-3.9033737E-2,3.5348725E-2],"categories":[],"categories_nodes":[],"categories_segments":[],"categories_sizes":[],"default_left":[0,0,0],"id":46,"left_children":[1,-1,-1],"loss_changes":[8.6826876E-2,0E0,0E0],"parents":[2147483647,0,0],"right_children":[2,-1,-1],"split_conditions":[7.337337E-1,-3.9033737E-2,3.5348725E-2],"split_indices":[38,0,0],"split_type":[0,0,0],"sum_hessian":[3.6657546E0,1.9346458E0,1.7311088E0],"tree_param":{"num_deleted":"0","num_feature":"42","num_nodes":"3","size_leaf_vector":"1"}},{"base_weights":[-9.865832E-3,3.7906736E-2,-1.2451886E-1,-7.6139614E-2,2.00794E-2],"categories":[],"categories_nodes":[],"categories_segments":[],"categories_sizes":[],"default_left":[0,0,0,0,0],"id":47,"left_children":[1,-1,3,-1,-1],"loss_changes":[8.823402E-2,0E0,9.183863E-2,0E0,0E0],"parents":[2147483647,0,0,2,2],"right_children":[2,-1,4,-1,-1],"split_conditions":[3.1227934E-1,3.7906736E-2,1.1661662E0,-7.6139614E-2,2.00794E-2],"split_indices":[17,0,38,0,0],"split_type":[0,0,0,0,0],"sum_hessian":[3.6420367E0,1.6178111E0,2.0242255E0,1.0139052E0,1.0103203E0],"tree_param":{"num_deleted":"0","num_feature":"42","num_nodes":"5","size_leaf_vector":"1"}},{"base_weights":[-1.1186721E-2,3.4390662E-2,-3.724065E-2],"categories":[],"categories_nodes":[],"categories_segments":[],"categories_sizes":[],"default_left":[0,0,0],"id":48,"left_children":[1,-1,-1],"loss_changes":[7.949889E-2,0E0,0E0],"parents":[2147483647,0,0],"right_children":[2,-1,-1],"split_conditions":[4.9116465E-1,3.4390662E-2,-3.724065E-2],"split_indices":[41,0,0],"split_type":[0,0,0],"sum_hessian":[3.592667E0,1.6924188E0,1.9002483E0],"tree_param":{"num_deleted":"0","num_feature":"42","num_nodes":"3","size_leaf_vector":"1"}},{"base_weights":[-8.500963E-3,3.0307213E-2,-3.916617E-2],"categories":[],"categories_nodes":[],"categories_segments":[],"categories_sizes":[],"default_left":[0,0,0],"id":49,"left_children":[1,-1,-1],"loss_changes":[7.432627E-2,0E0,0E0],"parents":[2147483647,0,0],"right_children":[2,-1,-1],"split_conditions":[9.75312E-1,3.0307213E-2,-3.916617E-2],"split_indices":[8,0,0],"split_type":[0,0,0],"sum_hessian":[3.5734503E0,1.9741907E0,1.5992596E0],"tree_param":{"num_deleted":"0","num_feature":"42","num_nodes":"3","size_leaf_vector":"1"}},{"base_weights":[-7.9495255E-3,3.1168165E-2,-3.761248E-2],"categories":[],"categories_nodes":[],"categories_segments":[],"categories_sizes":[],"default_left":[0,0,0],"id":50,"left_children":[1,-1,-1],"loss_changes":[7.2825566E-2,0E0,0E0],"parents":[2147483647,0,0],"right_children":[2,-1,-1],"split_conditions":[3.3347082E-1,3.1168165E-2,-3.761248E-2],"split_indices":[17,0,0],"split_type":[0,0,0],"sum_hessian":[3.5533173E0,1.8789352E0,1.6743822E0],"tree_param":{"num_deleted":"0","num_feature":"42","num_nodes":"3","size_leaf_vector":"1"}},{"base_weights":[-7.030925E-3,-9.9129595E-2,3.661428E-2,2.7888382E-2,-7.348164E-2],"categories":[],"categories_nodes":[],"categories_segments":[],"categories_sizes":[],"default_left":[0,0,0,0,0],"id":51,"left_children":[1,3,-1,-1,-1],"loss_changes":[6.5998696E-2,1.1233715E-1,0E0,0E0,0E0],"parents":[2147483647,0,0,1,1],"right_children":[2,4,-1,-1,-1],"split_conditions":[1.1341342E0,5.5491245E-1,3.661428E-2,2.7888382E-2,-7.348164E-2],"split_indices":[38,20,0,0,0],"split_type":[0,0,0,0,0],"sum_hessian":[3.5340133E0,2.1978493E0,1.3361639E0,1.1048077E0,1.0930417E0],"tree_param":{"num_deleted":"0","num_feature":"42","num_nodes":"5","size_leaf_vector":"1"}},{"base_weights":[-7.213644E-3,-4.4557538E-2,7.933857E-2,-3.157196E-2,6.2439263E-2],"categories":[],"categories_nodes":[],"categories_segments":[],"categories_sizes":[],"default_left":[0,0,0,0,0],"id":52,"left_children":[1,-1,3,-1,-1],"loss_changes":[6.66423E-2,0E0,1.03523195E-1,0E0,0E0],"parents":[2147483647,0,0,2,2],"right_children":[2,-1,4,-1,-1],"split_conditions":[4.8017986E-2,-4.4557538E-2,1.8889382E0,-3.157196E-2,6.2439263E-2],"split_indices":[2,0,4,0,0],"split_type":[0,0,0,0,0],"sum_hessian":[3.4852693E0,1.0518783E0,2.433391E0,1.0752581E0,1.3581328E0],"tree_param":{"num_deleted":"0","num_feature":"42","num_nodes":"5","size_leaf_vector":"1"}},{"base_weights":[-8.076422E-3,7.671985E-2,-4.4118267E-2,-4.886971E-2,7.976556E-2],"categories":[],"categories_nodes":[],"categories_segments":[],"categories_sizes":[],"default_left":[0,0,0,0,0],"id":53,"left_children":[1,3,-1,-1,-1],"loss_changes":[6.362795E-2,1.9813816E-1,0E0,0E0,0E0],"parents":[2147483647,0,0,1,1],"right_children":[2,4,-1,-1,-1],"split_conditions":[6.692834E-1,2E0,-4.4118267E-2,-4.886971E-2,7.976556E-2],"split_indices":[13,11,0,0,0],"split_type":[0,0,0,0,0],"sum_hessian":[3.4415646E0,2.4157066E0,1.0258579E0,1.1269871E0,1.2887195E0],"tree_param":{"num_deleted":"0","num_feature":"42","num_nodes":"5","size_leaf_vector":"1"}},{"base_weights":[-8.515585E-3,9.644748E-2,-4.1943647E-2,-3.398918E-3,4.681141E-2],"categories":[],"categories_nodes":[],"categories_segments":[],"categories_sizes":[],"default_left":[0,0,0,0,0],"id":54,"left_children":[1,3,-1,-1,-1],"loss_changes":[7.3718406E-2,2.116834E-2,0E0,0E0,0E0],"parents":[2147483647,0,0,1,1],"right_children":[2,4,-1,-1,-1],"split_conditions":[1.3716938E0,4.6786395E-1,-4.1943647E-2,-3.398918E-3,4.681141E-2],"split_indices":[10,3,0,0,0],"split_type":[0,0,0,0,0],"sum_hessian":[3.3706992E0,2.0207021E0,1.349997E0,1.0078139E0,1.0128881E0],"tree_param":{"num_deleted":"0","num_feature":"42","num_nodes":"5","size_leaf_vector":"1"}},{"base_weights":[-5.647142E-3,2.782473E-2,-3.4960136E-2],"categories":[],"categories_nodes":[],"categories_segments":[],"categories_sizes":[],"default_left":[0,0,0],"id":55,"left_children":[1,-1,-1],"loss_changes":[5.8236208E-2,0E0,0E0],"parents":[2147483647,0,0],"right_children":[2,-1,-1],"split_conditions":[9.75312E-1,2.782473E-2,-3.4960136E-2],"split_indices":[8,0,0],"split_type":[0,0,0],"sum_hessian":[3.3468566E0,1.8599669E0,1.4868898E0],"tree_param":{"num_deleted":"0","num_feature":"42","num_nodes":"3","size_leaf_vector":"1"}},{"base_weights":[-5.6333514E-3,8.315787E-2,-4.5116354E-2,-3.029234E-2,7.668742E-2],"categories":[],"categories_nodes":[],"categories_segments":[],"categories_sizes":[],"default_left":[0,0,0,0,0],"id":56,"left_children":[1,3,-1,-1,-1],"loss_changes":[6.817234E-2,1.315093E-1,0E0,0E0,0E0],"parents":[2147483647,0,0,1,1],"right_children":[2,4,-1,-1,-1],"split_conditions":[6.962586E-1,6.416416E-1,-4.5116354E-2,-3.029234E-2,7.668742E-2],"split_indices":[24,38,0,0,0],"split_type":[0,0,0,0,0],"sum_hessian":[3.3310297E0,2.3283584E0,1.0026712E0,1.326579E0,1.0017794E0],"tree_param":{"num_deleted":"0","num_feature":"42","num_nodes":"5","size_leaf_vector":"1"}},{"base_weights":[-3.4574668E-3,3.2874126E-2,-3.2629177E-2],"categories":[],"categories_nodes":[],"categories_segments":[],"categories_sizes":[],"default_left":[0,0,0],"id":57,"left_children":[1,-1,-1],"loss_changes":[6.281345E-2,0E0,0E0],"parents":[2147483647,0,0],"right_children":[2,-1,-1],"split_conditions":[4.9116465E-1,3.2874126E-2,-3.2629177E-2],"split_indices":[41,0,0],"split_type":[0,0,0],"sum_hessian":[3.2755954E0,1.56023E0,1.7153655E0],"tree_param":{"num_deleted":"0","num_feature":"42","num_nodes":"3","size_leaf_vector":"1"}},{"base_weights":[-2.3755657E-3,2.6353706E-2,-3.546344E-2],"categories":[],"categories_nodes":[],"categories_segments":[],"categories_sizes":[],"default_left":[0,0,0],"id":58,"left_children":[1,-1,-1],"loss_changes":[5.490801E-2,0E0,0E0],"parents":[2147483647,0,0],"right_children":[2,-1,-1],"split_conditions":[1.3716938E0,2.6353706E-2,-3.546344E-2],"split_indices":[10,0,0],"split_type":[0,0,0],"sum_hessian":[3.260285E0,1.9686202E0,1.2916647E0],"tree_param":{"num_deleted":"0","num_feature":"42","num_nodes":"3","size_leaf_vector":"1"}},{"base_weights":[-3.8316203E-3,3.1604376E-2,-3.0147279E-2],"categories":[],"categories_nodes":[],"categories_segments":[],"categories_sizes":[],"default_left":[0,0,0],"id":59,"left_children":[1,-1,-1],"loss_changes":[5.5401143E-2,0E0,0E0],"parents":[2147483647,0,0],"right_children":[2,-1,-1],"split_conditions":[3.1227934E-1,3.1604376E-2,-3.0147279E-2],"split_indices":[17,0,0],"split_type":[0,0,0],"sum_hessian":[3.2465372E0,1.4823217E0,1.7642154E0],"tree_param":{"num_deleted":"0","num_feature":"42","num_nodes":"3","size_leaf_vector":"1"}},{"base_weights":[-2.3484414E-3,-3.165589E-2,3.2816906E-2],"categories":[],"categories_nodes":[],"categories_segments":[],"categories_sizes":[],"default_left":[0,0,0],"id":60,"left_children":[1,-1,-1],"loss_changes":[6.0326554E-2,0E0,0E0],"parents":[2147483647,0,0],"right_children":[2,-1,-1],"split_conditions":[7.337337E-1,-3.165589E-2,3.2816906E-2],"split_indices":[38,0,0],"split_type":[0,0,0],"sum_hessian":[3.2317088E0,1.7092028E0,1.522506E0],"tree_param":{"num_deleted":"0","num_feature":"42","num_nodes":"3","size_leaf_vector":"1"}},{"base_weights":[-1.3749889E-3,8.57839E-2,-3.8524367E-2,6.654327E-2,-2.9625664E-2],"categories":[],"categories_nodes":[],"categories_segments":[],"categories_sizes":[],"default_left":[0,0,0,0,0],"id":61,"left_children":[1,3,-1,-1,-1],"loss_changes":[5.7688918E-2,9.970763E-2,0E0,0E0,0E0],"parents":[2147483647,0,0,1,1],"right_children":[2,4,-1,-1,-1],"split_conditions":[8.666667E-1,6.347008E-1,-3.8524367E-2,6.654327E-2,-2.9625664E-2],"split_indices":[33,5,0,0,0],"split_type":[0,0,0,0,0],"sum_hessian":[3.2151709E0,2.0994997E0,1.1156712E0,1.0923237E0,1.007176E0],"tree_param":{"num_deleted":"0","num_feature":"42","num_nodes":"5","size_leaf_vector":"1"}},{"base_weights":[-1.1964021E-3,-3.7686948E-2,7.8093655E-2,-2.5859198E-2,6.493654E-2],"categories":[],"categories_nodes":[],"categories_segments":[],"categories_sizes":[],"default_left":[0,0,0,0,0],"id":62,"left_children":[1,-1,3,-1,-1],"loss_changes":[5.0973568E-2,0E0,9.0603895E-2,0E0,0E0],"parents":[2147483647,0,0,2,2],"right_children":[2,-1,4,-1,-1],"split_conditions":[3.0562738E-1,-3.7686948E-2,6.016016E-1,-2.5859198E-2,6.493654E-2],"split_indices":[14,0,38,0,0],"split_type":[0,0,0,0,0],"sum_hessian":[3.17231E0,1.0072786E0,2.1650317E0,1.1621287E0,1.0029029E0],"tree_param":{"num_deleted":"0","num_feature":"42","num_nodes":"5","size_leaf_vector":"1"}},{"base_weights":[-3.5899648E-4,2.6306052E-2,-3.5294946E-2],"categories":[],"categories_nodes":[],"categories_segments":[],"categories_sizes":[],"default_left":[0,0,0],"id":63,"left_children":[1,-1,-1],"loss_changes":[5.2994955E-2,0E0,0E0],"parents":[2147483647,0,0],"right_children":[2,-1,-1],"split_conditions":[1.3716938E0,2.6306052E-2,-3.5294946E-2],"split_indices":[10,0,0],"split_type":[0,0,0],"sum_hessian":[3.1327348E0,1.9336295E0,1.1991053E0],"tree_param":{"num_deleted":"0","num_feature":"42","num_nodes":"3","size_leaf_vector":"1"}},{"base_weights":[-2.4510075E-3,2.8461443E-2,-2.8680911E-2],"categories":[],"categories_nodes":[],"categories_segments":[],"categories_sizes":[],"default_left":[0,0,0],"id":64,"left_children":[1,-1,-1],"loss_changes":[4.641598E-2,0E0,0E0],"parents":[2147483647,0,0],"right_children":[2,-1,-1],"split_conditions":[4.9116465E-1,2.8461443E-2,-2.8680911E-2],"split_indices":[41,0,0],"split_type":[0,0,0],"sum_hessian":[3.119442E0,1.5165436E0,1.6028985E0],"tree_param":{"num_deleted":"0","num_feature":"42","num_nodes":"3","size_leaf_vector":"1"}},{"base_weights":[-1.7770609E-3,-2.6241837E-2,3.5068706E-2],"categories":[],"categories_nodes":[],"categories_segments":[],"categories_sizes":[],"default_left":[0,0,0],"id":65,"left_children":[1,-1,-1],"loss_changes":[5.2003913E-2,0E0,0E0],"parents":[2147483647,0,0],"right_children":[2,-1,-1],"split_conditions":[1.1341342E0,-2.6241837E-2,3.5068706E-2],"split_indices":[38,0,0],"split_type":[0,0,0],"sum_hessian":[3.1081376E0,1.9574994E0,1.1506381E0],"tree_param":{"num_deleted":"0","num_feature":"42","num_nodes":"3","size_leaf_vector":"1"}},{"base_weights":[9.205634E-4,3.196151E-2,-2.7164778E-2],"categories":[],"categories_nodes":[],"categories_segments":[],"categories_sizes":[],"default_left":[0,0,0],"id":66,"left_children":[1,-1,-1],"loss_changes":[4.9194805E-2,0E0,0E0],"parents":[2147483647,0,0],"right_children":[2,-1,-1],"split_conditions":[3.2439682E-1,3.196151E-2,-2.7164778E-2],"split_indices":[22,0,0],"split_type":[0,0,0],"sum_hessian":[3.0936222E0,1.3593166E0,1.7343056E0],"tree_param":{"num_deleted":"0","num_feature":"42","num_nodes":"3","size_leaf_vector":"1"}},{"base_weights":[1.8281791E-3,3.180759E-2,-2.5448086E-2],"categories":[],"categories_nodes":[],"categories_segments":[],"categories_sizes":[],"default_left":[0,0,0],"id":67,"left_children":[1,-1,-1],"loss_changes":[4.583958E-2,0E0,0E0],"parents":[2147483647,0,0],"right_children":[2,-1,-1],"split_conditions":[-1.7369266E-1,3.180759E-2,-2.5448086E-2],"split_indices":[16,0,0],"split_type":[0,0,0],"sum_hessian":[3.08073E0,1.2972909E0,1.783439E0],"tree_param":{"num_deleted":"0","num_feature":"42","num_nodes":"3","size_leaf_vector":"1"}},{"base_weights":[2.8569046E-3,8.3592854E-2,-3.49844E-2,5.314673E-2,-1.5349737E-2],"categories":[],"categories_nodes":[],"categories_segments":[],"categories_sizes":[],"default_left":[0,0,0,0,0],"id":68,"left_children":[1,3,-1,-1,-1],"loss_changes":[4.898649E-2,4.7015518E-2,0E0,0E0,0E0],"parents":[2147483647,0,0,1,1],"right_children":[2,4,-1,-1,-1],"split_conditions":[8.666667E-1,-1.13015376E-1,-3.49844E-2,5.314673E-2,-1.5349737E-2],"split_indices":[33,16,0,0,0],"split_type":[0,0,0,0,0],"sum_hessian":[3.0679824E0,2.0099914E0,1.057991E0,1.0006353E0,1.009356E0],"tree_param":{"num_deleted":"0","num_feature":"42","num_nodes":"5","size_leaf_vector":"1"}},{"base_weights":[2.7863774E-3,-3.25768E-2,2.6880693E-2],"categories":[],"categories_nodes":[],"categories_segments":[],"categories_sizes":[],"default_left":[0,0,0],"id":69,"left_children":[1,-1,-1],"loss_changes":[4.8808236E-2,0E0,0E0],"parents":[2147483647,0,0],"right_children":[2,-1,-1],"split_conditions":[2.7107654E0,-3.25768E-2,2.6880693E-2],"split_indices":[7,0,0],"split_type":[0,0,0],"sum_hessian":[3.041538E0,1.222456E0,1.8190819E0],"tree_param":{"num_deleted":"0","num_feature":"42","num_nodes":"3","size_leaf_vector":"1"}},{"base_weights":[5.3159375E-4,2.7549645E-2,-2.7118748E-2],"categories":[],"categories_nodes":[],"categories_segments":[],"categories_sizes":[],"default_left":[0,0,0],"id":70,"left_children":[1,-1,-1],"loss_changes":[4.175257E-2,0E0,0E0],"parents":[2147483647,0,0],"right_children":[2,-1,-1],"split_conditions":[7.8560406E-1,2.7549645E-2,-2.7118748E-2],"split_indices":[37,0,0],"split_type":[0,0,0],"sum_hessian":[3.029444E0,1.5066557E0,1.5227883E0],"tree_param":{"num_deleted":"0","num_feature":"42","num_nodes":"3","size_leaf_vector":"1"}},{"base_weights":[4.7978113E-4,-2.5353802E-2,2.7862942E-2],"categories":[],"categories_nodes":[],"categories_segments":[],"categories_sizes":[],"default_left":[0,0,0],"id":71,"left_children":[1,-1,-1],"loss_changes":[3.941229E-2,0E0,0E0],"parents":[2147483647,0,0],"right_children":[2,-1,-1],"split_conditions":[7.337337E-1,-2.5353802E-2,2.7862942E-2],"split_indices":[38,0,0],"split_type":[0,0,0],"sum_hessian":[3.0192237E0,1.6170679E0,1.4021558E0],"tree_param":{"num_deleted":"0","num_feature":"42","num_nodes":"3","size_leaf_vector":"1"}},{"base_weights":[9.6364174E-4,2.839678E-2,-3.0913623E-2],"categories":[],"categories_nodes":[],"categories_segments":[],"categories_sizes":[],"default_left":[0,0,0],"id":72,"left_children":[1,-1,-1],"loss_changes":[4.8812974E-2,0E0,0E0],"parents":[2147483647,0,0],"right_children":[2,-1,-1],"split_conditions":[3.3347082E-1,2.839678E-2,-3.0913623E-2],"split_indices":[17,0,0],"split_type":[0,0,0],"sum_hessian":[3.0081818E0,1.629889E0,1.3782929E0],"tree_param":{"num_deleted":"0","num_feature":"42","num_nodes":"3","size_leaf_vector":"1"}},{"base_weights":[4.0851504E-5,-2.1813149E-2,2.9931923E-2],"categories":[],"categories_nodes":[],"categories_segments":[],"categories_sizes":[],"default_left":[0,0,0],"id":73,"left_children":[1,-1,-1],"loss_changes":[3.624414E-2,0E0,0E0],"parents":[2147483647,0,0],"right_children":[2,-1,-1],"split_conditions":[1.1341342E0,-2.1813149E-2,2.9931923E-2],"split_indices":[38,0,0],"split_type":[0,0,0],"sum_hessian":[2.995449E0,1.8886698E0,1.1067791E0],"tree_param":{"num_deleted":"0","num_feature":"42","num_nodes":"3","size_leaf_vector":"1"}},{"base_weights":[2.0747257E-3,2.6615724E-2,-2.8529972E-2],"categories":[],"categories_nodes":[],"categories_segments":[],"categories_sizes":[],"default_left":[0,0,0],"id":74,"left_children":[1,-1,-1],"loss_changes":[4.199131E-2,0E0,0E0],"parents":[2147483647,0,0],"right_children":[2,-1,-1],"split_conditions":[3.3347082E-1,2.6615724E-2,-2.8529972E-2],"split_indices":[17,0,0],"split_type":[0,0,0],"sum_hessian":[2.9852254E0,1.6241181E0,1.3611073E0],"tree_param":{"num_deleted":"0","num_feature":"42","num_nodes":"3","size_leaf_vector":"1"}},{"base_weights":[9.709202E-4,2.1262405E-2,-3.0243933E-2],"categories":[],"categories_nodes":[],"categories_segments":[],"categories_sizes":[],"default_left":[0,0,0],"id":75,"left_children":[1,-1,-1],"loss_changes":[3.542247E-2,0E0,0E0],"parents":[2147483647,0,0],"right_children":[2,-1,-1],"split_conditions":[8.666667E-1,2.1262405E-2,-3.0243933E-2],"split_indices":[33,0,0],"split_type":[0,0,0],"sum_hessian":[2.9742837E0,1.9433178E0,1.030966E0],"tree_param":{"num_deleted":"0","num_feature":"42","num_nodes":"3","size_leaf_vector":"1"}},{"base_weights":[-1.596705E-3,2.9706093E-2,-2.5249733E-2],"categories":[],"categories_nodes":[],"categories_segments":[],"categories_sizes":[],"default_left":[0,0,0],"id":76,"left_children":[1,-1,-1],"loss_changes":[4.12756E-2,0E0,0E0],"parents":[2147483647,0,0],"right_children":[2,-1,-1],"split_conditions":[-1.7369266E-1,2.9706093E-2,-2.5249733E-2],"split_indices":[16,0,0],"split_type":[0,0,0],"sum_hessian":[2.9651022E0,1.2466804E0,1.7184218E0],"tree_param":{"num_deleted":"0","num_feature":"42","num_nodes":"3","size_leaf_vector":"1"}},{"base_weights":[1.086914E-5,2.6301838E-2,-2.5846338E-2],"categories":[],"categories_nodes":[],"categories_segments":[],"categories_sizes":[],"default_left":[0,0,0],"id":77,"left_children":[1,-1,-1],"loss_changes":[3.741645E-2,0E0,0E0],"parents":[2147483647,0,0],"right_children":[2,-1,-1],"split_conditions":[4.9116465E-1,2.6301838E-2,-2.5846338E-2],"split_indices":[41,0,0],"split_type":[0,0,0],"sum_hessian":[2.9535809E0,1.4554034E0,1.4981774E0],"tree_param":{"num_deleted":"0","num_feature":"42","num_nodes":"3","size_leaf_vector":"1"}},{"base_weights":[1.2225607E-4,-2.974793E-2,2.1883957E-2],"categories":[],"categories_nodes":[],"categories_segments":[],"categories_sizes":[],"default_left":[0,0,0],"id":78,"left_children":[1,-1,-1],"loss_changes":[3.575214E-2,0E0,0E0],"parents":[2147483647,0,0],"right_children":[2,-1,-1],"split_conditions":[2.3012419E0,-2.974793E-2,2.1883957E-2],"split_indices":[4,0,0],"split_type":[0,0,0],"sum_hessian":[2.9444296E0,1.0928737E0,1.8515561E0],"tree_param":{"num_deleted":"0","num_feature":"42","num_nodes":"3","size_leaf_vector":"1"}},{"base_weights":[-1.9237221E-3,-2.5444577E-2,2.666543E-2],"categories":[],"categories_nodes":[],"categories_segments":[],"categories_sizes":[],"default_left":[0,0,0],"id":79,"left_children":[1,-1,-1],"loss_changes":[3.7160616E-2,0E0,0E0],"parents":[2147483647,0,0],"right_children":[2,-1,-1],"split_conditions":[7.337337E-1,-2.5444577E-2,2.666543E-2],"split_indices":[38,0,0],"split_type":[0,0,0],"sum_hessian":[2.9352777E0,1.5690347E0,1.3662429E0],"tree_param":{"num_deleted":"0","num_feature":"42","num_nodes":"3","size_leaf_vector":"1"}},{"base_weights":[-1.0397334E-3,2.7453283E-2,-2.4523513E-2],"categories":[],"categories_nodes":[],"categories_segments":[],"categories_sizes":[],"default_left":[0,0,0],"id":80,"left_children":[1,-1,-1],"loss_changes":[3.679676E-2,0E0,0E0],"parents":[2147483647,0,0],"right_children":[2,-1,-1],"split_conditions":[3.2439682E-1,2.7453283E-2,-2.4523513E-2],"split_indices":[22,0,0],"split_type":[0,0,0],"sum_hessian":[2.9248757E0,1.3000842E0,1.6247915E0],"tree_param":{"num_deleted":"0","num_feature":"42","num_nodes":"3","size_leaf_vector":"1"}},{"base_weights":[1.9591052E-5,2.1334836E-2,-2.8852703E-2],"categories":[],"categories_nodes":[],"categories_segments":[],"categories_sizes":[],"default_left":[0,0,0],"id":81,"left_children":[1,-1,-1],"loss_changes":[3.361638E-2,0E0,0E0],"parents":[2147483647,0,0],"right_children":[2,-1,-1],"split_conditions":[4.3275347E0,2.1334836E-2,-2.8852703E-2],"split_indices":[7,0,0],"split_type":[0,0,0],"sum_hessian":[2.9152145E0,1.8262043E0,1.0890104E0],"tree_param":{"num_deleted":"0","num_feature":"42","num_nodes":"3","size_leaf_vector":"1"}},{"base_weights":[-1.9212739E-3,-2.9629093E-2,2.2948336E-2],"categories":[],"categories_nodes":[],"categories_segments":[],"categories_sizes":[],"default_left":[0,0,0],"id":82,"left_children":[1,-1,-1],"loss_changes":[3.7218783E-2,0E0,0E0],"parents":[2147483647,0,0],"right_children":[2,-1,-1],"split_conditions":[2.7107654E0,-2.9629093E-2,2.2948336E-2],"split_indices":[7,0,0],"split_type":[0,0,0],"sum_hessian":[2.906249E0,1.1842403E0,1.7220087E0],"tree_param":{"num_deleted":"0","num_feature":"42","num_nodes":"3","size_leaf_vector":"1"}},{"base_weights":[-3.072218E-3,-2.5621016E-2,2.4425069E-2],"categories":[],"categories_nodes":[],"categories_segments":[],"categories_sizes":[],"default_left":[0,0,0],"id":83,"left_children":[1,-1,-1],"loss_changes":[3.4060907E-2,0E0,0E0],"parents":[2147483647,0,0],"right_children":[2,-1,-1],"split_conditions":[2E0,-2.5621016E-2,2.4425069E-2],"split_indices":[11,0,0],"split_type":[0,0,0],"sum_hessian":[2.896965E0,1.4617391E0,1.435226E0],"tree_param":{"num_deleted":"0","num_feature":"42","num_nodes":"3","size_leaf_vector":"1"}},{"base_weights":[-2.4676863E-3,2.149682E-2,-3.0057902E-2],"categories":[],"categories_nodes":[],"categories_segments":[],"categories_sizes":[],"default_left":[0,0,0],"id":84,"left_children":[1,-1,-1],"loss_changes":[3.533742E-2,0E0,0E0],"parents":[2147483647,0,0],"right_children":[2,-1,-1],"split_conditions":[1.3716938E0,2.149682E-2,-3.0057902E-2],"split_indices":[10,0,0],"split_type":[0,0,0],"sum_hessian":[2.887202E0,1.7935622E0,1.0936399E0],"tree_param":{"num_deleted":"0","num_feature":"42","num_nodes":"3","size_leaf_vector":"1"}},{"base_weights":[-3.951188E-3,2.2771606E-2,-2.7223552E-2],"categories":[],"categories_nodes":[],"categories_segments":[],"categories_sizes":[],"default_left":[0,0,0],"id":85,"left_children":[1,-1,-1],"loss_changes":[3.376863E-2,0E0,0E0],"parents":[2147483647,0,0],"right_children":[2,-1,-1],"split_conditions":[9.75312E-1,2.2771606E-2,-2.7223552E-2],"split_indices":[8,0,0],"split_type":[0,0,0],"sum_hessian":[2.8782754E0,1.5643853E0,1.3138902E0],"tree_param":{"num_deleted":"0","num_feature":"42","num_nodes":"3","size_leaf_vector":"1"}},{"base_weights":[-3.9320355E-3,-2.6893198E-2,2.3623303E-2],"categories":[],"categories_nodes":[],"categories_segments":[],"categories_sizes":[],"default_left":[0,0,0],"id":86,"left_children":[1,-1,-1],"loss_changes":[3.4475002E-2,0E0,0E0],"parents":[2147483647,0,0],"right_children":[2,-1,-1],"split_conditions":[3.4941965E-1,-2.6893198E-2,2.3623303E-2],"split_indices":[3,0,0],"split_type":[0,0,0],"sum_hessian":[2.8688512E0,1.3671885E0,1.5016627E0],"tree_param":{"num_deleted":"0","num_feature":"42","num_nodes":"3","size_leaf_vector":"1"}},{"base_weights":[-3.6133875E-3,-2.4506377E-2,2.4768319E-2],"categories":[],"categories_nodes":[],"categories_segments":[],"categories_sizes":[],"default_left":[0,0,0],"id":87,"left_children":[1,-1,-1],"loss_changes":[3.2713372E-2,0E0,0E0],"parents":[2147483647,0,0],"right_children":[2,-1,-1],"split_conditions":[7.337337E-1,-2.4506377E-2,2.4768319E-2],"split_indices":[38,0,0],"split_type":[0,0,0],"sum_hessian":[2.8598418E0,1.5277526E0,1.3320892E0],"tree_param":{"num_deleted":"0","num_feature":"42","num_nodes":"3","size_leaf_vector":"1"}},{"base_weights":[-2.4684865E-3,2.5528423E-2,-2.4282841E-2],"categories":[],"categories_nodes":[],"categories_segments":[],"categories_sizes":[],"default_left":[0,0,0],"id":88,"left_children":[1,-1,-1],"loss_changes":[3.334751E-2,0E0,0E0],"parents":[2147483647,0,0],"right_children":[2,-1,-1],"split_conditions":[5.785419E-1,2.5528423E-2,-2.4282841E-2],"split_indices":[20,0,0],"split_type":[0,0,0],"sum_hessian":[2.8506637E0,1.3074359E0,1.5432277E0],"tree_param":{"num_deleted":"0","num_feature":"42","num_nodes":"3","size_leaf_vector":"1"}},{"base_weights":[-1.4092918E-3,-2.0779261E-2,2.7299024E-2],"categories":[],"categories_nodes":[],"categories_segments":[],"categories_sizes":[],"default_left":[0,0,0],"id":89,"left_children":[1,-1,-1],"loss_changes":[3.0392168E-2,0E0,0E0],"parents":[2147483647,0,0],"right_children":[2,-1,-1],"split_conditions":[1.1341342E0,-2.0779261E-2,2.7299024E-2],"split_indices":[38,0,0],"split_type":[0,0,0],"sum_hessian":[2.8418777E0,1.78302E0,1.0588577E0],"tree_param":{"num_deleted":"0","num_feature":"42","num_nodes":"3","size_leaf_vector":"1"}},{"base_weights":[7.1797153E-4,2.5174737E-2,-2.4428468E-2],"categories":[],"categories_nodes":[],"categories_segments":[],"categories_sizes":[],"default_left":[0,0,0],"id":90,"left_children":[1,-1,-1],"loss_changes":[3.303144E-2,0E0,0E0],"parents":[2147483647,0,0],"right_children":[2,-1,-1],"split_conditions":[1.8014254E-1,2.5174737E-2,-2.4428468E-2],"split_indices":[1,0,0],"split_type":[0,0,0],"sum_hessian":[2.8333123E0,1.3969436E0,1.4363688E0],"tree_param":{"num_deleted":"0","num_feature":"42","num_nodes":"3","size_leaf_vector":"1"}},{"base_weights":[6.9871097E-4,2.3668403E-2,-2.2139298E-2],"categories":[],"categories_nodes":[],"categories_segments":[],"categories_sizes":[],"default_left":[0,0,0],"id":91,"left_children":[1,-1,-1],"loss_changes":[2.8102174E-2,0E0,0E0],"parents":[2147483647,0,0],"right_children":[2,-1,-1],"split_conditions":[3.143816E-1,2.3668403E-2,-2.2139298E-2],"split_indices":[17,0,0],"split_type":[0,0,0],"sum_hessian":[2.824674E0,1.3493123E0,1.4753616E0],"tree_param":{"num_deleted":"0","num_feature":"42","num_nodes":"3","size_leaf_vector":"1"}},{"base_weights":[8.910005E-4,-2.8149841E-2,2.1089522E-2],"categories":[],"categories_nodes":[],"categories_segments":[],"categories_sizes":[],"default_left":[0,0,0],"id":92,"left_children":[1,-1,-1],"loss_changes":[3.169253E-2,0E0,0E0],"parents":[2147483647,0,0],"right_children":[2,-1,-1],"split_conditions":[3.7073433E-1,-2.8149841E-2,2.1089522E-2],"split_indices":[15,0,0],"split_type":[0,0,0],"sum_hessian":[2.8171892E0,1.0425098E0,1.7746794E0],"tree_param":{"num_deleted":"0","num_feature":"42","num_nodes":"3","size_leaf_vector":"1"}},{"base_weights":[-1.2384275E-3,2.4076363E-2,-2.4271304E-2],"categories":[],"categories_nodes":[],"categories_segments":[],"categories_sizes":[],"default_left":[0,0,0],"id":93,"left_children":[1,-1,-1],"loss_changes":[3.1216655E-2,0E0,0E0],"parents":[2147483647,0,0],"right_children":[2,-1,-1],"split_conditions":[4.9116465E-1,2.4076363E-2,-2.4271304E-2],"split_indices":[41,0,0],"split_type":[0,0,0],"sum_hessian":[2.8082118E0,1.3845352E0,1.4236766E0],"tree_param":{"num_deleted":"0","num_feature":"42","num_nodes":"3","size_leaf_vector":"1"}},{"base_weights":[-9.219886E-4,-2.1983285E-2,2.4739463E-2],"categories":[],"categories_nodes":[],"categories_segments":[],"categories_sizes":[],"default_left":[0,0,0],"id":94,"left_children":[1,-1,-1],"loss_changes":[2.8973384E-2,0E0,0E0],"parents":[2147483647,0,0],"right_children":[2,-1,-1],"split_conditions":[8.018018E-1,-2.1983285E-2,2.4739463E-2],"split_indices":[38,0,0],"split_type":[0,0,0],"sum_hessian":[2.800534E0,1.5643579E0,1.2361761E0],"tree_param":{"num_deleted":"0","num_feature":"42","num_nodes":"3","size_leaf_vector":"1"}},{"base_weights":[8.148401E-5,-2.5069134E-2,2.3684826E-2],"categories":[],"categories_nodes":[],"categories_segments":[],"categories_sizes":[],"default_left":[0,0,0],"id":95,"left_children":[1,-1,-1],"loss_changes":[3.1615548E-2,0E0,0E0],"parents":[2147483647,0,0],"right_children":[2,-1,-1],"split_conditions":[3.4941965E-1,-2.5069134E-2,2.3684826E-2],"split_indices":[3,0,0],"split_type":[0,0,0],"sum_hessian":[2.7924066E0,1.3262646E0,1.4661419E0],"tree_param":{"num_deleted":"0","num_feature":"42","num_nodes":"3","size_leaf_vector":"1"}},{"base_weights":[-3.126705E-4,2.1798877E-2,-2.4188416E-2],"categories":[],"categories_nodes":[],"categories_segments":[],"categories_sizes":[],"default_left":[0,0,0],"id":96,"left_children":[1,-1,-1],"loss_changes":[2.80379E-2,0E0,0E0],"parents":[2147483647,0,0],"right_children":[2,-1,-1],"split_conditions":[9.75312E-1,2.1798877E-2,-2.4188416E-2],"split_indices":[8,0,0],"split_type":[0,0,0],"sum_hessian":[2.7841659E0,1.508659E0,1.2755067E0],"tree_param":{"num_deleted":"0","num_feature":"42","num_nodes":"3","size_leaf_vector":"1"}},{"base_weights":[-8.5514673E-4,-2.5422877E-2,2.1696532E-2],"categories":[],"categories_nodes":[],"categories_segments":[],"categories_sizes":[],"default_left":[0,0,0],"id":97,"left_children":[1,-1,-1],"loss_changes":[2.9310344E-2,0E0,0E0],"parents":[2147483647,0,0],"right_children":[2,-1,-1],"split_conditions":[2.912185E0,-2.5422877E-2,2.1696532E-2],"split_indices":[7,0,0],"split_type":[0,0,0],"sum_hessian":[2.7763336E0,1.219864E0,1.5564697E0],"tree_param":{"num_deleted":"0","num_feature":"42","num_nodes":"3","size_leaf_vector":"1"}},{"base_weights":[-1.5937296E-3,2.1169882E-2,-2.9481335E-2],"categories":[],"categories_nodes":[],"categories_segments":[],"categories_sizes":[],"default_left":[0,0,0],"id":98,"left_children":[1,-1,-1],"loss_changes":[3.322851E-2,0E0,0E0],"parents":[2147483647,0,0],"right_children":[2,-1,-1],"split_conditions":[4.3275347E0,2.1169882E-2,-2.9481335E-2],"split_indices":[7,0,0],"split_type":[0,0,0],"sum_hessian":[2.7690625E0,1.7402356E0,1.028827E0],"tree_param":{"num_deleted":"0","num_feature":"42","num_nodes":"3","size_leaf_vector":"1"}},{"base_weights":[-3.3419132E-3,-2.175042E-2,2.3650145E-2],"categories":[],"categories_nodes":[],"categories_segments":[],"categories_sizes":[],"default_left":[0,0,0],"id":99,"left_children":[1,-1,-1],"loss_changes":[2.7085308E-2,0E0,0E0],"parents":[2147483647,0,0],"right_children":[2,-1,-1],"split_conditions":[4.5745042E-1,-2.175042E-2,2.3650145E-2],"split_indices":[3,0,0],"split_type":[0,0,0],"sum_hessian":[2.7601404E0,1.5626956E0,1.1974448E0],"tree_param":{"num_deleted":"0","num_feature":"42","num_nodes":"3","size_leaf_vector":"1"}}]},"name":"gbtree"},"learner_model_param":{"base_score":"[1.6666667E-1]","boost_from_average":"1","num_class":"0","num_feature":"42","num_target":"1"},"objective":{"name":"binary:logistic","reg_loss_param":{"scale_pos_weight":"1"}}},"version":[3,2,0]}