{"learner":{"attributes":{"scikit_learn":"{\"_estimator_type\": \"classifier\"}"},"feature_names":["ela_meta.lin_simple.adj_r2","ela_meta.lin_simple.intercept","ela_meta.lin_simple.coef.min","ela_meta.lin_simple.coef.max","ela_meta.lin_simple.coef.max_by_min","ela_meta.lin_w_interact.adj_r2","ela_meta.quad_simple.adj_r2","ela_meta.quad_simple.cond","ela_meta.quad_w_interact.adj_r2","ela_distr.skewness","ela_distr.kurtosis","ela_distr.number_of_peaks","nbc.nn_nb.sd_ratio","nbc.nn_nb.mean_ratio","nbc.nn_nb.cor","nbc.dist_ratio.coeff_var","nbc.nb_fitness.cor","disp.ratio_mean_02","disp.ratio_mean_05","disp.ratio_mean_10","disp.ratio_mean_25","disp.ratio_median_02","disp.ratio_median_05","disp.ratio_median_10","disp.ratio_median_25","disp.diff_mean_02","disp.diff_mean_05","disp.diff_mean_10","disp.diff_mean_25","disp.diff_median_02","disp.diff_median_05","disp.diff_median_10","disp.diff_median_25","pca.expl_var.cov_init","pca.expl_var.cor_init","pca.expl_var_PC1.cov_init","pca.expl_var_PC1.cor_init","ic.h_max","ic.eps_s","ic.eps_max","ic.eps_ratio","ic.m0"],"feature_types":["float","float","float","float","float","float","float","float","float","float","float","float","float","float","float","float","float","float","float","float","float","float","float","float","float","float","float","float","float","float","float","float","float","float","float","float","float","float","float","float","float","float"],"gradient_booster":{"model":{"cats":{"enc":[],"feature_segments":[],"sorted_idx":[]},"gbtree_model_param":{"num_parallel_tree":"1","num_trees":"100"},"iteration_indptr":[0,1,2,3,4,5,6,7,8,9,10,11,12,13,14,15,16,17,18,19,20,21,22,23,24,25,26,27,28,29,30,31,32,33,34,35,36,37,38,39,40,41,42,43,44,45,46,47,48,49,50,51,52,53,54,55,56,57,58,59,60,61,62,63,64,65,66,67,68,69,70,71,72,73,74,75,76,77,78,79,80,81,82,83,84,85,86,87,88,89,90,91,92,93,94,95,96,97,98,99,100],"tree_info":[0,0,0,0,0,0,0,0,0,0,0,0,0,0,0,0,0,0,0,0,0,0,0,0,0,0,0,0,0,0,0,0,0,0,0,0,0,0,0,0,0,0,0,0,0,0,0,0,0,0,0,0,0,0,0,0,0,0,0,0,0,0,0,0,0,0,0,0,0,0,0,0,0,0,0,0,0,0,0,0,0,0,0,0,0,0,0,0,0,0,0,0,0,0,0,0,0,0,0,0],"trees":[{"base_weights":[9.6039706E-8,-2.059365E0,4.4199768E-1,-3.12666E0,4.1028985E-1,-1.0246639E0,8.0584615E-1,3.5914493E-1,-1.017768E0,-2.5399566E0,1.3212187E0,1.0752294E0,-3.0262372E-1,3.9037916E-1,-3.278862E0,4.1461012E-1,-1.6744186E-1,-6.0334057E-1,1.3807485E0,4.1680452E-1,-9.9925786E-1,2.3441862E-1,-1.0119116E0,4.1187102E-1,-9.896273E-1,-1.6744186E-1,1.3896036E0,2.0139863E-1,4.1951257E-1],"categories":[],"categories_nodes":[],"categories_segments":[],"categories_sizes":[],"default_left":[0,0,0,0,0,0,0,0,0,0,0,0,0,0,0,0,0,0,0,0,0,0,0,0,0,0,0,0,0],"id":0,"left_children":[1,3,5,7,-1,9,11,-1,-1,13,15,17,19,-1,21,-1,-1,23,25,-1,-1,-1,-1,-1,-1,-1,27,-1,-1],"loss_changes":[6.788073E2,4.862625E2,3.2846838E2,1.1993579E2,0E0,4.3873236E2,1.4738586E2,0E0,0E0,2.1644421E2,6.3401794E0,2.0413489E2,5.019726E2,0E0,2.6717712E1,0E0,0E0,3.3340338E2,6.5390625E0,0E0,0E0,0E0,0E0,0E0,0E0,0E0,1.168335E0,0E0,0E0],"parents":[2147483647,0,0,1,1,2,2,3,3,5,5,6,6,9,9,10,10,11,11,12,12,14,14,17,17,18,18,26,26],"right_children":[2,4,6,8,-1,10,12,-1,-1,14,16,18,20,-1,22,-1,-1,24,26,-1,-1,-1,-1,-1,-1,-1,28,-1,-1],"split_conditions":[2.345749E-1,9.939577E-1,6.2110662E-2,2.924223E-1,4.1028985E-1,6.21099E-1,6.1646587E-1,3.5914493E-1,-1.017768E0,-1.3243244E0,6.8401015E-1,2.772773E-1,6.6917264E-1,3.9037916E-1,9.019235E-1,4.1461012E-1,-1.6744186E-1,7.25447E-1,2.3690994E-1,4.1680452E-1,-9.9925786E-1,2.3441862E-1,-1.0119116E0,4.1187102E-1,-9.896273E-1,-1.6744186E-1,2.932933E-1,2.0139863E-1,4.1951257E-1],"split_indices":[21,6,39,14,0,37,41,0,0,40,22,38,9,0,8,0,0,37,21,0,0,0,0,0,0,0,38,0,0],"split_type":[0,0,0,0,0,0,0,0,0,0,0,0,0,0,0,0,0,0,0,0,0,0,0,0,0,0,0,0,0],"sum_hessian":[7.4375E2,1.3077605E2,6.1297394E2,9.978646E1,3.0989584E1,1.21479164E2,4.9149478E2,5.578125E0,9.4208336E1,7.375521E1,4.7723957E1,3.954271E2,9.606771E1,1.1776042E1,6.1979168E1,4.6484375E1,1.2395834E0,6.0739582E1,3.346875E2,6.1979168E1,3.4088543E1,1.2395834E0,6.0739582E1,3.5328125E1,2.5411459E1,1.2395834E0,3.334479E2,4.9583335E0,3.284896E2],"tree_param":{"num_deleted":"0","num_feature":"42","num_nodes":"29","size_leaf_vector":"1"}},{"base_weights":[7.28591E-2,-1.1839161E0,4.2069963E-1,3.6768103E-1,-1.6936626E0,-6.345121E-1,7.293413E-1,3.2783407E-1,-1.8366205E0,-1.4575738E0,1.1701112E0,-3.5907173E-1,9.0995604E-1,-5.2339513E-2,-1.8550966E0,3.4780526E-1,-1.810483E0,3.715125E-1,-1.3382033E-1,3.6901093E-1,-5.527969E-1,1.244959E0,-1.0632772E-1,-5.6047183E-1,-2.194472E-1,2.0940013E-1,-5.5724174E-1,4.2052704E-1,1.2558055E0,3.739995E-1,-5.539764E-1,2.8631988E-1,-2.5752783E-1,1.6540521E-1,3.7975213E-1],"categories":[],"categories_nodes":[],"categories_segments":[],"categories_sizes":[],"default_left":[0,0,0,0,0,0,0,0,0,0,0,0,0,0,0,0,0,0,0,0,0,0,0,0,0,0,0,0,0,0,0,0,0,0,0],"id":1,"left_children":[1,3,5,-1,7,9,11,-1,13,15,17,19,21,-1,23,-1,25,-1,-1,-1,-1,27,29,-1,-1,-1,-1,31,33,-1,-1,-1,-1,-1,-1],"loss_changes":[3.025817E2,1.8638312E2,1.7696973E2,0E0,5.151126E1,1.8466837E2,8.284842E1,0E0,3.3180847E0,8.0639114E1,4.870392E0,1.448109E2,1.2280524E2,0E0,3.63739E-1,0E0,1.0175537E1,0E0,0E0,0E0,0E0,1.895874E0,2.1479866E2,0E0,0E0,0E0,0E0,4.2492633E0,1.1898193E0,0E0,0E0,0E0,0E0,0E0,0E0],"parents":[2147483647,0,0,1,1,2,2,4,4,5,5,6,6,8,8,9,9,10,10,11,11,12,12,14,14,16,16,21,21,22,22,27,27,28,28],"right_children":[2,4,6,-1,8,10,12,-1,14,16,18,20,22,-1,24,-1,26,-1,-1,-1,-1,28,30,-1,-1,-1,-1,32,34,-1,-1,-1,-1,-1,-1],"split_conditions":[2.394844E-1,1.0511626E0,6.2110662E-2,3.6768103E-1,2.924223E-1,6.21099E-1,2.772773E-1,3.2783407E-1,5.0746256E-1,-1.3243244E0,6.8401015E-1,7.25447E-1,6.1646587E-1,-5.2339513E-2,2.3690994E-1,3.4780526E-1,9.019235E-1,3.715125E-1,-1.3382033E-1,3.6901093E-1,-5.527969E-1,7.913215E-2,6.6917264E-1,-5.6047183E-1,-2.194472E-1,2.0940013E-1,-5.5724174E-1,1.8574457E-1,2.932933E-1,3.739995E-1,-5.539764E-1,2.8631988E-1,-2.5752783E-1,1.6540521E-1,3.7975213E-1],"split_indices":[21,7,39,0,14,37,38,0,20,40,22,37,41,0,21,0,8,0,0,0,0,39,9,0,0,0,0,1,38,0,0,0,0,0,0],"split_type":[0,0,0,0,0,0,0,0,0,0,0,0,0,0,0,0,0,0,0,0,0,0,0,0,0,0,0,0,0,0,0,0,0,0,0],"sum_hessian":[6.9001807E2,1.490576E2,5.4096045E2,2.578242E1,1.23275185E2,1.22181076E2,4.187794E2,5.6917205E0,1.17583466E2,8.4042755E1,3.813833E1,5.9462254E1,3.5931714E2,1.4074696E0,1.16175995E2,9.715364E0,7.4327385E1,3.6817024E1,1.3213042E0,2.8792606E1,3.0669647E1,2.7006815E2,8.924899E1,1.1417776E2,1.9982374E0,1.111965E0,7.321542E1,4.0234222E0,2.660447E2,5.037094E1,3.887805E1,3.0175667E0,1.0058556E0,4.5222707E0,2.6152246E2],"tree_param":{"num_deleted":"0","num_feature":"42","num_nodes":"35","size_leaf_vector":"1"}},{"base_weights":[8.100482E-2,-2.7310672E-1,1.0152194E0,1.8695891E-1,-9.191503E-1,-3.3261457E-1,1.059182E0,3.8219315E-1,-1.2247759E0,-1.403673E0,-2.4835207E-1,1.7501886E-1,1.1400846E0,-9.200768E-2,3.531176E-1,2.6183525E-1,-4.4137347E-1,-1.4909939E0,1.468208E-1,1.1039674E0,-4.430967E-1,-1.2286692E0,3.283472E-1,3.457463E-1,-9.197527E-3,-1.2187244E0,9.022853E-1,-1.6836333E-1,-4.5066348E-1,2.7498776E-1,-3.0029494E-1,3.4588295E-1,-7.749237E-2,-4.150063E-1,-7.740649E-2,-4.1135767E-1,1.9887345E-1,-3.9681903E-1,3.5151723E-1],"categories":[],"categories_nodes":[],"categories_segments":[],"categories_sizes":[],"default_left":[0,0,0,0,0,0,0,0,0,0,0,0,0,0,0,0,0,0,0,0,0,0,0,0,0,0,0,0,0,0,0,0,0,0,0,0,0,0,0],"id":2,"left_children":[1,3,5,7,9,-1,11,13,15,17,19,21,23,25,-1,-1,-1,27,29,31,-1,33,-1,-1,-1,35,37,-1,-1,-1,-1,-1,-1,-1,-1,-1,-1,-1,-1],"loss_changes":[1.9061229E2,1.2440968E2,1.5960373E1,6.798631E1,5.6213043E1,0E0,1.0934555E1,8.1512856E1,1.679343E1,1.3870056E1,1.2491282E2,1.9710724E1,2.1034393E0,1.5368005E2,0E0,0E0,0E0,1.5342712E-1,6.471777E0,2.6925964E0,0E0,5.594187E-1,0E0,0E0,0E0,1.9348068E1,4.52689E1,0E0,0E0,0E0,0E0,0E0,0E0,0E0,0E0,0E0,0E0,0E0,0E0],"parents":[2147483647,0,0,1,1,2,2,3,3,4,4,6,6,7,7,8,8,9,9,10,10,11,11,12,12,13,13,17,17,18,18,19,19,21,21,25,25,26,26],"right_children":[2,4,6,8,10,-1,12,14,16,18,20,22,24,26,-1,-1,-1,28,30,32,-1,34,-1,-1,-1,36,38,-1,-1,-1,-1,-1,-1,-1,-1,-1,-1,-1,-1],"split_conditions":[5.3379154E-1,1.7523195E0,2.772773E-1,5.7188755E-1,3.5893282E-1,-3.3261457E-1,4.0567096E-2,3.5100165E-1,3.2700676E-1,3.6285517E0,1.082082E0,2.3994803E0,5E0,9.982528E-1,3.531176E-1,2.6183525E-1,-4.4137347E-1,9.185532E-1,6.4354295E-1,4.145495E0,-4.430967E-1,-4.6702463E-2,3.283472E-1,3.457463E-1,-9.197527E-3,-9.024338E-2,1.5807442E-2,-1.6836333E-1,-4.5066348E-1,2.7498776E-1,-3.0029494E-1,3.4588295E-1,-7.749237E-2,-4.150063E-1,-7.740649E-2,-4.1135767E-1,1.9887345E-1,-3.9681903E-1,3.5151723E-1],"split_indices":[21,9,38,41,15,0,39,15,12,9,38,9,11,8,0,0,0,8,12,9,0,1,0,0,0,16,39,0,0,0,0,0,0,0,0,0,0,0,0],"split_type":[0,0,0,0,0,0,0,0,0,0,0,0,0,0,0,0,0,0,0,0,0,0,0,0,0,0,0,0,0,0,0,0,0,0,0,0,0,0,0],"sum_hessian":[5.743498E2,4.169962E2,1.5735362E2,2.4396939E2,1.730268E2,2.6998112E0,1.5465381E2,2.1496968E2,2.8999712E1,9.9827835E1,7.319896E1,1.322999E1,1.4142381E2,1.3519768E2,7.9771996E1,2.7820532E0,2.6217659E1,9.4541794E1,5.2860374E0,3.489389E1,3.830507E1,5.1031375E0,8.126852E0,1.3995668E2,1.4671352E0,6.327254E1,7.192514E1,1.7353623E0,9.2806435E1,3.2845654E0,2.001472E0,3.3831272E1,1.0626192E0,4.0349326E0,1.068205E0,5.878084E1,4.491702E0,7.346752E0,6.457839E1],"tree_param":{"num_deleted":"0","num_feature":"42","num_nodes":"39","size_leaf_vector":"1"}},{"base_weights":[7.96792E-2,-2.0987368E-1,1.0538701E0,-8.727405E-1,1.2250221E-1,4.3614715E-1,3.3025008E-1,-1.2189738E0,4.659088E-1,5.227331E-1,-1.1822485E0,2.997042E-1,-2.19584E-1,-1.2877374E0,2.51495E-1,3.214539E-1,-3.5312867E-1,-1.0213414E-1,1.0422765E0,-3.960823E-1,6.070322E-1,-1.3018407E0,-1.0324906E-2,-1.2647139E0,8.8107026E-1,-1.3041873E-1,3.3659077E-1,-6.779401E-3,2.4609691E-1,-5.105114E-2,-3.9400673E-1,7.0470537E-4,-3.9135298E-1,-5.1494944E-3,3.3255768E-1,2.57686E-1,-3.0478466E-1],"categories":[],"categories_nodes":[],"categories_segments":[],"categories_sizes":[],"default_left":[0,0,0,0,0,0,0,0,0,0,0,0,0,0,0,0,0,0,0,0,0,0,0,0,0,0,0,0,0,0,0,0,0,0,0,0,0],"id":3,"left_children":[1,3,5,7,9,11,-1,13,15,17,19,-1,-1,21,-1,-1,-1,23,25,-1,27,29,-1,31,33,35,-1,-1,-1,-1,-1,-1,-1,-1,-1,-1,-1],"loss_changes":[1.3142796E2,7.92903E1,2.6164627E0,5.6255676E1,1.2607699E2,6.7786846E0,0E0,1.4623047E1,2.6548052E1,6.0018757E1,1.4805313E1,0E0,0E0,1.5996704E0,0E0,0E0,0E0,9.7921684E1,9.571724E0,0E0,6.5588546E-1,9.750061E-1,0E0,1.9805336E0,9.514305E0,7.2801595E0,0E0,0E0,0E0,0E0,0E0,0E0,0E0,0E0,0E0,0E0,0E0],"parents":[2147483647,0,0,1,1,2,2,3,3,4,4,5,5,7,7,8,8,9,9,10,10,13,13,17,17,18,18,20,20,21,21,23,23,24,24,25,25],"right_children":[2,4,6,8,10,12,-1,14,16,18,20,-1,-1,22,-1,-1,-1,24,26,-1,28,30,-1,32,34,36,-1,-1,-1,-1,-1,-1,-1,-1,-1,-1,-1],"split_conditions":[6.0281795E-1,6.312797E-1,4.0567096E-2,1.7748272E-1,5.955823E-1,8.1175995E-1,3.3025008E-1,3.6285517E0,5.8709955E-1,3.5100165E-1,7.1631235E-1,2.997042E-1,-2.19584E-1,3.4680942E-1,2.51495E-1,3.214539E-1,-3.5312867E-1,9.941939E-1,2.345749E-1,-3.960823E-1,8.021388E-2,9.185532E-1,-1.0324906E-2,1.2175344E-1,9.970979E-1,2.924223E-1,3.3659077E-1,-6.779401E-3,2.4609691E-1,-5.105114E-2,-3.9400673E-1,7.0470537E-4,-3.9135298E-1,-5.1494944E-3,3.3255768E-1,2.57686E-1,-3.0478466E-1],"split_indices":[17,37,39,39,41,6,0,9,12,15,24,0,0,2,0,0,0,8,21,0,1,8,0,3,8,14,0,0,0,0,0,0,0,0,0,0,0],"split_type":[0,0,0,0,0,0,0,0,0,0,0,0,0,0,0,0,0,0,0,0,0,0,0,0,0,0,0,0,0,0,0,0,0,0,0,0,0],"sum_hessian":[4.6414072E2,3.5840018E2,1.05740555E2,1.1915005E2,2.3925012E2,8.197919E0,9.754263E1,9.473645E1,2.4413591E1,1.8354672E2,5.57034E1,5.6298327E0,2.5680864E0,9.2034325E1,2.7021277E0,1.809258E1,6.3210115E0,8.36919E1,9.985482E1,5.19575E1,3.745902E0,9.097193E1,1.0623972E0,3.8216675E1,4.5475227E1,6.313515E0,9.3541306E1,1.1740831E0,2.5718188E0,1.0752659E0,8.989666E1,1.1924143E0,3.702426E1,9.375464E0,3.6099762E1,2.996095E0,3.3174205E0],"tree_param":{"num_deleted":"0","num_feature":"42","num_nodes":"37","size_leaf_vector":"1"}},{"base_weights":[7.896588E-2,-1.878911E-1,1.0005656E0,-7.897663E-1,1.1813283E-1,3.854448E-1,1.0510826E0,-1.1123316E0,3.839059E-1,4.89779E-1,-1.0681338E0,-1.9161387E-1,2.7913788E-1,3.2391086E-1,6.9058144E-1,-1.1793442E0,2.309707E-1,3.0913046E-1,-3.2294378E-1,-8.671179E-2,9.9852264E-1,-3.6149615E-1,5.380511E-1,-1.3382205E-1,2.8410342E-1,-4.239291E-1,-1.2062248E0,-1.175384E0,7.620326E-1,-1.15812674E-1,3.242138E-1,-2.6584074E-2,2.3144177E-1,6.354357E-2,-2.368231E-1,-4.3079864E-2,-3.6616212E-1,2.857331E-2,-3.6740553E-1,-8.173392E-3,3.1854808E-1,2.3717071E-1,-2.7335492E-1],"categories":[],"categories_nodes":[],"categories_segments":[],"categories_sizes":[],"default_left":[0,0,0,0,0,0,0,0,0,0,0,0,0,0,0,0,0,0,0,0,0,0,0,0,0,0,0,0,0,0,0,0,0,0,0,0,0,0,0,0,0,0,0],"id":4,"left_children":[1,3,5,7,9,11,13,15,17,19,21,-1,-1,-1,23,25,-1,-1,-1,27,29,-1,31,-1,-1,33,35,37,39,41,-1,-1,-1,-1,-1,-1,-1,-1,-1,-1,-1,-1,-1],"loss_changes":[9.0992805E1,5.2984554E1,2.175972E0,3.7120415E1,8.483388E1,4.9944177E0,4.0390015E-2,1.0529915E1,2.1539742E1,4.2994892E1,1.0745312E1,0E0,0E0,0E0,2.8643537E0,9.9243164E-1,0E0,0E0,0E0,6.511818E1,7.2504196E0,0E0,6.970372E-1,0E0,0E0,1.1167262E0,9.043274E-1,2.0486794E0,9.413933E0,5.2239895E0,0E0,0E0,0E0,0E0,0E0,0E0,0E0,0E0,0E0,0E0,0E0,0E0,0E0],"parents":[2147483647,0,0,1,1,2,2,3,3,4,4,5,5,6,6,7,7,8,8,9,9,10,10,14,14,15,15,19,19,20,20,22,22,25,25,26,26,27,27,28,28,29,29],"right_children":[2,4,6,8,10,12,14,16,18,20,22,-1,-1,-1,24,26,-1,-1,-1,28,30,-1,32,-1,-1,34,36,38,40,42,-1,-1,-1,-1,-1,-1,-1,-1,-1,-1,-1,-1,-1],"split_conditions":[6.0281795E-1,6.312797E-1,4.0567096E-2,1.292978E-1,5.955823E-1,2.3994803E0,3.3412983E0,3.6285517E0,5.8709955E-1,3.5100165E-1,7.1631235E-1,-1.9161387E-1,2.7913788E-1,3.2391086E-1,5.9035593E-1,3.502008E-1,2.309707E-1,3.0913046E-1,-3.2294378E-1,9.9362653E-1,2.345749E-1,-3.6149615E-1,1.2531798E-1,-1.3382205E-1,2.8410342E-1,6.9902897E-1,9.185532E-1,6.360887E-1,9.970979E-1,2.924223E-1,3.242138E-1,-2.6584074E-2,2.3144177E-1,6.354357E-2,-2.368231E-1,-4.3079864E-2,-3.6616212E-1,2.857331E-2,-3.6740553E-1,-8.173392E-3,3.1854808E-1,2.3717071E-1,-2.7335492E-1],"split_indices":[17,37,39,39,41,9,10,9,12,15,24,0,0,0,21,41,0,0,0,8,21,0,0,0,0,0,8,37,8,14,0,0,0,0,0,0,0,0,0,0,0,0,0],"split_type":[0,0,0,0,0,0,0,0,0,0,0,0,0,0,0,0,0,0,0,0,0,0,0,0,0,0,0,0,0,0,0,0,0,0,0,0,0,0,0,0,0,0,0],"sum_hessian":[3.6822226E2,2.8615872E2,8.206354E1,9.592219E1,1.9023653E2,6.882963E0,7.518058E1,7.528387E1,2.0638323E1,1.4530193E2,4.49346E1,2.3309221E0,4.552041E0,6.780271E1,7.3778663E0,7.3056305E1,2.227565E0,1.45093E1,6.129022E0,6.8504524E1,7.679741E1,4.1636765E1,3.2978365E0,1.2219374E0,6.1559286E0,3.0865674E0,6.9969734E1,2.9841898E1,3.8662624E1,5.247163E0,7.155025E1,1.0633743E0,2.2344623E0,1.2801871E0,1.8063803E0,1.0767268E0,6.889301E1,1.079824E0,2.8762075E1,1.0893117E1,2.7769506E1,2.4552574E0,2.7919054E0],"tree_param":{"num_deleted":"0","num_feature":"42","num_nodes":"43","size_leaf_vector":"1"}},{"base_weights":[7.758E-2,-7.605763E-1,3.438053E-1,2.896079E-1,-1.0390066E0,-2.9471403E-1,5.9739643E-1,2.2982135E-1,-1.1258191E0,-8.7317204E-1,7.2949046E-1,-1.6285506E-1,7.587235E-1,-3.44972E-1,-4.1596046E-1,2.6887867E-1,-1.1108532E0,9.478089E-1,-2.4557881E-1,3.0946922E-1,-3.3305326E-1,1.0384954E0,-1.0060062E-2,-2.2598837E-1,5.869958E-2,-3.021382E-2,-3.4262055E-1,3.0846187E-1,-7.29961E-2,2.5456297E-1,3.1822538E-1,3.0442894E-1,-3.4004346E-1,2.3192103E-1,-1.9121866E-1],"categories":[],"categories_nodes":[],"categories_segments":[],"categories_sizes":[],"default_left":[0,0,0,0,0,0,0,0,0,0,0,0,0,0,0,0,0,0,0,0,0,0,0,0,0,0,0,0,0,0,0,0,0,0,0],"id":5,"left_children":[1,3,5,-1,7,9,11,-1,13,15,17,19,21,-1,23,-1,25,27,-1,-1,-1,29,31,-1,-1,-1,-1,-1,-1,33,-1,-1,-1,-1,-1],"loss_changes":[6.5028984E1,3.4776978E1,3.5957047E1,0E0,1.0421387E1,3.824871E1,1.9562405E1,0E0,5.2376556E-1,1.824939E1,8.704277E0,3.346994E1,2.8169983E1,0E0,8.674895E-1,0E0,1.0394859E0,2.26338E0,0E0,0E0,0E0,1.4048996E0,4.250845E1,0E0,0E0,0E0,0E0,0E0,0E0,2.3269649E0,0E0,0E0,0E0,0E0,0E0],"parents":[2147483647,0,0,1,1,2,2,4,4,5,5,6,6,8,8,9,9,10,10,11,11,12,12,14,14,16,16,17,17,21,21,22,22,29,29],"right_children":[2,4,6,-1,8,10,12,-1,14,16,18,20,22,-1,24,-1,26,28,-1,-1,-1,30,32,-1,-1,-1,-1,-1,-1,34,-1,-1,-1,-1,-1],"split_conditions":[2.394844E-1,1.0511626E0,1.360476E-1,2.896079E-1,2.924223E-1,6.21099E-1,2.772773E-1,2.2982135E-1,2.544174E-1,-1.3243244E0,1.006006E0,7.25447E-1,6.1646587E-1,-3.44972E-1,5.609025E-1,2.6887867E-1,2.8492364E-1,7.186903E-1,-2.4557881E-1,3.0946922E-1,-3.3305326E-1,2.932933E-1,6.6917264E-1,-2.2598837E-1,5.869958E-2,-3.021382E-2,-3.4262055E-1,3.0846187E-1,-7.29961E-2,2.240977E-1,3.1822538E-1,3.0442894E-1,-3.4004346E-1,2.3192103E-1,-1.9121866E-1],"split_indices":[21,7,39,0,14,37,38,0,17,40,38,37,41,0,6,0,14,23,0,0,0,38,9,0,0,0,0,0,0,1,0,0,0,0,0],"split_type":[0,0,0,0,0,0,0,0,0,0,0,0,0,0,0,0,0,0,0,0,0,0,0,0,0,0,0,0,0,0,0,0,0,0,0],"sum_hessian":[2.89257E2,6.928147E1,2.1997552E2,9.281303E0,6.0000168E1,6.2484097E1,1.5749142E2,2.3941662E0,5.7606E1,4.00256E1,2.2458498E1,2.7568027E1,1.299234E2,5.511585E1,2.490153E0,4.411679E0,3.5613922E1,2.0022575E1,2.435923E0,1.2154394E1,1.5413634E1,9.500047E1,3.4922928E1,1.4556706E0,1.0344825E0,1.1942409E0,3.441968E1,1.88847E1,1.1378745E0,2.9659796E0,9.20345E1,1.8313448E1,1.660948E1,1.9599335E0,1.0060459E0],"tree_param":{"num_deleted":"0","num_feature":"42","num_nodes":"35","size_leaf_vector":"1"}},{"base_weights":[7.654497E-2,-1.653894E-1,9.3293834E-1,1.6962618E-1,-6.137933E-1,3.6009574E-1,9.8564905E-1,-1.121543E-1,7.649018E-1,-9.51321E-1,-1.2929189E-1,2.4933188E-1,-1.5155038E-1,3.0732667E-1,5.5246526E-1,4.104945E-1,-7.58558E-1,-2.614737E-1,9.962252E-1,-1.0435449E0,2.9325694E-1,-1.0297372E0,2.9441008E-1,-1.15913875E-1,2.516133E-1,9.89649E-1,-8.362988E-1,-1.0338384E0,5.034395E-1,3.052089E-1,7.412661E-2,4.937249E-2,-1.0779994E0,2.0690188E-1,-1.1469616E-1,-3.1759942E-1,-8.5798256E-2,7.1007006E-2,3.0341905E-1,1.7231447E-1,-3.0756366E-1,1.1255012E-1,-3.3407927E-1,2.7767944E-1,-1.9435786E-1,-7.60652E-2,-3.2914457E-1],"categories":[],"categories_nodes":[],"categories_segments":[],"categories_sizes":[],"default_left":[0,0,0,0,0,0,0,0,0,0,0,0,0,0,0,0,0,0,0,0,0,0,0,0,0,0,0,0,0,0,0,0,0,0,0,0,0,0,0,0,0,0,0,0,0,0,0],"id":6,"left_children":[1,3,5,7,9,11,13,15,17,19,21,-1,-1,-1,23,25,27,-1,29,31,33,35,-1,-1,-1,37,39,41,43,-1,-1,-1,45,-1,-1,-1,-1,-1,-1,-1,-1,-1,-1,-1,-1,-1,-1],"loss_changes":[4.6689995E1,2.653991E1,1.1434975E0,1.7112358E1,1.2218876E1,2.7661738E0,1.8763351E-1,2.3881718E1,1.3262293E1,5.3936043E0,3.3159016E1,0E0,0E0,0E0,1.8979791E0,2.915166E1,1.1478277E1,0E0,2.1024323E-1,1.9042854E0,1.2916685E0,8.9668274E-2,0E0,0E0,0E0,2.0670319E-1,4.04891E0,3.364563E0,3.6717348E0,0E0,0E0,0E0,3.6071396E-1,0E0,0E0,0E0,0E0,0E0,0E0,0E0,0E0,0E0,0E0,0E0,0E0,0E0,0E0],"parents":[2147483647,0,0,1,1,2,2,3,3,4,4,5,5,6,6,7,7,8,8,9,9,10,10,14,14,15,15,16,16,18,18,19,19,20,20,21,21,25,25,26,26,27,27,28,28,32,32],"right_children":[2,4,6,8,10,12,14,16,18,20,22,-1,-1,-1,24,26,28,-1,30,32,34,36,-1,-1,-1,38,40,42,44,-1,-1,-1,46,-1,-1,-1,-1,-1,-1,-1,-1,-1,-1,-1,-1,-1,-1],"split_conditions":[6.0281795E-1,1.7523195E0,4.0567096E-2,9.970979E-1,3.5893282E-1,8.1175995E-1,3.3412983E0,6.807672E-1,-6.676677E-1,3.6285517E0,8.507673E-1,2.4933188E-1,-1.5155038E-1,3.0732667E-1,3.3863287E0,5.7188755E-1,-9.1143645E-2,-2.614737E-1,9.833251E2,3.502008E-1,6.209541E-1,6.536239E-1,2.9441008E-1,-1.15913875E-1,2.516133E-1,3.813814E-1,3.1382337E-1,1.1924827E0,2.6E0,3.052089E-1,7.412661E-2,4.937249E-2,9.185532E-1,2.0690188E-1,-1.1469616E-1,-3.1759942E-1,-8.5798256E-2,7.1007006E-2,3.0341905E-1,1.7231447E-1,-3.0756366E-1,1.1255012E-1,-3.3407927E-1,2.7767944E-1,-1.9435786E-1,-7.60652E-2,-3.2914457E-1],"split_indices":[17,9,39,8,15,6,10,13,40,9,8,0,0,0,10,41,16,0,7,41,12,39,0,0,0,38,12,7,11,0,0,0,8,0,0,0,0,0,0,0,0,0,0,0,0,0,0],"split_type":[0,0,0,0,0,0,0,0,0,0,0,0,0,0,0,0,0,0,0,0,0,0,0,0,0,0,0,0,0,0,0,0,0,0,0,0,0,0,0,0,0,0,0,0,0,0,0],"sum_hessian":[2.236029E2,1.7497786E2,4.8625034E1,1.005075E2,7.447037E1,4.7571735E0,4.386786E1,6.876731E1,3.1740192E1,4.3324715E1,3.114565E1,3.1059244E0,1.6512489E0,3.9011208E1,4.856653E0,3.8225273E1,3.0542036E1,3.5881667E0,2.8152025E1,4.0486195E1,2.8385186E0,1.7240833E1,1.3904817E1,1.0530338E0,3.8036191E0,2.62418E1,1.1983472E1,2.522129E1,5.320745E0,2.7031261E1,1.1207652E0,1.0178968E0,3.9468296E1,1.7757049E0,1.0628139E0,1.6187794E1,1.0530406E0,1.0702611E0,2.517154E1,1.1742789E0,1.0809193E1,1.1527824E0,2.4068508E1,4.036632E0,1.2841132E0,1.2191674E0,3.824913E1],"tree_param":{"num_deleted":"0","num_feature":"42","num_nodes":"47","size_leaf_vector":"1"}},{"base_weights":[7.567796E-2,-6.9055223E-1,3.3016342E-1,2.630519E-1,-9.3459314E-1,-2.505546E-1,5.7174313E-1,1.9411896E-1,-1.0210793E0,-7.2651553E-1,7.236687E-1,-8.0642976E-2,7.3621887E-1,-3.1792402E-1,-3.389089E-1,2.417491E-1,-9.554626E-1,2.8852254E-1,-1.9900869E-1,2.9047778E-1,-3.093759E-1,3.0622435E-1,-7.524506E-3,-1.8809979E-1,3.803859E-2,7.24383E-2,-3.1552157E-1,2.848924E-1,-3.059533E-1],"categories":[],"categories_nodes":[],"categories_segments":[],"categories_sizes":[],"default_left":[0,0,0,0,0,0,0,0,0,0,0,0,0,0,0,0,0,0,0,0,0,0,0,0,0,0,0,0,0],"id":7,"left_children":[1,3,5,-1,7,9,11,-1,13,15,17,19,21,-1,23,-1,25,-1,-1,-1,-1,-1,27,-1,-1,-1,-1,-1,-1],"loss_changes":[3.431751E1,1.761557E1,1.8649223E1,0E0,5.924267E0,1.8818132E1,1.0088125E1,0E0,6.1343765E-1,1.0242534E1,5.0788965E0,2.0661425E1,1.5824539E1,0E0,5.421065E-1,0E0,3.0136662E0,0E0,0E0,0E0,0E0,0E0,2.1970171E1,0E0,0E0,0E0,0E0,0E0,0E0],"parents":[2147483647,0,0,1,1,2,2,4,4,5,5,6,6,8,8,9,9,10,10,11,11,12,12,14,14,16,16,22,22],"right_children":[2,4,6,-1,8,10,12,-1,14,16,18,20,22,-1,24,-1,26,-1,-1,-1,-1,-1,28,-1,-1,-1,-1,-1,-1],"split_conditions":[2.4357711E-1,1.0511626E0,1.360476E-1,2.630519E-1,2.924223E-1,6.248441E-1,2.932933E-1,1.9411896E-1,2.345749E-1,-1.3243244E0,1.006006E0,7.25447E-1,6.1646587E-1,-3.1792402E-1,3.3130226E-1,2.417491E-1,9.185532E-1,2.8852254E-1,-1.9900869E-1,2.9047778E-1,-3.093759E-1,3.0622435E-1,6.6917264E-1,-1.8809979E-1,3.803859E-2,7.24383E-2,-3.1552157E-1,2.848924E-1,-3.059533E-1],"split_indices":[21,7,39,0,14,37,38,0,21,40,38,37,41,0,3,0,8,0,0,0,0,0,9,0,0,0,0,0,0],"split_type":[0,0,0,0,0,0,0,0,0,0,0,0,0,0,0,0,0,0,0,0,0,0,0,0,0,0,0,0,0],"sum_hessian":[1.73823E2,4.291044E1,1.3091255E2,5.431669E0,3.747877E1,3.8449387E1,9.246317E1,1.6070676E0,3.5871704E1,2.6000832E1,1.2448555E1,1.8720154E1,7.374302E1,3.342366E1,2.448041E0,3.0522628E0,2.2948568E1,1.0886577E1,1.5619783E0,8.891127E0,9.829027E0,5.306851E1,2.067451E1,1.2984546E0,1.1495864E0,1.5962038E0,2.1352364E1,1.0658566E1,1.0015943E1],"tree_param":{"num_deleted":"0","num_feature":"42","num_nodes":"29","size_leaf_vector":"1"}},{"base_weights":[7.540071E-2,-1.5036152E-1,8.76691E-1,-2.7137715E-1,2.8024173E-1,4.0319055E-1,9.677666E-1,-9.650335E-1,-3.616245E-3,2.3555078E-1,-2.0687175E-1,2.962791E-1,7.6912716E-2,5.709448E-2,-3.0578873E-1,-2.581324E-1,7.1982753E-1,-1.4705236E-1,4.0215015E-2,-9.018826E-1,2.7215225E-1,8.494733E-1,-1.8362138E-1,-7.351326E-2,-2.9834142E-1,2.8578344E-1,-2.3642693E-1,3.615013E-2,2.874624E-1],"categories":[],"categories_nodes":[],"categories_segments":[],"categories_sizes":[],"default_left":[0,0,0,0,0,0,0,0,0,0,0,0,0,0,0,0,0,0,0,0,0,0,0,0,0,0,0,0,0],"id":8,"left_children":[1,3,5,7,-1,9,11,13,15,-1,17,-1,-1,-1,-1,19,21,-1,-1,23,25,27,-1,-1,-1,-1,-1,-1,-1],"loss_changes":[2.4507214E1,1.4162352E1,8.9341545E-1,1.7848377E1,0E0,1.6808099E0,8.889961E-2,1.8719311E0,1.3139272E1,0E0,3.8446727E-1,0E0,0E0,0E0,0E0,1.8262154E1,3.7269897E0,0E0,0E0,1.2201576E0,2.2183123E1,1.259306E0,0E0,0E0,0E0,0E0,0E0,0E0,0E0],"parents":[2147483647,0,0,1,1,2,2,3,3,5,5,6,6,7,7,8,8,10,10,15,15,16,16,19,19,20,20,21,21],"right_children":[2,4,6,8,-1,10,12,14,16,-1,18,-1,-1,-1,-1,20,22,-1,-1,24,26,28,-1,-1,-1,-1,-1,-1,-1],"split_conditions":[6.0281795E-1,9.939577E-1,5.9035593E-1,2.4587376E-1,2.8024173E-1,1.6077046E0,9.9893314E-1,3.3053333E-1,-1.03325345E-1,2.3555078E-1,1.7886195E0,2.962791E-1,7.6912716E-2,5.709448E-2,-3.0578873E-1,3.5893282E-1,9.5055103E-1,-1.4705236E-1,4.0215015E-2,5.532348E-1,5.955823E-1,1.0236909E-2,-1.8362138E-1,-7.351326E-2,-2.9834142E-1,2.8578344E-1,-2.3642693E-1,3.615013E-2,2.874624E-1],"split_indices":[17,6,21,17,0,9,8,14,16,0,9,0,0,0,0,15,0,0,0,24,41,39,0,0,0,0,0,0,0],"split_type":[0,0,0,0,0,0,0,0,0,0,0,0,0,0,0,0,0,0,0,0,0,0,0,0,0,0,0,0,0],"sum_hessian":[1.3374432E2,1.0497901E2,2.8765314E1,9.5115204E1,9.863805E0,5.515793E0,2.3249521E1,2.5764942E1,6.935026E1,3.215462E0,2.3003306E0,2.2241272E1,1.0082492E0,1.0433202E0,2.4721622E1,5.1777504E1,1.7572754E1,1.0172303E0,1.2831004E0,2.30702E1,2.8707306E1,1.634405E1,1.2287055E0,3.3007548E0,1.9769445E1,1.7547136E1,1.116017E1,2.3951087E0,1.394894E1],"tree_param":{"num_deleted":"0","num_feature":"42","num_nodes":"29","size_leaf_vector":"1"}},{"base_weights":[7.470577E-2,9.0565485E-1,-1.2607844E-1,2.864627E-1,3.4322765E-1,-3.747238E-1,5.787353E-1,1.7204776E-1,-2.3869576E-2,-2.9525158E-1,-1.2561604E-1,-2.5916392E-1,2.9070577E-1,-3.674807E-1,8.236937E-1,-7.3926187E-1,8.604963E-2,-1.1705075E-2,2.777121E-1,-2.897469E-1,-1.8505089E-2,2.7756804E-1,-2.8171298E-1],"categories":[],"categories_nodes":[],"categories_segments":[],"categories_sizes":[],"default_left":[0,0,0,0,0,0,0,0,0,0,0,0,0,0,0,0,0,0,0,0,0,0,0],"id":9,"left_children":[1,3,5,-1,7,9,11,-1,-1,-1,13,-1,-1,15,17,19,21,-1,-1,-1,-1,-1,-1],"loss_changes":[1.7971004E1,2.5224686E-1,1.5477127E1,0E0,3.617515E-1,9.740977E0,1.3843865E1,0E0,0E0,0E0,1.1156092E1,0E0,0E0,6.532227E0,9.079733E-1,3.1927452E0,1.6505705E1,0E0,0E0,0E0,0E0,0E0,0E0],"parents":[2147483647,0,0,1,1,2,2,4,4,5,5,6,6,10,10,13,13,14,14,15,15,16,16],"right_children":[2,4,6,-1,8,10,12,-1,-1,-1,14,-1,-1,16,18,20,22,-1,-1,-1,-1,-1,-1],"split_conditions":[2.8492364E-1,2.1424546E0,9.970979E-1,2.864627E-1,2.1182004E-1,2.3690994E-1,5.884181E-2,1.7204776E-1,-2.3869576E-2,-2.9525158E-1,-1.005695E-1,-2.5916392E-1,2.9070577E-1,3.5893282E-1,7.400399E-1,5.248229E-1,6.13253E-1,-1.1705075E-2,2.777121E-1,-2.897469E-1,-1.8505089E-2,2.7756804E-1,-2.8171298E-1],"split_indices":[14,9,8,0,0,21,39,0,0,0,16,0,0,15,9,17,41,0,0,0,0,0,0],"split_type":[0,0,0,0,0,0,0,0,0,0,0,0,0,0,0,0,0,0,0,0,0,0,0],"sum_hessian":[1.0602867E2,1.9950905E1,8.607777E1,1.7703783E1,2.247122E0,6.3976402E1,2.2101364E1,1.2240382E0,1.0230838E0,1.7706423E1,4.626998E1,4.4477153E0,1.765365E1,3.7363438E1,8.906542E0,2.018598E1,1.717746E1,1.007109E0,7.8994327E0,1.4808929E1,5.3770504E0,9.498816E0,7.6786437E0],"tree_param":{"num_deleted":"0","num_feature":"42","num_nodes":"23","size_leaf_vector":"1"}},{"base_weights":[7.240038E-2,-1.3316387E-1,8.278295E-1,-2.409719E-1,2.5981018E-1,3.3481607E-1,2.7619845E-1,-8.78976E-1,-1.0197659E-3,1.8435757E-1,-8.763938E-2,7.7371486E-2,-2.914395E-1,4.9309245E-1,-3.1771412E-1,6.95657E-1,-2.8070492E-1,-6.7006123E-1,6.3445336E-1,-1.3139E-1,2.4680975E-1,1.6318747E-1,-2.1841851E-1,1.494499E-1,-2.5374788E-1,-7.376495E-2,2.3836601E-1],"categories":[],"categories_nodes":[],"categories_segments":[],"categories_sizes":[],"default_left":[0,0,0,0,0,0,0,0,0,0,0,0,0,0,0,0,0,0,0,0,0,0,0,0,0,0,0],"id":10,"left_children":[1,3,5,7,-1,9,-1,11,13,-1,-1,-1,-1,15,17,19,21,23,25,-1,-1,-1,-1,-1,-1,-1,-1],"loss_changes":[1.3217019E1,7.4485974E0,5.243912E-1,9.40597E0,0E0,9.6064526E-1,0E0,2.0162725E0,7.3006907E0,0E0,0E0,0E0,0E0,3.0517535E0,9.963192E0,2.481769E0,2.0537267E0,4.7821198E0,1.350038E0,0E0,0E0,0E0,0E0,0E0,0E0,0E0,0E0],"parents":[2147483647,0,0,1,1,2,2,3,3,5,5,7,7,8,8,13,13,14,14,15,15,16,16,17,17,18,18],"right_children":[2,4,6,8,-1,10,-1,12,14,-1,-1,-1,-1,16,18,20,22,24,26,-1,-1,-1,-1,-1,-1,-1,-1],"split_conditions":[6.0850585E-1,9.939577E-1,-2.1096943E-1,2.345749E-1,2.5981018E-1,2.2E0,2.7619845E-1,3.3053333E-1,5.7842284E-1,1.8435757E-1,-8.763938E-2,7.7371486E-2,-2.914395E-1,2.1951517E1,7.102163E-1,6.6917264E-1,6.7282194E-1,3.433735E-1,7.573495E-1,-1.3139E-1,2.4680975E-1,1.6318747E-1,-2.1841851E-1,1.494499E-1,-2.5374788E-1,-7.376495E-2,2.3836601E-1],"split_indices":[17,6,29,21,0,11,0,14,24,0,0,0,0,7,24,9,13,41,37,0,0,0,0,0,0,0,0],"split_type":[0,0,0,0,0,0,0,0,0,0,0,0,0,0,0,0,0,0,0,0,0,0,0,0,0,0,0],"sum_hessian":[8.340239E1,6.6209465E1,1.7192923E1,6.0446457E1,5.76301E0,3.4543247E0,1.3738598E1,1.57926235E1,4.4653835E1,2.4023452E0,1.0519795E0,1.0535705E0,1.4739053E1,1.722386E1,2.7429974E1,1.373048E1,3.4933796E0,2.023744E1,7.192534E0,1.1370381E0,1.2593442E1,1.1526434E0,2.3407362E0,2.4067335E0,1.7830706E1,1.0243214E0,6.1682124E0],"tree_param":{"num_deleted":"0","num_feature":"42","num_nodes":"27","size_leaf_vector":"1"}},{"base_weights":[7.1677595E-2,8.510056E-1,-1.1609788E-1,2.7179196E-1,8.392618E-2,-3.8503924E-1,4.1794303E-1,-2.7011406E-1,-1.8950854E-1,-2.460734E-1,7.694233E-1,6.025676E-1,-4.533178E-1,2.6949906E-1,1.7474052E-1,2.3840383E-1,-3.63281E-2,-6.0448164E-1,2.9087546E-1,-1.6751195E-1,1.9816218E-1,1.7481035E-1,-2.1636957E-1,1.7881346E-1,-1.1196281E-1],"categories":[],"categories_nodes":[],"categories_segments":[],"categories_sizes":[],"default_left":[0,0,0,0,0,0,0,0,0,0,0,0,0,0,0,0,0,0,0,0,0,0,0,0,0],"id":11,"left_children":[1,3,5,-1,-1,7,9,-1,11,-1,13,15,17,-1,19,-1,-1,21,23,-1,-1,-1,-1,-1,-1],"loss_changes":[1.01710615E1,1.6995049E-1,8.253437E0,0E0,0E0,3.657794E0,9.052581E0,0E0,6.293156E0,0E0,1.0380039E0,1.1566129E0,2.6712427E0,0E0,1.8000162E0,0E0,0E0,3.0207782E0,1.1182407E0,0E0,0E0,0E0,0E0,0E0,0E0],"parents":[2147483647,0,0,1,1,2,2,5,5,6,6,8,8,10,10,11,11,12,12,14,14,17,17,18,18],"right_children":[2,4,6,-1,-1,8,10,-1,12,-1,14,16,18,-1,20,-1,-1,22,24,-1,-1,-1,-1,-1,-1],"split_conditions":[2.8492364E-1,2.1424546E0,9.949262E-1,2.7179196E-1,8.392618E-2,2.3690994E-1,2.693382E-2,-2.7011406E-1,5.580318E-1,-2.460734E-1,6.209541E-1,2.835695E1,7.102163E-1,2.6949906E-1,9.8378843E-1,2.3840383E-1,-3.63281E-2,-1.3243244E0,4.828148E-1,-1.6751195E-1,1.9816218E-1,1.7481035E-1,-2.1636957E-1,1.7881346E-1,-1.1196281E-1],"split_indices":[14,9,8,0,0,21,39,0,24,0,12,7,24,0,6,0,0,40,35,0,0,0,0,0,0],"split_type":[0,0,0,0,0,0,0,0,0,0,0,0,0,0,0,0,0,0,0,0,0,0,0,0,0],"sum_hessian":[6.782843E1,1.2483964E1,5.5344463E1,1.085365E1,1.6303135E0,3.6993607E1,1.8350857E1,9.183846E0,2.780976E1,3.7625465E0,1.458831E1,6.6273413E0,2.1182417E1,1.1569776E1,3.0185354E0,5.159501E0,1.4678402E0,1.7762213E1,3.4202049E0,1.143503E0,1.8750323E0,1.2330322E0,1.652918E1,2.4135528E0,1.006652E0],"tree_param":{"num_deleted":"0","num_feature":"42","num_nodes":"25","size_leaf_vector":"1"}},{"base_weights":[7.191194E-2,-1.618334E-1,6.1707413E-1,-6.518799E-1,7.3758006E-2,2.743802E-1,8.474016E-1,1.0152405E-1,-8.3783E-1,3.5201052E-1,-8.0384135E-1,1.9876866E-1,-5.062272E-2,6.0101323E-2,2.6967883E-1,-2.7727652E-1,4.330824E-3,8.361839E-1,-1.2389217E-1,-2.5828573E-1,-7.1057975E-2,-1.5360597E-1,4.4798368E-1,2.7423453E-1,1.45242205E-2,-5.352323E-1,2.3123048E-1,1.6481404E-1,3.452953E-2,-2.1820661E-1,9.547637E-2],"categories":[],"categories_nodes":[],"categories_segments":[],"categories_sizes":[],"default_left":[0,0,0,0,0,0,0,0,0,0,0,0,0,0,0,0,0,0,0,0,0,0,0,0,0,0,0,0,0,0,0],"id":12,"left_children":[1,3,5,7,9,11,13,-1,15,17,19,-1,21,-1,-1,-1,-1,23,25,-1,-1,-1,27,-1,-1,29,-1,-1,-1,-1,-1],"loss_changes":[7.358573E0,4.7424E0,1.1331625E0,2.7331991E0,7.207793E0,1.0974991E0,1.4894581E-1,0E0,8.5948277E-1,5.225047E0,2.699089E-2,0E0,1.4991125E0,0E0,0E0,0E0,0E0,6.400547E-1,4.8581023E0,0E0,0E0,0E0,4.430616E-2,0E0,0E0,1.6851919E0,0E0,0E0,0E0,0E0,0E0],"parents":[2147483647,0,0,1,1,2,2,3,3,4,4,5,5,6,6,8,8,9,9,10,10,12,12,17,17,18,18,22,22,25,25],"right_children":[2,4,6,8,10,12,14,-1,16,18,20,-1,22,-1,-1,-1,-1,24,26,-1,-1,-1,28,-1,-1,30,-1,-1,-1,-1,-1],"split_conditions":[5.141839E-1,6.21099E-1,5.9343606E-1,3.893894E-1,5.955823E-1,3.498716E-1,5.849627E-1,1.0152405E-1,1.3731828E1,6.807672E-1,8.3287287E-1,1.9876866E-1,7.1631235E-1,6.0101323E-2,2.6967883E-1,-2.7727652E-1,4.330824E-3,5.7871485E-1,9.970979E-1,-2.5828573E-1,-7.1057975E-2,-1.5360597E-1,6.8210685E-1,2.7423453E-1,1.45242205E-2,-9.1143645E-2,2.3123048E-1,1.6481404E-1,3.452953E-2,-2.1820661E-1,9.547637E-2],"split_indices":[21,37,21,38,41,15,22,0,10,13,37,0,24,0,0,0,0,41,8,0,0,0,18,0,0,16,0,0,0,0,0],"split_type":[0,0,0,0,0,0,0,0,0,0,0,0,0,0,0,0,0,0,0,0,0,0,0,0,0,0,0,0,0,0,0],"sum_hessian":[5.5962723E1,3.9660793E1,1.630193E1,1.2302904E1,2.735789E1,7.4333873E0,8.868544E0,1.8153241E0,1.0487579E1,2.1226643E1,6.131246E0,2.9141297E0,4.5192575E0,1.0146725E0,7.853871E0,9.445301E0,1.0422788E0,1.0146628E1,1.1080014E1,5.0991354E0,1.0321107E0,2.3332386E0,2.186019E0,9.087275E0,1.0593537E0,7.865447E0,3.214567E0,1.1771132E0,1.0089058E0,6.5408587E0,1.3245884E0],"tree_param":{"num_deleted":"0","num_feature":"42","num_nodes":"31","size_leaf_vector":"1"}},{"base_weights":[7.334689E-2,-5.565277E-1,2.603616E-1,1.6829778E-1,-7.55706E-1,-2.5182763E-1,4.366952E-1,1.0860107E-2,-2.5670937E-1,5.169393E-1,-6.428649E-1,-1.7866974E-1,5.957551E-1,1.9950733E-2,1.9873302E-1,7.72112E-2,-2.5054368E-1,2.1176778E-1,-2.4034442E-1,8.7128216E-1,-1.585672E-1,4.394903E-2,2.8238496E-1,2.148041E-1,-2.4132888E-1],"categories":[],"categories_nodes":[],"categories_segments":[],"categories_sizes":[],"default_left":[0,0,0,0,0,0,0,0,0,0,0,0,0,0,0,0,0,0,0,0,0,0,0,0,0],"id":13,"left_children":[1,3,5,-1,7,9,11,-1,-1,13,15,17,19,-1,-1,-1,-1,-1,-1,21,23,-1,-1,-1,-1],"loss_changes":[5.6957064E0,2.8961334E0,3.4530795E0,0E0,8.111472E-1,3.3727877E0,2.8374405E0,0E0,0E0,2.1577036E-1,1.4525518E0,4.1445637E0,4.794E0,0E0,0E0,0E0,0E0,0E0,0E0,7.0239735E-1,4.439251E0,0E0,0E0,0E0,0E0],"parents":[2147483647,0,0,1,1,2,2,4,4,5,5,6,6,9,9,10,10,11,11,12,12,19,19,20,20],"right_children":[2,4,6,-1,8,10,12,-1,-1,14,16,18,20,-1,-1,-1,-1,-1,-1,22,24,-1,-1,-1,-1],"split_conditions":[2.4357711E-1,1.0511626E0,6.108916E-1,1.6829778E-1,3.3856103E-1,3.6385542E-1,2.932933E-1,1.0860107E-2,-2.5670937E-1,-1.1362655E-1,3.7467948E-1,7.25447E-1,6.1646587E-1,1.9950733E-2,1.9873302E-1,7.72112E-2,-2.5054368E-1,2.1176778E-1,-2.4034442E-1,-1.012012E0,6.6917264E-1,4.394903E-2,2.8238496E-1,2.148041E-1,-2.4132888E-1],"split_indices":[21,7,37,0,14,41,38,0,0,16,18,37,41,0,0,0,0,0,0,40,9,0,0,0,0],"split_type":[0,0,0,0,0,0,0,0,0,0,0,0,0,0,0,0,0,0,0,0,0,0,0,0,0],"sum_hessian":[4.6122284E1,1.0106672E1,3.601561E1,1.2540575E0,8.852615E0,9.114102E0,2.6901508E1,1.0640013E0,7.788614E0,2.964338E0,6.1497645E0,5.5000067E0,2.14015E1,1.0795195E0,1.8848186E0,1.0227685E0,5.126996E0,2.2164104E0,3.283596E0,1.556215E1,5.839351E0,1.6430383E0,1.3919111E1,2.4343338E0,3.4050176E0],"tree_param":{"num_deleted":"0","num_feature":"42","num_nodes":"25","size_leaf_vector":"1"}},{"base_weights":[7.2456256E-2,7.179395E-1,-9.7506955E-2,2.4988754E-1,2.5237322E-1,-2.9284555E-1,4.966196E-1,-5.1748943E-2,1.5951493E-1,-4.7389877E-1,3.0118018E-1,-1.8633552E-1,2.562724E-1,-1.8426236E-2,-5.8439445E-1,-1.6791967E-1,6.233045E-1,-3.6807558E-1,1.4805654E-1,-7.7432275E-1,-2.3780893E-1,2.3036043E-1,6.408449E-3,-1.4504004E-1,-3.1852245E-2,-2.5181198E-1,-8.497542E-2,2.0619574E-1,-2.4267666E-1],"categories":[],"categories_nodes":[],"categories_segments":[],"categories_sizes":[],"default_left":[0,0,0,0,0,0,0,0,0,0,0,0,0,0,0,0,0,0,0,0,0,0,0,0,0,0,0,0,0],"id":14,"left_children":[1,3,5,7,-1,9,11,-1,-1,13,15,-1,-1,17,19,-1,21,23,-1,25,27,-1,-1,-1,-1,-1,-1,-1,-1],"loss_changes":[4.2768617E0,2.5794983E-1,3.7703013E0,4.6241045E-1,0E0,2.7384174E0,3.7680478E0,0E0,0E0,9.396992E-1,2.0818927E0,0E0,0E0,1.0264795E0,8.141761E-1,0E0,4.2049384E-1,5.0729156E-2,0E0,6.104994E-2,4.1551514E0,0E0,0E0,0E0,0E0,0E0,0E0,0E0,0E0],"parents":[2147483647,0,0,1,1,2,2,3,3,5,5,6,6,9,9,10,10,13,13,14,14,16,16,17,17,19,19,20,20],"right_children":[2,4,6,8,-1,10,12,-1,-1,14,16,-1,-1,18,20,-1,22,24,-1,26,28,-1,-1,-1,-1,-1,-1,-1,-1],"split_conditions":[2.924223E-1,7.102163E-1,9.970979E-1,4.0620303E-1,2.5237322E-1,-1.01950526E-1,5.884181E-2,-5.1748943E-2,1.5951493E-1,4.8017986E-2,2.3691297E-1,-1.8633552E-1,2.562724E-1,-1.2818098E-1,3.5893282E-1,-1.6791967E-1,9.5292133E-1,7.017017E-1,1.4805654E-1,5.141839E-1,4.0368018E-1,2.3036043E-1,6.408449E-3,-1.4504004E-1,-3.1852245E-2,-2.5181198E-1,-8.497542E-2,2.0619574E-1,-2.4267666E-1],"split_indices":[14,24,8,12,0,16,39,0,0,2,17,0,0,16,15,0,6,38,0,21,15,0,0,0,0,0,0,0,0],"split_type":[0,0,0,0,0,0,0,0,0,0,0,0,0,0,0,0,0,0,0,0,0,0,0,0,0,0,0,0,0],"sum_hessian":[3.7345806E1,7.1119776E0,3.023383E1,2.114006E0,4.9979715E0,2.3134653E1,7.0991764E0,1.0012885E0,1.1127175E0,1.788554E1,5.249112E0,1.5422157E0,5.5569606E0,3.7196383E0,1.4165902E1,1.2284138E0,4.020698E0,2.3771358E0,1.3425026E0,8.353856E0,5.812046E0,3.019807E0,1.0008911E0,1.0628618E0,1.314274E0,6.7503867E0,1.6034696E0,2.140785E0,3.6712613E0],"tree_param":{"num_deleted":"0","num_feature":"42","num_nodes":"29","size_leaf_vector":"1"}},{"base_weights":[6.765922E-2,-1.0186017E-1,6.5897465E-1,2.1623697E-2,-1.997392E-1,3.8913306E-2,2.2454874E-1,-3.0606565E-1,7.3105043E-1,-5.489008E-1,4.6397302E-1,6.481713E-3,2.5359568E-1,-6.920132E-1,4.2767286E-2,-4.6777982E-2,2.105419E-1,3.76468E-2,-2.4033234E-1],"categories":[],"categories_nodes":[],"categories_segments":[],"categories_sizes":[],"default_left":[0,0,0,0,0,0,0,0,0,0,0,0,0,0,0,0,0,0,0],"id":15,"left_children":[1,3,5,7,-1,-1,-1,9,11,13,15,-1,-1,17,-1,-1,-1,-1,-1],"loss_changes":[3.27221E0,1.8052083E0,2.4679661E-1,5.353317E0,0E0,0E0,0E0,3.2088614E0,5.708456E-1,1.3325236E0,7.477514E-1,0E0,0E0,1.0371075E0,0E0,0E0,0E0,0E0,0E0],"parents":[2147483647,0,0,1,1,2,2,3,3,7,7,8,8,9,9,10,10,13,13],"right_children":[2,4,6,8,-1,-1,-1,10,12,14,16,-1,-1,18,-1,-1,-1,-1,-1],"split_conditions":[6.0281795E-1,6.0361445E-1,4.0567096E-2,3.5893282E-1,-1.997392E-1,3.8913306E-2,2.2454874E-1,9.9839723E-1,2.3690994E-1,-9.385965E-2,1.8324213E-1,6.481713E-3,2.5359568E-1,-1.1601602E0,4.2767286E-2,-4.6777982E-2,2.105419E-1,3.76468E-2,-2.4033234E-1],"split_indices":[17,41,39,15,0,0,0,8,21,16,39,0,0,40,0,0,0,0,0],"split_type":[0,0,0,0,0,0,0,0,0,0,0,0,0,0,0,0,0,0,0],"sum_hessian":[3.0974306E1,2.4716324E1,6.257982E0,2.1065353E1,3.650971E0,1.2596519E0,4.99833E0,1.4798427E1,6.2669272E0,1.1468851E1,3.329576E0,1.0343239E0,5.232603E0,9.501504E0,1.9673465E0,1.0187211E0,2.310855E0,1.1009827E0,8.400521E0],"tree_param":{"num_deleted":"0","num_feature":"42","num_nodes":"19","size_leaf_vector":"1"}},{"base_weights":[6.948024E-2,-4.8553914E-1,2.4721245E-1,7.5096905E-2,-6.5498406E-1,8.2232885E-2,7.151552E-1,-1.54014295E-2,-2.312708E-1,2.260085E-1,-1.14208534E-1,2.3595023E-1,6.022933E-2,3.7760343E-2,-2.0599493E-1,-2.3092632E-1,2.1813312E-1,7.812458E-2,-1.3539912E-1],"categories":[],"categories_nodes":[],"categories_segments":[],"categories_sizes":[],"default_left":[0,0,0,0,0,0,0,0,0,0,0,0,0,0,0,0,0,0,0],"id":16,"left_children":[1,3,5,-1,7,9,11,-1,-1,-1,13,-1,-1,15,-1,17,-1,-1,-1],"loss_changes":[2.8248687E0,1.0353045E0,1.5957433E0,0E0,3.7723923E-1,2.324009E0,4.2351246E-2,0E0,0E0,0E0,1.2438264E0,0E0,0E0,2.392548E0,0E0,1.1356344E0,0E0,0E0,0E0],"parents":[2147483647,0,0,1,1,2,2,4,4,5,5,6,6,10,10,13,13,15,15],"right_children":[2,4,6,-1,8,10,12,-1,-1,-1,14,-1,-1,16,-1,18,-1,-1,-1],"split_conditions":[2.4357711E-1,5.257103E-1,-1.00295015E-1,7.5096905E-2,3.4505963E-1,3.3596054E-1,3.835572E-1,-1.54014295E-2,-2.312708E-1,2.260085E-1,6.13253E-1,2.3595023E-1,6.022933E-2,3.5893282E-1,-2.0599493E-1,3.618474E-1,2.1813312E-1,7.812458E-2,-1.3539912E-1],"split_indices":[21,20,16,0,14,12,39,0,0,0,41,0,0,15,0,41,0,0,0],"split_type":[0,0,0,0,0,0,0,0,0,0,0,0,0,0,0,0,0,0,0],"sum_hessian":[2.6419962E1,5.988211E0,2.043175E1,1.0314665E0,4.9567447E0,1.5975206E1,4.4565434E0,1.0309507E0,3.9257941E0,2.975289E0,1.2999917E1,3.449154E0,1.0073895E0,1.1010848E1,1.9890695E0,8.4012985E0,2.6095495E0,2.5453882E0,5.8559103E0],"tree_param":{"num_deleted":"0","num_feature":"42","num_nodes":"19","size_leaf_vector":"1"}},{"base_weights":[7.092381E-2,-4.7488037E-1,2.1823815E-1,1.1383213E-2,-2.0916738E-1,8.01899E-2,2.1044509E-1,2.1313088E-1,-7.9325184E-2,-5.5852205E-1,9.8579764E-2,-3.8106423E-2,-2.0116445E-1,-3.1849852E-1,3.994362E-1,1.4207384E-1,-1.9790296E-1,-1.7368466E-1,2.2066303E-1],"categories":[],"categories_nodes":[],"categories_segments":[],"categories_sizes":[],"default_left":[0,0,0,0,0,0,0,0,0,0,0,0,0,0,0,0,0,0,0],"id":17,"left_children":[1,3,5,-1,-1,7,-1,-1,9,11,13,-1,-1,15,17,-1,-1,-1,-1],"loss_changes":[2.0360074E0,6.447829E-1,1.2519689E0,0E0,0E0,1.7033004E0,0E0,0E0,1.2462559E0,1.0494602E-1,1.5124907E0,0E0,0E0,1.7129667E0,2.6807337E0,0E0,0E0,0E0,0E0],"parents":[2147483647,0,0,1,1,2,2,5,5,8,8,9,9,10,10,13,13,14,14],"right_children":[2,4,6,-1,-1,8,-1,-1,10,12,14,-1,-1,16,18,-1,-1,-1,-1],"split_conditions":[2.4587376E-1,2E0,-9.891309E-2,1.1383213E-2,-2.0916738E-1,3.3596054E-1,2.1044509E-1,2.1313088E-1,-1.7057583E-1,5.935743E-1,4.9969587E-2,-3.8106423E-2,-2.0116445E-1,3.5863453E-1,2.5725725E-1,1.4207384E-1,-1.9790296E-1,-1.7368466E-1,2.2066303E-1],"split_indices":[17,11,16,0,0,12,0,0,16,41,39,0,0,41,38,0,0,0,0],"split_type":[0,0,0,0,0,0,0,0,0,0,0,0,0,0,0,0,0,0,0],"sum_hessian":[2.3033026E1,4.422806E0,1.861022E1,1.5884591E0,2.8343468E0,1.5382E1,3.2282202E0,2.409259E0,1.2972741E1,2.9330275E0,1.0039714E1,1.0443332E0,1.8886943E0,4.182651E0,5.8570623E0,1.1423959E0,3.0402553E0,1.3128711E0,4.5441914E0],"tree_param":{"num_deleted":"0","num_feature":"42","num_nodes":"19","size_leaf_vector":"1"}},{"base_weights":[5.9333514E-2,6.0044056E-1,-8.280806E-2,6.3666046E-2,2.0636043E-1,-2.557492E-1,4.2611316E-1,-2.2131826E-1,-6.5616444E-2,-1.058483E-1,2.2035417E-1,4.5089844E-1,-3.0374527E-1,1.8525952E-1,3.2170906E-3,-4.9370793E-1,1.275237E-1,-1.9112587E-1,-2.0866148E-2,1.24231264E-1,-7.4169226E-2],"categories":[],"categories_nodes":[],"categories_segments":[],"categories_sizes":[],"default_left":[0,0,0,0,0,0,0,0,0,0,0,0,0,0,0,0,0,0,0,0,0],"id":18,"left_children":[1,3,5,-1,-1,7,9,-1,11,-1,-1,13,15,-1,-1,17,19,-1,-1,-1,-1],"loss_changes":[1.6395799E0,4.0904284E-3,1.627137E0,0E0,0E0,1.1886561E0,1.400228E0,0E0,1.462626E0,0E0,0E0,2.7235806E-1,7.1627146E-1,0E0,0E0,3.048433E-1,4.496166E-1,0E0,0E0,0E0,0E0],"parents":[2147483647,0,0,1,1,2,2,5,5,6,6,8,8,11,11,12,12,15,15,16,16],"right_children":[2,4,6,-1,-1,8,10,-1,12,-1,-1,14,16,-1,-1,18,20,-1,-1,-1,-1],"split_conditions":[2.924223E-1,7.102163E-1,9.970979E-1,6.3666046E-2,2.0636043E-1,2.3690994E-1,1.6388562E-1,-2.2131826E-1,5.645642E-1,-1.058483E-1,2.2035417E-1,4.484228E-1,5.3379154E-1,1.8525952E-1,3.2170906E-3,3.5893282E-1,6.5429413E-1,-1.9112587E-1,-2.0866148E-2,1.24231264E-1,-7.4169226E-2],"split_indices":[14,24,8,0,0,21,39,0,24,0,0,14,21,0,0,15,24,0,0,0,0],"split_type":[0,0,0,0,0,0,0,0,0,0,0,0,0,0,0,0,0,0,0,0,0],"sum_hessian":[1.967065E1,3.4214754E0,1.6249176E1,1.2588693E0,2.162606E0,1.2499183E1,3.7499926E0,2.7211416E0,9.778042E0,1.0227454E0,2.7272472E0,2.8035269E0,6.9745145E0,1.7413825E0,1.0621444E0,4.741312E0,2.233203E0,3.1683033E0,1.5730087E0,1.2059743E0,1.0272285E0],"tree_param":{"num_deleted":"0","num_feature":"42","num_nodes":"21","size_leaf_vector":"1"}},{"base_weights":[5.8825195E-2,1.7460456E-1,-6.559021E-2,8.6490184E-2,-2.0535408E-1,-3.773304E-1,3.6244687E-1,7.816886E-2,-1.9843186E-1,6.2602985E-1,-8.614418E-2,3.847004E-2,2.1193682E-1,-4.553013E-1,1.5052347E-1,-4.323308E-2,-1.6061245E-1],"categories":[],"categories_nodes":[],"categories_segments":[],"categories_sizes":[],"default_left":[0,0,0,0,0,0,0,0,0,0,0,0,0,0,0,0,0],"id":19,"left_children":[1,-1,3,5,-1,7,9,-1,-1,11,13,-1,-1,15,-1,-1,-1],"loss_changes":[1.2288356E0,0E0,1.5347534E0,1.8610997E0,0E0,1.1719006E0,1.1129692E0,0E0,0E0,1.4012122E-1,1.1386374E0,0E0,0E0,1.06334686E-4,0E0,0E0,0E0],"parents":[2147483647,0,0,2,2,3,3,5,5,6,6,9,9,10,10,13,13],"right_children":[2,-1,4,6,-1,8,10,-1,-1,12,14,-1,-1,16,-1,-1,-1],"split_conditions":[2.8492364E-1,1.7460456E-1,4.0516633E-1,4.9969587E-2,-2.0535408E-1,-1.1601602E0,6.8924826E-1,7.816886E-2,-1.9843186E-1,3.6136135E-1,9.970979E-1,3.847004E-2,2.1193682E-1,3.7857798E-1,1.5052347E-1,-4.323308E-2,-1.6061245E-1],"split_indices":[14,0,15,39,0,40,13,0,0,38,8,0,0,39,0,0,0],"split_type":[0,0,0,0,0,0,0,0,0,0,0,0,0,0,0,0,0],"sum_hessian":[1.729172E1,2.6154144E0,1.4676306E1,1.2471977E1,2.204328E0,4.515348E0,7.9566298E0,1.416914E0,3.0984342E0,4.7626476E0,3.193982E0,1.0233101E0,3.7393374E0,2.1005201E0,1.0934619E0,1.0028504E0,1.0976697E0],"tree_param":{"num_deleted":"0","num_feature":"42","num_nodes":"17","size_leaf_vector":"1"}},{"base_weights":[5.0039284E-2,-6.5974414E-2,1.7200452E-1,-2.1026748E-1,2.9840034E-1,-3.219383E-1,9.161307E-2,-5.75874E-2,5.0031114E-1,-6.0042924E-1,6.522586E-2,1.7587544E-1,4.430644E-2,-3.203487E-2,-2.1097142E-1,2.9247856E-1,-9.340668E-2,-2.7207935E-2,1.464654E-1],"categories":[],"categories_nodes":[],"categories_segments":[],"categories_sizes":[],"default_left":[0,0,0,0,0,0,0,0,0,0,0,0,0,0,0,0,0,0,0],"id":20,"left_children":[1,3,-1,5,7,9,-1,-1,11,13,15,-1,-1,-1,-1,17,-1,-1,-1],"loss_changes":[1.0176396E0,8.0445164E-1,0E0,7.13985E-1,5.331739E-1,1.039263E0,0E0,0E0,1.6594648E-2,2.0367622E-1,5.003567E-1,0E0,0E0,0E0,0E0,3.066575E-1,0E0,0E0,0E0],"parents":[2147483647,0,0,1,1,3,3,4,4,5,5,8,8,9,9,10,10,15,15],"right_children":[2,4,-1,6,8,10,-1,-1,12,14,16,-1,-1,-1,-1,18,-1,-1,-1],"split_conditions":[5.9343606E-1,9.949262E-1,1.7200452E-1,7.102163E-1,1.5525462E-1,-1.2463253E-1,9.161307E-2,-5.75874E-2,4.8440892E-1,5.758724E-1,6.931194E-1,1.7587544E-1,4.430644E-2,-3.203487E-2,-2.1097142E-1,6.178804E-1,-9.340668E-2,-2.7207935E-2,1.464654E-1],"split_indices":[21,8,0,24,39,16,0,0,14,24,13,0,0,0,0,37,0,0,0],"split_type":[0,0,0,0,0,0,0,0,0,0,0,0,0,0,0,0,0,0,0],"sum_hessian":[1.513897E1,1.3107143E1,2.031827E0,9.692021E0,3.415122E0,8.275493E0,1.4165286E0,1.0104494E0,2.4046726E0,4.492881E0,3.7826118E0,1.4007432E0,1.0039293E0,1.1258167E0,3.3670642E0,2.4983091E0,1.2843027E0,1.0261745E0,1.4721346E0],"tree_param":{"num_deleted":"0","num_feature":"42","num_nodes":"19","size_leaf_vector":"1"}},{"base_weights":[5.2073035E-2,-3.680056E-1,1.7269263E-1,1.25684645E-2,-1.6557454E-1,2.0403491E-2,1.706584E-1,1.6400035E-1,-1.16149396E-1,9.637961E-2,-2.3741166E-1,1.5075059E-1,-4.299633E-1,-6.71962E-2,1.2940378E-1,-1.8153374E-1,-2.3473484E-2],"categories":[],"categories_nodes":[],"categories_segments":[],"categories_sizes":[],"default_left":[0,0,0,0,0,0,0,0,0,0,0,0,0,0,0,0,0],"id":21,"left_children":[1,3,5,-1,-1,7,-1,-1,9,-1,11,13,15,-1,-1,-1,-1],"loss_changes":[8.122009E-1,2.9567006E-1,7.2201145E-1,0E0,0E0,7.6922536E-1,0E0,0E0,5.3360265E-1,0E0,6.123469E-1,4.2988077E-1,2.7029353E-1,0E0,0E0,0E0,0E0],"parents":[2147483647,0,0,1,1,2,2,5,5,8,8,10,10,11,11,12,12],"right_children":[2,4,6,-1,-1,8,-1,-1,10,-1,12,14,16,-1,-1,-1,-1],"split_conditions":[2.4587376E-1,2E0,-1.00295015E-1,1.25684645E-2,-1.6557454E-1,3.3596054E-1,1.706584E-1,1.6400035E-1,3.5381526E-1,9.637961E-2,5.7842284E-1,3.488711E-1,7.0359236E-1,-6.71962E-2,1.2940378E-1,-1.8153374E-1,-2.3473484E-2],"split_indices":[17,11,16,0,0,12,0,0,41,0,24,15,20,0,0,0,0],"split_type":[0,0,0,0,0,0,0,0,0,0,0,0,0,0,0,0,0],"sum_hessian":[1.3775079E1,2.6154296E0,1.1159649E1,1.0491858E0,1.566244E0,8.820507E0,2.3391426E0,1.198446E0,7.6220603E0,1.2963936E0,6.325667E0,2.1694305E0,4.156236E0,1.0152699E0,1.1541606E0,2.2936134E0,1.8626229E0],"tree_param":{"num_deleted":"0","num_feature":"42","num_nodes":"17","size_leaf_vector":"1"}},{"base_weights":[4.9790937E-2,1.3986716E-1,-6.7048684E-2,-3.9710566E-1,1.0638633E-1,-1.2775268E-2,-1.5079628E-1,-3.2201195E-1,3.7897623E-1,6.943528E-2,-1.8661997E-1,-5.085034E-2,5.458503E-1,2.0202947E-1,1.5408845E-2],"categories":[],"categories_nodes":[],"categories_segments":[],"categories_sizes":[],"default_left":[0,0,0,0,0,0,0,0,0,0,0,0,0,0,0],"id":22,"left_children":[1,-1,3,5,7,-1,-1,9,11,-1,-1,-1,13,-1,-1],"loss_changes":[6.9203734E-1,0E0,6.993669E-1,1.3446617E-1,1.0929028E0,0E0,0E0,7.706566E-1,5.996034E-1,0E0,0E0,0E0,2.4834454E-1,0E0,0E0],"parents":[2147483647,0,0,2,2,3,3,4,4,7,7,8,8,12,12],"right_children":[2,-1,4,6,8,-1,-1,10,12,-1,-1,-1,14,-1,-1],"split_conditions":[2.924223E-1,1.3986716E-1,-1.4541745E-1,1.5860471E-1,3.8255133E-2,-1.2775268E-2,-1.5079628E-1,-1.2002002E0,1.7717718E-1,6.943528E-2,-1.8661997E-1,-5.085034E-2,4.6291178E-1,2.0202947E-1,1.5408845E-2],"split_indices":[14,0,16,10,39,0,0,40,38,0,0,0,14,0,0],"split_type":[0,0,0,0,0,0,0,0,0,0,0,0,0,0,0],"sum_hessian":[1.2580639E1,2.1012387E0,1.04794E1,3.1655405E0,7.31386E0,1.0482123E0,2.117328E0,2.773602E0,4.540258E0,1.055439E0,1.7181629E0,1.0554591E0,3.4847987E0,2.4824352E0,1.0023634E0],"tree_param":{"num_deleted":"0","num_feature":"42","num_nodes":"15","size_leaf_vector":"1"}},{"base_weights":[4.1227914E-2,-7.049362E-2,1.2936535E-1,-2.3788238E-1,2.1887644E-1,-4.1719913E-1,9.999893E-2,1.9146396E-1,-1.2019158E-1,-5.644943E-1,1.3158177E-2,-2.1434616E-1,-8.683634E-3],"categories":[],"categories_nodes":[],"categories_segments":[],"categories_sizes":[],"default_left":[0,0,0,0,0,0,0,0,0,0,0,0,0],"id":23,"left_children":[1,3,-1,5,7,9,-1,-1,-1,11,-1,-1,-1],"loss_changes":[5.7324594E-1,5.6280017E-1,0E0,8.723732E-1,1.3948395E0,4.2495668E-1,0E0,0E0,0E0,3.4386563E-1,0E0,0E0,0E0],"parents":[2147483647,0,0,1,1,3,3,4,4,5,5,9,9],"right_children":[2,4,-1,6,8,10,-1,-1,-1,12,-1,-1,-1],"split_conditions":[6.0281795E-1,3.5893282E-1,1.2936535E-1,9.9839723E-1,5.8995986E-1,6.1214604E0,9.999893E-2,1.9146396E-1,-1.2019158E-1,2.456698E-1,1.3158177E-2,-2.1434616E-1,-8.683634E-3],"split_indices":[17,15,0,8,41,10,0,0,0,2,0,0,0],"split_type":[0,0,0,0,0,0,0,0,0,0,0,0,0],"sum_hessian":[1.1459132E1,9.544216E0,1.9149164E0,6.159264E0,3.3849523E0,4.892895E0,1.2663686E0,2.0006037E0,1.3843486E0,3.5382016E0,1.3546937E0,2.503045E0,1.0351566E0],"tree_param":{"num_deleted":"0","num_feature":"42","num_nodes":"13","size_leaf_vector":"1"}},{"base_weights":[3.86554E-2,-3.095989E-1,1.5182894E-1,-1.4251983E-1,5.483634E-4,2.1293582E-2,1.5194273E-1,-1.22162476E-1,1.4456438E-1,1.4274259E-1,-1.0966346E-1,7.7318355E-2,-2.825193E-1,-1.5162215E-1,1.17901005E-2],"categories":[],"categories_nodes":[],"categories_segments":[],"categories_sizes":[],"default_left":[0,0,0,0,0,0,0,0,0,0,0,0,0,0,0],"id":24,"left_children":[1,3,5,-1,-1,7,-1,-1,9,-1,11,-1,13,-1,-1],"loss_changes":[4.941983E-1,1.612283E-1,4.1670948E-1,0E0,0E0,4.7054926E-1,0E0,0E0,6.2402433E-1,0E0,3.6840832E-1,0E0,2.811308E-1,0E0,0E0],"parents":[2147483647,0,0,1,1,2,2,5,5,8,8,10,10,12,12],"right_children":[2,4,6,-1,-1,8,-1,-1,10,-1,12,-1,14,-1,-1],"split_conditions":[2.345749E-1,6.7692E-1,-9.891309E-2,-1.4251983E-1,5.483634E-4,3.5335335E-1,1.5194273E-1,-1.22162476E-1,1.5671461E0,1.4274259E-1,3.7028113E-1,7.7318355E-2,4.9969587E-2,-1.5162215E-1,1.17901005E-2],"split_indices":[21,37,16,0,0,38,0,0,9,0,41,0,39,0,0],"split_type":[0,0,0,0,0,0,0,0,0,0,0,0,0,0,0],"sum_hessian":[1.0346261E1,2.111918E0,8.234344E0,1.0360134E0,1.0759046E0,6.793786E0,1.4405571E0,1.0031993E0,5.790587E0,2.1359644E0,3.6546223E0,1.0122235E0,2.6423988E0,1.2241219E0,1.418277E0],"tree_param":{"num_deleted":"0","num_feature":"42","num_nodes":"15","size_leaf_vector":"1"}},{"base_weights":[2.6200486E-2,-1.09220214E-1,3.133295E-1,-2.2179148E-1,8.161513E-2,1.2870972E-1,2.7131077E-2,-4.0182114E-1,7.9747E-2,-1.5166414E-1,-9.012654E-3,1.5955311E-1,-1.1790701E-1],"categories":[],"categories_nodes":[],"categories_segments":[],"categories_sizes":[],"default_left":[0,0,0,0,0,0,0,0,0,0,0,0,0],"id":25,"left_children":[1,3,5,7,-1,-1,-1,9,11,-1,-1,-1,-1],"loss_changes":[4.4577557E-1,4.0085602E-1,5.534622E-2,3.9446408E-1,0E0,0E0,0E0,1.5240479E-1,9.208196E-1,0E0,0E0,0E0,0E0],"parents":[2147483647,0,0,1,1,2,2,3,3,7,7,8,8],"right_children":[2,4,6,8,-1,-1,-1,10,12,-1,-1,-1,-1],"split_conditions":[5.141839E-1,9.970979E-1,3.498716E-1,3.5893282E-1,8.161513E-2,1.2870972E-1,2.7131077E-2,6.983614E0,5.8393574E-1,-1.5166414E-1,-9.012654E-3,1.5955311E-1,-1.1790701E-1],"split_indices":[21,8,15,15,0,0,0,10,41,0,0,0,0],"split_type":[0,0,0,0,0,0,0,0,0,0,0,0,0],"sum_hessian":[9.584355E0,6.9337525E0,2.6506028E0,5.6761394E0,1.2576132E0,1.1360452E0,1.5145576E0,3.345927E0,2.3302124E0,2.334733E0,1.0111939E0,1.1272777E0,1.2029346E0],"tree_param":{"num_deleted":"0","num_feature":"42","num_nodes":"13","size_leaf_vector":"1"}},{"base_weights":[3.137482E-2,-2.624491E-1,1.3926171E-1,-7.3095793E-3,-1.1060146E-1,1.1746889E-2,1.3788034E-1,-1.2951353E-1,1.0440281E-1,-1.1560253E-1,7.885099E-2,7.091774E-2,-5.1847097E-2],"categories":[],"categories_nodes":[],"categories_segments":[],"categories_sizes":[],"default_left":[0,0,0,0,0,0,0,0,0,0,0,0,0],"id":26,"left_children":[1,3,5,-1,-1,7,-1,9,-1,-1,11,-1,-1],"loss_changes":[3.517752E-1,6.732552E-2,3.18394E-1,0E0,0E0,3.631385E-1,0E0,3.2058072E-1,0E0,0E0,1.9272915E-1,0E0,0E0],"parents":[2147483647,0,0,1,1,2,2,5,5,7,7,10,10],"right_children":[2,4,6,-1,-1,8,-1,10,-1,-1,12,-1,-1],"split_conditions":[2.4357711E-1,2.4976354E0,-9.891309E-2,-7.3095793E-3,-1.1060146E-1,7.102163E-1,1.3788034E-1,-1.4541745E-1,1.0440281E-1,-1.1560253E-1,4.1673768E-1,7.091774E-2,-5.1847097E-2],"split_indices":[21,7,16,0,0,24,0,16,0,0,14,0,0],"split_type":[0,0,0,0,0,0,0,0,0,0,0,0,0],"sum_hessian":[8.944119E0,2.0173492E0,6.92677E0,1.0016532E0,1.0156962E0,5.6960583E0,1.2307119E0,4.4440165E0,1.2520419E0,1.6135497E0,2.8304665E0,1.7781285E0,1.0523381E0],"tree_param":{"num_deleted":"0","num_feature":"42","num_nodes":"13","size_leaf_vector":"1"}},{"base_weights":[2.6320152E-2,2.0485735E-1,-1.5921423E-1,6.7922072E-3,1.4546767E-1,4.423051E-2,-2.8152642E-1,9.029927E-2,-8.276396E-2,-1.2355235E-1,1.9500867E-3],"categories":[],"categories_nodes":[],"categories_segments":[],"categories_sizes":[],"default_left":[0,0,0,0,0,0,0,0,0,0,0],"id":27,"left_children":[1,3,5,7,-1,-1,9,-1,-1,-1,-1],"loss_changes":[3.4750944E-1,2.896625E-1,2.3746066E-1,4.2466602E-1,0E0,0E0,1.5575957E-1,0E0,0E0,0E0,0E0],"parents":[2147483647,0,0,1,1,2,2,3,3,6,6],"right_children":[2,4,6,8,-1,-1,10,-1,-1,-1,-1],"split_conditions":[1.5671461E0,9.970979E-1,6.025271E-2,6.7738324E-1,1.4546767E-1,4.423051E-2,6.248441E-1,9.029927E-2,-8.276396E-2,-1.2355235E-1,1.9500867E-3],"split_indices":[9,8,2,13,0,0,37,0,0,0,0],"split_type":[0,0,0,0,0,0,0,0,0,0,0],"sum_hessian":[8.506271E0,4.2818027E0,4.224468E0,3.1078875E0,1.1739153E0,1.1459795E0,3.0784886E0,1.4911097E0,1.6167779E0,1.823564E0,1.2549244E0],"tree_param":{"num_deleted":"0","num_feature":"42","num_nodes":"11","size_leaf_vector":"1"}},{"base_weights":[2.7881937E-2,1.2139597E-1,-9.251709E-2,-5.8815204E-2,1.515924E-1,-2.1135652E-1,5.6362037E-2,-1.3831891E-1,5.0706305E-2],"categories":[],"categories_nodes":[],"categories_segments":[],"categories_sizes":[],"default_left":[0,0,0,0,0,0,0,0,0],"id":28,"left_children":[1,3,-1,5,-1,7,-1,-1,-1],"loss_changes":[3.239674E-1,5.725986E-1,0E0,2.7436334E-1,0E0,4.8861268E-1,0E0,0E0,0E0],"parents":[2147483647,0,0,1,1,3,3,5,5],"right_children":[2,4,-1,6,-1,8,-1,-1,-1],"split_conditions":[6.0361445E-1,3.5893282E-1,-9.251709E-2,9.951154E-1,1.515924E-1,5.880772E0,5.6362037E-2,-1.3831891E-1,5.0706305E-2],"split_indices":[41,15,0,8,0,10,0,0,0],"split_type":[0,0,0,0,0,0,0,0,0],"sum_hessian":[8.111763E0,6.8467445E0,1.2650181E0,5.2358146E0,1.6109304E0,3.3237689E0,1.9120456E0,1.8784821E0,1.4452868E0],"tree_param":{"num_deleted":"0","num_feature":"42","num_nodes":"9","size_leaf_vector":"1"}},{"base_weights":[2.386168E-2,-8.210562E-2,1.4056614E-1,1.9554762E-2,1.2534632E-1,1.9149703E-1,-6.495114E-2,-1.343826E-2,8.869557E-2],"categories":[],"categories_nodes":[],"categories_segments":[],"categories_sizes":[],"default_left":[0,0,0,0,0,0,0,0,0],"id":29,"left_children":[1,-1,3,5,-1,7,-1,-1,-1],"loss_changes":[3.3945042E-1,0E0,2.2287297E-1,2.786202E-1,0E0,1.0950357E-1,0E0,0E0,0E0],"parents":[2147483647,0,0,2,2,3,3,5,5],"right_children":[2,-1,4,6,-1,8,-1,-1,-1],"split_conditions":[2.4357711E-1,-8.210562E-2,-9.891309E-2,5.25911E-1,1.2534632E-1,4.6409446E-1,-6.495114E-2,-1.343826E-2,8.869557E-2],"split_indices":[21,0,16,5,0,21,0,0,0],"split_type":[0,0,0,0,0,0,0,0,0],"sum_hessian":[7.667499E0,1.7811651E0,5.886334E0,4.843053E0,1.0432811E0,2.911282E0,1.9317706E0,1.0650285E0,1.8462535E0],"tree_param":{"num_deleted":"0","num_feature":"42","num_nodes":"9","size_leaf_vector":"1"}},{"base_weights":[2.4270004E-2,1.9294286E-1,-1.4976586E-1,1.1342614E-1,-1.7980183E-2,3.609352E-2,-2.5711235E-1,-1.4457233E-1,3.5533856E-3],"categories":[],"categories_nodes":[],"categories_segments":[],"categories_sizes":[],"default_left":[0,0,0,0,0,0,0,0,0],"id":30,"left_children":[1,3,5,-1,-1,-1,7,-1,-1],"loss_changes":[2.75778E-1,2.4307786E-1,1.6726145E-1,0E0,0E0,0E0,2.284214E-1,0E0,0E0],"parents":[2147483647,0,0,1,1,2,2,6,6],"right_children":[2,4,6,-1,-1,-1,8,-1,-1],"split_conditions":[1.5671461E0,4.5266864E-1,-1.096096E0,1.1342614E-1,-1.7980183E-2,3.609352E-2,6.21099E-1,-1.4457233E-1,3.5533856E-3],"split_indices":[9,39,40,0,0,0,37,0,0],"split_type":[0,0,0,0,0,0,0,0,0],"sum_hessian":[7.410173E0,3.707898E0,3.7022753E0,1.854776E0,1.8531218E0,1.0186447E0,2.6836307E0,1.0305376E0,1.653093E0],"tree_param":{"num_deleted":"0","num_feature":"42","num_nodes":"9","size_leaf_vector":"1"}},{"base_weights":[1.597358E-2,-7.858577E-2,1.183599E-1,2.1658461E-1,-6.52143E-2,-4.4620752E-2,3.3058694E-1,-1.8391013E-2,1.6552876E-1],"categories":[],"categories_nodes":[],"categories_segments":[],"categories_sizes":[],"default_left":[0,0,0,0,0,0,0,0,0],"id":31,"left_children":[1,-1,3,5,-1,-1,7,-1,-1],"loss_changes":[2.6331106E-1,0E0,2.6654103E-1,2.8445256E-1,0E0,0E0,4.3392777E-1,0E0,0E0],"parents":[2147483647,0,0,2,2,3,3,6,6],"right_children":[2,-1,4,6,-1,-1,8,-1,-1],"split_conditions":[2.523024E-1,-7.858577E-2,6.064257E-1,2.932933E-1,-6.52143E-2,-4.4620752E-2,6.108916E-1,-1.8391013E-2,1.6552876E-1],"split_indices":[17,0,41,38,0,0,37,0,0],"split_type":[0,0,0,0,0,0,0,0,0],"sum_hessian":[7.163752E0,1.5090326E0,5.6547194E0,4.6493936E0,1.0053262E0,1.0333501E0,3.6160433E0,1.5653337E0,2.0507097E0],"tree_param":{"num_deleted":"0","num_feature":"42","num_nodes":"9","size_leaf_vector":"1"}},{"base_weights":[8.72879E-3,9.151672E-2,-8.493737E-2,-1.9435205E-1,6.825044E-2,3.8973298E-2,-3.3376086E-1,-1.292091E-1,-8.0527775E-3],"categories":[],"categories_nodes":[],"categories_segments":[],"categories_sizes":[],"default_left":[0,0,0,0,0,0,0,0,0],"id":32,"left_children":[1,-1,3,5,-1,-1,7,-1,-1],"loss_changes":[2.431803E-1,0E0,2.742848E-1,2.9306287E-1,0E0,0E0,1.1170441E-1,0E0,0E0],"parents":[2147483647,0,0,2,2,3,3,6,6],"right_children":[2,-1,4,6,-1,-1,8,-1,-1],"split_conditions":[2.924223E-1,9.151672E-2,9.970979E-1,5.5451405E-1,6.825044E-2,3.8973298E-2,5.081154E-1,-1.292091E-1,-8.0527775E-3],"split_indices":[14,0,8,24,0,0,21,0,0],"split_type":[0,0,0,0,0,0,0,0,0],"sum_hessian":[6.8279004E0,1.0978494E0,5.730051E0,4.5237913E0,1.2062597E0,1.3806192E0,3.143172E0,2.0822313E0,1.0609409E0],"tree_param":{"num_deleted":"0","num_feature":"42","num_nodes":"9","size_leaf_vector":"1"}},{"base_weights":[1.3592324E-2,1.678803E-1,-1.4433731E-1,9.867158E-2,-1.0135295E-2,3.332622E-2,-2.7641675E-1,-1.1132554E-1,-1.5964994E-2],"categories":[],"categories_nodes":[],"categories_segments":[],"categories_sizes":[],"default_left":[0,0,0,0,0,0,0,0,0],"id":33,"left_children":[1,3,5,-1,-1,-1,7,-1,-1],"loss_changes":[2.0895877E-1,1.506514E-1,1.7523527E-1,0E0,0E0,0E0,4.5977637E-2,0E0,0E0],"parents":[2147483647,0,0,1,1,2,2,6,6],"right_children":[2,4,6,-1,-1,-1,8,-1,-1],"split_conditions":[1.5671461E0,7.25447E-1,3.7028113E-1,9.867158E-2,-1.0135295E-2,3.332622E-2,6.419027E-1,-1.1132554E-1,-1.5964994E-2],"split_indices":[9,37,41,0,0,0,37,0,0],"split_type":[0,0,0,0,0,0,0,0,0],"sum_hessian":[6.581159E0,3.2970896E0,3.2840695E0,1.4824404E0,1.8146491E0,1.1735361E0,2.1105335E0,1.0167296E0,1.0938038E0],"tree_param":{"num_deleted":"0","num_feature":"42","num_nodes":"9","size_leaf_vector":"1"}},{"base_weights":[8.914504E-3,-7.2678365E-2,1.1702098E-1,2.1022816E-1,-4.2134214E-2,-1.9714013E-2,3.5438833E-1,1.416528E-1,2.3339672E-2],"categories":[],"categories_nodes":[],"categories_segments":[],"categories_sizes":[],"default_left":[0,0,0,0,0,0,0,0,0],"id":34,"left_children":[1,-1,3,5,-1,-1,7,-1,-1],"loss_changes":[2.2997124E-1,0E0,1.7028031E-1,2.1052471E-1,0E0,0E0,6.908381E-2,0E0,0E0],"parents":[2147483647,0,0,2,2,3,3,6,6],"right_children":[2,-1,4,6,-1,-1,8,-1,-1],"split_conditions":[2.4357711E-1,-7.2678365E-2,2.835695E1,5.637254E-1,-4.2134214E-2,-1.9714013E-2,-4.194194E-1,1.416528E-1,2.3339672E-2],"split_indices":[21,0,7,6,0,0,40,0,0],"split_type":[0,0,0,0,0,0,0,0,0],"sum_hessian":[6.425193E0,1.5599164E0,4.8652763E0,3.7068307E0,1.1584455E0,1.4587518E0,2.2480788E0,1.0807127E0,1.1673663E0],"tree_param":{"num_deleted":"0","num_feature":"42","num_nodes":"9","size_leaf_vector":"1"}},{"base_weights":[1.15976315E-2,8.43474E-2,-7.941313E-2,-9.932485E-2,3.556897E-2,-6.920548E-2,2.1501307E-1,1.090869E-1,-9.112016E-3],"categories":[],"categories_nodes":[],"categories_segments":[],"categories_sizes":[],"default_left":[0,0,0,0,0,0,0,0,0],"id":35,"left_children":[1,-1,3,-1,5,-1,7,-1,-1],"loss_changes":[2.0004544E-1,0E0,1.9105473E-1,0E0,2.959175E-1,0E0,1.422303E-1,0E0,0E0],"parents":[2147483647,0,0,2,2,4,4,6,6],"right_children":[2,-1,4,-1,6,-1,8,-1,-1],"split_conditions":[2.924223E-1,8.43474E-2,-1.7148967E-1,-9.932485E-2,3.8255133E-2,-6.920548E-2,2.4949308E-1,1.090869E-1,-9.112016E-3],"split_indices":[14,0,16,0,39,0,1,0,0],"split_type":[0,0,0,0,0,0,0,0,0],"sum_hessian":[6.244062E0,1.0486963E0,5.1953654E0,1.0398785E0,4.155487E0,1.5580883E0,2.5973988E0,1.3176008E0,1.2797979E0],"tree_param":{"num_deleted":"0","num_feature":"42","num_nodes":"9","size_leaf_vector":"1"}},{"base_weights":[1.09386705E-2,9.242999E-2,-7.036372E-2,2.0204258E-1,-6.7367256E-2,3.1705028E-1,-3.2414783E-2,1.2155174E-1,9.913366E-3],"categories":[],"categories_nodes":[],"categories_segments":[],"categories_sizes":[],"default_left":[0,0,0,0,0,0,0,0,0],"id":36,"left_children":[1,3,-1,5,-1,7,-1,-1,-1],"loss_changes":[1.6208516E-1,2.5338274E-1,0E0,2.116743E-1,0E0,8.3794385E-2,0E0,0E0,0E0],"parents":[2147483647,0,0,1,1,3,3,5,5],"right_children":[2,4,-1,6,-1,8,-1,-1,-1],"split_conditions":[6.2924635E-1,5.995984E-1,-7.036372E-2,2.835695E1,-6.7367256E-2,4.437211E-1,-3.2414783E-2,1.2155174E-1,9.913366E-3],"split_indices":[12,41,0,7,0,39,0,0,0],"split_type":[0,0,0,0,0,0,0,0,0],"sum_hessian":[6.0186043E0,4.986694E0,1.0319103E0,3.9748342E0,1.0118599E0,2.8831017E0,1.0917324E0,1.8747605E0,1.0083413E0],"tree_param":{"num_deleted":"0","num_feature":"42","num_nodes":"9","size_leaf_vector":"1"}},{"base_weights":[3.0356857E-3,-9.7759455E-2,6.7118905E-2,3.0754508E-2,-2.2029318E-1,-9.6068926E-2,5.3683585E-3],"categories":[],"categories_nodes":[],"categories_segments":[],"categories_sizes":[],"default_left":[0,0,0,0,0,0,0],"id":37,"left_children":[1,3,-1,-1,5,-1,-1],"loss_changes":[1.7380139E-1,1.5471977E-1,0E0,0E0,9.280783E-2,0E0,0E0],"parents":[2147483647,0,0,1,1,4,4],"right_children":[2,4,-1,-1,6,-1,-1],"split_conditions":[5.3379154E-1,5.583085E-1,6.7118905E-2,3.0754508E-2,9.648859E-1,-9.6068926E-2,5.3683585E-3],"split_indices":[21,24,0,0,8,0,0],"split_type":[0,0,0,0,0,0,0],"sum_hessian":[5.8298726E0,4.384448E0,1.4454246E0,1.7262927E0,2.6581554E0,1.6298679E0,1.0282874E0],"tree_param":{"num_deleted":"0","num_feature":"42","num_nodes":"7","size_leaf_vector":"1"}},{"base_weights":[2.889589E-3,7.54086E-2,-8.512011E-2,-1.690496E-1,4.5192905E-2,1.9268457E-2,-2.5905675E-1,-1.0479536E-1,-1.1560644E-2],"categories":[],"categories_nodes":[],"categories_segments":[],"categories_sizes":[],"default_left":[0,0,0,0,0,0,0,0,0],"id":38,"left_children":[1,-1,3,5,-1,-1,7,-1,-1],"loss_changes":[1.6824737E-1,0E0,1.3837214E-1,1.1488545E-1,0E0,0E0,5.76991E-2,0E0,0E0],"parents":[2147483647,0,0,2,2,3,3,6,6],"right_children":[2,-1,4,6,-1,-1,8,-1,-1],"split_conditions":[2.9621994E-1,7.54086E-2,9.9700296E-1,5.5451405E-1,4.5192905E-2,1.9268457E-2,6.231069E-1,-1.0479536E-1,-1.1560644E-2],"split_indices":[14,0,8,24,0,0,19,0,0],"split_type":[0,0,0,0,0,0,0,0,0],"sum_hessian":[5.7153625E0,1.0094298E0,4.7059326E0,3.6791558E0,1.0267769E0,1.1040703E0,2.5750854E0,1.4127717E0,1.1623138E0],"tree_param":{"num_deleted":"0","num_feature":"42","num_nodes":"9","size_leaf_vector":"1"}},{"base_weights":[5.2418085E-3,8.7191924E-2,-6.607595E-2,9.067667E-2,-5.3943556E-2,-7.0351616E-2,3.7243623E-2],"categories":[],"categories_nodes":[],"categories_segments":[],"categories_sizes":[],"default_left":[0,0,0,0,0,0,0],"id":39,"left_children":[1,3,-1,-1,5,-1,-1],"loss_changes":[1.4089918E-1,1.8465787E-1,0E0,0E0,1.6408403E-1,0E0,0E0],"parents":[2147483647,0,0,1,1,4,4],"right_children":[2,4,-1,-1,6,-1,-1],"split_conditions":[6.209541E-1,3.6385542E-1,-6.607595E-2,9.067667E-2,3.5893282E-1,-7.0351616E-2,3.7243623E-2],"split_indices":[12,41,0,0,15,0,0],"split_type":[0,0,0,0,0,0,0],"sum_hessian":[5.585456E0,4.5464873E0,1.0389682E0,1.3491068E0,3.1973808E0,1.4303657E0,1.7670151E0],"tree_param":{"num_deleted":"0","num_feature":"42","num_nodes":"7","size_leaf_vector":"1"}},{"base_weights":[2.5442303E-3,1.2443075E-1,-1.23637415E-1,7.816867E-2,-2.4411237E-2,-7.889159E-2,1.792345E-2],"categories":[],"categories_nodes":[],"categories_segments":[],"categories_sizes":[],"default_left":[0,0,0,0,0,0,0],"id":40,"left_children":[1,3,5,-1,-1,-1,-1],"loss_changes":[1.1461812E-1,1.2711293E-1,1.0953221E-1,0E0,0E0,0E0,0E0],"parents":[2147483647,0,0,1,1,2,2],"right_children":[2,4,6,-1,-1,-1,-1],"split_conditions":[1.5671461E0,6.8924826E-1,2.4596372E0,7.816867E-2,-2.4411237E-2,-7.889159E-2,1.792345E-2],"split_indices":[9,13,9,0,0,0,0],"split_type":[0,0,0,0,0,0,0],"sum_hessian":[5.452201E0,2.780359E0,2.6718419E0,1.5132833E0,1.2670758E0,1.2716371E0,1.4002048E0],"tree_param":{"num_deleted":"0","num_feature":"42","num_nodes":"7","size_leaf_vector":"1"}},{"base_weights":[7.0271495E-4,7.630457E-2,-5.9106324E-2,2.35973E-1,-3.9484907E-2,1.0864816E-1,-4.4857543E-3],"categories":[],"categories_nodes":[],"categories_segments":[],"categories_sizes":[],"default_left":[0,0,0,0,0,0,0],"id":41,"left_children":[1,3,-1,5,-1,-1,-1],"loss_changes":[1.1008835E-1,2.0770209E-1,0E0,1.120493E-1,0E0,0E0,0E0],"parents":[2147483647,0,0,1,1,3,3],"right_children":[2,4,-1,6,-1,-1,-1],"split_conditions":[5.8995986E-1,4.2253006E-1,-5.9106324E-2,8.142748E-1,-3.9484907E-2,1.0864816E-1,-4.4857543E-3],"split_indices":[41,14,0,6,0,0,0],"split_type":[0,0,0,0,0,0,0],"sum_hessian":[5.3589063E0,4.3208623E0,1.0380441E0,2.3677118E0,1.9531506E0,1.2804763E0,1.0872355E0],"tree_param":{"num_deleted":"0","num_feature":"42","num_nodes":"7","size_leaf_vector":"1"}},{"base_weights":[1.9591784E-3,-1.466911E-1,1.1038717E-1,-9.015703E-2,2.4931459E-2,1.0885126E-1,-9.1455996E-2,5.4079093E-2,-9.2788495E-2],"categories":[],"categories_nodes":[],"categories_segments":[],"categories_sizes":[],"default_left":[0,0,0,0,0,0,0,0,0],"id":42,"left_children":[1,3,5,-1,-1,-1,7,-1,-1],"loss_changes":[1.1683652E-1,1.3325307E-1,2.4623889E-1,0E0,0E0,0E0,2.4055995E-1,0E0,0E0],"parents":[2147483647,0,0,1,1,2,2,6,6],"right_children":[2,4,6,-1,-1,-1,8,-1,-1],"split_conditions":[1.413323E-1,2.4596372E0,7.25447E-1,-9.015703E-2,2.4931459E-2,1.0885126E-1,4.109958E-1,5.4079093E-2,-9.2788495E-2],"split_indices":[39,9,37,0,0,0,5,0,0],"split_type":[0,0,0,0,0,0,0,0,0],"sum_hessian":[5.244239E0,2.0630262E0,3.1812127E0,1.051402E0,1.0116241E0,1.0590327E0,2.12218E0,1.0210602E0,1.1011198E0],"tree_param":{"num_deleted":"0","num_feature":"42","num_nodes":"9","size_leaf_vector":"1"}},{"base_weights":[2.2081689E-3,-9.63887E-2,4.50111E-2,-2.1059817E-1,3.236809E-2,-1.16871424E-1,2.3539757E-2],"categories":[],"categories_nodes":[],"categories_segments":[],"categories_sizes":[],"default_left":[0,0,0,0,0,0,0],"id":43,"left_children":[1,3,-1,5,-1,-1,-1],"loss_changes":[1.02552585E-1,1.2151633E-1,0E0,1.8860577E-1,0E0,0E0,0E0],"parents":[2147483647,0,0,1,1,3,3],"right_children":[2,4,-1,6,-1,-1,-1],"split_conditions":[3.5893282E-1,9.951154E-1,4.50111E-2,2.3593214E0,3.236809E-2,-1.16871424E-1,2.3539757E-2],"split_indices":[15,8,0,9,0,0,0],"split_type":[0,0,0,0,0,0,0],"sum_hessian":[5.0437694E0,3.2344623E0,1.8093069E0,2.0547707E0,1.1796917E0,1.0543027E0,1.000468E0],"tree_param":{"num_deleted":"0","num_feature":"42","num_nodes":"7","size_leaf_vector":"1"}},{"base_weights":[-1.874451E-3,7.510322E-2,-5.7187926E-2,-4.6496805E-2,2.1779543E-1,1.16065964E-1,-1.5339519E-2],"categories":[],"categories_nodes":[],"categories_segments":[],"categories_sizes":[],"default_left":[0,0,0,0,0,0,0],"id":44,"left_children":[1,3,-1,-1,5,-1,-1],"loss_changes":[1.0049643E-1,1.9563484E-1,0E0,0E0,1.7707255E-1,0E0,0E0],"parents":[2147483647,0,0,1,1,4,4],"right_children":[2,4,-1,-1,6,-1,-1],"split_conditions":[5.8995986E-1,6.21099E-1,-5.7187926E-2,-4.6496805E-2,6.869221E-1,1.16065964E-1,-1.5339519E-2],"split_indices":[41,37,0,0,13,0,0],"split_type":[0,0,0,0,0,0,0],"sum_hessian":[4.9312897E0,3.9304585E0,1.000831E0,1.4714888E0,2.4589698E0,1.2404149E0,1.2185549E0],"tree_param":{"num_deleted":"0","num_feature":"42","num_nodes":"7","size_leaf_vector":"1"}},{"base_weights":[-1.067944E-3,-4.7204044E-2,8.6300984E-2,7.101576E-2,-3.030442E-2],"categories":[],"categories_nodes":[],"categories_segments":[],"categories_sizes":[],"default_left":[0,0,0,0,0],"id":45,"left_children":[1,-1,3,-1,-1],"loss_changes":[9.279326E-2,0E0,1.4695525E-1,0E0,0E0],"parents":[2147483647,0,0,2,2],"right_children":[2,-1,4,-1,-1],"split_conditions":[5.637254E-1,-4.7204044E-2,7.0314603E0,7.101576E-2,-3.030442E-2],"split_indices":[6,0,7,0,0],"split_type":[0,0,0,0,0],"sum_hessian":[4.801565E0,1.4345698E0,3.3669956E0,1.7211411E0,1.6458546E0],"tree_param":{"num_deleted":"0","num_feature":"42","num_nodes":"5","size_leaf_vector":"1"}},{"base_weights":[-1.7145664E-3,-5.3371828E-2,8.6223155E-2,-2.024036E-2,6.204357E-2],"categories":[],"categories_nodes":[],"categories_segments":[],"categories_sizes":[],"default_left":[0,0,0,0,0],"id":46,"left_children":[1,-1,3,-1,-1],"loss_changes":[1.0425247E-1,0E0,9.7382486E-2,0E0,0E0],"parents":[2147483647,0,0,2,2],"right_children":[2,-1,4,-1,-1],"split_conditions":[2.8154582E-1,-5.3371828E-2,-1.2351834E-1,-2.024036E-2,6.204357E-2],"split_indices":[17,0,16,0,0],"split_type":[0,0,0,0,0],"sum_hessian":[4.7385783E0,1.2370133E0,3.5015647E0,1.733158E0,1.7684069E0],"tree_param":{"num_deleted":"0","num_feature":"42","num_nodes":"5","size_leaf_vector":"1"}},{"base_weights":[-3.1657477E-3,5.248316E-2,-8.1019655E-2,5.2611228E-2,-7.153377E-2,-5.1908214E-2,7.875461E-2],"categories":[],"categories_nodes":[],"categories_segments":[],"categories_sizes":[],"default_left":[0,0,0,0,0,0,0],"id":47,"left_children":[1,-1,3,5,-1,-1,-1],"loss_changes":[9.299943E-2,0E0,1.10136375E-1,2.0306316E-1,0E0,0E0,0E0],"parents":[2147483647,0,0,2,2,3,3],"right_children":[2,-1,4,6,-1,-1,-1],"split_conditions":[3.115277E-1,5.248316E-2,7.25447E-1,4.9969587E-2,-7.153377E-2,-5.1908214E-2,7.875461E-2],"split_indices":[14,0,37,39,0,0,0],"split_type":[0,0,0,0,0,0,0],"sum_hessian":[4.6845903E0,1.045554E0,3.6390362E0,2.328391E0,1.3106452E0,1.2068062E0,1.1215849E0],"tree_param":{"num_deleted":"0","num_feature":"42","num_nodes":"7","size_leaf_vector":"1"}},{"base_weights":[-8.0120657E-4,1.21359855E-1,-1.1892614E-1,-1.4491926E-2,7.04005E-2,-6.843632E-2,1.8040996E-2],"categories":[],"categories_nodes":[],"categories_segments":[],"categories_sizes":[],"default_left":[0,0,0,0,0,0,0],"id":48,"left_children":[1,3,5,-1,-1,-1,-1],"loss_changes":[9.4863564E-2,7.352762E-2,7.900019E-2,0E0,0E0,0E0,0E0],"parents":[2147483647,0,0,1,1,2,2],"right_children":[2,4,6,-1,-1,-1,-1],"split_conditions":[5.25911E-1,4.6861812E-1,9.949262E-1,-1.4491926E-2,7.04005E-2,-6.843632E-2,1.8040996E-2],"split_indices":[5,21,8,0,0,0,0],"split_type":[0,0,0,0,0,0,0],"sum_hessian":[4.57375E0,2.2349992E0,2.3387508E0,1.1246458E0,1.1103534E0,1.2826197E0,1.0561311E0],"tree_param":{"num_deleted":"0","num_feature":"42","num_nodes":"7","size_leaf_vector":"1"}},{"base_weights":[4.4590258E-4,-9.391828E-2,4.1981474E-2,1.087418E-2,-6.1585624E-2],"categories":[],"categories_nodes":[],"categories_segments":[],"categories_sizes":[],"default_left":[0,0,0,0,0],"id":49,"left_children":[1,3,-1,-1,-1],"loss_changes":[8.5617416E-2,6.372374E-2,0E0,0E0,0E0],"parents":[2147483647,0,0,1,1],"right_children":[2,4,-1,-1,-1],"split_conditions":[3.5893282E-1,7.0314603E0,4.1981474E-2,1.087418E-2,-6.1585624E-2],"split_indices":[15,7,0,0,0],"split_type":[0,0,0,0,0],"sum_hessian":[4.5059047E0,2.8825934E0,1.6233114E0,1.6401341E0,1.2424592E0],"tree_param":{"num_deleted":"0","num_feature":"42","num_nodes":"5","size_leaf_vector":"1"}},{"base_weights":[-1.3699487E-3,4.8333883E-2,-7.785833E-2,2.5897967E-2,-6.2461905E-2],"categories":[],"categories_nodes":[],"categories_segments":[],"categories_sizes":[],"default_left":[0,0,0,0,0],"id":50,"left_children":[1,-1,3,-1,-1],"loss_changes":[8.0468826E-2,0E0,1.1193119E-1,0E0,0E0],"parents":[2147483647,0,0,2,2],"right_children":[2,-1,4,-1,-1],"split_conditions":[4.8017986E-2,4.8333883E-2,1.5671461E0,2.5897967E-2,-6.2461905E-2],"split_indices":[2,0,9,0,0],"split_type":[0,0,0,0,0],"sum_hessian":[4.4654455E0,1.0751508E0,3.3902948E0,1.6498655E0,1.7404294E0],"tree_param":{"num_deleted":"0","num_feature":"42","num_nodes":"5","size_leaf_vector":"1"}},{"base_weights":[1.0962959E-3,-4.620096E-2,7.927636E-2,-2.2922715E-2,6.104352E-2],"categories":[],"categories_nodes":[],"categories_segments":[],"categories_sizes":[],"default_left":[0,0,0,0,0],"id":51,"left_children":[1,-1,3,-1,-1],"loss_changes":[7.785283E-2,0E0,9.791122E-2,0E0,0E0],"parents":[2147483647,0,0,2,2],"right_children":[2,-1,4,-1,-1],"split_conditions":[2.8154582E-1,-4.620096E-2,-1.2351834E-1,-2.2922715E-2,6.104352E-2],"split_indices":[17,0,16,0,0],"split_type":[0,0,0,0,0],"sum_hessian":[4.4136314E0,1.1541296E0,3.259502E0,1.617185E0,1.6423168E0],"tree_param":{"num_deleted":"0","num_feature":"42","num_nodes":"5","size_leaf_vector":"1"}},{"base_weights":[-6.313132E-4,-8.815821E-2,3.834061E-2,-5.107114E-2,1.9603604E-2],"categories":[],"categories_nodes":[],"categories_segments":[],"categories_sizes":[],"default_left":[0,0,0,0,0],"id":52,"left_children":[1,3,-1,-1,-1],"loss_changes":[7.159452E-2,5.8791965E-2,0E0,0E0,0E0],"parents":[2147483647,0,0,1,1],"right_children":[2,4,-1,-1,-1],"split_conditions":[3.5893282E-1,9.951154E-1,3.834061E-2,-5.107114E-2,1.9603604E-2],"split_indices":[15,8,0,0,0],"split_type":[0,0,0,0,0],"sum_hessian":[4.3665805E0,2.7833347E0,1.5832456E0,1.742567E0,1.0407679E0],"tree_param":{"num_deleted":"0","num_feature":"42","num_nodes":"5","size_leaf_vector":"1"}},{"base_weights":[7.885997E-4,1.0715849E-1,-1.0288712E-1,-1.7031187E-2,6.410199E-2,-6.128544E-2,1.2869331E-2],"categories":[],"categories_nodes":[],"categories_segments":[],"categories_sizes":[],"default_left":[0,0,0,0,0,0,0],"id":53,"left_children":[1,3,5,-1,-1,-1,-1],"loss_changes":[6.980841E-2,6.662282E-2,5.6207553E-2,0E0,0E0,0E0,0E0],"parents":[2147483647,0,0,1,1,2,2],"right_children":[2,4,6,-1,-1,-1,-1],"split_conditions":[5.25911E-1,-1.7148967E-1,7.057515E-1,-1.7031187E-2,6.410199E-2,-6.128544E-2,1.2869331E-2],"split_indices":[5,16,5,0,0,0,0],"split_type":[0,0,0,0,0,0,0],"sum_hessian":[4.3303704E0,2.1208322E0,2.2095382E0,1.0192286E0,1.1016035E0,1.0664885E0,1.1430496E0],"tree_param":{"num_deleted":"0","num_feature":"42","num_nodes":"7","size_leaf_vector":"1"}},{"base_weights":[3.2206054E-4,3.8548343E-2,-8.468443E-2,2.5650019E-2,-5.4277457E-2],"categories":[],"categories_nodes":[],"categories_segments":[],"categories_sizes":[],"default_left":[0,0,0,0,0],"id":54,"left_children":[1,-1,3,-1,-1],"loss_changes":[6.839704E-2,0E0,7.732498E-2,0E0,0E0],"parents":[2147483647,0,0,2,2],"right_children":[2,-1,4,-1,-1],"split_conditions":[2.4275963E0,3.8548343E-2,3.0557105E-1,2.5650019E-2,-5.4277457E-2],"split_indices":[7,0,3,0,0],"split_type":[0,0,0,0,0],"sum_hessian":[4.2788415E0,1.5022188E0,2.7766228E0,1.0433097E0,1.7333131E0],"tree_param":{"num_deleted":"0","num_feature":"42","num_nodes":"5","size_leaf_vector":"1"}},{"base_weights":[2.0488177E-3,-4.083095E-2,8.2290515E-2,6.2529825E-2,-3.2934844E-2],"categories":[],"categories_nodes":[],"categories_segments":[],"categories_sizes":[],"default_left":[0,0,0,0,0],"id":55,"left_children":[1,-1,3,-1,-1],"loss_changes":[6.928908E-2,0E0,1.1829387E-1,0E0,0E0],"parents":[2147483647,0,0,2,2],"right_children":[2,-1,4,-1,-1],"split_conditions":[5.637254E-1,-4.083095E-2,6.931194E-1,6.2529825E-2,-3.2934844E-2],"split_indices":[6,0,13,0,0],"split_type":[0,0,0,0,0],"sum_hessian":[4.2400723E0,1.3020942E0,2.9379783E0,1.7219391E0,1.2160392E0],"tree_param":{"num_deleted":"0","num_feature":"42","num_nodes":"5","size_leaf_vector":"1"}},{"base_weights":[-5.862165E-4,3.814251E-2,-7.7688746E-2,-6.1701637E-2,3.997219E-2],"categories":[],"categories_nodes":[],"categories_segments":[],"categories_sizes":[],"default_left":[0,0,0,0,0],"id":56,"left_children":[1,-1,3,-1,-1],"loss_changes":[6.098881E-2,0E0,1.3152689E-1,0E0,0E0],"parents":[2147483647,0,0,2,2],"right_children":[2,-1,4,-1,-1],"split_conditions":[5.583085E-1,3.814251E-2,5.717985E-1,-6.1701637E-2,3.997219E-2],"split_indices":[24,0,22,0,0],"split_type":[0,0,0,0,0],"sum_hessian":[4.189945E0,1.332889E0,2.8570566E0,1.7936604E0,1.0633961E0],"tree_param":{"num_deleted":"0","num_feature":"42","num_nodes":"5","size_leaf_vector":"1"}},{"base_weights":[2.662149E-3,9.7991005E-2,-3.0441917E-2,6.287597E-2,-1.698577E-2],"categories":[],"categories_nodes":[],"categories_segments":[],"categories_sizes":[],"default_left":[0,0,0,0,0],"id":57,"left_children":[1,3,-1,-1,-1],"loss_changes":[6.095059E-2,6.6927746E-2,0E0,0E0,0E0],"parents":[2147483647,0,0,1,1],"right_children":[2,4,-1,-1,-1],"split_conditions":[1.6193736E0,6.875176E-1,-3.0441917E-2,6.287597E-2,-1.698577E-2],"split_indices":[9,13,0,0,0],"split_type":[0,0,0,0,0],"sum_hessian":[4.138177E0,2.1912425E0,1.9469346E0,1.0661381E0,1.1251042E0],"tree_param":{"num_deleted":"0","num_feature":"42","num_nodes":"5","size_leaf_vector":"1"}},{"base_weights":[5.0392663E-3,-4.1789934E-2,7.788424E-2,5.4259147E-2,-2.5962641E-2],"categories":[],"categories_nodes":[],"categories_segments":[],"categories_sizes":[],"default_left":[0,0,0,0,0],"id":58,"left_children":[1,-1,3,-1,-1],"loss_changes":[6.4506784E-2,0E0,8.394098E-2,0E0,0E0],"parents":[2147483647,0,0,2,2],"right_children":[2,-1,4,-1,-1],"split_conditions":[-1.7369266E-1,-4.1789934E-2,6.931194E-1,5.4259147E-2,-2.5962641E-2],"split_indices":[16,0,13,0,0],"split_type":[0,0,0,0,0],"sum_hessian":[4.1032534E0,1.0702748E0,3.0329785E0,1.8034911E0,1.2294874E0],"tree_param":{"num_deleted":"0","num_feature":"42","num_nodes":"5","size_leaf_vector":"1"}},{"base_weights":[9.730734E-4,3.7666127E-2,-7.596354E-2,3.3319794E-2,-5.5637415E-2],"categories":[],"categories_nodes":[],"categories_segments":[],"categories_sizes":[],"default_left":[0,0,0,0,0],"id":59,"left_children":[1,-1,3,-1,-1],"loss_changes":[5.8071E-2,0E0,9.746317E-2,0E0,0E0],"parents":[2147483647,0,0,2,2],"right_children":[2,-1,4,-1,-1],"split_conditions":[2.6122415E-1,3.7666127E-2,3.7028113E-1,3.3319794E-2,-5.5637415E-2],"split_indices":[10,0,41,0,0],"split_type":[0,0,0,0,0],"sum_hessian":[4.063581E0,1.3101655E0,2.7534153E0,1.011427E0,1.7419883E0],"tree_param":{"num_deleted":"0","num_feature":"42","num_nodes":"5","size_leaf_vector":"1"}},{"base_weights":[3.6601052E-3,-8.088959E-2,3.841558E-2,9.557503E-3,-5.313994E-2],"categories":[],"categories_nodes":[],"categories_segments":[],"categories_sizes":[],"default_left":[0,0,0,0,0],"id":60,"left_children":[1,3,-1,-1,-1],"loss_changes":[6.3178964E-2,4.473857E-2,0E0,0E0,0E0],"parents":[2147483647,0,0,1,1],"right_children":[2,4,-1,-1,-1],"split_conditions":[3.5893282E-1,7.0314603E0,3.841558E-2,9.557503E-3,-5.313994E-2],"split_indices":[15,7,0,0,0],"split_type":[0,0,0,0,0],"sum_hessian":[4.0222907E0,2.6028447E0,1.4194461E0,1.5067226E0,1.0961221E0],"tree_param":{"num_deleted":"0","num_feature":"42","num_nodes":"5","size_leaf_vector":"1"}},{"base_weights":[1.49076E-3,-3.9344005E-2,6.976831E-2,-2.443102E-2,5.7503525E-2],"categories":[],"categories_nodes":[],"categories_segments":[],"categories_sizes":[],"default_left":[0,0,0,0,0],"id":61,"left_children":[1,-1,3,-1,-1],"loss_changes":[5.4365344E-2,0E0,8.83999E-2,0E0,0E0],"parents":[2147483647,0,0,2,2],"right_children":[2,-1,4,-1,-1],"split_conditions":[2.8154582E-1,-3.9344005E-2,-1.2351834E-1,-2.443102E-2,5.7503525E-2],"split_indices":[17,0,16,0,0],"split_type":[0,0,0,0,0],"sum_hessian":[3.9927852E0,1.043966E0,2.9488192E0,1.4644526E0,1.4843664E0],"tree_param":{"num_deleted":"0","num_feature":"42","num_nodes":"5","size_leaf_vector":"1"}},{"base_weights":[-1.13746864E-4,-7.980763E-2,3.529901E-2,1.489767E-2,-4.9005736E-2],"categories":[],"categories_nodes":[],"categories_segments":[],"categories_sizes":[],"default_left":[0,0,0,0,0],"id":62,"left_children":[1,3,-1,-1,-1],"loss_changes":[5.5892903E-2,4.6518095E-2,0E0,0E0,0E0],"parents":[2147483647,0,0,1,1],"right_children":[2,4,-1,-1,-1],"split_conditions":[3.5893282E-1,3.4551936E-1,3.529901E-2,1.489767E-2,-4.9005736E-2],"split_indices":[15,15,0,0,0],"split_type":[0,0,0,0,0],"sum_hessian":[3.954389E0,2.5507848E0,1.4036044E0,1.1595192E0,1.3912655E0],"tree_param":{"num_deleted":"0","num_feature":"42","num_nodes":"5","size_leaf_vector":"1"}},{"base_weights":[1.12087444E-4,-3.5550695E-2,7.001357E-2,5.168121E-2,-2.5158199E-2],"categories":[],"categories_nodes":[],"categories_segments":[],"categories_sizes":[],"default_left":[0,0,0,0,0],"id":63,"left_children":[1,-1,3,-1,-1],"loss_changes":[4.914493E-2,0E0,7.3112726E-2,0E0,0E0],"parents":[2147483647,0,0,2,2],"right_children":[2,-1,4,-1,-1],"split_conditions":[5.609025E-1,-3.5550695E-2,6.931194E-1,5.168121E-2,-2.5158199E-2],"split_indices":[6,0,13,0,0],"split_type":[0,0,0,0,0],"sum_hessian":[3.926616E0,1.1981773E0,2.7284386E0,1.5673207E0,1.161118E0],"tree_param":{"num_deleted":"0","num_feature":"42","num_nodes":"5","size_leaf_vector":"1"}},{"base_weights":[-1.6950867E-3,3.5080887E-2,-8.047696E-2,1.7498232E-2,-4.7784254E-2],"categories":[],"categories_nodes":[],"categories_segments":[],"categories_sizes":[],"default_left":[0,0,0,0,0],"id":64,"left_children":[1,-1,3,-1,-1],"loss_changes":[5.514769E-2,0E0,4.793707E-2,0E0,0E0],"parents":[2147483647,0,0,2,2],"right_children":[2,-1,4,-1,-1],"split_conditions":[2.366934E0,3.5080887E-2,3.201769E-1,1.7498232E-2,-4.7784254E-2],"split_indices":[7,0,3,0,0],"split_type":[0,0,0,0,0],"sum_hessian":[3.8937516E0,1.360611E0,2.5331407E0,1.01144E0,1.5217005E0],"tree_param":{"num_deleted":"0","num_feature":"42","num_nodes":"5","size_leaf_vector":"1"}},{"base_weights":[-2.602845E-4,9.1885276E-2,-2.9453855E-2,-6.9623194E-3,4.8673764E-2],"categories":[],"categories_nodes":[],"categories_segments":[],"categories_sizes":[],"default_left":[0,0,0,0,0],"id":65,"left_children":[1,3,-1,-1,-1],"loss_changes":[5.292754E-2,2.8249994E-2,0E0,0E0,0E0],"parents":[2147483647,0,0,1,1],"right_children":[2,4,-1,-1,-1],"split_conditions":[1.5937912E0,9.9344397E-1,-2.9453855E-2,-6.9623194E-3,4.8673764E-2],"split_indices":[9,8,0,0,0],"split_type":[0,0,0,0,0],"sum_hessian":[3.8661363E0,2.0235364E0,1.8425999E0,1.0219812E0,1.0015552E0],"tree_param":{"num_deleted":"0","num_feature":"42","num_nodes":"5","size_leaf_vector":"1"}},{"base_weights":[2.4029014E-3,2.723205E-2,-2.5177479E-2],"categories":[],"categories_nodes":[],"categories_segments":[],"categories_sizes":[],"default_left":[0,0,0],"id":66,"left_children":[1,-1,-1],"loss_changes":[4.4570602E-2,0E0,0E0],"parents":[2147483647,0,0],"right_children":[2,-1,-1],"split_conditions":[5.25911E-1,2.723205E-2,-2.5177479E-2],"split_indices":[5,0,0],"split_type":[0,0,0],"sum_hessian":[3.8437812E0,1.87397E0,1.9698112E0],"tree_param":{"num_deleted":"0","num_feature":"42","num_nodes":"3","size_leaf_vector":"1"}},{"base_weights":[2.1177E-3,-3.54728E-2,7.677829E-2,-2.1758E-2,5.655347E-2],"categories":[],"categories_nodes":[],"categories_segments":[],"categories_sizes":[],"default_left":[0,0,0,0,0],"id":67,"left_children":[1,-1,3,-1,-1],"loss_changes":[5.2500095E-2,0E0,7.3536396E-2,0E0,0E0],"parents":[2147483647,0,0,2,2],"right_children":[2,-1,4,-1,-1],"split_conditions":[-1.535271E-1,-3.54728E-2,-5.835836E-1,-2.1758E-2,5.655347E-2],"split_indices":[16,0,40,0,0],"split_type":[0,0,0,0,0],"sum_hessian":[3.8320475E0,1.2435632E0,2.5884843E0,1.2581545E0,1.3303298E0],"tree_param":{"num_deleted":"0","num_feature":"42","num_nodes":"5","size_leaf_vector":"1"}},{"base_weights":[1.4522828E-3,8.3776236E-2,-2.6726915E-2,-7.4600596E-3,4.516133E-2],"categories":[],"categories_nodes":[],"categories_segments":[],"categories_sizes":[],"default_left":[0,0,0,0,0],"id":68,"left_children":[1,3,-1,-1,-1],"loss_changes":[4.3223478E-2,2.5707355E-2,0E0,0E0,0E0],"parents":[2147483647,0,0,1,1],"right_children":[2,4,-1,-1,-1],"split_conditions":[5.413829E-1,-1.5937592E-1,-2.6726915E-2,-7.4600596E-3,4.516133E-2],"split_indices":[5,16,0,0,0],"split_type":[0,0,0,0,0],"sum_hessian":[3.7975523E0,2.0281825E0,1.7693697E0,1.0108013E0,1.0173813E0],"tree_param":{"num_deleted":"0","num_feature":"42","num_nodes":"5","size_leaf_vector":"1"}},{"base_weights":[3.3603874E-3,-6.833479E-2,3.227455E-2,-4.4279315E-2,1.6339635E-2],"categories":[],"categories_nodes":[],"categories_segments":[],"categories_sizes":[],"default_left":[0,0,0,0,0],"id":69,"left_children":[1,3,-1,-1,-1],"loss_changes":[4.3062877E-2,4.1551434E-2,0E0,0E0,0E0],"parents":[2147483647,0,0,1,1],"right_children":[2,4,-1,-1,-1],"split_conditions":[3.5893282E-1,9.9392027E-1,3.227455E-2,-4.4279315E-2,1.6339635E-2],"split_indices":[15,8,0,0,0],"split_type":[0,0,0,0,0],"sum_hessian":[3.7792366E0,2.4429991E0,1.3362374E0,1.3619672E0,1.0810319E0],"tree_param":{"num_deleted":"0","num_feature":"42","num_nodes":"5","size_leaf_vector":"1"}},{"base_weights":[3.2358482E-3,-3.1987954E-2,7.168278E-2,5.0154846E-2,-2.2699846E-2],"categories":[],"categories_nodes":[],"categories_segments":[],"categories_sizes":[],"default_left":[0,0,0,0,0],"id":70,"left_children":[1,-1,3,-1,-1],"loss_changes":[4.3403193E-2,0E0,6.2295377E-2,0E0,0E0],"parents":[2147483647,0,0,2,2],"right_children":[2,-1,4,-1,-1],"split_conditions":[-1.535271E-1,-3.1987954E-2,6.931194E-1,5.0154846E-2,-2.2699846E-2],"split_indices":[16,0,13,0,0],"split_type":[0,0,0,0,0],"sum_hessian":[3.7554703E0,1.2274786E0,2.5279915E0,1.4521905E0,1.0758011E0],"tree_param":{"num_deleted":"0","num_feature":"42","num_nodes":"5","size_leaf_vector":"1"}},{"base_weights":[1.3893744E-3,3.4324598E-2,-6.833137E-2,-5.0878875E-2,2.7802197E-2],"categories":[],"categories_nodes":[],"categories_segments":[],"categories_sizes":[],"default_left":[0,0,0,0,0],"id":71,"left_children":[1,-1,3,-1,-1],"loss_changes":[4.5069087E-2,0E0,7.359276E-2,0E0,0E0],"parents":[2147483647,0,0,2,2],"right_children":[2,-1,4,-1,-1],"split_conditions":[5.583085E-1,3.4324598E-2,5.666765E-1,-5.0878875E-2,2.7802197E-2],"split_indices":[24,0,22,0,0],"split_type":[0,0,0,0,0],"sum_hessian":[3.7271237E0,1.1773852E0,2.5497384E0,1.5325059E0,1.0172327E0],"tree_param":{"num_deleted":"0","num_feature":"42","num_nodes":"5","size_leaf_vector":"1"}},{"base_weights":[3.310634E-3,2.5687376E-2,-2.640947E-2],"categories":[],"categories_nodes":[],"categories_segments":[],"categories_sizes":[],"default_left":[0,0,0],"id":72,"left_children":[1,-1,-1],"loss_changes":[4.283819E-2,0E0,0E0],"parents":[2147483647,0,0],"right_children":[2,-1,-1],"split_conditions":[1.6193736E0,2.5687376E-2,-2.640947E-2],"split_indices":[9,0,0],"split_type":[0,0,0],"sum_hessian":[3.6950076E0,1.9764789E0,1.7185286E0],"tree_param":{"num_deleted":"0","num_feature":"42","num_nodes":"3","size_leaf_vector":"1"}},{"base_weights":[2.1720433E-3,3.159967E-2,-6.684162E-2,-4.6163224E-2,1.3028527E-2],"categories":[],"categories_nodes":[],"categories_segments":[],"categories_sizes":[],"default_left":[0,0,0,0,0],"id":73,"left_children":[1,-1,3,-1,-1],"loss_changes":[4.0383387E-2,0E0,3.948534E-2,0E0,0E0],"parents":[2147483647,0,0,2,2],"right_children":[2,-1,4,-1,-1],"split_conditions":[2.366934E0,3.159967E-2,1E0,-4.6163224E-2,1.3028527E-2],"split_indices":[7,0,34,0,0],"split_type":[0,0,0,0,0],"sum_hessian":[3.683333E0,1.2654752E0,2.4178576E0,1.1302752E0,1.2875825E0],"tree_param":{"num_deleted":"0","num_feature":"42","num_nodes":"5","size_leaf_vector":"1"}},{"base_weights":[1.1546488E-3,3.336398E-2,-6.252772E-2,2.9580502E-2,-5.6752965E-2],"categories":[],"categories_nodes":[],"categories_segments":[],"categories_sizes":[],"default_left":[0,0,0,0,0],"id":74,"left_children":[1,-1,3,-1,-1],"loss_changes":[3.9628092E-2,0E0,9.1979906E-2,0E0,0E0],"parents":[2147483647,0,0,2,2],"right_children":[2,-1,4,-1,-1],"split_conditions":[3.5863453E-1,3.336398E-2,1.5671461E0,2.9580502E-2,-5.6752965E-2],"split_indices":[41,0,9,0,0],"split_type":[0,0,0,0,0],"sum_hessian":[3.6618834E0,1.0686399E0,2.5932436E0,1.2387261E0,1.3545175E0],"tree_param":{"num_deleted":"0","num_feature":"42","num_nodes":"5","size_leaf_vector":"1"}},{"base_weights":[2.0562909E-3,-6.631494E-2,3.0526806E-2,1.0939573E-2,-4.2416364E-2],"categories":[],"categories_nodes":[],"categories_segments":[],"categories_sizes":[],"default_left":[0,0,0,0,0],"id":75,"left_children":[1,3,-1,-1,-1],"loss_changes":[3.8283557E-2,3.1002505E-2,0E0,0E0,0E0],"parents":[2147483647,0,0,1,1],"right_children":[2,4,-1,-1,-1],"split_conditions":[3.5893282E-1,3.6385542E-1,3.0526806E-2,1.0939573E-2,-4.2416364E-2],"split_indices":[15,41,0,0,0],"split_type":[0,0,0,0,0],"sum_hessian":[3.6263008E0,2.3497574E0,1.2765435E0,1.2089238E0,1.1408336E0],"tree_param":{"num_deleted":"0","num_feature":"42","num_nodes":"5","size_leaf_vector":"1"}},{"base_weights":[1.2075156E-3,-3.1302944E-2,7.571497E-2,5.523199E-2,-2.4605058E-2],"categories":[],"categories_nodes":[],"categories_segments":[],"categories_sizes":[],"default_left":[0,0,0,0,0],"id":76,"left_children":[1,-1,3,-1,-1],"loss_changes":[4.41322E-2,0E0,7.1180955E-2,0E0,0E0],"parents":[2147483647,0,0,2,2],"right_children":[2,-1,4,-1,-1],"split_conditions":[-1.4750952E-1,-3.1302944E-2,6.931194E-1,5.523199E-2,-2.4605058E-2],"split_indices":[16,0,13,0,0],"split_type":[0,0,0,0,0],"sum_hessian":[3.6071246E0,1.3269161E0,2.2802086E0,1.2523761E0,1.0278325E0],"tree_param":{"num_deleted":"0","num_feature":"42","num_nodes":"5","size_leaf_vector":"1"}},{"base_weights":[8.0021744E-4,2.3047086E-2,-2.6084945E-2],"categories":[],"categories_nodes":[],"categories_segments":[],"categories_sizes":[],"default_left":[0,0,0],"id":77,"left_children":[1,-1,-1],"loss_changes":[3.7207395E-2,0E0,0E0],"parents":[2147483647,0,0],"right_children":[2,-1,-1],"split_conditions":[6.036489E-1,2.3047086E-2,-2.6084945E-2],"split_indices":[24,0,0],"split_type":[0,0,0],"sum_hessian":[3.576127E0,1.9828105E0,1.5933166E0],"tree_param":{"num_deleted":"0","num_feature":"42","num_nodes":"3","size_leaf_vector":"1"}},{"base_weights":[-1.0390371E-4,2.5888754E-2,-2.5372807E-2],"categories":[],"categories_nodes":[],"categories_segments":[],"categories_sizes":[],"default_left":[0,0,0],"id":78,"left_children":[1,-1,-1],"loss_changes":[4.062735E-2,0E0,0E0],"parents":[2147483647,0,0],"right_children":[2,-1,-1],"split_conditions":[5.25911E-1,2.5888754E-2,-2.5372807E-2],"split_indices":[5,0,0],"split_type":[0,0,0],"sum_hessian":[3.566608E0,1.7525132E0,1.8140948E0],"tree_param":{"num_deleted":"0","num_feature":"42","num_nodes":"3","size_leaf_vector":"1"}},{"base_weights":[3.8015096E-5,-2.4589678E-2,2.2752687E-2],"categories":[],"categories_nodes":[],"categories_segments":[],"categories_sizes":[],"default_left":[0,0,0],"id":79,"left_children":[1,-1,-1],"loss_changes":[3.4536634E-2,0E0,0E0],"parents":[2147483647,0,0],"right_children":[2,-1,-1],"split_conditions":[-1.2681511E-1,-2.4589678E-2,2.2752687E-2],"split_indices":[16,0,0],"split_type":[0,0,0],"sum_hessian":[3.5558493E0,1.6690375E0,1.8868117E0],"tree_param":{"num_deleted":"0","num_feature":"42","num_nodes":"3","size_leaf_vector":"1"}},{"base_weights":[-3.769165E-4,-7.042656E-2,3.0922635E-2,-4.2963486E-2,1.3625105E-2],"categories":[],"categories_nodes":[],"categories_segments":[],"categories_sizes":[],"default_left":[0,0,0,0,0],"id":80,"left_children":[1,3,-1,-1,-1],"loss_changes":[4.0209256E-2,3.4372516E-2,0E0,0E0,0E0],"parents":[2147483647,0,0,1,1],"right_children":[2,4,-1,-1,-1],"split_conditions":[3.5893282E-1,9.9392027E-1,3.0922635E-2,-4.2963486E-2,1.3625105E-2],"split_indices":[15,8,0,0,0],"split_type":[0,0,0,0,0],"sum_hessian":[3.5468345E0,2.305185E0,1.2416496E0,1.2706068E0,1.0345782E0],"tree_param":{"num_deleted":"0","num_feature":"42","num_nodes":"5","size_leaf_vector":"1"}},{"base_weights":[4.864166E-5,2.3099013E-2,-2.5240026E-2],"categories":[],"categories_nodes":[],"categories_segments":[],"categories_sizes":[],"default_left":[0,0,0],"id":81,"left_children":[1,-1,-1],"loss_changes":[3.579503E-2,0E0,0E0],"parents":[2147483647,0,0],"right_children":[2,-1,-1],"split_conditions":[5.413829E-1,2.3099013E-2,-2.5240026E-2],"split_indices":[5,0,0],"split_type":[0,0,0],"sum_hessian":[3.5258777E0,1.88668E0,1.6391977E0],"tree_param":{"num_deleted":"0","num_feature":"42","num_nodes":"3","size_leaf_vector":"1"}},{"base_weights":[-4.4566672E-4,-3.0465875E-2,6.2394906E-2,4.537206E-2,-2.0704059E-2],"categories":[],"categories_nodes":[],"categories_segments":[],"categories_sizes":[],"default_left":[0,0,0,0,0],"id":82,"left_children":[1,-1,3,-1,-1],"loss_changes":[3.5031352E-2,0E0,5.0186925E-2,0E0,0E0],"parents":[2147483647,0,0,2,2],"right_children":[2,-1,4,-1,-1],"split_conditions":[5.637254E-1,-3.0465875E-2,6.931194E-1,4.537206E-2,-2.0704059E-2],"split_indices":[6,0,13,0,0],"split_type":[0,0,0,0,0],"sum_hessian":[3.516306E0,1.1116607E0,2.4046452E0,1.3446261E0,1.0600191E0],"tree_param":{"num_deleted":"0","num_feature":"42","num_nodes":"5","size_leaf_vector":"1"}},{"base_weights":[-1.5510236E-3,3.0886004E-2,-7.068687E-2,1.1156667E-2,-4.1146524E-2],"categories":[],"categories_nodes":[],"categories_segments":[],"categories_sizes":[],"default_left":[0,0,0,0,0],"id":83,"left_children":[1,-1,3,-1,-1],"loss_changes":[3.9741464E-2,0E0,2.874239E-2,0E0,0E0],"parents":[2147483647,0,0,2,2],"right_children":[2,-1,4,-1,-1],"split_conditions":[2.366934E0,3.0886004E-2,5.45606E-1,1.1156667E-2,-4.1146524E-2],"split_indices":[7,0,36,0,0],"split_type":[0,0,0,0,0],"sum_hessian":[3.4932911E0,1.1961178E0,2.2971735E0,1.0437317E0,1.2534418E0],"tree_param":{"num_deleted":"0","num_feature":"42","num_nodes":"5","size_leaf_vector":"1"}},{"base_weights":[-9.2136115E-4,-2.63007E-2,2.3889104E-2],"categories":[],"categories_nodes":[],"categories_segments":[],"categories_sizes":[],"default_left":[0,0,0],"id":84,"left_children":[1,-1,-1],"loss_changes":[3.8249344E-2,0E0,0E0],"parents":[2147483647,0,0],"right_children":[2,-1,-1],"split_conditions":[-1.2681511E-1,-2.63007E-2,2.3889104E-2],"split_indices":[16,0,0],"split_type":[0,0,0],"sum_hessian":[3.4747727E0,1.6305E0,1.8442726E0],"tree_param":{"num_deleted":"0","num_feature":"42","num_nodes":"3","size_leaf_vector":"1"}},{"base_weights":[-1.1854396E-3,3.0664172E-2,-6.727182E-2,-5.345222E-2,1.9762605E-2],"categories":[],"categories_nodes":[],"categories_segments":[],"categories_sizes":[],"default_left":[0,0,0,0,0],"id":85,"left_children":[1,-1,3,-1,-1],"loss_changes":[3.7385225E-2,0E0,6.0863953E-2,0E0,0E0],"parents":[2147483647,0,0,2,2],"right_children":[2,-1,4,-1,-1],"split_conditions":[2.6122415E-1,3.0664172E-2,-1.2681511E-1,-5.345222E-2,1.9762605E-2],"split_indices":[10,0,16,0,0],"split_type":[0,0,0,0,0],"sum_hessian":[3.4647772E0,1.1378367E0,2.3269405E0,1.0850207E0,1.2419199E0],"tree_param":{"num_deleted":"0","num_feature":"42","num_nodes":"5","size_leaf_vector":"1"}},{"base_weights":[-1.5983403E-3,-7.147069E-2,3.0881163E-2,1.2496348E-2,-4.3082118E-2],"categories":[],"categories_nodes":[],"categories_segments":[],"categories_sizes":[],"default_left":[0,0,0,0,0],"id":86,"left_children":[1,3,-1,-1,-1],"loss_changes":[3.9773624E-2,3.2505743E-2,0E0,0E0,0E0],"parents":[2147483647,0,0,1,1],"right_children":[2,4,-1,-1,-1],"split_conditions":[3.5893282E-1,3.4551936E-1,3.0881163E-2,1.2496348E-2,-4.3082118E-2],"split_indices":[15,15,0,0,0],"split_type":[0,0,0,0,0],"sum_hessian":[3.4381146E0,2.2502997E0,1.1878151E0,1.0407463E0,1.2095534E0],"tree_param":{"num_deleted":"0","num_feature":"42","num_nodes":"5","size_leaf_vector":"1"}},{"base_weights":[-1.0946225E-3,-3.086793E-2,5.9044313E-2,4.643935E-2,-1.9952726E-2],"categories":[],"categories_nodes":[],"categories_segments":[],"categories_sizes":[],"default_left":[0,0,0,0,0],"id":87,"left_children":[1,-1,3,-1,-1],"loss_changes":[3.3124644E-2,0E0,5.132584E-2,0E0,0E0],"parents":[2147483647,0,0,2,2],"right_children":[2,-1,4,-1,-1],"split_conditions":[2.8254163E-1,-3.086793E-2,7.25447E-1,4.643935E-2,-1.9952726E-2],"split_indices":[21,0,37,0,0],"split_type":[0,0,0,0,0],"sum_hessian":[3.4183536E0,1.0054624E0,2.4128911E0,1.2367543E0,1.1761369E0],"tree_param":{"num_deleted":"0","num_feature":"42","num_nodes":"5","size_leaf_vector":"1"}},{"base_weights":[-1.714323E-3,-6.886889E-2,2.9339539E-2,-4.1650467E-2,1.2845789E-2],"categories":[],"categories_nodes":[],"categories_segments":[],"categories_sizes":[],"default_left":[0,0,0,0,0],"id":88,"left_children":[1,3,-1,-1,-1],"loss_changes":[3.6109865E-2,3.1038983E-2,0E0,0E0,0E0],"parents":[2147483647,0,0,1,1],"right_children":[2,4,-1,-1,-1],"split_conditions":[3.5893282E-1,9.9362653E-1,2.9339539E-2,-4.1650467E-2,1.2845789E-2],"split_indices":[15,8,0,0,0],"split_type":[0,0,0,0,0],"sum_hessian":[3.3955927E0,2.2112834E0,1.1843091E0,1.2101431E0,1.0011404E0],"tree_param":{"num_deleted":"0","num_feature":"42","num_nodes":"5","size_leaf_vector":"1"}},{"base_weights":[-1.1187794E-3,2.2637025E-2,-2.2791646E-2],"categories":[],"categories_nodes":[],"categories_segments":[],"categories_sizes":[],"default_left":[0,0,0],"id":89,"left_children":[1,-1,-1],"loss_changes":[3.0819682E-2,0E0,0E0],"parents":[2147483647,0,0],"right_children":[2,-1,-1],"split_conditions":[5.25911E-1,2.2637025E-2,-2.2791646E-2],"split_indices":[5,0,0],"split_type":[0,0,0],"sum_hessian":[3.3767176E0,1.665173E0,1.7115445E0],"tree_param":{"num_deleted":"0","num_feature":"42","num_nodes":"3","size_leaf_vector":"1"}},{"base_weights":[-8.1968965E-4,2.8956544E-2,-6.2268462E-2,-5.064531E-2,1.9537862E-2],"categories":[],"categories_nodes":[],"categories_segments":[],"categories_sizes":[],"default_left":[0,0,0,0,0],"id":90,"left_children":[1,-1,3,-1,-1],"loss_changes":[3.2140773E-2,0E0,5.5596057E-2,0E0,0E0],"parents":[2147483647,0,0,2,2],"right_children":[2,-1,4,-1,-1],"split_conditions":[2.6122415E-1,2.8956544E-2,-1.2681511E-1,-5.064531E-2,1.9537862E-2],"split_indices":[10,0,16,0,0],"split_type":[0,0,0,0,0],"sum_hessian":[3.368543E0,1.0826846E0,2.2858584E0,1.0677052E0,1.2181531E0],"tree_param":{"num_deleted":"0","num_feature":"42","num_nodes":"5","size_leaf_vector":"1"}},{"base_weights":[-1.140975E-3,-6.348471E-2,2.7400637E-2,1.18243685E-2,-3.8839582E-2],"categories":[],"categories_nodes":[],"categories_segments":[],"categories_sizes":[],"default_left":[0,0,0,0,0],"id":91,"left_children":[1,3,-1,-1,-1],"loss_changes":[3.0847253E-2,2.672775E-2,0E0,0E0,0E0],"parents":[2147483647,0,0,1,1],"right_children":[2,4,-1,-1,-1],"split_conditions":[3.5893282E-1,3.4551936E-1,2.7400637E-2,1.18243685E-2,-3.8839582E-2],"split_indices":[15,15,0,0,0],"split_type":[0,0,0,0,0],"sum_hessian":[3.3447409E0,2.1851249E0,1.159616E0,1.0110251E0,1.1740997E0],"tree_param":{"num_deleted":"0","num_feature":"42","num_nodes":"5","size_leaf_vector":"1"}},{"base_weights":[-7.408326E-4,-2.8049776E-2,5.8984183E-2,4.750185E-2,-1.9979376E-2],"categories":[],"categories_nodes":[],"categories_segments":[],"categories_sizes":[],"default_left":[0,0,0,0,0],"id":92,"left_children":[1,-1,3,-1,-1],"loss_changes":[2.949734E-2,0E0,5.1053137E-2,0E0,0E0],"parents":[2147483647,0,0,2,2],"right_children":[2,-1,4,-1,-1],"split_conditions":[-1.535271E-1,-2.8049776E-2,4.2253006E-1,4.750185E-2,-1.9979376E-2],"split_indices":[16,0,14,0,0],"split_type":[0,0,0,0,0],"sum_hessian":[3.3289483E0,1.0823947E0,2.2465537E0,1.1086173E0,1.1379362E0],"tree_param":{"num_deleted":"0","num_feature":"42","num_nodes":"5","size_leaf_vector":"1"}},{"base_weights":[-5.766988E-4,-2.555132E-2,6.2013645E-2,4.4533752E-2,-1.7180424E-2],"categories":[],"categories_nodes":[],"categories_segments":[],"categories_sizes":[],"default_left":[0,0,0,0,0],"id":93,"left_children":[1,-1,3,-1,-1],"loss_changes":[2.8086593E-2,0E0,3.9988644E-2,0E0,0E0],"parents":[2147483647,0,0,2,2],"right_children":[2,-1,4,-1,-1],"split_conditions":[1.413323E-1,-2.555132E-2,5.000467E-1,4.4533752E-2,-1.7180424E-2],"split_indices":[39,0,39,0,0],"split_type":[0,0,0,0,0],"sum_hessian":[3.3070312E0,1.2528986E0,2.0541327E0,1.0493038E0,1.0048289E0],"tree_param":{"num_deleted":"0","num_feature":"42","num_nodes":"5","size_leaf_vector":"1"}},{"base_weights":[5.936224E-5,2.243938E-2,