{"learner":{"attributes":{"scikit_learn":"{\"_estimator_type\": \"classifier\"}"},"feature_names":["deep_ela.large_25d_v1.X0","deep_ela.large_25d_v1.X1","deep_ela.large_25d_v1.X2","deep_ela.large_25d_v1.X3","deep_ela.large_25d_v1.X4","deep_ela.large_25d_v1.X5","deep_ela.large_25d_v1.X6","deep_ela.large_25d_v1.X7","deep_ela.large_25d_v1.X8","deep_ela.large_25d_v1.X9","deep_ela.large_25d_v1.X10","deep_ela.large_25d_v1.X11","deep_ela.large_25d_v1.X12","deep_ela.large_25d_v1.X13","deep_ela.large_25d_v1.X14","deep_ela.large_25d_v1.X15","deep_ela.large_25d_v1.X16","deep_ela.large_25d_v1.X17","deep_ela.large_25d_v1.X18","deep_ela.large_25d_v1.X19","deep_ela.large_25d_v1.X20","deep_ela.large_25d_v1.X21","deep_ela.large_25d_v1.X22","deep_ela.large_25d_v1.X23","deep_ela.large_25d_v1.X24","deep_ela.large_25d_v1.X25","deep_ela.large_25d_v1.X26","deep_ela.large_25d_v1.X27","deep_ela.large_25d_v1.X28","deep_ela.large_25d_v1.X29","deep_ela.large_25d_v1.X30","deep_ela.large_25d_v1.X31","deep_ela.large_25d_v1.X32","deep_ela.large_25d_v1.X33","deep_ela.large_25d_v1.X34","deep_ela.large_25d_v1.X35","deep_ela.large_25d_v1.X36","deep_ela.large_25d_v1.X37","deep_ela.large_25d_v1.X38","deep_ela.large_25d_v1.X39","deep_ela.large_25d_v1.X40","deep_ela.large_25d_v1.X41","deep_ela.large_25d_v1.X42","deep_ela.large_25d_v1.X43","deep_ela.large_25d_v1.X44","deep_ela.large_25d_v1.X45","deep_ela.large_25d_v1.X46","deep_ela.large_25d_v1.X47","dim","50d_deep_ela.large_50d_v1.X0","50d_deep_ela.large_50d_v1.X1","50d_deep_ela.large_50d_v1.X2","50d_deep_ela.large_50d_v1.X3","50d_deep_ela.large_50d_v1.X4","50d_deep_ela.large_50d_v1.X5","50d_deep_ela.large_50d_v1.X6","50d_deep_ela.large_50d_v1.X7","50d_deep_ela.large_50d_v1.X8","50d_deep_ela.large_50d_v1.X9","50d_deep_ela.large_50d_v1.X10","50d_deep_ela.large_50d_v1.X11","50d_deep_ela.large_50d_v1.X12","50d_deep_ela.large_50d_v1.X13","50d_deep_ela.large_50d_v1.X14","50d_deep_ela.large_50d_v1.X15","50d_deep_ela.large_50d_v1.X16","50d_deep_ela.large_50d_v1.X17","50d_deep_ela.large_50d_v1.X18","50d_deep_ela.large_50d_v1.X19","50d_deep_ela.large_50d_v1.X20","50d_deep_ela.large_50d_v1.X21","50d_deep_ela.large_50d_v1.X22","50d_deep_ela.large_50d_v1.X23","50d_deep_ela.large_50d_v1.X24","50d_deep_ela.large_50d_v1.X25","50d_deep_ela.large_50d_v1.X26","50d_deep_ela.large_50d_v1.X27","50d_deep_ela.large_50d_v1.X28","50d_deep_ela.large_50d_v1.X29","50d_deep_ela.large_50d_v1.X30","50d_deep_ela.large_50d_v1.X31","50d_deep_ela.large_50d_v1.X32","50d_deep_ela.large_50d_v1.X33","50d_deep_ela.large_50d_v1.X34","50d_deep_ela.large_50d_v1.X35","50d_deep_ela.large_50d_v1.X36","50d_deep_ela.large_50d_v1.X37","50d_deep_ela.large_50d_v1.X38","50d_deep_ela.large_50d_v1.X39","50d_deep_ela.large_50d_v1.X40","50d_deep_ela.large_50d_v1.X41","50d_deep_ela.large_50d_v1.X42","50d_deep_ela.large_50d_v1.X43","50d_deep_ela.large_50d_v1.X44","50d_deep_ela.large_50d_v1.X45","50d_deep_ela.large_50d_v1.X46","50d_deep_ela.large_50d_v1.X47","ela_meta.lin_simple.adj_r2","ela_meta.lin_simple.intercept","ela_meta.lin_simple.coef.min","ela_meta.lin_simple.coef.max","ela_meta.lin_simple.coef.max_by_min","ela_meta.lin_w_interact.adj_r2","ela_meta.quad_simple.adj_r2","ela_meta.quad_simple.cond","ela_meta.quad_w_interact.adj_r2","ela_distr.skewness","ela_distr.kurtosis","ela_distr.number_of_peaks","nbc.nn_nb.sd_ratio","nbc.nn_nb.mean_ratio","nbc.nn_nb.cor","nbc.dist_ratio.coeff_var","nbc.nb_fitness.cor","disp.ratio_mean_02","disp.ratio_mean_05","disp.ratio_mean_10","disp.ratio_mean_25","disp.ratio_median_02","disp.ratio_median_05","disp.ratio_median_10","disp.ratio_median_25","disp.diff_mean_02","disp.diff_mean_05","disp.diff_mean_10","disp.diff_mean_25","disp.diff_median_02","disp.diff_median_05","disp.diff_median_10","disp.diff_median_25","pca.expl_var.cov_x","pca.expl_var.cor_x","pca.expl_var.cov_init","pca.expl_var.cor_init","pca.expl_var_PC1.cov_x","pca.expl_var_PC1.cor_x","pca.expl_var_PC1.cov_init","pca.expl_var_PC1.cor_init","ic.h_max","ic.eps_s","ic.eps_max","ic.eps_ratio","ic.m0"],"feature_types":["float","float","float","float","float","float","float","float","float","float","float","float","float","float","float","float","float","float","float","float","float","float","float","float","float","float","float","float","float","float","float","float","float","float","float","float","float","float","float","float","float","float","float","float","float","float","float","float","float","float","float","float","float","float","float","float","float","float","float","float","float","float","float","float","float","float","float","float","float","float","float","float","float","float","float","float","float","float","float","float","float","float","float","float","float","float","float","float","float","float","float","float","float","float","float","float","float","float","float","float","float","float","float","float","float","float","float","float","float","float","float","float","float","float","float","float","float","float","float","float","float","float","float","float","float","float","float","float","float","float","float","float","float","float","float","float","float","float","float","float","float","float","float"],"gradient_booster":{"model":{"cats":{"enc":[],"feature_segments":[],"sorted_idx":[]},"gbtree_model_param":{"num_parallel_tree":"1","num_trees":"100"},"iteration_indptr":[0,1,2,3,4,5,6,7,8,9,10,11,12,13,14,15,16,17,18,19,20,21,22,23,24,25,26,27,28,29,30,31,32,33,34,35,36,37,38,39,40,41,42,43,44,45,46,47,48,49,50,51,52,53,54,55,56,57,58,59,60,61,62,63,64,65,66,67,68,69,70,71,72,73,74,75,76,77,78,79,80,81,82,83,84,85,86,87,88,89,90,91,92,93,94,95,96,97,98,99,100],"tree_info":[0,0,0,0,0,0,0,0,0,0,0,0,0,0,0,0,0,0,0,0,0,0,0,0,0,0,0,0,0,0,0,0,0,0,0,0,0,0,0,0,0,0,0,0,0,0,0,0,0,0,0,0,0,0,0,0,0,0,0,0,0,0,0,0,0,0,0,0,0,0,0,0,0,0,0,0,0,0,0,0,0,0,0,0,0,0,0,0,0,0,0,0,0,0,0,0,0,0,0,0],"trees":[{"base_weights":[8.143329E-8,9.335968E-1,-2.0890853E0,-1.0684931E0,1.2332348E0,6.31579E-1,-2.18048E0,4.293512E-1,-6.681341E-1,-6.2163186E-1,1.3831506E0,2.821317E-1,1.1285281E-2,5.3811725E-2,-2.2889154E0,-4.4234407E-1,1.1772152E0,1.5135795E0,-6.020478E-1,3.5294122E-1,-4.2711866E-1,-2.3269446E0,-1.20308466E-1,-1.2413792E-1,4.4628105E-1,1.5920247E0,-4.7479132E-1,-2.1176471E-1,-7.0996225E-1,-3.9498433E-1,4.8773748E-1],"categories":[],"categories_nodes":[],"categories_segments":[],"categories_sizes":[],"default_left":[0,0,0,0,0,0,0,0,0,0,0,0,0,0,0,0,0,0,0,0,0,0,0,0,0,0,0,0,0,0,0],"id":0,"left_children":[1,3,5,7,9,11,13,15,-1,-1,17,-1,-1,19,21,-1,23,25,-1,-1,-1,27,-1,-1,-1,29,-1,-1,-1,-1,-1],"loss_changes":[5.158711E2,1.1098312E2,2.1690826E1,4.3185078E1,8.18882E1,5.939616E-1,1.9326874E1,1.8040348E1,0E0,0E0,7.075412E1,0E0,0E0,9.381363E0,4.49588E0,0E0,4.9502897E0,3.847815E1,0E0,0E0,0E0,3.0740051E0,0E0,0E0,0E0,1.637088E1,0E0,0E0,0E0,0E0,0E0],"parents":[2147483647,0,0,1,1,2,2,3,3,4,4,5,5,6,6,7,7,10,10,13,13,14,14,16,16,17,17,21,21,25,25],"right_children":[2,4,6,8,10,12,14,16,-1,-1,18,-1,-1,20,22,-1,24,26,-1,-1,-1,28,-1,-1,-1,30,-1,-1,-1,-1,-1],"split_conditions":[7.550256E-1,3.7911648E-1,-9.999812E-1,6.108916E-1,8.354495E-3,-6.7398794E-2,9.237006E-1,3.4539795E-1,-6.681341E-1,-6.2163186E-1,9.8455817E-1,2.821317E-1,1.1285281E-2,8.579548E-1,9.9999654E-1,-4.4234407E-1,-6.157762E-3,9.9825066E-1,-6.020478E-1,3.5294122E-1,-4.2711866E-1,-8.0096006E-1,-1.20308466E-1,-1.2413792E-1,4.4628105E-1,-9.6775305E-1,-4.7479132E-1,-2.1176471E-1,-7.0996225E-1,-3.9498433E-1,4.8773748E-1],"split_indices":[102,142,76,138,140,2,105,112,0,0,103,0,0,59,80,0,0,22,0,0,0,25,0,0,0,50,0,0,0,0,0],"split_type":[0,0,0,0,0,0,0,0,0,0,0,0,0,0,0,0,0,0,0,0,0,0,0,0,0,0,0,0,0,0,0],"sum_hessian":[2.625E2,1.8180556E2,8.069444E1,2.3333332E1,1.5847221E2,2.4305556E0,7.8263885E1,1.0451388E1,1.2881945E1,6.319444E0,1.5215277E2,1.2152778E0,1.2152778E0,3.6458333E0,7.461806E1,2.6736112E0,7.7777777E0,1.4704861E2,5.1041665E0,2.1875E0,1.4583333E0,7.2916664E1,1.7013888E0,1.2152778E0,6.5625E0,1.4388889E2,3.159722E0,2.1875E0,7.0729164E1,1.2152778E0,1.4267361E2],"tree_param":{"num_deleted":"0","num_feature":"143","num_nodes":"31","size_leaf_vector":"1"}},{"base_weights":[9.1174655E-3,7.407908E-1,-1.471588E0,-2.87542E-1,1.1174965E0,-1.5761119E0,3.449276E-2,3.4245542E-1,-1.5805016E0,1.2212137E0,-4.2762667E-1,1.8598512E-1,-1.6310701E0,-3.6996478E-1,8.900564E-1,-1.3331066E0,8.089718E-1,3.6907542E-2,-5.277844E-1,-4.187406E-1,1.3250734E0,-7.4466005E-2,-1.6510669E0,3.4558654E-1,2.8257692E-2,-4.5965827E-1,-5.65095E-2,-3.7400502E-1,1.0896087E0,1.3664083E0,-2.4711269E-1,-1.3145196E-1,-5.0086707E-1,-3.4952104E-1,3.8154668E-1,-1.483797E-1,4.1707736E-1],"categories":[],"categories_nodes":[],"categories_segments":[],"categories_sizes":[],"default_left":[0,0,0,0,0,0,0,0,0,0,0,0,0,0,0,0,0,0,0,0,0,0,0,0,0,0,0,0,0,0,0,0,0,0,0,0,0],"id":1,"left_children":[1,3,5,7,9,11,13,15,17,19,-1,-1,21,-1,23,25,27,-1,-1,-1,29,-1,31,-1,-1,-1,-1,-1,33,35,-1,-1,-1,-1,-1,-1,-1],"loss_changes":[2.6564032E2,6.3888252E1,1.2819962E1,3.7026226E1,3.347026E1,1.016571E1,7.8668947E0,2.5262365E1,4.7398415E0,3.341339E1,0E0,0E0,1.644043E0,0E0,7.8926015E-1,1.3330727E0,1.5678511E1,0E0,0E0,0E0,1.1091888E1,0E0,9.064331E-1,0E0,0E0,0E0,0E0,0E0,1.0674034E1,5.590561E0,0E0,0E0,0E0,0E0,0E0,0E0,0E0],"parents":[2147483647,0,0,1,1,2,2,3,3,4,4,5,5,6,6,7,7,8,8,9,9,12,12,14,14,15,15,16,16,20,20,22,22,28,28,29,29],"right_children":[2,4,6,8,10,12,14,16,18,20,-1,-1,22,-1,24,26,28,-1,-1,-1,30,-1,32,-1,-1,-1,-1,-1,34,36,-1,-1,-1,-1,-1,-1,-1],"split_conditions":[7.550256E-1,4.9678716E-1,9.3218595E-1,5.8964396E-1,9.8455817E-1,-1.3203204E0,3.5060242E-1,3.6144578E-1,3.5595527E-1,8.354495E-3,-4.2762667E-1,1.8598512E-1,-9.9890316E-1,-3.6996478E-1,-3.2351795E-1,7.6086515E-1,-3.6748174E-1,3.6907542E-2,-5.277844E-1,-4.187406E-1,9.9825066E-1,-7.4466005E-2,-9.9796885E-1,3.4558654E-1,2.8257692E-2,-4.5965827E-1,-5.65095E-2,-3.7400502E-1,-1.4324324E0,-9.336427E-1,-2.4711269E-1,-1.3145196E-1,-5.0086707E-1,-3.4952104E-1,3.8154668E-1,-1.483797E-1,4.1707736E-1],"split_indices":[102,142,49,21,103,141,142,142,92,140,0,0,16,0,123,18,123,0,0,0,22,0,64,0,0,0,0,0,141,78,0,0,0,0,0,0,0],"split_type":[0,0,0,0,0,0,0,0,0,0,0,0,0,0,0,0,0,0,0,0,0,0,0,0,0,0,0,0,0,0,0,0,0,0,0,0,0],"sum_hessian":[2.4318677E2,1.6309499E2,8.009178E1,4.3790962E1,1.1930403E2,7.4850555E1,5.2412214E0,2.99385E1,1.3852462E1,1.151281E2,4.175934E0,1.5764701E0,7.3274086E1,1.9340646E0,3.3071566E0,6.115654E0,2.3822845E1,1.3453144E0,1.2507147E1,3.9197733E0,1.1120833E2,1.235674E0,7.2038414E1,2.1516697E0,1.155487E0,4.9213037E0,1.1943505E0,2.448119E0,2.1374725E1,1.0946667E2,1.7416563E0,1.4525505E0,7.058586E1,1.1949267E0,2.01798E1,1.135346E0,1.0833132E2],"tree_param":{"num_deleted":"0","num_feature":"143","num_nodes":"37","size_leaf_vector":"1"}},{"base_weights":[3.3979947E-3,6.257484E-1,-1.2113047E0,-2.3276947E-1,9.855597E-1,5.1018035E-1,-1.2746993E0,-7.8516346E-1,7.423494E-1,1.0791037E0,-3.5121167E-1,2.5416458E-1,-2.2974003E-2,1.5064935E-1,-1.348566E0,2.885623E-1,-1.018208E0,1.1420124E0,-2.857471E-1,-3.4968975E-1,1.1793813E0,2.8628892E-1,-2.6990578E-1,-2.996983E-1,-1.3835264E0,3.34974E-1,-1.3581251E0,3.6151642E-1,7.2642624E-2,1.214403E0,-1.7527974E-1,-2.3587246E-1,1.04734555E-1,-4.194489E-1,-1.3452795E-1,-2.8063703E-1,3.1357023E-1,-4.3881097E-1,-7.238679E-2,-1.22670844E-1,3.7213466E-1],"categories":[],"categories_nodes":[],"categories_segments":[],"categories_sizes":[],"default_left":[0,0,0,0,0,0,0,0,0,0,0,0,0,0,0,0,0,0,0,0,0,0,0,0,0,0,0,0,0,0,0,0,0,0,0,0,0,0,0,0,0],"id":2,"left_children":[1,3,5,7,9,11,13,15,17,19,-1,-1,-1,21,23,-1,25,27,-1,-1,29,-1,-1,31,33,35,37,-1,-1,39,-1,-1,-1,-1,-1,-1,-1,-1,-1,-1,-1],"loss_changes":[1.5873895E2,4.3117786E1,8.41375E0,2.310537E1,2.1035995E1,7.057744E-1,7.4570084E0,1.2044613E1,1.1678214E1,2.2640053E1,0E0,0E0,0E0,4.4831843E0,1.9909134E0,0E0,1.1708174E1,4.5171738E-1,0E0,0E0,6.3258514E0,0E0,0E0,1.345455E0,2.3815918E-1,6.1336594E0,1.9539375E0,0E0,0E0,4.290619E0,0E0,0E0,0E0,0E0,0E0,0E0,0E0,0E0,0E0,0E0,0E0],"parents":[2147483647,0,0,1,1,2,2,3,3,4,4,5,5,6,6,7,7,8,8,9,9,13,13,14,14,16,16,17,17,20,20,23,23,24,24,25,25,26,26,29,29],"right_children":[2,4,6,8,10,12,14,16,18,20,-1,-1,-1,22,24,-1,26,28,-1,-1,30,-1,-1,32,34,36,38,-1,-1,40,-1,-1,-1,-1,-1,-1,-1,-1,-1,-1,-1],"split_conditions":[7.550256E-1,4.991987E-1,-9.999812E-1,3.4964785E-1,9.8455817E-1,9.787798E-1,9.237006E-1,-9.9644214E-1,4.2049456E-2,8.354495E-3,-3.5121167E-1,2.5416458E-1,-2.2974003E-2,8.579548E-1,-9.947709E-1,2.885623E-1,-9.955791E-1,-9.9999857E-1,-2.857471E-1,-3.4968975E-1,9.9825066E-1,2.8628892E-1,-2.6990578E-1,-7.2529554E-1,9.9999654E-1,-8.9274824E-1,9.977043E-1,3.6151642E-1,7.2642624E-2,-9.336427E-1,-1.7527974E-1,-2.3587246E-1,1.04734555E-1,-4.194489E-1,-1.3452795E-1,-2.8063703E-1,3.1357023E-1,-4.3881097E-1,-7.238679E-2,-1.22670844E-1,3.7213466E-1],"split_indices":[102,142,76,112,103,32,105,16,59,140,0,0,0,59,73,0,73,44,0,0,22,0,0,4,80,45,50,0,0,78,0,0,0,0,0,0,0,0,0,0,0],"split_type":[0,0,0,0,0,0,0,0,0,0,0,0,0,0,0,0,0,0,0,0,0,0,0,0,0,0,0,0,0,0,0,0,0,0,0,0,0,0,0,0,0],"sum_hessian":[2.0797765E2,1.378403E2,7.0137344E1,4.0812893E1,9.702741E1,2.240792E0,6.789655E1,2.6178097E1,1.4634797E1,9.3471924E1,3.5554903E0,1.141328E0,1.099464E0,3.2940679E0,6.4602486E1,2.7129338E0,2.3465162E1,1.2106197E1,2.5285993E0,3.542743E0,8.992918E1,1.9179873E0,1.3760806E0,2.3926144E0,6.220987E1,4.7139316E0,1.875123E1,1.099666E1,1.1095376E0,8.8483536E1,1.4456418E0,1.2462447E0,1.1463696E0,6.0763573E1,1.4462944E0,1.5766827E0,3.137249E0,1.686257E1,1.8886608E0,1.1651688E0,8.731837E1],"tree_param":{"num_deleted":"0","num_feature":"143","num_nodes":"41","size_leaf_vector":"1"}},{"base_weights":[1.6784703E-3,5.692646E-1,-1.0335037E0,1.0183245E0,-5.5827968E-2,-1.1398716E0,-1.3287249E-2,-4.6886763E-1,1.1471053E0,1.0075713E0,-6.524482E-1,1.394653E-1,-1.1872498E0,-2.6972294E-1,8.314932E-1,-3.2787797E-1,2.5360602E-1,1.1679735E0,-1.0669315E-2,-9.341364E-2,3.377923E-1,5.681212E-1,-9.5162576E-1,7.342017E-2,-1.2211565E0,7.254838E-2,2.9101756E-1,9.033753E-2,3.5373452E-1,3.16933E-1,-2.8787288E-1,2.3451462E-1,-1.1978037E0,-1.2670443E0,-1.8232808E-1,5.4553565E-2,-4.118888E-1,-1.1321301E-1,-3.8348806E-1,-2.1968032E-1,1.587264E-1],"categories":[],"categories_nodes":[],"categories_segments":[],"categories_sizes":[],"default_left":[0,0,0,0,0,0,0,0,0,0,0,0,0,0,0,0,0,0,0,0,0,0,0,0,0,0,0,0,0,0,0,0,0,0,0,0,0,0,0,0,0],"id":3,"left_children":[1,3,5,7,9,11,13,15,17,19,21,-1,23,-1,25,-1,-1,27,-1,-1,-1,29,31,-1,33,-1,-1,-1,-1,-1,-1,-1,35,37,39,-1,-1,-1,-1,-1,-1],"loss_changes":[1.02177475E2,3.1584663E1,6.6679077E0,1.3066002E1,3.1049376E1,4.7912445E0,5.8557386E0,5.78153E0,1.534462E0,3.1006699E0,1.1967995E1,0E0,2.942154E0,0E0,9.3352795E-2,0E0,0E0,2.1931458E-1,0E0,0E0,0E0,6.0766115E0,1.1820396E1,0E0,2.3120651E0,0E0,0E0,0E0,0E0,0E0,0E0,0E0,5.7424736E0,2.7252197E-2,1.7273916E0,0E0,0E0,0E0,0E0,0E0,0E0],"parents":[2147483647,0,0,1,1,2,2,3,3,4,4,5,5,6,6,7,7,8,8,9,9,10,10,12,12,14,14,17,17,21,21,22,22,24,24,32,32,33,33,34,34],"right_children":[2,4,6,8,10,12,14,16,18,20,22,-1,24,-1,26,-1,-1,28,-1,-1,-1,30,32,-1,34,-1,-1,-1,-1,-1,-1,-1,36,38,40,-1,-1,-1,-1,-1,-1],"split_conditions":[7.507453E-1,3.2434025E-1,8.974455E-1,3.7228915E-1,-9.999994E-1,-1.3203204E0,-4.5920363E-1,7.729474E-1,9.9742997E-1,-2.5125125E-1,-7.8550416E-1,1.394653E-1,1.9845638E-1,-2.6972294E-1,-6.376802E-1,-3.2787797E-1,2.5360602E-1,-9.9433106E-1,-1.0669315E-2,-9.341364E-2,3.377923E-1,-6.6745204E-1,-9.953597E-1,7.342017E-2,9.1926575E-1,7.254838E-2,2.9101756E-1,9.033753E-2,3.5373452E-1,3.16933E-1,-2.8787288E-1,2.3451462E-1,6.564638E-1,-3.5935935E-1,7.9300576E-1,5.4553565E-2,-4.118888E-1,-1.1321301E-1,-3.8348806E-1,-2.1968032E-1,1.587264E-1],"split_indices":[102,92,49,142,51,141,62,79,22,139,25,0,40,0,26,0,0,87,0,0,0,73,73,0,9,0,0,0,0,0,0,0,110,139,0,0,0,0,0,0,0],"split_type":[0,0,0,0,0,0,0,0,0,0,0,0,0,0,0,0,0,0,0,0,0,0,0,0,0,0,0,0,0,0,0,0,0,0,0,0,0,0,0,0,0],"sum_hessian":[1.719015E2,1.11316956E2,6.0584545E1,6.441373E1,4.6903225E1,5.4758163E1,5.8263803E0,4.922835E0,5.9490894E1,1.660972E1,3.0293505E1,1.3175884E0,5.3440575E1,2.8127823E0,3.0135977E0,3.4520233E0,1.4708116E0,5.8471592E1,1.0193045E0,1.2339793E0,1.5375742E1,5.7866173E0,2.4506887E1,1.0922827E0,5.2348293E1,1.0957704E0,1.9178275E0,1.0976562E0,5.7373936E1,4.618732E0,1.167885E0,2.777199E0,2.1729689E1,4.992336E1,2.4249349E0,2.4436858E0,1.9286003E1,1.054727E0,4.886863E1,1.351154E0,1.0737808E0],"tree_param":{"num_deleted":"0","num_feature":"143","num_nodes":"41","size_leaf_vector":"1"}},{"base_weights":[5.389096E-3,5.0752777E-1,-9.509707E-1,9.231542E-1,-3.4756713E-2,-1.0521849E0,1.0774401E-1,-3.963031E-1,1.0469947E0,8.9754623E-1,-5.4921466E-1,-1.1051891E0,1.4572333E-1,-2.5549376E-1,7.264699E-1,-2.9024658E-1,2.2640823E-1,3.4524597E-2,1.0805025E0,-1.1660963E-1,3.1872863E-1,4.7259644E-1,-8.343712E-1,-1.1504564E0,-2.0616144E-1,2.6135358E-1,6.2639885E-2,-1.5571478E-2,1.1067601E0,-2.4181347E-1,2.9758817E-1,-1.1512202E0,3.2170397E-1,-8.978027E-2,-1.1646326E0,-2.2760713E-1,1.5350446E-1,7.0885785E-2,3.3634326E-1,-3.7452233E-1,5.926597E-2,2.345602E-1,-2.1486126E-1,-9.8320186E-2,-3.53352E-1],"categories":[],"categories_nodes":[],"categories_segments":[],"categories_sizes":[],"default_left":[0,0,0,0,0,0,0,0,0,0,0,0,0,0,0,0,0,0,0,0,0,0,0,0,0,0,0,0,0,0,0,0,0,0,0,0,0,0,0,0,0,0,0,0,0],"id":4,"left_children":[1,3,5,7,9,11,13,15,17,19,21,23,-1,-1,25,-1,-1,-1,27,-1,-1,29,31,33,35,-1,-1,-1,37,-1,-1,39,41,-1,43,-1,-1,-1,-1,-1,-1,-1,-1,-1,-1],"loss_changes":[6.811054E1,2.0991652E1,5.3460617E0,9.023109E0,2.0307665E1,4.177685E0,3.6865013E0,4.1788173E0,1.3881111E0,3.609006E0,8.332112E0,1.5323524E0,0E0,0E0,9.388828E-2,0E0,0E0,0E0,1.444107E0,0E0,0E0,5.170677E0,8.304516E0,1.4834976E-1,1.698158E0,0E0,0E0,0E0,3.0632782E-1,0E0,0E0,2.503786E0,3.1586566E0,0E0,5.7857513E-2,0E0,0E0,0E0,0E0,0E0,0E0,0E0,0E0,0E0,0E0],"parents":[2147483647,0,0,1,1,2,2,3,3,4,4,5,5,6,6,7,7,8,8,9,9,10,10,11,11,14,14,18,18,21,21,22,22,23,23,24,24,28,28,31,31,32,32,34,34],"right_children":[2,4,6,8,10,12,14,16,18,20,22,24,-1,-1,26,-1,-1,-1,28,-1,-1,30,32,34,36,-1,-1,-1,38,-1,-1,40,42,-1,44,-1,-1,-1,-1,-1,-1,-1,-1,-1,-1],"split_conditions":[7.550256E-1,3.2434025E-1,9.3218595E-1,3.7228915E-1,-9.999994E-1,3.2896037E0,3.5060242E-1,7.729474E-1,-8.8460666E-1,1.07015155E-1,-7.5230795E-1,7.969729E-1,1.4572333E-1,-2.5549376E-1,-2.9836664E-1,-2.9024658E-1,2.2640823E-1,3.4524597E-2,-4.430723E-1,-1.1660963E-1,3.1872863E-1,4.9198717E-1,1.4993353E-1,-9.999794E-1,8.122452E-1,2.6135358E-1,6.2639885E-2,-1.5571478E-2,-9.8873806E-1,-2.4181347E-1,2.9758817E-1,2.0637746E-1,5.313757E-1,-8.978027E-2,-3.5935935E-1,-2.2760713E-1,1.5350446E-1,7.0885785E-2,3.3634326E-1,-3.7452233E-1,5.926597E-2,2.345602E-1,-2.1486126E-1,-9.8320186E-2,-3.53352E-1],"split_indices":[102,92,49,142,51,106,142,79,78,112,25,0,0,0,124,0,0,0,122,0,0,142,99,76,5,0,0,0,11,0,0,16,54,0,139,0,0,0,0,0,0,0,0,0,0],"split_type":[0,0,0,0,0,0,0,0,0,0,0,0,0,0,0,0,0,0,0,0,0,0,0,0,0,0,0,0,0,0,0,0,0,0,0,0,0,0,0,0,0,0,0,0,0],"sum_hessian":[1.3982536E2,9.199337E1,4.7831997E1,5.1680912E1,4.0312454E1,4.3663853E1,4.1681433E0,4.2456455E0,4.743527E1,1.4070033E1,2.624242E1,4.2481136E1,1.1827182E0,1.4865946E0,2.681549E0,2.944075E0,1.3015708E0,1.8002937E0,4.563497E1,1.444453E0,1.262558E1,5.582203E0,2.0660217E1,4.0178425E1,2.3027084E0,1.562021E0,1.119528E0,1.0120447E0,4.462293E1,1.4530075E0,4.1291957E0,1.621918E1,4.4410386E0,1.0204008E0,3.9158024E1,1.2690264E0,1.033682E0,1.0086647E0,4.3614265E1,1.5198447E1,1.0207314E0,3.2477965E0,1.1932424E0,1.0094231E0,3.81486E1],"tree_param":{"num_deleted":"0","num_feature":"143","num_nodes":"45","size_leaf_vector":"1"}},{"base_weights":[5.817274E-3,4.82653E-1,-8.40574E-1,1.0130218E0,7.288716E-2,-9.588906E-1,4.4423826E-2,2.3838975E-2,3.2049757E-1,4.4759917E-1,-9.5015305E-1,1.1752305E-1,-1.0132617E0,-2.087353E-1,2.1234703E-1,-2.5588167E-1,5.9967345E-1,4.9333125E-2,-1.0905086E0,-7.730941E-2,-1.073876E0,7.7358234E-1,-5.1843923E-1,-3.4362704E-1,-9.3236044E-2,1.9325148E-1,-2.2528867E-1,-1.057825E-2,-3.3350635E-1,2.883209E-1,-4.336861E-2,-2.6332608E-1,8.3469756E-2],"categories":[],"categories_nodes":[],"categories_segments":[],"categories_sizes":[],"default_left":[0,0,0,0,0,0,0,0,0,0,0,0,0,0,0,0,0,0,0,0,0,0,0,0,0,0,0,0,0,0,0,0,0],"id":5,"left_children":[1,3,5,7,9,11,13,-1,-1,15,17,-1,19,-1,-1,-1,21,-1,23,25,27,29,31,-1,-1,-1,-1,-1,-1,-1,-1,-1,-1],"loss_changes":[4.6407566E1,1.5908993E1,4.3816776E0,1.5660324E0,1.6742785E1,3.0844193E0,3.3614497E0,0E0,0E0,6.8076878E0,2.0145874E0,0E0,1.9286575E0,0E0,0E0,0E0,6.0574102E0,0E0,9.576702E-2,2.0557163E0,1.2656021E0,4.541397E0,1.53643E0,0E0,0E0,0E0,0E0,0E0,0E0,0E0,0E0,0E0,0E0],"parents":[2147483647,0,0,1,1,2,2,3,3,4,4,5,5,6,6,9,9,10,10,12,12,16,16,18,18,19,19,20,20,21,21,22,22],"right_children":[2,4,6,8,10,12,14,-1,-1,16,18,-1,20,-1,-1,-1,22,-1,24,26,28,30,32,-1,-1,-1,-1,-1,-1,-1,-1,-1,-1],"split_conditions":[7.507453E-1,-9.999994E-1,8.974455E-1,-2.5125125E-1,6.394027E-1,-1.3203204E0,-4.5920363E-1,2.3838975E-2,3.2049757E-1,2.5174835E-1,-9.999998E-1,1.1752305E-1,-8.0096006E-1,-2.087353E-1,2.1234703E-1,-2.5588167E-1,-2.2066513E-1,4.9333125E-2,9.7655565E-1,6.19293E-1,2.9910016E-1,9.9999523E-1,3.491925E-1,-3.4362704E-1,-9.3236044E-2,1.9325148E-1,-2.2528867E-1,-1.057825E-2,-3.3350635E-1,2.883209E-1,-4.336861E-2,-2.6332608E-1,8.3469756E-2],"split_indices":[102,51,49,139,92,141,62,0,0,114,52,0,25,0,0,0,122,0,36,111,40,80,112,0,0,0,0,0,0,0,0,0,0],"split_type":[0,0,0,0,0,0,0,0,0,0,0,0,0,0,0,0,0,0,0,0,0,0,0,0,0,0,0,0,0,0,0,0,0],"sum_hessian":[1.1298179E2,7.254276E1,4.0439026E1,3.0976719E1,4.156604E1,3.5596577E1,4.842451E0,1.8686945E0,2.9108025E1,3.0834631E1,1.0731411E1,1.1373975E0,3.445918E1,2.2656581E0,2.5767932E0,2.7455986E0,2.8089031E1,1.1810206E0,9.55039E0,2.2343178E0,3.222486E1,2.4574848E1,3.5141842E0,8.483867E0,1.0665233E0,1.0999918E0,1.1343261E0,1.1998498E0,3.102501E1,2.0368748E1,4.206099E0,2.351732E0,1.1624522E0],"tree_param":{"num_deleted":"0","num_feature":"143","num_nodes":"33","size_leaf_vector":"1"}},{"base_weights":[3.5144296E-4,4.291962E-1,-7.673824E-1,8.620735E-1,-5.435193E-2,3.5257927E-1,-8.5939175E-1,-2.1265824E-1,1.0224849E0,5.2268785E-1,-6.183408E-1,-6.653387E-2,2.1290953E-1,2.447411E-1,-9.462126E-1,-2.4008028E-1,2.0916194E-1,7.43556E-2,3.126382E-1,-6.642528E-1,8.2596797E-1,2.1874833E-1,-9.383299E-1,-9.202792E-2,1.9754328E-1,-9.140459E-2,-1.0336021E0,-1.6459633E-2,-2.6266992E-1,-6.2164355E-2,9.4482136E-1,2.4171685E-1,-1.7090625E-1,-4.972613E-2,-1.0663649E0,-2.1605615E-1,2.1690312E-1,-3.4389105E-2,-3.2035312E-1,2.9782352E-1,6.746305E-2,-5.6090586E-2,-3.4634757E-1],"categories":[],"categories_nodes":[],"categories_segments":[],"categories_sizes":[],"default_left":[0,0,0,0,0,0,0,0,0,0,0,0,0,0,0,0,0,0,0,0,0,0,0,0,0,0,0,0,0,0,0,0,0,0,0,0,0,0,0,0,0,0,0],"id":6,"left_children":[1,3,5,7,9,11,13,15,17,19,21,-1,-1,23,25,-1,-1,-1,-1,27,29,31,33,-1,-1,35,37,-1,-1,-1,39,-1,-1,-1,41,-1,-1,-1,-1,-1,-1,-1,-1],"loss_changes":[3.0959911E1,1.2675569E1,3.7758465E0,5.7158966E0,9.904013E0,8.276316E-1,3.2448883E0,3.2151139E0,1.6658401E-1,5.981818E0,4.315841E0,0E0,0E0,9.061551E-1,2.0978508E0,0E0,0E0,0E0,0E0,4.188782E-1,1.7267237E0,2.7983694E0,9.4013023E-1,0E0,0E0,2.4764001E0,7.1237755E-1,0E0,0E0,0E0,1.6873169E-1,0E0,0E0,0E0,5.205326E-1,0E0,0E0,0E0,0E0,0E0,0E0,0E0,0E0],"parents":[2147483647,0,0,1,1,2,2,3,3,4,4,5,5,6,6,7,7,8,8,9,9,10,10,13,13,14,14,19,19,20,20,21,21,22,22,25,25,26,26,30,30,34,34],"right_children":[2,4,6,8,10,12,14,16,18,20,22,-1,-1,24,26,-1,-1,-1,-1,28,30,32,34,-1,-1,36,38,-1,-1,-1,40,-1,-1,-1,42,-1,-1,-1,-1,-1,-1,-1,-1],"split_conditions":[7.507453E-1,2.7379203E-1,9.237006E-1,3.7630522E-1,-9.483137E-1,8.832202E-1,-9.999801E-1,7.729474E-1,-4.338671E-1,4.991987E-1,-9.999955E-1,-6.653387E-2,2.1290953E-1,7.9841E-1,-7.2289324E-1,-2.4008028E-1,2.0916194E-1,7.43556E-2,3.126382E-1,2.821454E-1,1.0679685E-1,8.758896E-1,7.2224265E-1,-9.202792E-2,1.9754328E-1,-8.788266E-1,-9.9722946E-1,-1.6459633E-2,-2.6266992E-1,-6.2164355E-2,-9.301332E-1,2.4171685E-1,-1.7090625E-1,-4.972613E-2,-9.602698E-1,-2.1605615E-1,2.1690312E-1,-3.4389105E-2,-3.2035312E-1,2.9782352E-1,6.746305E-2,-5.6090586E-2,-3.4634757E-1],"split_indices":[102,92,105,142,36,66,76,79,122,142,17,0,0,138,25,0,0,0,0,42,112,40,7,0,0,3,54,0,0,0,76,0,0,0,16,0,0,0,0,0,0,0,0],"split_type":[0,0,0,0,0,0,0,0,0,0,0,0,0,0,0,0,0,0,0,0,0,0,0,0,0,0,0,0,0,0,0,0,0,0,0,0,0,0,0,0,0,0,0],"sum_hessian":[9.203451E1,5.9332954E1,3.2701553E1,3.0893745E1,2.8439207E1,2.2676125E0,3.0433943E1,3.9699557E0,2.692379E1,1.4093158E1,1.4346049E1,1.0146751E0,1.2529373E0,2.0860424E0,2.83479E1,2.4853315E0,1.4846241E0,1.0026008E0,2.5921188E1,2.6259208E0,1.1467237E1,4.054886E0,1.0291163E1,1.0049845E0,1.0810579E0,2.819051E0,2.5528849E1,1.0004518E0,1.6254691E0,1.1063536E0,1.0360884E1,2.3118412E0,1.7430444E0,1.789249E0,8.501915E0,1.6561179E0,1.1629331E0,1.0732316E0,2.4455616E1,9.358978E0,1.0019056E0,1.0587286E0,7.4431863E0],"tree_param":{"num_deleted":"0","num_feature":"143","num_nodes":"43","size_leaf_vector":"1"}},{"base_weights":[1.1851097E-3,-2.8549898E-1,2.9444754E-1,6.4404E-1,-5.3347754E-1,8.559805E-1,-1.8771861E-1,-7.660716E-1,2.728042E-1,2.8614295E-1,-1.2553985E-2,-8.428612E-1,3.1132394E-1,-2.5273606E-1,6.764264E-1,2.5037069E-2,-9.433596E-1,1.8629093E-1,-5.3412687E-2,-2.5600642E-2,8.828087E-1,2.1672826E-1,-2.3719518E-1,-3.2257873E-1,-5.688824E-2,2.868348E-1,6.7052536E-2],"categories":[],"categories_nodes":[],"categories_segments":[],"categories_sizes":[],"default_left":[0,0,0,0,0,0,0,0,0,0,0,0,0,0,0,0,0,0,0,0,0,0,0,0,0,0,0],"id":7,"left_children":[1,3,-1,5,7,9,-1,11,13,-1,-1,15,17,-1,19,21,23,-1,-1,-1,25,-1,-1,-1,-1,-1,-1],"loss_changes":[2.1631502E1,1.4071817E1,0E0,4.0328813E0,9.128515E0,1.0551739E0,0E0,3.338047E0,5.6951737E0,0E0,0E0,3.0739594E0,5.960027E-1,0E0,1.4768925E0,3.189888E0,2.9147396E0,0E0,0E0,0E0,1.2958336E-1,0E0,0E0,0E0,0E0,0E0,0E0],"parents":[2147483647,0,0,1,1,3,3,4,4,5,5,7,7,8,8,11,11,12,12,14,14,15,15,16,16,20,20],"right_children":[2,4,-1,6,8,10,-1,12,14,-1,-1,16,18,-1,20,22,24,-1,-1,-1,26,-1,-1,-1,-1,-1,-1],"split_conditions":[5.708567E-1,2.6084617E-1,2.9444754E-1,4.8280233E-1,4.6146145E-1,7.507453E-1,-1.8771861E-1,8.97859E-1,3.5461846E-1,2.8614295E-1,-1.2553985E-2,-7.9475E-1,-9.9999636E-1,-2.5273606E-1,-9.9622184E-1,6.197901E-1,2.8859513E0,1.8629093E-1,-5.3412687E-2,-2.5600642E-2,-1.2454176E-1,2.1672826E-1,-2.3719518E-1,-3.2257873E-1,-5.688824E-2,2.868348E-1,6.7052536E-2],"split_indices":[142,40,0,2,139,102,0,4,142,0,0,25,51,0,66,111,106,0,0,0,123,0,0,0,0,0,0],"split_type":[0,0,0,0,0,0,0,0,0,0,0,0,0,0,0,0,0,0,0,0,0,0,0,0,0,0,0],"sum_hessian":[7.497287E1,5.8557026E1,1.6415842E1,1.1995427E1,4.65616E1,1.0558891E1,1.4365358E0,3.617562E1,1.0385977E1,9.46519E0,1.0937017E0,3.3972008E1,2.2036119E0,2.4710178E0,7.9149594E0,3.6034765E0,3.0368532E1,1.1849254E0,1.0186864E0,1.8122863E0,6.102673E0,2.0042398E0,1.5992366E0,2.548252E1,4.8860135E0,5.0868683E0,1.0158048E0],"tree_param":{"num_deleted":"0","num_feature":"143","num_nodes":"27","size_leaf_vector":"1"}},{"base_weights":[4.4106897E-3,6.0647434E-1,-4.0631402E-1,-4.0521842E-1,8.1033385E-1,5.7993025E-1,-6.123743E-1,-2.375945E-1,1.667909E-1,-1.3855547E-1,8.951369E-1,2.4523939E-1,-1.1934072E-1,-9.8098195E-1,-2.257719E-1,2.9663032E-1,2.5649622E-1,-7.6606676E-2,-3.1598833E-1,2.3564509E-1,-7.858635E-1,-1.5499711E-1,2.0891255E-1,6.1590844E-1,-2.0329468E-1,-2.6936987E-1,-6.490473E-3,-1.19526826E-1,2.5888315E-1],"categories":[],"categories_nodes":[],"categories_segments":[],"categories_sizes":[],"default_left":[0,0,0,0,0,0,0,0,0,0,0,0,0,0,0,0,0,0,0,0,0,0,0,0,0,0,0,0,0],"id":8,"left_children":[1,3,5,7,9,11,13,-1,-1,-1,15,-1,-1,17,19,-1,21,-1,-1,23,25,-1,-1,27,-1,-1,-1,-1,-1],"loss_changes":[1.5625173E1,5.6127367E0,7.990125E0,2.2855833E0,2.7500343E0,1.9524086E0,4.276326E0,0E0,0E0,0E0,9.80896E-1,0E0,0E0,5.6315136E-1,4.5021443E0,0E0,1.7167758E0,0E0,0E0,3.8653548E0,6.4636326E-1,0E0,0E0,2.2315273E0,0E0,0E0,0E0,0E0,0E0],"parents":[2147483647,0,0,1,1,2,2,3,3,4,4,5,5,6,6,10,10,13,13,14,14,16,16,19,19,20,20,23,23],"right_children":[2,4,6,8,10,12,14,-1,-1,-1,16,-1,-1,18,20,-1,22,-1,-1,24,26,-1,-1,28,-1,-1,-1,-1,-1],"split_conditions":[3.020395E-1,3.7630522E-1,3.2158965E-1,7.729474E-1,-6.459926E-1,-2.6300526E-1,1.4332318E-1,-2.375945E-1,1.667909E-1,-1.3855547E-1,8.923794E-1,2.4523939E-1,-1.1934072E-1,-8.2521325E-1,-9.9999636E-1,2.9663032E-1,9.737526E-1,-7.6606676E-2,-3.1598833E-1,-2.9167065E-1,2.7803218E0,-1.5499711E-1,2.0891255E-1,-4.3302613E-1,-2.0329468E-1,-2.6936987E-1,-6.490473E-3,-1.19526826E-1,2.5888315E-1],"split_indices":[92,142,102,79,93,113,56,0,0,0,59,0,0,25,52,0,7,0,0,123,106,0,0,122,0,0,0,0,0],"split_type":[0,0,0,0,0,0,0,0,0,0,0,0,0,0,0,0,0,0,0,0,0,0,0,0,0,0,0,0,0],"sum_hessian":[6.1191055E1,2.4622053E1,3.6569E1,3.9636977E0,2.0658356E1,6.006477E0,3.0562525E1,2.9519355E0,1.0117621E0,1.0131568E0,1.9645199E1,4.964339E0,1.0421385E0,1.4858339E1,1.57041855E1,1.6655157E1,2.9900422E0,1.7571671E0,1.3101172E1,8.928196E0,6.7759895E0,1.0209775E0,1.9690647E0,6.5334973E0,2.3946986E0,5.7570896E0,1.0188999E0,1.15955E0,5.373947E0],"tree_param":{"num_deleted":"0","num_feature":"143","num_nodes":"29","size_leaf_vector":"1"}},{"base_weights":[-3.225359E-3,-2.4480358E-1,2.734308E-1,5.942904E-1,-4.4886696E-1,8.124896E-1,-1.5126215E-1,-6.417998E-1,3.4662455E-1,4.537032E-2,2.6756456E-1,-8.600218E-1,-2.3606665E-1,-4.888799E-1,2.4548477E-1,4.9817324E-2,-9.3689567E-1,-6.143128E-1,6.149662E-1,-2.6919892E-2,-1.9271253E-1,-5.4563645E-2,-3.0168855E-1,-2.7928331E-1,9.015431E-2,2.4141413E-1,1.939219E-2],"categories":[],"categories_nodes":[],"categories_segments":[],"categories_sizes":[],"default_left":[0,0,0,0,0,0,0,0,0,0,0,0,0,0,0,0,0,0,0,0,0,0,0,0,0,0,0],"id":9,"left_children":[1,3,-1,5,7,9,-1,11,13,-1,-1,15,17,19,-1,-1,21,23,25,-1,-1,-1,-1,-1,-1,-1,-1],"loss_changes":[1.1537711E1,7.3377295E0,0E0,2.4490938E0,5.4079723E0,2.5788403E-1,0E0,2.2356071E0,3.254812E0,0E0,0E0,1.5384464E0,3.9222636E0,1.4085847E-1,0E0,0E0,6.712923E-1,2.6327815E0,3.5396123E-1,0E0,0E0,0E0,0E0,0E0,0E0,0E0,0E0],"parents":[2147483647,0,0,1,1,3,3,4,4,5,5,7,7,8,8,11,11,12,12,13,13,16,16,17,17,18,18],"right_children":[2,4,-1,6,8,10,-1,12,14,-1,-1,16,18,20,-1,-1,22,24,26,-1,-1,-1,-1,-1,-1,-1,-1],"split_conditions":[5.708567E-1,2.2652566E-1,2.734308E-1,4.8280233E-1,3.4943545E-1,-3.7539735E-1,-1.5126215E-1,7.2593915E-1,3.5132837E-1,4.537032E-2,2.6756456E-1,8.5187703E-1,1.9179411E-1,-1.21660315E-1,2.4548477E-1,4.9817324E-2,-9.861663E-1,6.790822E-1,-9.9999744E-1,-2.6919892E-2,-1.9271253E-1,-5.4563645E-2,-3.0168855E-1,-2.7928331E-1,9.015431E-2,2.4141413E-1,1.939219E-2],"split_indices":[142,40,0,2,112,127,0,79,111,0,0,105,112,113,0,0,57,65,52,0,0,0,0,0,0,0,0],"split_type":[0,0,0,0,0,0,0,0,0,0,0,0,0,0,0,0,0,0,0,0,0,0,0,0,0,0,0],"sum_hessian":[5.0205986E1,4.0295567E1,9.910417E0,7.5085726E0,3.2786995E1,6.4814897E0,1.0270832E0,2.6542717E1,6.244278E0,1.0061556E0,5.475334E0,1.653159E1,1.0011128E1,2.2399218E0,4.004356E0,1.0713618E0,1.5460228E1,7.1232967E0,2.8878314E0,1.0622522E0,1.1776698E0,1.5942183E0,1.386601E1,5.278673E0,1.8446234E0,1.8036861E0,1.0841454E0],"tree_param":{"num_deleted":"0","num_feature":"143","num_nodes":"27","size_leaf_vector":"1"}},{"base_weights":[1.798304E-3,5.452491E-1,-3.5250947E-1,-4.4228277E-1,7.329149E-1,4.8680317E-1,-5.284643E-1,3.6571857E-3,-1.9258943E-1,8.9765006E-1,1.8695511E-1,2.1253113E-1,-4.2887665E-2,-1.9597085E-1,-9.260311E-1,2.8149447E-1,7.32541E-2,-1.24378406E-1,1.8773721E-1,2.0648754E-1,-7.3304015E-1,-7.547269E-2,-2.9213908E-1,6.190028E-1,-4.0333992E-1,-4.9948953E-2,-2.4407624E-1,-8.76906E-3,2.533458E-1,-2.1475682E-1,6.5883055E-2],"categories":[],"categories_nodes":[],"categories_segments":[],"categories_sizes":[],"default_left":[0,0,0,0,0,0,0,0,0,0,0,0,0,0,0,0,0,0,0,0,0,0,0,0,0,0,0,0,0,0,0],"id":10,"left_children":[1,3,5,7,9,11,13,-1,-1,15,17,-1,-1,19,21,-1,-1,-1,-1,23,25,-1,-1,27,29,-1,-1,-1,-1,-1,-1],"loss_changes":[8.397971E0,3.513917E0,4.156766E0,3.1384957E-1,1.1668239E0,8.126608E-1,2.7674093E0,0E0,0E0,6.6820145E-2,1.5008923E0,0E0,0E0,3.051366E0,7.367802E-2,0E0,0E0,0E0,0E0,2.3753102E0,1.3683605E-1,0E0,0E0,8.1906414E-1,9.388461E-1,0E0,0E0,0E0,0E0,0E0,0E0],"parents":[2147483647,0,0,1,1,2,2,3,3,4,4,5,5,6,6,9,9,10,10,13,13,14,14,19,19,20,20,23,23,24,24],"right_children":[2,4,6,8,10,12,14,-1,-1,16,18,-1,-1,20,22,-1,-1,-1,-1,24,26,-1,-1,28,30,-1,-1,-1,-1,-1,-1],"split_conditions":[2.910458E-1,3.7228915E-1,3.2158965E-1,-9.612099E-1,3.3203682E-1,-9.483137E-1,-2.3226464E-1,3.6571857E-3,-1.9258943E-1,9.9698675E-1,6.776675E-1,2.1253113E-1,-4.2887665E-2,-9.9999636E-1,-9.455744E-1,2.8149447E-1,7.32541E-2,-1.24378406E-1,1.8773721E-1,-9.77353E-1,7.2224265E-1,-7.547269E-2,-2.9213908E-1,4.8285258E-1,1.9150513E-1,-4.9948953E-2,-2.4407624E-1,-8.76906E-3,2.533458E-1,-2.1475682E-1,6.5883055E-2],"split_indices":[92,142,102,24,47,36,124,0,0,13,79,0,0,52,95,0,0,0,0,76,7,0,0,142,112,0,0,0,0,0,0],"split_type":[0,0,0,0,0,0,0,0,0,0,0,0,0,0,0,0,0,0,0,0,0,0,0,0,0,0,0,0,0,0,0],"sum_hessian":[4.1616543E1,1.6211624E1,2.540492E1,2.3721554E0,1.3839469E1,4.0967236E0,2.1308197E1,1.0107201E0,1.3614352E0,1.0136703E1,3.7027657E0,2.9378643E0,1.158859E0,1.2416741E1,8.891456E0,9.1325E0,1.0042028E0,1.5851302E0,2.1176357E0,7.4497347E0,4.967006E0,1.0025309E0,7.8889246E0,4.434792E0,3.0149426E0,1.0000489E0,3.9669576E0,1.3691218E0,3.0656703E0,1.9084098E0,1.1065329E0],"tree_param":{"num_deleted":"0","num_feature":"143","num_nodes":"31","size_leaf_vector":"1"}},{"base_weights":[-1.7889545E-3,-1.9784278E-1,2.613736E-1,4.7844812E-1,-3.8546795E-1,-1.0472509E-1,7.0244515E-1,4.0773022E-1,-5.3390545E-1,4.745767E-2,2.3502462E-1,-7.890342E-2,2.1269129E-1,-1.349103E-1,-7.5681466E-1,-4.178755E-1,3.6335117E-1,-8.4683746E-1,9.867495E-3,7.7988476E-2,-2.1940787E-1,-2.254072E-2,1.6811182E-1,-2.695216E-1,-4.8282396E-2],"categories":[],"categories_nodes":[],"categories_segments":[],"categories_sizes":[],"default_left":[0,0,0,0,0,0,0,0,0,0,0,0,0,0,0,0,0,0,0,0,0,0,0,0,0],"id":11,"left_children":[1,3,-1,5,7,-1,9,11,13,-1,-1,-1,-1,15,17,19,21,23,-1,-1,-1,-1,-1,-1,-1],"loss_changes":[6.337814E0,4.020337E0,0E0,1.544919E0,3.0692172E0,0E0,1.3386798E-1,1.0724363E0,1.7508659E0,0E0,0E0,0E0,0E0,1.3762627E0,9.6267414E-1,1.465921E0,3.6006403E-1,2.7423763E-1,0E0,0E0,0E0,0E0,0E0,0E0,0E0],"parents":[2147483647,0,0,1,1,3,3,4,4,6,6,7,7,8,8,13,13,14,14,15,15,16,16,17,17],"right_children":[2,4,-1,6,8,-1,10,12,14,-1,-1,-1,-1,16,18,20,22,24,-1,-1,-1,-1,-1,-1,-1],"split_conditions":[5.731785E-1,2.6084617E-1,2.613736E-1,-3.409234E-1,-9.937043E-1,-1.0472509E-1,9.998474E-1,-3.9234996E-1,4.7380692E-1,4.745767E-2,2.3502462E-1,-7.890342E-2,2.1269129E-1,-1.4153744E-1,4.4144145E-1,-9.999994E-1,9.912473E0,8.843273E-1,9.867495E-3,7.7988476E-2,-2.1940787E-1,-2.254072E-2,1.6811182E-1,-2.695216E-1,-4.8282396E-2],"split_indices":[142,40,0,42,73,0,46,126,92,0,0,0,0,63,139,52,104,49,0,0,0,0,0,0,0],"split_type":[0,0,0,0,0,0,0,0,0,0,0,0,0,0,0,0,0,0,0,0,0,0,0,0,0],"sum_hessian":[3.5021168E1,2.9230398E1,5.7907686E0,6.01162E0,2.3218779E1,1.1616406E0,4.8499794E0,3.3847966E0,1.983398E1,1.0106252E0,3.8393543E0,1.0883613E0,2.2964354E0,7.6844563E0,1.2149526E1,5.003995E0,2.6804612E0,1.0841321E1,1.3082039E0,1.6363972E0,3.3675978E0,1.0227942E0,1.6576668E0,9.795071E0,1.0462512E0],"tree_param":{"num_deleted":"0","num_feature":"143","num_nodes":"25","size_leaf_vector":"1"}},{"base_weights":[6.854165E-3,-1.6574864E-1,2.4959348E-1,4.7899628E-1,-3.18443E-1,-1.0384398E-1,2.2643839E-1,1.1665359E-1,-5.8397996E-1,3.021984E-1,-1.7261231E-1,-6.932664E-1,7.111173E-2,-1.7377053E-1,5.424571E-1,-3.4359235E-2,-8.2651675E-1,-3.5775293E-2,2.079498E-1,9.814223E-2,-1.20223574E-1,-2.849101E-1,-4.2168852E-2],"categories":[],"categories_nodes":[],"categories_segments":[],"categories_sizes":[],"default_left":[0,0,0,0,0,0,0,0,0,0,0,0,0,0,0,0,0,0,0,0,0,0,0],"id":12,"left_children":[1,3,-1,5,7,-1,-1,9,11,13,-1,15,-1,-1,17,19,21,-1,-1,-1,-1,-1,-1],"loss_changes":[4.5311112E0,2.7461293E0,0E0,1.5001357E0,2.5984125E0,0E0,0E0,1.346677E0,1.39959E0,1.9783753E0,0E0,1.0607133E0,0E0,0E0,7.4997115E-1,5.4565895E-1,7.3468924E-1,0E0,0E0,0E0,0E0,0E0,0E0],"parents":[2147483647,0,0,1,1,3,3,4,4,7,7,8,8,9,9,11,11,14,14,15,15,16,16],"right_children":[2,4,-1,6,8,-1,-1,10,12,14,-1,16,-1,-1,18,20,22,-1,-1,-1,-1,-1,-1],"split_conditions":[5.731785E-1,2.1437332E-1,2.4959348E-1,-3.409234E-1,2.8158277E-1,-1.0384398E-1,2.2643839E-1,-9.9997455E-1,9.249816E-1,3.5461846E-1,-1.7261231E-1,-9.9999964E-1,7.111173E-2,-1.7377053E-1,-4.102534E-1,-9.7846925E-1,8.7369937E-1,-3.5775293E-2,2.079498E-1,9.814223E-2,-1.20223574E-1,-2.849101E-1,-4.2168852E-2],"split_indices":[142,40,0,42,21,0,0,23,49,142,0,52,0,0,126,76,66,0,0,0,0,0,0],"split_type":[0,0,0,0,0,0,0,0,0,0,0,0,0,0,0,0,0,0,0,0,0,0,0],"sum_hessian":[2.984715E1,2.534459E1,4.502561E0,4.443817E0,2.0900772E1,1.0493286E0,3.3944883E0,8.133797E0,1.2766975E1,6.858285E0,1.2755116E0,1.1404515E1,1.3624605E0,1.1667961E0,5.6914887E0,2.1299615E0,9.274553E0,1.0945314E0,4.5969577E0,1.1260463E0,1.0039151E0,7.53663E0,1.7379236E0],"tree_param":{"num_deleted":"0","num_feature":"143","num_nodes":"23","size_leaf_vector":"1"}},{"base_weights":[2.2030147E-3,-1.5396635E-1,2.3688732E-1,1.5279974E-1,-4.4126984E-1,-4.3813604E-1,3.798517E-1,2.3898039E-2,-6.718598E-1,-1.9674382E-1,1.3956213E-2,6.513295E-1,-3.0454373E-1,-1.4116117E-1,3.5185447E-1,-7.623647E-1,-4.824815E-3,2.4991299E-1,3.517126E-2,4.930605E-2,-1.7713538E-1,-4.949868E-2,1.899366E-1,-6.604534E-2,-2.4483599E-1],"categories":[],"categories_nodes":[],"categories_segments":[],"categories_sizes":[],"default_left":[0,0,0,0,0,0,0,0,0,0,0,0,0,0,0,0,0,0,0,0,0,0,0,0,0],"id":13,"left_children":[1,3,-1,5,7,9,11,13,15,-1,-1,17,19,-1,21,23,-1,-1,-1,-1,-1,-1,-1,-1,-1],"loss_changes":[3.3688362E0,2.0833437E0,0E0,1.7502937E0,1.3105521E0,4.2518204E-1,1.8823614E0,9.7071654E-1,4.6866155E-1,0E0,0E0,5.630715E-1,5.334867E-1,0E0,6.216183E-1,2.7237415E-2,0E0,0E0,0E0,0E0,0E0,0E0,0E0,0E0,0E0],"parents":[2147483647,0,0,1,1,3,3,4,4,5,5,6,6,7,7,8,8,11,11,12,12,14,14,15,15],"right_children":[2,4,-1,6,8,10,12,14,16,-1,-1,18,20,-1,22,24,-1,-1,-1,-1,-1,-1,-1,-1,-1],"split_conditions":[5.731785E-1,4.8327374E-1,2.3688732E-1,3.7630522E-1,2.8158277E-1,-9.9919224E-1,7.107352E-1,9.99907E-1,8.93643E-1,-1.9674382E-1,1.3956213E-2,6.25753E-1,2.5625798E-4,-1.4116117E-1,4.8795182E-1,3.840657E-1,-4.824815E-3,2.4991299E-1,3.517126E-2,4.930605E-2,-1.7713538E-1,-4.949868E-2,1.899366E-1,-6.604534E-2,-2.4483599E-1],"split_indices":[142,92,0,142,21,76,118,80,49,0,0,111,90,0,142,40,0,0,0,0,0,0,0,0,0],"split_type":[0,0,0,0,0,0,0,0,0,0,0,0,0,0,0,0,0,0,0,0,0,0,0,0,0],"sum_hessian":[2.5406698E1,2.1873075E1,3.5336218E0,1.0804651E1,1.1068424E1,2.741035E0,8.063616E0,3.9654021E0,7.1030226E0,1.6478004E0,1.0932347E0,5.8080587E0,2.2555573E0,1.4079646E0,2.5574377E0,6.098783E0,1.0042394E0,3.9159873E0,1.8920715E0,1.015408E0,1.2401491E0,1.0469586E0,1.510479E0,1.0096965E0,5.0890865E0],"tree_param":{"num_deleted":"0","num_feature":"143","num_nodes":"25","size_leaf_vector":"1"}},{"base_weights":[-1.0487927E-3,-1.4031158E-1,2.2341266E-1,8.508699E-2,-4.9271363E-1,-2.4148074E-1,2.082574E-1,1.1706408E-1,-7.19802E-1,4.5746619E-1,-5.222821E-1,-2.5173542E-1,-2.1468773E-2,2.6761321E-2,1.7536682E-1,6.414474E-2,-2.3621328E-1,-9.4626434E-2,1.3008907E-1],"categories":[],"categories_nodes":[],"categories_segments":[],"categories_sizes":[],"default_left":[0,0,0,0,0,0,0,0,0,0,0,0,0,0,0,0,0,0,0],"id":14,"left_children":[1,3,-1,5,7,9,-1,-1,11,13,15,-1,-1,-1,-1,17,-1,-1,-1],"loss_changes":[2.5102165E0,1.6591737E0,0E0,2.807347E0,1.9029068E0,2.0800605E0,0E0,0E0,4.648428E-1,9.863722E-2,1.1634635E0,0E0,0E0,0E0,0E0,5.790304E-1,0E0,0E0,0E0],"parents":[2147483647,0,0,1,1,3,3,4,4,5,5,8,8,9,9,10,10,15,15],"right_children":[2,4,-1,6,8,10,-1,-1,12,14,16,-1,-1,-1,-1,18,-1,-1,-1],"split_conditions":[5.731785E-1,-2.2895858E-1,2.2341266E-1,-3.7959567E-1,8.4453404E-1,5.987586E-1,2.082574E-1,1.1706408E-1,9.6769854E-2,1.045652E0,-7.2289324E-1,-2.5173542E-1,-2.1468773E-2,2.6761321E-2,1.7536682E-1,8.93643E-1,-2.3621328E-1,-9.4626434E-2,1.3008907E-1],"split_indices":[142,124,0,126,105,20,0,0,63,106,25,0,0,0,0,49,0,0,0],"split_type":[0,0,0,0,0,0,0,0,0,0,0,0,0,0,0,0,0,0,0],"sum_hessian":[2.2163984E1,1.9360464E1,2.80352E0,1.2270638E1,7.089826E0,8.380845E0,3.8897932E0,1.3034879E0,5.7863383E0,2.2216806E0,6.1591644E0,4.638171E0,1.1481668E0,1.0066532E0,1.2150276E0,2.153458E0,4.0057063E0,1.1344151E0,1.0190428E0],"tree_param":{"num_deleted":"0","num_feature":"143","num_nodes":"19","size_leaf_vector":"1"}},{"base_weights":[1.0052235E-2,3.8301045E-1,-2.3979525E-1,-8.580275E-2,6.0495144E-1,1.0603579E-1,-3.7099418E-1,2.3485224E-1,3.091378E-2,-2.2840764E-1,-4.9525354E-2,2.1519482E-1,-1.7401579E-1,4.3576115E-1,-1.0978016E-1,-4.192914E-2,1.9894369E-1],"categories":[],"categories_nodes":[],"categories_segments":[],"categories_sizes":[],"default_left":[0,0,0,0,0,0,0,0,0,0,0,0,0,0,0,0,0],"id":15,"left_children":[1,3,5,-1,7,-1,9,-1,-1,-1,11,13,-1,15,-1,-1,-1],"loss_changes":[1.9672298E0,1.4290116E0,1.1170522E0,0E0,5.1509595E-1,0E0,1.3252333E0,0E0,0E0,0E0,1.1115141E0,8.537148E-1,0E0,6.6621906E-1,0E0,0E0,0E0],"parents":[2147483647,0,0,1,1,2,2,4,4,6,6,10,10,11,11,13,13],"right_children":[2,4,6,-1,8,-1,10,-1,-1,-1,12,14,-1,16,-1,-1,-1],"split_conditions":[3.020395E-1,3.7630522E-1,3.2158965E-1,-8.580275E-2,3.700811E-1,1.0603579E-1,1.0258995E-1,2.3485224E-1,3.091378E-2,-2.2840764E-1,8.1546754E-1,-2.8491312E-1,-1.7401579E-1,4.8285258E-1,-1.0978016E-1,-4.192914E-2,1.9894369E-1],"split_indices":[92,142,102,0,47,0,56,0,0,0,92,123,0,142,0,0,0],"split_type":[0,0,0,0,0,0,0,0,0,0,0,0,0,0,0,0,0],"sum_hessian":[1.9125906E1,7.458822E0,1.1667084E1,1.7861062E0,5.6727157E0,1.806144E0,9.86094E0,3.7750094E0,1.8977062E0,3.8353004E0,6.0256395E0,4.4163594E0,1.6092802E0,3.382634E0,1.0337257E0,1.067093E0,2.3155408E0],"tree_param":{"num_deleted":"0","num_feature":"143","num_nodes":"17","size_leaf_vector":"1"}},{"base_weights":[5.3946115E-3,1.8998931E-1,-4.2998308E-1,-1.4293666E-1,2.9197437E-1,3.0781487E-2,-5.744032E-1,-1.1790819E-1,4.0664396E-1,-2.2223145E-1,-1.3752941E-2,6.344968E-1,2.501909E-2,1.8475495E-2,2.1923183E-1,1.796655E-1,-1.5874507E-1],"categories":[],"categories_nodes":[],"categories_segments":[],"categories_sizes":[],"default_left":[0,0,0,0,0,0,0,0,0,0,0,0,0,0,0,0,0],"id":16,"left_children":[1,3,5,-1,7,-1,9,-1,11,-1,-1,13,15,-1,-1,-1,-1],"loss_changes":[1.5279131E0,1.0451543E0,4.9461985E-1,0E0,1.1166534E0,0E0,3.7121224E-1,0E0,9.3419516E-1,0E0,0E0,3.3008504E-1,1.9469882E0,0E0,0E0,0E0,0E0],"parents":[2147483647,0,0,1,1,2,2,4,4,6,6,8,8,11,11,12,12],"right_children":[2,4,6,-1,8,-1,10,-1,12,-1,-1,14,16,-1,-1,-1,-1],"split_conditions":[7.789776E-1,8.354495E-3,9.707963E-1,-1.4293666E-1,-4.375879E-1,3.0781487E-2,1.5894815E-1,-1.1790819E-1,-2.2895858E-1,-2.2223145E-1,-1.3752941E-2,-7.354248E-1,8.4453404E-1,1.8475495E-2,2.1923183E-1,1.796655E-1,-1.5874507E-1],"split_indices":[102,140,105,0,122,0,140,0,124,0,0,71,105,0,0,0,0],"split_type":[0,0,0,0,0,0,0,0,0,0,0,0,0,0,0,0,0],"sum_hessian":[1.6994892E1,1.2330525E1,4.664367E0,1.149173E0,1.1181353E1,1.056773E0,3.6075943E0,1.25527E0,9.926083E0,2.4385521E0,1.1690421E0,5.800324E0,4.125759E0,1.0703912E0,4.729933E0,1.9872191E0,2.1385398E0],"tree_param":{"num_deleted":"0","num_feature":"143","num_nodes":"17","size_leaf_vector":"1"}},{"base_weights":[-6.8102563E-3,5.2684015E-1,-1.546811E-1,1.840959E-1,5.2717026E-2,-4.8457953E-1,8.406414E-2,-1.9178422E-1,3.3937056E-2,5.5545926E-1,-2.2028092E-1,3.915036E-2,1.9970712E-1,2.3211777E-1,-1.8721643E-1,1.5806766E-1,-7.347301E-2],"categories":[],"categories_nodes":[],"categories_segments":[],"categories_sizes":[],"default_left":[0,0,0,0,0,0,0,0,0,0,0,0,0,0,0,0,0],"id":17,"left_children":[1,3,5,-1,-1,7,9,-1,-1,11,13,-1,-1,15,-1,-1,-1],"loss_changes":[1.3564408E0,5.9393644E-3,1.0980489E0,0E0,0E0,6.0713637E-1,1.3619411E0,0E0,0E0,8.5219145E-2,1.234726E0,0E0,0E0,6.2719804E-1,0E0,0E0,0E0],"parents":[2147483647,0,0,1,1,2,2,5,5,6,6,9,9,10,10,13,13],"right_children":[2,4,6,-1,-1,8,10,-1,-1,12,14,-1,-1,16,-1,-1,-1],"split_conditions":[-2.022808E-1,-2.4969545E-1,4.8926282E-1,1.840959E-1,5.2717026E-2,-4.9827394E-1,-1.7300251E-1,-1.9178422E-1,3.3937056E-2,1.9061768E-1,9.237006E-1,3.915036E-2,1.9970712E-1,4.919354E-1,-1.8721643E-1,1.5806766E-1,-7.347301E-2],"split_indices":[92,69,142,0,0,89,125,0,0,112,105,0,0,21,0,0,0],"split_type":[0,0,0,0,0,0,0,0,0,0,0,0,0,0,0,0,0],"sum_hessian":[1.5156724E1,2.732517E0,1.2424207E1,1.5913428E0,1.1411742E0,4.783991E0,7.6402164E0,3.745099E0,1.0388917E0,2.6737661E0,4.96645E0,1.0005146E0,1.6732516E0,2.5426867E0,2.4237635E0,1.5069507E0,1.035736E0],"tree_param":{"num_deleted":"0","num_feature":"143","num_nodes":"17","size_leaf_vector":"1"}},{"base_weights":[8.81677E-3,-1.2551428E-1,1.5819058E-1,-2.6366273E-1,3.4182277E-1,2.274016E-1,-4.624758E-1,-2.1121062E-2,1.6666034E-1,1.6676746E-1,-7.373029E-2,-5.982344E-1,5.155534E-2,-2.016823E-2,-6.8977076E-1,-4.6132542E-2,-2.3684707E-1],"categories":[],"categories_nodes":[],"categories_segments":[],"categories_sizes":[],"default_left":[0,0,0,0,0,0,0,0,0,0,0,0,0,0,0,0,0],"id":18,"left_children":[1,3,-1,5,7,9,11,-1,-1,-1,-1,13,-1,-1,15,-1,-1],"loss_changes":[1.0872695E0,8.940207E-1,0E0,1.0985649E0,3.277561E-1,6.9659275E-1,7.5490844E-1,0E0,0E0,0E0,0E0,2.6765704E-1,0E0,0E0,1.6736579E-1,0E0,0E0],"parents":[2147483647,0,0,1,1,3,3,4,4,5,5,6,6,11,11,14,14],"right_children":[2,4,-1,6,8,10,12,-1,-1,-1,-1,14,-1,-1,16,-1,-1],"split_conditions":[5.58687E-1,3.4943545E-1,1.5819058E-1,-7.2289324E-1,3.7964243E-1,6.197901E-1,9.999999E-1,-2.1121062E-2,1.6666034E-1,1.6676746E-1,-7.373029E-2,6.079592E-1,5.155534E-2,-2.016823E-2,-9.999995E-1,-4.6132542E-2,-2.3684707E-1],"split_indices":[142,112,0,25,111,111,37,0,0,0,0,138,0,0,51,0,0],"split_type":[0,0,0,0,0,0,0,0,0,0,0,0,0,0,0,0,0],"sum_hessian":[1.3660522E1,1.1451537E1,2.2089858E0,9.175119E0,2.2764175E0,2.6027017E0,6.5724177E0,1.0061781E0,1.2702395E0,1.4330231E0,1.1696787E0,5.460633E0,1.1117852E0,1.0579345E0,4.402698E0,1.0893707E0,3.3133273E0],"tree_param":{"num_deleted":"0","num_feature":"143","num_nodes":"17","size_leaf_vector":"1"}},{"base_weights":[1.5207925E-2,1.890296E-1,-3.393448E-1,-1.269383E-1,3.1516963E-1,4.994182E-2,-5.1955837E-1,4.7667113E-1,-7.096801E-2,-2.795031E-2,-1.92252E-1,5.9395665E-1,-2.8208924E-2,2.09841E-1,3.5837006E-2],"categories":[],"categories_nodes":[],"categories_segments":[],"categories_sizes":[],"default_left":[0,0,0,0,0,0,0,0,0,0,0,0,0,0,0],"id":19,"left_children":[1,3,5,-1,7,-1,9,11,-1,-1,-1,13,-1,-1,-1],"loss_changes":[8.887174E-1,8.7621295E-1,5.2032757E-1,0E0,8.745893E-1,0E0,1.3430953E-1,5.2074337E-1,0E0,0E0,0E0,2.1173787E-1,0E0,0E0,0E0],"parents":[2147483647,0,0,1,1,2,2,4,4,6,6,7,7,11,11],"right_children":[2,4,6,-1,8,-1,10,12,-1,-1,-1,14,-1,-1,-1],"split_conditions":[5.0471413E-1,3.6144578E-1,3.7065214E-1,-1.269383E-1,-9.99236E-1,4.994182E-2,-6.9737977E-1,8.838161E-1,-7.096801E-2,-2.795031E-2,-1.92252E-1,7.789776E-1,-2.8208924E-2,2.09841E-1,3.5837006E-2],"split_indices":[21,142,40,0,34,0,25,69,0,0,0,102,0,0,0],"split_type":[0,0,0,0,0,0,0,0,0,0,0,0,0,0,0],"sum_hessian":[1.2379607E1,8.620301E0,3.7593057E0,1.070541E0,7.549761E0,1.0075617E0,2.751744E0,5.945457E0,1.6043034E0,1.0009364E0,1.7508076E0,4.8980937E0,1.0473634E0,3.6191847E0,1.2789091E0],"tree_param":{"num_deleted":"0","num_feature":"143","num_nodes":"15","size_leaf_vector":"1"}},{"base_weights":[1.4442129E-3,2.2156386E-1,-2.5631326E-1,3.7964877E-1,-7.101707E-2,7.887763E-2,-4.5013824E-1,4.971227E-1,-2.1331796E-2,-6.1692894E-2,9.7122684E-2,-3.303566E-2,-1.6954836E-1,3.2025408E-2,1.8428586E-1],"categories":[],"categories_nodes":[],"categories_segments":[],"categories_sizes":[],"default_left":[0,0,0,0,0,0,0,0,0,0,0,0,0,0,0],"id":20,"left_children":[1,3,5,7,-1,9,11,13,-1,-1,-1,-1,-1,-1,-1],"loss_changes":[7.587482E-1,6.121947E-1,4.3586987E-1,3.3953398E-1,0E0,2.8315845E-1,9.630561E-2,1.4856982E-1,0E0,0E0,0E0,0E0,0E0,0E0,0E0],"parents":[2147483647,0,0,1,1,2,2,3,3,5,5,6,6,7,7],"right_children":[2,4,6,8,-1,10,12,14,-1,-1,-1,-1,-1,-1,-1],"split_conditions":[4.8327374E-1,7.6329273E-1,2.8158277E-1,7.01423E-1,-7.101707E-2,6.980487E-2,-9.999989E-1,-5.859963E-1,-2.1331796E-2,-6.1692894E-2,9.7122684E-2,-3.303566E-2,-1.6954836E-1,3.2025408E-2,1.8428586E-1],"split_indices":[92,69,21,81,0,27,52,63,0,0,0,0,0,0,0],"split_type":[0,0,0,0,0,0,0,0,0,0,0,0,0,0,0],"sum_hessian":[1.1372039E1,6.2095914E0,5.1624475E0,4.744561E0,1.4650302E0,2.108743E0,3.0537045E0,3.6820838E0,1.0624774E0,1.0494782E0,1.0592648E0,1.2666687E0,1.7870358E0,1.2911837E0,2.3909001E0],"tree_param":{"num_deleted":"0","num_feature":"143","num_nodes":"15","size_leaf_vector":"1"}},{"base_weights":[-1.516054E-3,1.7415687E-1,-2.9726556E-1,-1.01579346E-1,3.2638392E-1,-4.6599236E-1,1.1803162E-2,-5.2655693E-2,4.4956285E-1,-4.346782E-2,-1.6409975E-1,-6.59144E-3,5.863111E-1,5.2485194E-2,1.9848473E-1],"categories":[],"categories_nodes":[],"categories_segments":[],"categories_sizes":[],"default_left":[0,0,0,0,0,0,0,0,0,0,0,0,0,0,0],"id":21,"left_children":[1,3,5,-1,7,9,-1,-1,11,-1,-1,-1,13,-1,-1],"loss_changes":[6.591887E-1,7.3223037E-1,2.8675213E-1,0E0,4.9009252E-1,4.654765E-3,0E0,0E0,3.7533808E-1,0E0,0E0,0E0,2.0349622E-2,0E0,0E0],"parents":[2147483647,0,0,1,1,2,2,4,4,5,5,8,8,12,12],"right_children":[2,4,6,-1,8,10,-1,-1,12,-1,-1,-1,14,-1,-1],"split_conditions":[7.507453E-1,-1.3003004E0,6.826704E-1,-1.01579346E-1,-4.260661E-1,-2.3803608E-1,1.1803162E-2,-5.2655693E-2,1.4703298E-1,-4.346782E-2,-1.6409975E-1,-6.59144E-3,-8.2522094E-1,5.2485194E-2,1.9848473E-1],"split_indices":[102,141,79,0,122,59,0,0,79,0,0,0,85,0,0],"split_type":[0,0,0,0,0,0,0,0,0,0,0,0,0,0,0],"sum_hessian":[1.0691191E1,6.9651055E0,3.726085E0,1.3141816E0,5.6509237E0,2.2259483E0,1.5001366E0,1.0298407E0,4.6210833E0,1.0102214E0,1.215727E0,1.2275574E0,3.3935256E0,1.0393254E0,2.3542001E0],"tree_param":{"num_deleted":"0","num_feature":"143","num_nodes":"15","size_leaf_vector":"1"}},{"base_weights":[-8.767725E-3,-3.338652E-1,1.7488253E-1,4.924561E-2,-1.6272917E-1,5.2123916E-1,-1.3327348E-1,2.9847087E-2,1.9057485E-1,1.0804933E-1,-3.6027122E-1,-1.855887E-1,2.4273315E-2],"categories":[],"categories_nodes":[],"categories_segments":[],"categories_sizes":[],"default_left":[0,0,0,0,0,0,0,0,0,0,0,0,0],"id":22,"left_children":[1,3,5,-1,-1,7,9,-1,-1,-1,11,-1,-1],"loss_changes":[7.181497E-1,5.390874E-1,8.931913E-1,0E0,0E0,1.2130821E-1,6.7641217E-1,0E0,0E0,0E0,4.8804682E-1,0E0,0E0],"parents":[2147483647,0,0,1,1,2,2,5,5,6,6,10,10],"right_children":[2,4,6,-1,-1,8,10,-1,-1,-1,12,-1,-1],"split_conditions":[4.8285258E-1,-9.703782E-1,6.197901E-1,4.924561E-2,-1.6272917E-1,7.7236617E-1,2.2652566E-1,2.9847087E-2,1.9057485E-1,1.0804933E-1,8.526721E-1,-1.855887E-1,2.4273315E-2],"split_indices":[142,24,111,0,0,93,40,0,0,0,66,0,0],"split_type":[0,0,0,0,0,0,0,0,0,0,0,0,0],"sum_hessian":[1.0050514E1,3.3328197E0,6.7176943E0,1.046621E0,2.2861989E0,2.837248E0,3.880446E0,1.0022719E0,1.8349762E0,1.0378245E0,2.8426216E0,1.5391078E0,1.3035138E0],"tree_param":{"num_deleted":"0","num_feature":"143","num_nodes":"13","size_leaf_vector":"1"}},{"base_weights":[-2.2068513E-3,-2.1966667E-1,2.1466666E-1,-4.4203496E-1,7.4442595E-2,1.6220371E-1,-1.159183E-1,-1.57623E-1,-3.955461E-2,5.625012E-2,-1.2899512E-1],"categories":[],"categories_nodes":[],"categories_segments":[],"categories_sizes":[],"default_left":[0,0,0,0,0,0,0,0,0,0,0],"id":23,"left_children":[1,3,5,7,-1,-1,9,-1,-1,-1,-1],"loss_changes":[5.291062E-1,6.919149E-1,6.6861224E-1,3.8134575E-2,0E0,0E0,4.2510825E-1,0E0,0E0,0E0,0E0],"parents":[2147483647,0,0,1,1,2,2,3,3,6,6],"right_children":[2,4,6,8,-1,-1,10,-1,-1,-1,-1],"split_conditions":[4.991987E-1,3.4943545E-1,-9.9957275E-1,8.601662E-1,7.4442595E-2,1.6220371E-1,-9.9999917E-1,-1.57623E-1,-3.955461E-2,5.625012E-2,-1.2899512E-1],"split_indices":[142,112,34,103,0,0,51,0,0,0,0],"split_type":[0,0,0,0,0,0,0,0,0,0,0],"sum_hessian":[9.219211E0,4.596952E0,4.6222587E0,3.1532025E0,1.4437497E0,2.0072505E0,2.6150084E0,1.9383425E0,1.2148601E0,1.5350171E0,1.0799913E0],"tree_param":{"num_deleted":"0","num_feature":"143","num_nodes":"11","size_leaf_vector":"1"}},{"base_weights":[-5.2709226E-3,2.624322E-1,-1.7808533E-1,1.5497762E-1,-7.794398E-2,1.4426821E-1,-4.6776396E-1,-7.677002E-2,1.14023775E-1,-3.5912286E-2,-1.7255338E-1],"categories":[],"categories_nodes":[],"categories_segments":[],"categories_sizes":[],"default_left":[0,0,0,0,0,0,0,0,0,0,0],"id":24,"left_children":[1,3,5,-1,-1,7,9,-1,-1,-1,-1],"loss_changes":[4.9213687E-1,6.8919885E-1,6.6944575E-1,0E0,0E0,4.573012E-1,6.689674E-2,0E0,0E0,0E0,0E0],"parents":[2147483647,0,0,1,1,2,2,5,5,6,6],"right_children":[2,4,6,-1,-1,8,10,-1,-1,-1,-1],"split_conditions":[9.2903066E-1,-2.3488256E-1,-1.7300251E-1,1.5497762E-1,-7.794398E-2,-3.5480472E-1,2.9054937E-1,-7.677002E-2,1.14023775E-1,-3.5912286E-2,-1.7255338E-1],"split_indices":[105,113,125,0,0,123,21,0,0,0,0],"split_type":[0,0,0,0,0,0,0,0,0,0,0],"sum_hessian":[8.627607E0,3.181161E0,5.4464464E0,2.1470747E0,1.0340861E0,2.8154233E0,2.6310234E0,1.0123267E0,1.8030965E0,1.1191293E0,1.5118941E0],"tree_param":{"num_deleted":"0","num_feature":"143","num_nodes":"11","size_leaf_vector":"1"}},{"base_weights":[-1.4213884E-2,9.7728215E-2,-1.3918065E-1,1.5552747E-1,-3.0971575E-1,-4.7772966E-2,1.3183206E-1,8.417052E-3,-1.590597E-1,-6.278344E-2,6.6701055E-2],"categories":[],"categories_nodes":[],"categories_segments":[],"categories_sizes":[],"default_left":[0,0,0,0,0,0,0,0,0,0,0],"id":25,"left_children":[1,-1,3,5,7,-1,-1,9,-1,-1,-1],"loss_changes":[4.2877215E-1,0E0,4.150496E-1,3.6859888E-1,3.5226148E-1,0E0,0E0,1.8689534E-1,0E0,0E0,0E0],"parents":[2147483647,0,0,2,2,3,3,4,4,7,7],"right_children":[2,-1,4,6,8,-1,-1,10,-1,-1,-1],"split_conditions":[-8.298959E-2,9.7728215E-2,9.237006E-1,5.053237E-1,-1.7638549E-1,-4.7772966E-2,1.3183206E-1,4.8173076E-1,-1.590597E-1,-6.278344E-2,6.6701055E-2],"split_indices":[92,0,105,103,125,0,0,142,0,0,0],"split_type":[0,0,0,0,0,0,0,0,0,0,0],"sum_hessian":[8.025018E0,1.7250918E0,6.299926E0,2.3414984E0,3.9584274E0,1.3186446E0,1.0228537E0,2.0141122E0,1.9443153E0,1.0090015E0,1.0051109E0],"tree_param":{"num_deleted":"0","num_feature":"143","num_nodes":"11","size_leaf_vector":"1"}},{"base_weights":[-8.123434E-3,-1.1110087E-1,1.107123E-1,-2.1767113E-1,6.506406E-2,5.083218E-2,-3.687534E-1,-4.9049586E-1,1.2257573E-2,-3.6974262E-2,-1.7404191E-1],"categories":[],"categories_nodes":[],"categories_segments":[],"categories_sizes":[],"default_left":[0,0,0,0,0,0,0,0,0,0,0],"id":26,"left_children":[1,3,-1,5,-1,-1,7,9,-1,-1,-1],"loss_changes":[3.7428135E-1,3.0967796E-1,0E0,4.23147E-1,0E0,0E0,2.569313E-1,5.1590145E-2,0E0,0E0,0E0],"parents":[2147483647,0,0,1,1,3,3,6,6,7,7],"right_children":[2,4,-1,6,-1,-1,8,10,-1,-1,-1],"split_conditions":[5.58687E-1,3.4943545E-1,1.107123E-1,-7.2289324E-1,6.506406E-2,5.083218E-2,4.8328647E-1,6.6660196E-1,1.2257573E-2,-3.6974262E-2,-1.7404191E-1],"split_indices":[142,112,0,25,0,0,56,109,0,0,0],"split_type":[0,0,0,0,0,0,0,0,0,0,0],"sum_hessian":[7.580987E0,6.5092053E0,1.0717813E0,5.1667223E0,1.3424833E0,1.4162956E0,3.7504265E0,2.738917E0,1.0115094E0,1.0033405E0,1.7355767E0],"tree_param":{"num_deleted":"0","num_feature":"143","num_nodes":"11","size_leaf_vector":"1"}},{"base_weights":[-4.3672035E-3,1.3627838E-1,-2.8169966E-1,2.4780926E-1,-5.506046E-2,-2.1259602E-2,-1.05751745E-1,-2.9244011E-2,3.7288028E-1,1.6361263E-1,6.0540405E-3],"categories":[],"categories_nodes":[],"categories_segments":[],"categories_sizes":[],"default_left":[0,0,0,0,0,0,0,0,0,0,0],"id":27,"left_children":[1,3,5,7,-1,-1,-1,-1,9,-1,-1],"loss_changes":[3.588185E-1,2.639423E-1,2.1152556E-2,2.508311E-1,0E0,0E0,0E0,0E0,2.2341609E-1,0E0,0E0],"parents":[2147483647,0,0,1,1,2,2,3,3,8,8],"right_children":[2,4,6,8,-1,-1,-1,-1,10,-1,-1],"split_conditions":[7.6747274E-1,4.8E0,9.999999E-1,3.7751004E-1,-5.506046E-2,-2.1259602E-2,-1.05751745E-1,-2.9244011E-2,8.2187766E-1,1.6361263E-1,6.0540405E-3],"split_indices":[102,108,46,142,0,0,0,0,59,0,0],"split_type":[0,0,0,0,0,0,0,0,0,0,0],"sum_hessian":[7.214949E0,5.1246557E0,2.0902932E0,3.966524E0,1.158132E0,1.028535E0,1.0617583E0,1.1133765E0,2.8531475E0,1.5491956E0,1.3039519E0],"tree_param":{"num_deleted":"0","num_feature":"143","num_nodes":"11","size_leaf_vector":"1"}},{"base_weights":[-6.8064816E-3,-2.4471965E-1,1.4319055E-1,2.7204493E-2,-1.3386524E-1,2.9963493E-1,-7.470834E-2,1.3738301E-1,-2.4843555E-2],"categories":[],"categories_nodes":[],"categories_segments":[],"categories_sizes":[],"default_left":[0,0,0,0,0,0,0,0,0],"id":28,"left_children":[1,3,5,-1,-1,7,-1,-1,-1],"loss_changes":[3.178646E-1,2.725203E-1,4.1158342E-1,0E0,0E0,3.0308485E-1,0E0,0E0,0E0],"parents":[2147483647,0,0,1,1,2,2,5,5],"right_children":[2,4,6,-1,-1,8,-1,-1,-1],"split_conditions":[4.8285258E-1,-6.446663E-1,-9.999935E-1,2.7204493E-2,-1.3386524E-1,5.0471413E-1,-7.470834E-2,1.3738301E-1,-2.4843555E-2],"split_indices":[142,86,52,0,0,21,0,0,0],"split_type":[0,0,0,0,0,0,0,0,0],"sum_hessian":[6.9252625E0,2.433672E0,4.4915905E0,1.1197554E0,1.3139166E0,3.3796127E0,1.1119777E0,2.2506034E0,1.1290094E0],"tree_param":{"num_deleted":"0","num_feature":"143","num_nodes":"9","size_leaf_vector":"1"}},{"base_weights":[-1.3578777E-2,2.0035782E-1,-1.5877678E-1,-8.751759E-3,1.1240175E-1,4.8929982E-2,-9.5750384E-2,-6.664809E-2,8.642202E-2],"categories":[],"categories_nodes":[],"categories_segments":[],"categories_sizes":[],"default_left":[0,0,0,0,0,0,0,0,0],"id":29,"left_children":[1,3,5,-1,-1,7,-1,-1,-1],"loss_changes":[2.6771063E-1,1.51464E-1,1.8491136E-1,0E0,0E0,2.6375967E-1,0E0,0E0,0E0],"parents":[2147483647,0,0,1,1,2,2,5,5],"right_children":[2,4,6,-1,-1,8,-1,-1,-1],"split_conditions":[3.020395E-1,7.0081055E-1,6.1714303E-1,-8.751759E-3,1.1240175E-1,4.8285258E-1,-9.5750384E-2,-6.664809E-2,8.642202E-2],"split_indices":[92,79,111,0,0,142,0,0,0],"split_type":[0,0,0,0,0,0,0,0,0],"sum_hessian":[6.594154E0,2.512423E0,4.081731E0,1.4438567E0,1.0685663E0,2.081334E0,2.0003965E0,1.0087936E0,1.0725405E0],"tree_param":{"num_deleted":"0","num_feature":"143","num_nodes":"9","size_leaf_vector":"1"}},{"base_weights":[-5.8108266E-3,1.2876002E-1,-2.4362612E-1,-3.7964586E-2,2.6385465E-1,-1.130712E-2,-9.83129E-2,1.4874819E-1,-1.4502544E-2],"categories":[],"categories_nodes":[],"categories_segments":[],"categories_sizes":[],"default_left":[0,0,0,0,0,0,0,0,0],"id":30,"left_children":[1,3,5,-1,7,-1,-1,-1,-1],"loss_changes":[2.6732326E-1,2.1835546E-1,3.9771423E-2,0E0,3.0142623E-1,0E0,0E0,0E0,0E0],"parents":[2147483647,0,0,1,1,2,2,4,4],"right_children":[2,4,6,-1,8,-1,-1,-1,-1],"split_conditions":[7.550256E-1,-3.9375302E-1,-2.6364383E-1,-3.7964586E-2,-2.2895858E-1,-1.130712E-2,-9.83129E-2,1.4874819E-1,-1.4502544E-2],"split_indices":[102,126,25,0,124,0,0,0,0],"split_type":[0,0,0,0,0,0,0,0,0],"sum_hessian":[6.3728676E0,4.3627315E0,2.0101366E0,1.5315638E0,2.8311675E0,1.002669E0,1.0074675E0,1.2868236E0,1.5443438E0],"tree_param":{"num_deleted":"0","num_feature":"143","num_nodes":"9","size_leaf_vector":"1"}},{"base_weights":[-4.914984E-3,7.115019E-2,-1.3364814E-1,8.0680534E-2,-1.2520882E-1,-6.1520334E-2,1.07184164E-1],"categories":[],"categories_nodes":[],"categories_segments":[],"categories_sizes":[],"default_left":[0,0,0,0,0,0,0],"id":31,"left_children":[1,-1,3,5,-1,-1,-1],"loss_changes":[2.5470498E-1,0E0,3.5664067E-1,3.7863833E-1,0E0,0E0,0E0],"parents":[2147483647,0,0,2,2,3,3],"right_children":[2,-1,4,6,-1,-1,-1],"split_conditions":[9.061646E-1,7.115019E-2,-2.3286845E-1,7.67554E0,-1.2520882E-1,-6.1520334E-2,1.07184164E-1],"split_indices":[105,0,124,104,0,0,0],"split_type":[0,0,0,0,0,0,0],"sum_hessian":[6.1559453E0,1.8446916E0,4.3112535E0,2.8636057E0,1.4476478E0,1.535713E0,1.3278929E0],"tree_param":{"num_deleted":"0","num_feature":"143","num_nodes":"7","size_leaf_vector":"1"}},{"base_weights":[-5.0751525E-3,-8.673466E-2,9.3268335E-2,3.6061937E-1,-1.4643718E-1,1.3035043E-1,3.2446466E-2,-9.8557025E-2,2.8885795E-2],"categories":[],"categories_nodes":[],"categories_segments":[],"categories_sizes":[],"default_left":[0,0,0,0,0,0,0,0,0],"id":32,"left_children":[1,-1,3,5,7,-1,-1,-1,-1],"loss_changes":[2.1965373E-1,0E0,4.2963752E-1,1.0243058E-2,2.0008948E-1,0E0,0E0,0E0,0E0],"parents":[2147483647,0,0,2,2,3,3,4,4],"right_children":[2,-1,4,6,8,-1,-1,-1,-1],"split_conditions":[3.7188756E-1,-8.673466E-2,3.2921633E-1,2.8245592E-1,4.8027855E-1,1.3035043E-1,3.2446466E-2,-9.8557025E-2,2.8885795E-2],"split_indices":[142,0,47,92,47,0,0,0,0],"split_type":[0,0,0,0,0,0,0,0,0],"sum_hessian":[5.8981075E0,1.0180044E0,4.880103E0,2.0685542E0,2.8115492E0,1.0424488E0,1.0261054E0,1.4044602E0,1.407089E0],"tree_param":{"num_deleted":"0","num_feature":"143","num_nodes":"9","size_leaf_vector":"1"}},{"base_weights":[-2.4098526E-3,1.1422467E-1,-6.6467404E-2,-4.8530746E-2,2.5390235E-1,1.3209997E-1,-3.79287E-2],"categories":[],"categories_nodes":[],"categories_segments":[],"categories_sizes":[],"default_left":[0,0,0,0,0,0,0],"id":33,"left_children":[1,3,-1,-1,5,-1,-1],"loss_changes":[1.959085E-1,2.3443781E-1,0E0,0E0,3.1941068E-1,0E0,0E0],"parents":[2147483647,0,0,1,1,4,4],"right_children":[2,4,-1,-1,6,-1,-1],"split_conditions":[5.0471413E-1,3.875502E-1,-6.6467404E-2,-4.8530746E-2,8.579548E-1,1.3209997E-1,-3.79287E-2],"split_indices":[21,142,0,0,59,0,0],"split_type":[0,0,0,0,0,0,0],"sum_hessian":[5.674472E0,4.0159116E0,1.6585603E0,1.2963161E0,2.7195954E0,1.7191432E0,1.0004522E0],"tree_param":{"num_deleted":"0","num_feature":"143","num_nodes":"7","size_leaf_vector":"1"}},{"base_weights":[-3.7949695E-3,6.804546E-2,-1.1113225E-1,4.687166E-2,-2.5566962E-1,-2.2610666E-3,-1.07814826E-1],"categories":[],"categories_nodes":[],"categories_segments":[],"categories_sizes":[],"default_left":[0,0,0,0,0,0,0],"id":34,"left_children":[1,-1,3,-1,5,-1,-1],"loss_changes":[1.8574892E-1,0E0,2.3691553E-1,0E0,9.219326E-2,0E0,0E0],"parents":[2147483647,0,0,2,2,4,4],"right_children":[2,-1,4,-1,6,-1,-1],"split_conditions":[2.6084617E-1,6.804546E-2,-3.833865E-1,4.687166E-2,6.171506E-1,-2.2610666E-3,-1.07814826E-1],"split_indices":[40,0,59,0,115,0,0],"split_type":[0,0,0,0,0,0,0],"sum_hessian":[5.4856615E0,1.3887689E0,4.0968924E0,1.4091784E0,2.6877139E0,1.1084435E0,1.5792705E0],"tree_param":{"num_deleted":"0","num_feature":"143","num_nodes":"7","size_leaf_vector":"1"}},{"base_weights":[-2.4561908E-3,1.07580945E-1,-7.69366E-2,2.667014E-1,-5.791595E-2,1.2968883E-1,-1.845368E-2],"categories":[],"categories_nodes":[],"categories_segments":[],"categories_sizes":[],"default_left":[0,0,0,0,0,0,0],"id":35,"left_children":[1,3,-1,5,-1,-1,-1],"loss_changes":[2.0496614E-1,2.9701212E-1,0E0,2.3182237E-1,0E0,0E0,0E0],"parents":[2147483647,0,0,1,1,3,3],"right_children":[2,4,-1,6,-1,-1,-1],"split_conditions":[7.6329273E-1,8.848139E-1,-7.69366E-2,9.707963E-1,-5.791595E-2,1.2968883E-1,-1.845368E-2],"split_indices":[69,59,0,105,0,0,0],"split_type":[0,0,0,0,0,0,0],"sum_hessian":[5.346354E0,4.132521E0,1.2138331E0,2.776067E0,1.356454E0,1.6343603E0,1.1417068E0],"tree_param":{"num_deleted":"0","num_feature":"143","num_nodes":"7","size_leaf_vector":"1"}},{"base_weights":[-4.576101E-3,-5.5839915E-2,1.15942486E-1,1.0668525E-1,-9.9453375E-2,3.129722E-2,-7.53996E-2],"categories":[],"categories_nodes":[],"categories_segments":[],"categories_sizes":[],"default_left":[0,0,0,0,0,0,0],"id":36,"left_children":[1,-1,3,-1,5,-1,-1],"loss_changes":[1.5635668E-1,0E0,2.5829625E-1,0E0,1.20794244E-1,0E0,0E0],"parents":[2147483647,0,0,2,2,4,4],"right_children":[2,-1,4,-1,6,-1,-1],"split_conditions":[4.8285258E-1,-5.5839915E-2,6.197901E-1,1.0668525E-1,3.3165887E-1,3.129722E-2,-7.53996E-2],"split_indices":[142,0,111,0,40,0,0],"split_type":[0,0,0,0,0,0,0],"sum_hessian":[5.1595006E0,1.8412657E0,3.3182352E0,1.2624682E0,2.055767E0,1.0115998E0,1.0441672E0],"tree_param":{"num_deleted":"0","num_feature":"143","num_nodes":"7","size_leaf_vector":"1"}},{"base_weights":[-1.8048283E-3,-5.397185E-2,1.2352151E-1,-3.810186E-2,8.353541E-2],"categories":[],"categories_nodes":[],"categories_segments":[],"categories_sizes":[],"default_left":[0,0,0,0,0],"id":37,"left_children":[1,-1,3,-1,-1],"loss_changes":[1.5658647E-1,0E0,1.9552255E-1,0E0,0E0],"parents":[2147483647,0,0,2,2],"right_children":[2,-1,4,-1,-1],"split_conditions":[1.3626818E-1,-5.397185E-2,1.4392805E0,-3.810186E-2,8.353541E-2],"split_indices":[56,0,107,0,0],"split_type":[0,0,0,0,0],"sum_hessian":[5.0196886E0,1.8934311E0,3.1262577E0,1.2634475E0,1.8628103E0],"tree_param":{"num_deleted":"0","num_feature":"143","num_nodes":"5","size_leaf_vector":"1"}},{"base_weights":[-2.4444168E-3,6.765265E-2,-9.5755525E-2,5.249448E-2,-2.591905E-1,9.000294E-3,-1.1818731E-1],"categories":[],"categories_nodes":[],"categories_segments":[],"categories_sizes":[],"default_left":[0,0,0,0,0,0,0],"id":38,"left_children":[1,-1,3,-1,5,-1,-1],"loss_changes":[1.4775807E-1,0E0,2.6263615E-1,0E0,1.468668E-1,0E0,0E0],"parents":[2147483647,0,0,2,2,4,4],"right_children":[2,-1,4,-1,6,-1,-1],"split_conditions":[2.1437332E-1,6.765265E-2,5.271931E-1,5.249448E-2,9.258828E-1,9.000294E-3,-1.1818731E-1],"split_indices":[40,0,111,0,105,0,0],"split_type":[0,0,0,0,0,0,0],"sum_hessian":[4.9314046E0,1.0208327E0,3.910572E0,1.4454582E0,2.4651139E0,1.03072E0,1.4343939E0],"tree_param":{"num_deleted":"0","num_feature":"143","num_nodes":"7","size_leaf_vector":"1"}},{"base_weights":[-6.39351E-4,-1.4810759E-1,1.4399095E-1,2.5602128E-2,-8.695746E-2,-4.813757E-2,1.0813854E-1],"categories":[],"categories_nodes":[],"categories_segments":[],"categories_sizes":[],"default_left":[0,0,0,0,0,0,0],"id":39,"left_children":[1,3,5,-1,-1,-1,-1],"loss_changes":[1.4462043E-1,1.3576663E-1,2.835955E-1,0E0,0E0,0E0,0E0],"parents":[2147483647,0,0,1,1,2,2],"right_children":[2,4,6,-1,-1,-1,-1],"split_conditions":[7.67554E0,9.2903066E-1,-2.1028514E-1,2.5602128E-2,-8.695746E-2,-4.813757E-2,1.0813854E-1],"split_indices":[104,105,2,0,0,0,0],"split_type":[0,0,0,0,0,0,0],"sum_hessian":[4.7807636E0,2.3552527E0,2.4255106E0,1.0401655E0,1.3150873E0,1.1154577E0,1.3100529E0],"tree_param":{"num_deleted":"0","num_feature":"143","num_nodes":"7","size_leaf_vector":"1"}},{"base_weights":[-3.738796E-4,-5.3659886E-2,1.21531986E-1,1.00862585E-1,-2.5602654E-2],"categories":[],"categories_nodes":[],"categories_segments":[],"categories_sizes":[],"default_left":[0,0,0,0,0],"id":40,"left_children":[1,-1,3,-1,-1],"loss_changes":[1.4431474E-1,0E0,2.0379063E-1,0E0,0E0],"parents":[2147483647,0,0,2,2],"right_children":[2,-1,4,-1,-1],"split_conditions":[4.8285258E-1,-5.3659886E-2,6.197901E-1,1.00862585E-1,-2.5602654E-2],"split_indices":[142,0,111,0,0],"split_type":[0,0,0,0,0],"sum_hessian":[4.633312E0,1.6906474E0,2.9426649E0,1.1372933E0,1.8053716E0],"tree_param":{"num_deleted":"0","num_feature":"143","num_nodes":"5","size_leaf_vector":"1"}},{"base_weights":[4.0957606E-3,9.957779E-2,-6.237736E-2,2.2958386E-1,-4.4955693E-2,1.07979044E-1,-6.2119826E-3],"categories":[],"categories_nodes":[],"categories_segments":[],"categories_sizes":[],"default_left":[0,0,0,0,0,0,0],"id":41,"left_children":[1,3,-1,5,-1,-1,-1],"loss_changes":[1.329615E-1,1.8031119E-1,0E0,1.1683543E-1,0E0,0E0,0E0],"parents":[2147483647,0,0,1,1,3,3],"right_children":[2,4,-1,6,-1,-1,-1],"split_conditions":[7.6329273E-1,8.848139E-1,-6.237736E-2,9.569801E-1,-4.4955693E-2,1.07979044E-1,-6.2119826E-3],"split_indices":[69,59,0,105,0,0,0],"split_type":[0,0,0,0,0,0,0],"sum_hessian":[4.5451555E0,3.4995108E0,1.0456446E0,2.3527794E0,1.1467315E0,1.2590444E0,1.0937349E0],"tree_param":{"num_deleted":"0","num_feature":"143","num_nodes":"7","size_leaf_vector":"1"}},{"base_weights":[2.5109241E-3,1.1349182E-1,-5.3369727E-2,-3.0160734E-2,9.6262135E-2],"categories":[],"categories_nodes":[],"categories_segments":[],"categories_sizes":[],"default_left":[0,0,0,0,0],"id":42,"left_children":[1,3,-1,-1,-1],"loss_changes":[1.2895323E-1,2.0863622E-1,0E0,0E0,0E0],"parents":[2147483647,0,0,1,1],"right_children":[2,4,-1,-1,-1],"split_conditions":[5.030719E-1,7.67554E0,-5.3369727E-2,-3.0160734E-2,9.6262135E-2],"split_indices":[81,104,0,0,0],"split_type":[0,0,0,0,0],"sum_hessian":[4.4321637E0,2.9737542E0,1.4584098E0,1.7169737E0,1.2567804E0],"tree_param":{"num_deleted":"0","num_feature":"143","num_nodes":"5","size_leaf_vector":"1"}},{"base_weights":[4.6051806E-3,-5.5712465E-2,1.0146675E-1,-3.871551E-2,2.1508695E-1,-2.1122396E-3,9.645486E-2],"categories":[],"categories_nodes":[],"categories_segments":[],"categories_sizes":[],"default_left":[0,0,0,0,0,0,0],"id":43,"left_children":[1,-1,3,-1,5,-1,-1],"loss_changes":[1.17383525E-1,0E0,1.3747953E-1,0E0,7.746813E-2,0E0,0E0],"parents":[2147483647,0,0,2,2,4,4],"right_children":[2,-1,4,-1,6,-1,-1],"split_conditions":[-8.5693926E-2,-5.5712465E-2,1.2746679E0,-3.871551E-2,-3.7160546E-1,-2.1122396E-3,9.645486E-2],"split_indices":[56,0,107,0,122,0,0],"split_type":[0,0,0,0,0,0,0],"sum_hessian":[4.345558E0,1.1563368E0,3.1892216E0,1.0081067E0,2.181115E0,1.0090269E0,1.1720879E0],"tree_param":{"num_deleted":"0","num_feature":"143","num_nodes":"7","size_leaf_vector":"1"}},{"base_weights":[3.6888951E-3,5.9363972E-2,-9.8119706E-2,2.6934238E-2,-7.9955235E-2],"categories":[],"categories_nodes":[],"categories_segments":[],"categories_sizes":[],"default_left":[0,0,0,0,0],"id":44,"left_children":[1,-1,3,-1,-1],"loss_changes":[1.2337828E-1,0E0,1.5424155E-1,0E0,0E0],"parents":[2147483647,0,0,2,2],"right_children":[2,-1,4,-1,-1],"split_conditions":[2.6084617E-1,5.9363972E-2,3.8534895E-1,2.6934238E-2,-7.9955235E-2],"split_indices":[40,0,21,0,0],"split_type":[0,0,0,0,0],"sum_hessian":[4.2585077E0,1.1401415E0,3.1183662E0,1.6944871E0,1.4238793E0],"tree_param":{"num_deleted":"0","num_feature":"143","num_nodes":"5","size_leaf_vector":"1"}},{"base_weights":[3.6428934E-3,-5.019567E-2,1.1996166E-1,9.219195E-2,-1.997653E-2],"categories":[],"categories_nodes":[],"categories_segments":[],"categories_sizes":[],"default_left":[0,0,0,0,0],"id":45,"left_children":[1,-1,3,-1,-1],"loss_changes":[1.23132E-1,0E0,1.4860669E-1,0E0,0E0],"parents":[2147483647,0,0,2,2],"right_children":[2,-1,4,-1,-1],"split_conditions":[4.8285258E-1,-5.019567E-2,6.197901E-1,9.219195E-2,-1.997653E-2],"split_indices":[142,0,111,0,0],"split_type":[0,0,0,0,0],"sum_hessian":[4.1825314E0,1.5159631E0,2.6665683E0,1.0074812E0,1.6590871E0],"tree_param":{"num_deleted":"0","num_feature":"143","num_nodes":"5","size_leaf_vector":"1"}},{"base_weights":[7.256461E-3,1.1776125E-1,-4.7129013E-2,-3.9504174E-2,1.1348594E-1],"categories":[],"categories_nodes":[],"categories_segments":[],"categories_sizes":[],"default_left":[0,0,0,0,0],"id":46,"left_children":[1,3,-1,-1,-1],"loss_changes":[1.1136072E-1,2.8563973E-1,0E0,0E0,0E0],"parents":[2147483647,0,0,1,1],"right_children":[2,4,-1,-1,-1],"split_conditions":[-2.3226464E-1,-3.9234996E-1,-4.7129013E-2,-3.9504174E-2,1.1348594E-1],"split_indices":[124,126,0,0,0],"split_type":[0,0,0,0,0],"sum_hessian":[4.1129713E0,2.6288915E0,1.4840797E0,1.5956662E0,1.0332253E0],"tree_param":{"num_deleted":"0","num_feature":"143","num_nodes":"5","size_leaf_vector":"1"}},{"base_weights":[1.1329754E-2,1.23995766E-1,-4.2635467E-2,-1.4860527E-2,7.794355E-2],"categories":[],"categories_nodes":[],"categories_segments":[],"categories_sizes":[],"default_left":[0,0,0,0,0],"id":47,"left_children":[1,3,-1,-1,-1],"loss_changes":[1.04208246E-1,9.3520194E-2,0E0,0E0,0E0],"parents":[2147483647,0,0,1,1],"right_children":[2,4,-1,-1,-1],"split_conditions":[5.035867E-1,7.445528E-1,-4.2635467E-2,-1.4860527E-2,7.794355E-2],"split_indices":[92,79,0,0,0],"split_type":[0,0,0,0,0],"sum_hessian":[4.008349E0,2.4219892E0,1.5863596E0,1.3422666E0,1.0797226E0],"tree_param":{"num_deleted":"0","num_feature":"143","num_nodes":"5","size_leaf_vector":"1"}},{"base_weights":[1.2385914E-2,-5.145906E-2,1.068719E-1,9.8196454E-2,-3.215204E-2],"categories":[],"categories_nodes":[],"categories_segments":[],"categories_sizes":[],"default_left":[0,0,0,0,0],"id":48,"left_children":[1,-1,3,-1,-1],"loss_changes":[1.0443878E-1,0E0,2.1861199E-1,0E0,0E0],"parents":[2147483647,0,0,2,2],"right_children":[2,-1,4,-1,-1],"split_conditions":[3.875502E-1,-5.145906E-2,6.197901E-1,9.8196454E-2,-3.215204E-2],"split_indices":[142,0,111,0,0],"split_type":[0,0,0,0,0],"sum_hessian":[3.9550886E0,1.0655676E0,2.8895211E0,1.1627579E0,1.7267631E0],"tree_param":{"num_deleted":"0","num_feature":"143","num_nodes":"5","size_leaf_vector":"1"}},{"base_weights":[1.233046E-2,1.1312323E-1,-4.4922933E-2,8.090584E-2,-3.7876587E-2],"categories":[],"categories_nodes":[],"categories_segments":[],"categories_sizes":[],"default_left":[0,0,0,0,0],"id":49,"left_children":[1,3,-1,-1,-1],"loss_changes":[9.651649E-2,1.6796221E-1,0E0,0E0,0E0],"parents":[2147483647,0,0,1,1],"right_children":[2,4,-1,-1,-1],"split_conditions":[7.507453E-1,2.3239334E0,-4.4922933E-2,8.090584E-2,-3.7876587E-2],"split_indices":[102,106,0,0,0],"split_type":[0,0,0,0,0],"sum_hessian":[3.871316E0,2.5731266E0,1.2981894E0,1.4791168E0,1.0940098E0],"tree_param":{"num_deleted":"0","num_feature":"143","num_nodes":"5","size_leaf_vector":"1"}},{"base_weights":[8.680433E-3,4.6852887E-2,-1.0155369E-1,-6.627072E-2,2.4627622E-2],"categories":[],"categories_nodes":[],"categories_segments":[],"categories_sizes":[],"default_left":[0,0,0,0,0],"id":50,"left_children":[1,-1,3,-1,-1],"loss_changes":[9.392487E-2,0E0,9.164016E-2,0E0,0E0],"parents":[2147483647,0,0,2,2],"right_children":[2,-1,4,-1,-1],"split_conditions":[3.020395E-1,4.6852887E-2,2.491756E-1,-6.627072E-2,2.4627622E-2],"split_indices":[92,0,56,0,0],"split_type":[0,0,0,0,0],"sum_hessian":[3.801293E0,1.4476005E0,2.3536923E0,1.3036181E0,1.0500743E0],"tree_param":{"num_deleted":"0","num_feature":"143","num_nodes":"5","size_leaf_vector":"1"}},{"base_weights":[7.1183043E-3,-4.9153525E-2,9.73517E-2,7.5237766E-2,-4.2205263E-2],"categories":[],"categories_nodes":[],"categories_segments":[],"categories_sizes":[],"default_left":[0,0,0,0,0],"id":51,"left_children":[1,-1,3,-1,-1],"loss_changes":[8.924799E-2,0E0,1.7178294E-1,0E0,0E0],"parents":[2147483647,0,0,2,2],"right_children":[2,-1,4,-1,-1],"split_conditions":[3.875502E-1,-4.9153525E-2,-9.77353E-1,7.5237766E-2,-4.2205263E-2],"split_indices":[142,0,76,0,0],"split_type":[0,0,0,0,0],"sum_hessian":[3.7513616E0,1.014126E0,2.7372355E0,1.6317796E0,1.1054561E0],"tree_param":{"num_deleted":"0","num_feature":"143","num_nodes":"5","size_leaf_vector":"1"}},{"base_weights":[1.8569803E-3,1.0012243E-1,-4.5970976E-2,-4.053202E-2,8.496465E-2],"categories":[],"categories_nodes":[],"categories_segments":[],"categories_sizes":[],"default_left":[0,0,0,0,0],"id":52,"left_children":[1,3,-1,-1,-1],"loss_changes":[8.668053E-2,1.8772238E-1,0E0,0E0,0E0],"parents":[2147483647,0,0,1,1],"right_children":[2,4,-1,-1,-1],"split_conditions":[-2.2349598E-1,-4.0849832E-1,-4.5970976E-2,-4.053202E-2,8.496465E-2],"split_indices":[124,126,0,0,0],"split_type":[0,0,0,0,0],"sum_hessian":[3.680874E0,2.4702141E0,1.21066E0,1.1958853E0,1.2743288E0],"tree_param":{"num_deleted":"0","num_feature":"143","num_nodes":"5","size_leaf_vector":"1"}},{"base_weights":[1.3362981E-3,4.6769027E-2,-8.972081E-2,-7.4026145E-2,2.9597206E-2],"categories":[],"categories_nodes":[],"categories_segments":[],"categories_sizes":[],"default_left":[0,0,0,0,0],"id":53,"left_children":[1,-1,3,-1,-1],"loss_changes":[7.883534E-2,0E0,1.2889194E-1,0E0,0E0],"parents":[2147483647,0,0,2,2],"right_children":[2,-1,4,-1,-1],"split_conditions":[9.061646E-1,4.6769027E-2,8.601662E-1,-7.4026145E-2,2.9597206E-2],"split_indices":[105,0,103,0,0],"split_type":[0,0,0,0,0],"sum_hessian":[3.6077125E0,1.0734909E0,2.5342216E0,1.2130945E0,1.3211272E0],"tree_param":{"num_deleted":"0","num_feature":"143","num_nodes":"5","size_leaf_vector":"1"}},{"base_weights":[1.2691392E-3,-9.725136E-2,4.227138E-2,-7.096461E-2,2.560177E-2],"categories":[],"categories_nodes":[],"categories_segments":[],"categories_sizes":[],"default_left":[0,0,0,0,0],"id":54,"left_children":[1,3,-1,-1,-1],"loss_changes":[7.635679E-2,1.0315224E-1,0E0,0E0,0E0],"parents":[2147483647,0,0,1,1],"right_children":[2,4,-1,-1,-1],"split_conditions":[7.909597E-1,7.450134E-2,4.227138E-2,-7.096461E-2,2.560177E-2],"split_indices":[79,140,0,0,0],"split_type":[0,0,0,0,0],"sum_hessian":[3.5543234E0,2.2619364E0,1.2923869E0,1.115451E0,1.1464856E0],"tree_param":{"num_deleted":"0","num_feature":"143","num_nodes":"5","size_leaf_vector":"1"}},{"base_weights":[3.7235444E-5,4.0499866E-2,-1.1025754E-1,1.7310811E-2,-6.706778E-2],"categories":[],"categories_nodes":[],"categories_segments":[],"categories_sizes":[],"default_left":[0,0,0,0,0],"id":55,"left_children":[1,-1,3,-1,-1],"loss_changes":[8.198647E-2,0E0,7.058131E-2,0E0,0E0],"parents":[2147483647,0,0,2,2],"right_children":[2,-1,4,-1,-1],"split_conditions":[3.5595527E-1,4.0499866E-2,6.1714303E-1,1.7310811E-2,-6.706778E-2],"split_indices":[92,0,111,0,0],"split_type":[0,0,0,0,0],"sum_hessian":[3.5078185E0,1.4767741E0,2.0310442E0,1.0158495E0,1.0151949E0],"tree_param":{"num_deleted":"0","num_feature":"143","num_nodes":"5","size_leaf_vector":"1"}},{"base_weights":[-2.1857107E-3,3.2487005E-2,-3.8188033E-2],"categories":[],"categories_nodes":[],"categories_segments":[],"categories_sizes":[],"default_left":[0,0,0],"id":56,"left_children":[1,-1,-1],"loss_changes":[7.553045E-2,0E0,0E0],"parents":[2147483647,0,0],"right_children":[2,-1,-1],"split_conditions":[-2.3366506E-1,3.2487005E-2,-3.8188033E-2],"split_indices":[113,0,0],"split_type":[0,0,0],"sum_hessian":[3.4674191E0,1.9127772E0,1.5546421E0],"tree_param":{"num_deleted":"0","num_feature":"143","num_nodes":"3","size_leaf_vector":"1"}},{"base_weights":[-2.830704E-3,4.3521583E-2,-9.441957E-2,-6.724533E-2,1.9131307E-2],"categories":[],"categories_nodes":[],"categories_segments":[],"categories_sizes":[],"default_left":[0,0,0,0,0],"id":57,"left_children":[1,-1,3,-1,-1],"loss_changes":[7.394455E-2,0E0,8.309313E-2,0E0,0E0],"parents":[2147483647,0,0,2,2],"right_children":[2,-1,4,-1,-1],"split_conditions":[-3.833865E-1,4.3521583E-2,6.826704E-1,-6.724533E-2,1.9131307E-2],"split_indices":[59,0,79,0,0],"split_type":[0,0,0,0,0],"sum_hessian":[3.447502E0,1.0951107E0,2.3523912E0,1.0633627E0,1.2890284E0],"tree_param":{"num_deleted":"0","num_feature":"143","num_nodes":"5","size_leaf_vector":"1"}},{"base_weights":[-3.187978E-3,8.970475E-2,-4.2302962E-2,6.495908E-2,-2.9175496E-2],"categories":[],"categories_nodes":[],"categories_segments":[],"categories_sizes":[],"default_left":[0,0,0,0,0],"id":58,"left_children":[1,3,-1,-1,-1],"loss_changes":[6.906188E-2,9.796144E-2,0E0,0E0,0E0],"parents":[2147483647,0,0,1,1],"right_children":[2,4,-1,-1,-1],"split_conditions":[7.507453E-1,2.2876248E0,-4.2302962E-2,6.495908E-2,-2.9175496E-2],"split_indices":[102,106,0,0,0],"split_type":[0,0,0,0,0],"sum_hessian":[3.4063234E0,2.2433908E0,1.1629325E0,1.2423993E0,1.0009915E0],"tree_param":{"num_deleted":"0","num_feature":"143","num_nodes":"5","size_leaf_vector":"1"}},{"base_weights":[-3.6076854E-3,8.925825E-2,-3.963373E-2,-3.7073925E-2,8.072166E-2],"categories":[],"categories_nodes":[],"categories_segments":[],"categories_sizes":[],"default_left":[0,0,0,0,0],"id":59,"left_children":[1,3,-1,-1,-1],"loss_changes":[6.3843764E-2,1.5299335E-1,0E0,0E0,0E0],"parents":[2147483647,0,0,1,1],"right_children":[2,4,-1,-1,-1],"split_conditions":[-2.3226464E-1,-4.0849832E-1,-3.963373E-2,-3.7073925E-2,8.072166E-2],"split_indices":[124,126,0,0,0],"split_type":[0,0,0,0,0],"sum_hessian":[3.3617296E0,2.1287584E0,1.2329712E0,1.1180758E0,1.0106826E0],"tree_param":{"num_deleted":"0","num_feature":"143","num_nodes":"5","size_leaf_vector":"1"}},{"base_weights":[-1.332444E-3,-3.3678226E-2,3.2598127E-2],"categories":[],"categories_nodes":[],"categories_segments":[],"categories_sizes":[],"default_left":[0,0,0],"id":60,"left_children":[1,-1,-1],"loss_changes":[6.470826E-2,0E0,0E0],"parents":[2147483647,0,0],"right_children":[2,-1,-1],"split_conditions":[7.67554E0,-3.3678226E-2,3.2598127E-2],"split_indices":[104,0,0],"split_type":[0,0,0],"sum_hessian":[3.3036299E0,1.6345551E0,1.6690748E0],"tree_param":{"num_deleted":"0","num_feature":"143","num_nodes":"3","size_leaf_vector":"1"}},{"base_weights":[-1.189417E-3,3.8832776E-2,-9.2574306E-2,-6.610992E-2,2.6403626E-2],"categories":[],"categories_nodes":[],"categories_segments":[],"categories_sizes":[],"default_left":[0,0,0,0,0],"id":61,"left_children":[1,-1,3,-1,-1],"loss_changes":[6.317003E-2,0E0,9.10719E-2,0E0,0E0],"parents":[2147483647,0,0,2,2],"right_children":[2,-1,4,-1,-1],"split_conditions":[9.2903066E-1,3.8832776E-2,9.106759E-1,-6.610992E-2,2.6403626E-2],"split_indices":[105,0,93,0,0],"split_type":[0,0,0,0,0],"sum_hessian":[3.2878098E0,1.1818851E0,2.1059248E0,1.1042321E0,1.0016928E0],"tree_param":{"num_deleted":"0","num_feature":"143","num_nodes":"5","size_leaf_vector":"1"}},{"base_weights":[-1.2010904E-3,3.3289596E-2,-3.8058173E-2],"categories":[],"categories_nodes":[],"categories_segments":[],"categories_sizes":[],"default_left":[0,0,0],"id":62,"left_children":[1,-1,-1],"loss_changes":[7.393637E-2,0E0,0E0],"parents":[2147483647,0,0],"right_children":[2,-1,-1],"split_conditions":[-2.3366506E-1,3.3289596E-2,-3.8058173E-2],"split_indices":[113,0,0],"split_type":[0,0,0],"sum_hessian":[3.2469113E0,1.7773479E0,1.4695634E0],"tree_param":{"num_deleted":"0","num_feature":"143","num_nodes":"3","size_leaf_vector":"1"}},{"base_weights":[-1.9822577E-3,8.789377E-2,-4.1751012E-2,-2.675827E-2,6.897622E-2],"categories":[],"categories_nodes":[],"categories_segments":[],"categories_sizes":[],"default_left":[0,0,0,0,0],"id":63,"left_children":[1,3,-1,-1,-1],"loss_changes":[6.43564E-2,1.00163445E-1,0E0,0E0,0E0],"parents":[2147483647,0,0,1,1],"right_children":[2,4,-1,-1,-1],"split_conditions":[5.030719E-1,4.8926282E-1,-4.1751012E-2,-2.675827E-2,6.897622E-2],"split_indices":[81,142,0,0,0],"split_type":[0,0,0,0,0],"sum_hessian":[3.2274678E0,2.1670697E0,1.0603979E0,1.1300476E0,1.0370221E0],"tree_param":{"num_deleted":"0","num_feature":"143","num_nodes":"5","size_leaf_vector":"1"}},{"base_weights":[-1.1142102E-3,3.849472E-2,-2.8991768E-2],"categories":[],"categories_nodes":[],"categories_segments":[],"categories_sizes":[],"default_left":[0,0,0],"id":64,"left_children":[1,-1,-1],"loss_changes":[6.4123355E-2,0E0,0E0],"parents":[2147483647,0,0],"right_children":[2,-1,-1],"split_conditions":[3.020395E-1,3.849472E-2,-2.8991768E-2],"split_indices":[92,0,0],"split_type":[0,0,0],"sum_hessian":[3.1834257E0,1.2060461E0,1.9773794E0],"tree_param":{"num_deleted":"0","num_feature":"143","num_nodes":"3","size_leaf_vector":"1"}},{"base_weights":[1.5198783E-3,-3.302664E-2,3.2025483E-2],"categories":[],"categories_nodes":[],"categories_segments":[],"categories_sizes":[],"default_left":[0,0,0],"id":65,"left_children":[1,-1,-1],"loss_changes":[6.0677506E-2,0E0,0E0],"parents":[2147483647,0,0],"right_children":[2,-1,-1],"split_conditions":[1.9179411E-1,-3.302664E-2,3.2025483E-2],"split_indices":[112,0,0],"split_type":[0,0,0],"sum_hessian":[3.1657128E0,1.5139079E0,1.651805E0],"tree_param":{"num_deleted":"0","num_feature":"143","num_nodes":"3","size_leaf_vector":"1"}},{"base_weights":[8.259261E-4,-9.086293E-2,3.950674E-2,-6.0993128E-2,1.9748008E-2],"categories":[],"categories_nodes":[],"categories_segments":[],"categories_sizes":[],"default_left":[0,0,0,0,0],"id":66,"left_children":[1,3,-1,-1,-1],"loss_changes":[6.1767012E-2,6.681046E-2,0E0,0E0,0E0],"parents":[2147483647,0,0,1,1],"right_children":[2,4,-1,-1,-1],"split_conditions":[7.909597E-1,7.450134E-2,3.950674E-2,-6.0993128E-2,1.9748008E-2],"split_indices":[79,140,0,0,0],"split_type":[0,0,0,0,0],"sum_hessian":[3.1505625E0,2.032302E0,1.1182606E0,1.0099679E0,1.0223341E0],"tree_param":{"num_deleted":"0","num_feature":"143","num_nodes":"5","size_leaf_vector":"1"}},{"base_weights":[5.1067356E-5,-3.9959393E-2,2.8331025E-2],"categories":[],"categories_nodes":[],"categories_segments":[],"categories_sizes":[],"default_left":[0,0,0],"id":67,"left_children":[1,-1,-1],"loss_changes":[6.4358406E-2,0E0,0E0],"parents":[2147483647,0,0],"right_children":[2,-1,-1],"split_conditions":[1.4392805E0,-3.9959393E-2,2.8331025E-2],"split_indices":[107,0,0],"split_type":[0,0,0],"sum_hessian":[3.1170733E0,1.1219499E0,1.9951235E0],"tree_param":{"num_deleted":"0","num_feature":"143","num_nodes":"3","size_leaf_vector":"1"}},{"base_weights":[-2.824033E-3,-3.9362475E-2,2.70091E-2],"categories":[],"categories_nodes":[],"categories_segments":[],"categories_sizes":[],"default_left":[0,0,0],"id":68,"left_children":[1,-1,-1],"loss_changes":[6.0689818E-2,0E0,0E0],"parents":[2147483647,0,0],"right_children":[2,-1,-1],"split_conditions":[1.3626818E-1,-3.9362475E-2,2.70091E-2],"split_indices":[56,0,0],"split_type":[0,0,0],"sum_hessian":[3.1000717E0,1.1277478E0,1.9723239E0],"tree_param":{"num_deleted":"0","num_feature":"143","num_nodes":"3","size_leaf_vector":"1"}},{"base_weights":[-5.033468E-3,3.5934966E-2,-2.7361086E-2],"categories":[],"categories_nodes":[],"categories_segments":[],"categories_sizes":[],"default_left":[0,0,0],"id":69,"left_children":[1,-1,-1],"loss_changes":[5.485401E-2,0E0,0E0],"parents":[2147483647,0,0],"right_children":[2,-1,-1],"split_conditions":[6.219281E-1,3.5934966E-2,-2.7361086E-2],"split_indices":[20,0,0],"split_type":[0,0,0],"sum_hessian":[3.0843718E0,1.1003896E0,1.9839822E0],"tree_param":{"num_deleted":"0","num_feature":"143","num_nodes":"3","size_leaf_vector":"1"}},{"base_weights":[-1.4146467E-3,3.928981E-2,-8.992849E-2,1.8297594E-2,-5.836448E-2],"categories":[],"categories_nodes":[],"categories_segments":[],"categories_sizes":[],"default_left":[0,0,0,0,0],"id":70,"left_children":[1,-1,3,-1,-1],"loss_changes":[5.947004E-2,0E0,5.974091E-2,0E0,0E0],"parents":[2147483647,0,0,2,2],"right_children":[2,-1,4,-1,-1],"split_conditions":[5.271931E-1,3.928981E-2,6.219281E-1,1.8297594E-2,-5.836448E-2],"split_indices":[111,0,20,0,0],"split_type":[0,0,0,0,0],"sum_hessian":[3.0701833E0,1.038059E0,2.0321243E0,1.0026921E0,1.0294322E0],"tree_param":{"num_deleted":"0","num_feature":"143","num_nodes":"5","size_leaf_vector":"1"}},{"base_weights":[-1.2875536E-3,-3.1054921E-2,3.3040825E-2],"categories":[],"categories_nodes":[],"categories_segments":[],"categories_sizes":[],"default_left":[0,0,0],"id":71,"left_children":[1,-1,-1],"loss_changes":[5.7401516E-2,0E0,0E0],"parents":[2147483647,0,0],"right_children":[2,-1,-1],"split_conditions":[8.695118E-1,-3.1054921E-2,3.3040825E-2],"split_indices":[82,0,0],"split_type":[0,0,0],"sum_hessian":[3.0384338E0,1.6216079E0,1.4168259E0],"tree_param":{"num_deleted":"0","num_feature":"143","num_nodes":"3","size_leaf_vector":"1"}},{"base_weights":[-4.0594907E-4,2.7360657E-2,-3.733133E-2],"categories":[],"categories_nodes":[],"categories_segments":[],"categories_sizes":[],"default_left":[0,0,0],"id":72,"left_children":[1,-1,-1],"loss_changes":[5.7070047E-2,0E0,0E0],"parents":[2147483647,0,0],"right_children":[2,-1,-1],"split_conditions":[-2.3226464E-1,2.7360657E-2,-3.733133E-2],"split_indices":[124,0,0],"split_type":[0,0,0],"sum_hessian":[3.0239174E0,1.8915402E0,1.1323773E0],"tree_param":{"num_deleted":"0","num_feature":"143","num_nodes":"3","size_leaf_vector":"1"}},{"base_weights":[-2.7914098E-3,-3.6467616E-2,2.4668418E-2],"categories":[],"categories_nodes":[],"categories_segments":[],"categories_sizes":[],"default_left":[0,0,0],"id":73,"left_children":[1,-1,-1],"loss_changes":[5.047353E-2,0E0,0E0],"parents":[2147483647,0,0],"right_children":[2,-1,-1],"split_conditions":[4.8285258E-1,-3.6467616E-2,2.4668418E-2],"split_indices":[142,0,0],"split_type":[0,0,0],"sum_hessian":[3.0087016E0,1.0759234E0,1.9327781E0],"tree_param":{"num_deleted":"0","num_feature":"143","num_nodes":"3","size_leaf_vector":"1"}},{"base_weights":[-4.9350276E-3,-3.402756E-2,3.0348163E-2],"categories":[],"categories_nodes":[],"categories_segments":[],"categories_sizes":[],"default_left":[0,0,0],"id":74,"left_children":[1,-1,-1],"loss_changes":[5.7461567E-2,0E0,0E0],"parents":[2147483647,0,0],"right_children":[2,-1,-1],"split_conditions":[1.9179411E-1,-3.402756E-2,3.0348163E-2],"split_indices":[112,0,0],"split_type":[0,0,0],"sum_hessian":[2.9953182E0,1.4467893E0,1.5485289E0],"tree_param":{"num_deleted":"0","num_feature":"143","num_nodes":"3","size_leaf_vector":"1"}},{"base_weights":[-4.398495E-3,3.4845736E-2,-2.6452696E-2],"categories":[],"categories_nodes":[],"categories_segments":[],"categories_sizes":[],"default_left":[0,0,0],"id":75,"left_children":[1,-1,-1],"loss_changes":[5.044631E-2,0E0,0E0],"parents":[2147483647,0,0],"right_children":[2,-1,-1],"split_conditions":[9.2903066E-1,3.4845736E-2,-2.6452696E-2],"split_indices":[105,0,0],"split_type":[0,0,0],"sum_hessian":[2.9808733E0,1.0637488E0,1.9171245E0],"tree_param":{"num_deleted":"0","num_feature":"143","num_nodes":"3","size_leaf_vector":"1"}},{"base_weights":[-9.597357E-4,-3.0812E-2,2.9587306E-2],"categories":[],"categories_nodes":[],"categories_segments":[],"categories_sizes":[],"default_left":[0,0,0],"id":76,"left_children":[1,-1,-1],"loss_changes":[5.032405E-2,0E0,0E0],"parents":[2147483647,0,0],"right_children":[2,-1,-1],"split_conditions":[7.67554E0,-3.0812E-2,2.9587306E-2],"split_indices":[104,0,0],"split_type":[0,0,0],"sum_hessian":[2.9669542E0,1.4520309E0,1.5149233E0],"tree_param":{"num_deleted":"0","num_feature":"143","num_nodes":"3","size_leaf_vector":"1"}},{"base_weights":[-9.842578E-4,2.769638E-2,-3.1335507E-2],"categories":[],"categories_nodes":[],"categories_segments":[],"categories_sizes":[],"default_left":[0,0,0],"id":77,"left_children":[1,-1,-1],"loss_changes":[4.782091E-2,0E0,0E0],"parents":[2147483647,0,0],"right_children":[2,-1,-1],"split_conditions":[-2.3366506E-1,2.769638E-2,-3.1335507E-2],"split_indices":[113,0,0],"split_type":[0,0,0],"sum_hessian":[2.954576E0,1.610224E0,1.344352E0],"tree_param":{"num_deleted":"0","num_feature":"143","num_nodes":"3","size_leaf_vector":"1"}},{"base_weights":[-1.6197098E-3,3.8156513E-2,-2.6635714E-2],"categories":[],"categories_nodes":[],"categories_segments":[],"categories_sizes":[],"default_left":[0,0,0],"id":78,"left_children":[1,-1,-1],"loss_changes":[5.554884E-2,0E0,0E0],"parents":[2147483647,0,0],"right_children":[2,-1,-1],"split_conditions":[5.271931E-1,3.8156513E-2,-2.6635714E-2],"split_indices":[111,0,0],"split_type":[0,0,0],"sum_hessian":[2.9417148E0,1.0019495E0,1.9397651E0],"tree_param":{"num_deleted":"0","num_feature":"143","num_nodes":"3","size_leaf_vector":"1"}},{"base_weights":[1.8188064E-3,2.6632601E-2,-3.478854E-2],"categories":[],"categories_nodes":[],"categories_segments":[],"categories_sizes":[],"default_left":[0,0,0],"id":79,"left_children":[1,-1,-1],"loss_changes":[5.0513443E-2,0E0,0E0],"parents":[2147483647,0,0],"right_children":[2,-1,-1],"split_conditions":[-2.3226464E-1,2.6632601E-2,-3.478854E-2],"split_indices":[124,0,0],"split_type":[0,0,0],"sum_hessian":[2.9269388E0,1.8254719E0,1.1014669E0],"tree_param":{"num_deleted":"0","num_feature":"143","num_nodes":"3","size_leaf_vector":"1"}},{"base_weights":[-8.199995E-4,3.4718104E-2,-2.643014E-2],"categories":[],"categories_nodes":[],"categories_segments":[],"categories_sizes":[],"default_left":[0,0,0],"id":80,"left_children":[1,-1,-1],"loss_changes":[5.000349E-2,0E0,0E0],"parents":[2147483647,0,0],"right_children":[2,-1,-1],"split_conditions":[3.020395E-1,3.4718104E-2,-2.643014E-2],"split_indices":[92,0,0],"split_type":[0,0,0],"sum_hessian":[2.9133708E0,1.1079656E0,1.8054053E0],"tree_param":{"num_deleted":"0","num_feature":"143","num_nodes":"3","size_leaf_vector":"1"}},{"base_weights":[1.564722E-3,2.793767E-2,-3.0386647E-2],"categories":[],"categories_nodes":[],"categories_segments":[],"categories_sizes":[],"default_left":[0,0,0],"id":81,"left_children":[1,-1,-1],"loss_changes":[4.6156567E-2,0E0,0E0],"parents":[2147483647,0,0],"right_children":[2,-1,-1],"split_conditions":[-2.3366506E-1,2.793767E-2,-3.0386647E-2],"split_indices":[113,0,0],"split_type":[0,0,0],"sum_hessian":[2.899607E0,1.5840538E0,1.3155532E0],"tree_param":{"num_deleted":"0","num_feature":"143","num_nodes":"3","size_leaf_vector":"1"}},{"base_weights":[4.6690542E-4,2.7583217E-2,-3.1862218E-2],"categories":[],"categories_nodes":[],"categories_segments":[],"categories_sizes":[],"default_left":[0,0,0],"id":82,"left_children":[1,-1,-1],"loss_changes":[4.769715E-2,0E0,0E0],"parents":[2147483647,0,0],"right_children":[2,-1,-1],"split_conditions":[6.197901E-1,2.7583217E-2,-3.1862218E-2],"split_indices":[111,0,0],"split_type":[0,0,0],"sum_hessian":[2.8871696E0,1.6286383E0,1.2585313E0],"tree_param":{"num_deleted":"0","num_feature":"143","num_nodes":"3","size_leaf_vector":"1"}},{"base_weights":[-7.817043E-4,-3.5218064E-2,2.511718E-2],"categories":[],"categories_nodes":[],"categories_segments":[],"categories_sizes":[],"default_left":[0,0,0],"id":83,"left_children":[1,-1,-1],"loss_changes":[4.8015475E-2,0E0,0E0],"parents":[2147483647,0,0],"right_children":[2,-1,-1],"split_conditions":[1.3626818E-1,-3.5218064E-2,2.511718E-2],"split_indices":[56,0,0],"split_type":[0,0,0],"sum_hessian":[2.875121E0,1.0445437E0,1.8305773E0],"tree_param":{"num_deleted":"0","num_feature":"143","num_nodes":"3","size_leaf_vector":"1"}},{"base_weights":[-3.1805506E-3,-3.6268048E-2,2.4817232E-2],"categories":[],"categories_nodes":[],"categories_segments":[],"categories_sizes":[],"default_left":[0,0,0],"id":84,"left_children":[1,-1,-1],"loss_changes":[4.9060147E-2,0E0,0E0],"parents":[2147483647,0,0],"right_children":[2,-1,-1],"split_conditions":[1.4392805E0,-3.6268048E-2,2.4817232E-2],"split_indices":[107,0,0],"split_type":[0,0,0],"sum_hessian":[2.8626385E0,1.0358884E0,1.82675E0],"tree_param":{"num_deleted":"0","num_feature":"143","num_nodes":"3","size_leaf_vector":"1"}},{"base_weights":[-5.229018E-3,3.1163856E-2,-2.5744116E-2],"categories":[],"categories_nodes":[],"categories_segments":[],"categories_sizes":[],"default_left":[0,0,0],"id":85,"left_children":[1,-1,-1],"loss_changes":[4.276182E-2,0E0,0E0],"parents":[2147483647,0,0],"right_children":[2,-1,-1],"split_conditions":[-9.9999887E-1,3.1163856E-2,-2.5744116E-2],"split_indices":[52,0,0],"split_type":[0,0,0],"sum_hessian":[2.849601E0,1.0877532E0,1.7618479E0],"tree_param":{"num_deleted":"0","num_feature":"143","num_nodes":"3","size_leaf_vector":"1"}},{"base_weights":[-2.251842E-3,-2.7301634E-2,2.8301494E-2],"categories":[],"categories_nodes":[],"categories_segments":[],"categories_sizes":[],"default_left":[0,0,0],"id":86,"left_children":[1,-1,-1],"loss_changes":[4.1483596E-2,0E0,0E0],"parents":[2147483647,0,0],"right_children":[2,-1,-1],"split_conditions":[-1.5343542E-1,-2.7301634E-2,2.8301494E-2],"split_indices":[63,0,0],"split_type":[0,0,0],"sum_hessian":[2.8375547E0,1.5088966E0,1.3286581E0],"tree_param":{"num_deleted":"0","num_feature":"143","num_nodes":"3","size_leaf_vector":"1"}},{"base_weights":[-1.3173417E-3,-2.9318752E-2,2.7214868E-2],"categories":[],"categories_nodes":[],"categories_segments":[],"categories_sizes":[],"default_left":[0,0,0],"id":87,"left_children":[1,-1,-1],"loss_changes":[4.281875E-2,0E0,0E0],"parents":[2147483647,0,0],"right_children":[2,-1,-1],"split_conditions":[1.9179411E-1,-2.9318752E-2,2.7214868E-2],"split_indices":[112,0,0],"split_type":[0,0,0],"sum_hessian":[2.8265135E0,1.3501976E0,1.4763161E0],"tree_param":{"num_deleted":"0","num_feature":"143","num_nodes":"3","size_leaf_vector":"1"}},{"base_weights":[-1.4784805E-3,-3.439808E-2,2.4300301E-2],"categories":[],"categories_nodes":[],"categories_segments":[],"categories_sizes":[],"default_left":[0,0,0],"id":88,"left_children":[1,-1,-1],"loss_changes":[4.490797E-2,0E0,0E0],"parents":[2147483647,0,0],"right_children":[2,-1,-1],"split_conditions":[4.8285258E-1,-3.439808E-2,2.4300301E-2],"split_indices":[142,0,0],"split_type":[0,0,0],"sum_hessian":[2.8157158E0,1.0224712E0,1.7932446E0],"tree_param":{"num_deleted":"0","num_feature":"143","num_nodes":"3","size_leaf_vector":"1"}},{"base_weights":[-3.7090925E-3,2.476111E-2,-3.0487806E-2],"categories":[],"categories_nodes":[],"categories_segments":[],"categories_sizes":[],"default_left":[0,0,0],"id":89,"left_children":[1,-1,-1],"loss_changes":[4.051063E-2,0E0,0E0],"parents":[2147483647,0,0],"right_children":[2,-1,-1],"split_conditions":[4.8726892E-1,2.476111E-2,-3.0487806E-2],"split_indices":[92,0,0],"split_type":[0,0,0],"sum_hessian":[2.8037755E0,1.5742407E0,1.2295349E0],"tree_param":{"num_deleted":"0","num_feature":"143","num_nodes":"3","size_leaf_vector":"1"}},{"base_weights":[-4.12303E-3,2.50458E-2,-2.9049294E-2],"categories":[],"categories_nodes":[],"categories_segments":[],"categories_sizes":[],"default_left":[0,0,0],"id":90,"left_children":[1,-1,-1],"loss_changes":[3.888817E-2,0E0,0E0],"parents":[2147483647,0,0],"right_children":[2,-1,-1],"split_conditions":[-3.0978912E-1,2.50458E-2,-2.9049294E-2],"split_indices":[75,0,0],"split_type":[0,0,0],"sum_hessian":[2.7926545E0,1.486955E0,1.3056995E0],"tree_param":{"num_deleted":"0","num_feature":"143","num_nodes":"3","size_leaf_vector":"1"}},{"base_weights":[-3.9590043E-3,2.2914987E-2,-3.2778542E-2],"categories":[],"categories_nodes":[],"categories_segments":[],"categories_sizes":[],"default_left":[0,0,0],"id":91,"left_children":[1,-1,-1],"loss_changes":[4.034236E-2,0E0,0E0],"parents":[2147483647,0,0],"right_children":[2,-1,-1],"split_conditions":[-2.3226464E-1,2.2914987E-2,-3.2778542E-2],"split_indices":[124,0,0],"split_type":[0,0,0],"sum_hessian":[2.7819822E0,1.7337924E0,1.0481899E0],"tree_param":{"num_deleted":"0","num_feature":"143","num_nodes":"3","size_leaf_vector":"1"}},{"base_weights":[-5.4098023E-3,-3.463315E-2,2.4407601E-2],"categories":[],"categories_nodes":[],"categories_segments":[],"categories_sizes":[],"default_left":[0,0,0],"id":92,"left_children":[1,-1,-1],"loss_changes":[4.539661E-2,0E0,0E0],"parents":[2147483647,0,0],"right_children":[2,-1,-1],"split_conditions":[-3.813092E-1,-3.463315E-2,2.4407601E-2],"split_indices":[122,0,0],"split_type":[0,0,0],"sum_hessian":[2.771073E0,1.0760353E0,1.6950378E0],"tree_param":{"num_deleted":"0","num_feature":"143","num_nodes":"3","size_leaf_vector":"1"}},{"base_weights":[-6.53792E-3,2.3025885E-2,-3.1997506E-2],"categories":[],"categories_nodes":[],"categories_segments":[],"categories_sizes":[],"default_left":[0,0,0],"id":93,"left_children":[1,-1,-1],"loss_changes":[3.953295E-2,0E0,0E0],"parents":[2147483647,0,0],"right_children":[2,-1,-1],"split_conditions":[6.2353444E-1,2.3025885E-2,-3.1997506E-2],"split_indices":[111,0,0],"split_type":[0,0,0],"sum_hessian":[2.7589839E0,1.633477E0,1.1255069E0],"tree_param":{"num_deleted":"0","num_feature":"143","num_nodes":"3","size_leaf_vector":"1"}},{"base_weights":[-6.995432E-3,-3.2884665E-2,2.3714479E-2],"categories":[],"categories_nodes":[],"categories_segments":[],"categories_sizes":[],"default_left":[0,0,0],"id":94,"left_children":[1,-1,-1],"loss_changes":[4.1767273E-2,0E0,0E0],"parents":[2147483647,0,0],"right_children":[2,-1,-1],"split_conditions":[6.34794E-1,-3.2884665E-2,2.3714479E-2],"split_indices":[79,0,0],"split_type":[0,0,0],"sum_hessian":[2.7489297E0,1.1287602E0,1.6201695E0],"tree_param":{"num_deleted":"0","num_feature":"143","num_nodes":"3","size_leaf_vector":"1"}},{"base_weights":[-7.380843E-3,2.4479093E-2,-3.065653E-2],"categories":[],"categories_nodes":[],"categories_segments":[],"categories_sizes":[],"default_left":[0,0,0],"id":95,"left_children":[1,-1,-1],"loss_changes":[3.9868798E-2,0E0,0E0],"parents":[2147483647,0,0],"right_children":[2,-1,-1],"split_conditions":[-2.3366506E-1,2.4479093E-2,-3.065653E-2],"split_indices":[113,0,0],"split_type":[0,0,0],"sum_hessian":[2.7377174E0,1.4841603E0,1.2535571E0],"tree_param":{"num_deleted":"0","num_feature":"143","num_nodes":"3","size_leaf_vector":"1"}},{"base_weights":[-6.8493383E-3,-2.8097339E-2,2.6790021E-2],"categories":[],"categories_nodes":[],"categories_segments":[],"categories_sizes":[],"default_left":[0,0,0],"id":96,"left_children":[1,-1,-1],"loss_changes":[3.9470244E-2,0E0,0E0],"parents":[2147483647,0,0],"right_children":[2,-1,-1],"split_conditions":[8.695118E-1,-2.8097339E-2,2.6790021E-2],"split_indices":[82,0,0],"split_type":[0,0,0],"sum_hessian":[2.7268677E0,1.4466627E0,1.2802049E0],"tree_param":{"num_deleted":"0","num_feature":"143","num_nodes":"3","size_leaf_vector":"1"}},{"base_weights":[-5.1634503E-3,-2.8746294E-2,2.500768E-2],"categories":[],"categories_nodes":[],"categories_segments":[],"categories_sizes":[],"default_left":[0,0,0],"id":97,"left_children":[1,-1,-1],"loss_changes":[3.7814893E-2,0E0,0E0],"parents":[2147483647,0,0],"right_children":[2,-1,-1],"split_conditions":[1.9179411E-1,-2.8746294E-2,2.500768E-2],"split_indices":[112,0,0],"split_type":[0,0,0],"sum_hessian":[2.716703E0,1.3014317E0,1.4152712E0],