{"learner":{"attributes":{"scikit_learn":"{\"_estimator_type\": \"classifier\"}"},"feature_names":["deep_ela.large_50d_v1.X0","deep_ela.large_50d_v1.X1","deep_ela.large_50d_v1.X2","deep_ela.large_50d_v1.X3","deep_ela.large_50d_v1.X4","deep_ela.large_50d_v1.X5","deep_ela.large_50d_v1.X6","deep_ela.large_50d_v1.X7","deep_ela.large_50d_v1.X8","deep_ela.large_50d_v1.X9","deep_ela.large_50d_v1.X10","deep_ela.large_50d_v1.X11","deep_ela.large_50d_v1.X12","deep_ela.large_50d_v1.X13","deep_ela.large_50d_v1.X14","deep_ela.large_50d_v1.X15","deep_ela.large_50d_v1.X16","deep_ela.large_50d_v1.X17","deep_ela.large_50d_v1.X18","deep_ela.large_50d_v1.X19","deep_ela.large_50d_v1.X20","deep_ela.large_50d_v1.X21","deep_ela.large_50d_v1.X22","deep_ela.large_50d_v1.X23","deep_ela.large_50d_v1.X24","deep_ela.large_50d_v1.X25","deep_ela.large_50d_v1.X26","deep_ela.large_50d_v1.X27","deep_ela.large_50d_v1.X28","deep_ela.large_50d_v1.X29","deep_ela.large_50d_v1.X30","deep_ela.large_50d_v1.X31","deep_ela.large_50d_v1.X32","deep_ela.large_50d_v1.X33","deep_ela.large_50d_v1.X34","deep_ela.large_50d_v1.X35","deep_ela.large_50d_v1.X36","deep_ela.large_50d_v1.X37","deep_ela.large_50d_v1.X38","deep_ela.large_50d_v1.X39","deep_ela.large_50d_v1.X40","deep_ela.large_50d_v1.X41","deep_ela.large_50d_v1.X42","deep_ela.large_50d_v1.X43","deep_ela.large_50d_v1.X44","deep_ela.large_50d_v1.X45","deep_ela.large_50d_v1.X46","deep_ela.large_50d_v1.X47","dim"],"feature_types":["float","float","float","float","float","float","float","float","float","float","float","float","float","float","float","float","float","float","float","float","float","float","float","float","float","float","float","float","float","float","float","float","float","float","float","float","float","float","float","float","float","float","float","float","float","float","float","float","float"],"gradient_booster":{"model":{"cats":{"enc":[],"feature_segments":[],"sorted_idx":[]},"gbtree_model_param":{"num_parallel_tree":"1","num_trees":"100"},"iteration_indptr":[0,1,2,3,4,5,6,7,8,9,10,11,12,13,14,15,16,17,18,19,20,21,22,23,24,25,26,27,28,29,30,31,32,33,34,35,36,37,38,39,40,41,42,43,44,45,46,47,48,49,50,51,52,53,54,55,56,57,58,59,60,61,62,63,64,65,66,67,68,69,70,71,72,73,74,75,76,77,78,79,80,81,82,83,84,85,86,87,88,89,90,91,92,93,94,95,96,97,98,99,100],"tree_info":[0,0,0,0,0,0,0,0,0,0,0,0,0,0,0,0,0,0,0,0,0,0,0,0,0,0,0,0,0,0,0,0,0,0,0,0,0,0,0,0,0,0,0,0,0,0,0,0,0,0,0,0,0,0,0,0,0,0,0,0,0,0,0,0,0,0,0,0,0,0,0,0,0,0,0,0,0,0,0,0,0,0,0,0,0,0,0,0,0,0,0,0,0,0,0,0,0,0,0,0],"trees":[{"base_weights":[-8.9035986E-8,9.486963E-1,-1.1405461E0,1.5053381E0,-3.971832E-1,-1.2143601E0,1.054054E0,2.0417266E0,-9.554141E-1,-6.880735E-1,6.810811E-1,-1.2676502E0,5.142857E-1,6E-1,-2.3684213E-1,2.7820823E0,9.27835E-1,-4.19084E-1,9.428571E-1,5.914286E-1,-9.767443E-1,-1.3387284E0,-4.8387107E-1,2.8428926E0,1.2857142E-1,-1.1460675E0,1.7630332E0,-2.3684213E-1,5.7600003E-1,9.677419E-1,-1.1612904E0,1.2857142E-1,-1.3681127E0,-3.836066E-1,8.04878E-1,8.654732E-1,1.8947369E-1,4.7368407E-2,-3.9873424E-1,7.283237E-1,-3.06383E-1,-9.473686E-2,5.142857E-1,-3.8377362E-1,1.9565217E-1,-4.1637015E-1,4.7368407E-2,4.6451613E-1,-2.3684213E-1],"categories":[],"categories_nodes":[],"categories_segments":[],"categories_sizes":[],"default_left":[0,0,0,0,0,0,0,0,0,0,0,0,0,0,0,0,0,0,0,0,0,0,0,0,0,0,0,0,0,0,0,0,0,0,0,0,0,0,0,0,0,0,0,0,0,0,0,0,0],"id":0,"left_children":[1,3,5,7,9,11,13,15,17,19,-1,21,-1,-1,-1,23,25,-1,27,-1,29,31,33,35,-1,37,39,-1,-1,41,43,-1,45,-1,47,-1,-1,-1,-1,-1,-1,-1,-1,-1,-1,-1,-1,-1,-1],"loss_changes":[2.618517E2,9.9571915E1,1.9081146E1,1.25583115E2,3.216849E1,1.8837708E1,8.74822E0,6.110202E1,1.5938155E1,2.9819424E1,0E0,5.2265015E0,0E0,0E0,0E0,5.3491516E0,5.802575E1,0E0,8.098646E0,0E0,1.3125284E1,5.5774536E0,1.16138315E1,2.3177795E0,0E0,2.5701952E0,4.5869568E1,0E0,0E0,3.841863E0,7.4654083E0,0E0,3.0810852E0,0E0,6.622635E0,0E0,0E0,0E0,0E0,0E0,0E0,0E0,0E0,0E0,0E0,0E0,0E0,0E0,0E0],"parents":[2147483647,0,0,1,1,2,2,3,3,4,4,5,5,6,6,7,7,8,8,9,9,11,11,15,15,16,16,18,18,20,20,21,21,22,22,23,23,25,25,26,26,29,29,30,30,32,32,34,34],"right_children":[2,4,6,8,10,12,14,16,18,20,-1,22,-1,-1,-1,24,26,-1,28,-1,30,32,34,36,-1,38,40,-1,-1,42,44,-1,46,-1,48,-1,-1,-1,-1,-1,-1,-1,-1,-1,-1,-1,-1,-1,-1],"split_conditions":[4.8327374E-1,-1.7636713E-1,9.999973E-1,1.6984154E-2,9.975152E-1,9.4979715E-1,5.90668E-1,-9.999992E-1,6.287881E-1,-6.193566E-1,6.810811E-1,9.969803E-1,5.142857E-1,6E-1,-2.3684213E-1,9.88299E-1,-1.4153744E-1,-4.19084E-1,-9.959003E-1,5.914286E-1,-9.9433106E-1,-9.999801E-1,-6.134846E-1,9.929716E-1,1.2857142E-1,-8.296202E-3,9.999949E-1,-2.3684213E-1,5.7600003E-1,-8.7289697E-1,5.609651E-1,1.2857142E-1,3.495485E-1,-3.836066E-1,7.4433506E-1,8.654732E-1,1.8947369E-1,4.7368407E-2,-3.9873424E-1,7.283237E-1,-3.06383E-1,-9.473686E-2,5.142857E-1,-3.8377362E-1,1.9565217E-1,-4.1637015E-1,4.7368407E-2,4.6451613E-1,-2.3684213E-1],"split_indices":[43,29,31,37,28,14,1,3,16,43,0,12,0,0,0,1,14,0,26,0,38,27,16,12,0,10,28,0,0,35,9,0,41,0,16,0,0,0,0,0,0,0,0,0,0,0,0,0,0],"split_type":[0,0,0,0,0,0,0,0,0,0,0,0,0,0,0,0,0,0,0,0,0,0,0,0,0,0,0,0,0,0,0,0,0,0,0,0,0,0,0,0,0,0,0,0,0,0,0,0,0],"sum_hessian":[2.3999998E2,1.311111E2,1.08888885E2,9.2666664E1,3.8444443E1,1.0577777E2,3.111111E0,7.622222E1,1.6444443E1,3.5333332E1,3.111111E0,1.04444435E2,1.3333333E0,1.9999999E0,1.111111E0,4.4888885E1,3.1333332E1,1.3555554E1,2.8888888E0,2.8888888E0,3.2444443E1,9.511111E1,9.333333E0,4.3555553E1,1.3333333E0,8.888888E0,2.2444443E1,1.111111E0,1.7777777E0,2.4444442E0,2.9999998E1,1.3333333E0,9.377777E1,5.7777777E0,3.5555553E0,4.2444443E1,1.111111E0,1.111111E0,7.777777E0,1.8222221E1,4.222222E0,1.111111E0,1.3333333E0,2.8444443E1,1.5555555E0,9.2666664E1,1.111111E0,2.4444442E0,1.111111E0],"tree_param":{"num_deleted":"0","num_feature":"49","num_nodes":"49","size_leaf_vector":"1"}},{"base_weights":[-2.9225888E-2,6.035011E-1,-1.0317501E0,9.5498455E-1,-3.4892437E-1,-1.1023993E0,9.2594236E-1,1.2568969E0,-7.327334E-1,-5.8252716E-1,4.3494016E-1,1.0371443E-1,-1.1304567E0,3.7724468E-1,2.815008E-2,1.7025255E0,4.1336775E-1,-1.1732035E0,7.6988846E-1,4.63236E-1,-8.1416804E-1,-1.1974275E0,-4.731785E-1,-2.0589755E-1,1.7689333E0,-1.1204656E0,1.0322497E0,-9.372002E-2,-3.699847E-1,-2.1067865E-1,4.3418145E-1,8.4731907E-1,-1.0042487E0,-1.2193688E0,3.9510727E-2,4.8857296E-1,-3.3506626E-1,-8.824852E-2,5.507897E-1,-3.5771352E-1,-7.6551735E-2,-1.3940471E-1,4.606205E-1,-8.143596E-2,4.156818E-1,-3.7586197E-1,-1.559781E-2,-3.8793585E-1,-2.1404772E-1,4.041165E-1,-1.16279826E-1],"categories":[],"categories_nodes":[],"categories_segments":[],"categories_sizes":[],"default_left":[0,0,0,0,0,0,0,0,0,0,0,0,0,0,0,0,0,0,0,0,0,0,0,0,0,0,0,0,0,0,0,0,0,0,0,0,0,0,0,0,0,0,0,0,0,0,0,0,0,0,0],"id":1,"left_children":[1,3,5,7,9,11,13,15,17,19,-1,-1,21,-1,-1,23,25,27,29,-1,31,33,35,-1,37,39,41,-1,-1,-1,-1,43,45,47,-1,49,-1,-1,-1,-1,-1,-1,-1,-1,-1,-1,-1,-1,-1,-1,-1],"loss_changes":[1.4407959E2,4.695925E1,1.317482E1,5.289637E1,1.692815E1,3.8554153E0,8.763521E-1,3.1959702E1,1.1565872E1,1.8297283E1,0E0,0E0,3.1259003E0,0E0,0E0,1.0182877E1,3.0923195E1,2.7949905E-1,5.260194E0,0E0,1.0909046E1,2.3616562E0,6.3713846E0,0E0,8.185883E0,2.8653812E-1,1.7933638E1,0E0,0E0,0E0,0E0,2.6717136E0,6.8092804E0,1.8511581E0,0E0,3.8833556E0,0E0,0E0,0E0,0E0,0E0,0E0,0E0,0E0,0E0,0E0,0E0,0E0,0E0,0E0,0E0],"parents":[2147483647,0,0,1,1,2,2,3,3,4,4,5,5,6,6,7,7,8,8,9,9,12,12,15,15,16,16,17,17,18,18,20,20,21,21,22,22,24,24,25,25,26,26,31,31,32,32,33,33,35,35],"right_children":[2,4,6,8,10,12,14,16,18,20,-1,-1,22,-1,-1,24,26,28,30,-1,32,34,36,-1,38,40,42,-1,-1,-1,-1,44,46,48,-1,50,-1,-1,-1,-1,-1,-1,-1,-1,-1,-1,-1,-1,-1,-1,-1],"split_conditions":[5.1935446E-1,-1.7636713E-1,9.999973E-1,-1.3069004E-3,9.975152E-1,-9.999801E-1,1.2672748E-1,6.15607E-1,6.287881E-1,-7.77931E-1,4.3494016E-1,1.0371443E-1,9.969803E-1,3.7724468E-1,2.815008E-2,-9.95957E-1,1.765991E-1,-9.9844635E-1,-9.959003E-1,4.63236E-1,-9.9433106E-1,3.495485E-1,9.05834E-1,-2.0589755E-1,-9.972736E-1,8.969849E-1,-3.6782613E-1,-9.372002E-2,-3.699847E-1,-2.1067865E-1,4.3418145E-1,-8.7289697E-1,8.826808E-1,8.526721E-1,3.9510727E-2,-9.855057E-1,-3.3506626E-1,-8.824852E-2,5.507897E-1,-3.5771352E-1,-7.6551735E-2,-1.3940471E-1,4.606205E-1,-8.143596E-2,4.156818E-1,-3.7586197E-1,-1.559781E-2,-3.8793585E-1,-2.1404772E-1,4.041165E-1,-1.16279826E-1],"split_indices":[43,29,31,37,28,27,1,32,16,43,0,0,12,0,0,5,7,4,26,0,38,41,43,0,17,1,44,0,0,0,0,35,0,17,0,13,0,0,0,0,0,0,0,0,0,0,0,0,0,0,0],"split_type":[0,0,0,0,0,0,0,0,0,0,0,0,0,0,0,0,0,0,0,0,0,0,0,0,0,0,0,0,0,0,0,0,0,0,0,0,0,0,0,0,0,0,0,0,0,0,0,0,0,0,0],"sum_hessian":[2.2515715E2,1.3828122E2,8.687593E1,1.0100398E2,3.727724E1,8.427163E1,2.604306E0,8.5893875E1,1.51101055E1,3.359089E1,3.686349E0,1.3865451E0,8.2885086E1,1.4967511E0,1.1075548E0,5.553625E1,3.0357628E1,1.1854402E1,3.2557032E0,2.742899E0,3.0847992E1,7.4474945E1,8.410138E0,1.2496134E0,5.4286636E1,8.494483E0,2.1863144E1,1.1778668E0,1.0676536E1,1.0143962E0,2.241307E0,2.811871E0,2.8036121E1,7.334672E1,1.1282285E0,3.468673E0,4.941465E0,1.6017008E0,5.2684937E1,7.4936924E0,1.0007904E0,5.519244E0,1.6343899E1,1.0744497E0,1.7374213E0,2.1981329E1,6.0547915E0,6.2656033E1,1.0690683E1,1.4805675E0,1.9881054E0],"tree_param":{"num_deleted":"0","num_feature":"49","num_nodes":"51","size_leaf_vector":"1"}},{"base_weights":[-3.4721293E-2,4.735225E-1,-9.026134E-1,-7.85918E-2,8.6225474E-1,-9.7430676E-1,7.650443E-1,5.437973E-1,-9.3074304E-1,-5.3315926E-1,1.0748408E0,8.4104724E-2,-1.0040772E0,3.3275446E-1,-1.0140786E-3,1.1560973E0,-7.42116E-1,2.8763667E-1,-1.0970936E0,3.6230153E-1,-3.5705292E-1,-9.47544E-1,1.2614403E0,-1.9670248E-1,-1.0565312E0,-2.304371E-1,1.3068575E0,-3.390628E-1,3.0360365E-1,-1.1973095E0,8.4703356E-2,-3.1676897E-1,-6.3544676E-2,-6.709195E-1,1.3802308E0,3.8082793E-1,-2.4851386E-1,1.5110761E-1,-1.0990417E0,4.199823E-1,-5.6665186E-2,-3.72833E-1,-5.4576956E-2,-2.3720488E-2,-2.5767756E-1,-5.184997E-2,4.2938653E-1,1.4478925E-1,-7.7141665E-2,-3.3695886E-1,3.2978203E-2],"categories":[],"categories_nodes":[],"categories_segments":[],"categories_sizes":[],"default_left":[0,0,0,0,0,0,0,0,0,0,0,0,0,0,0,0,0,0,0,0,0,0,0,0,0,0,0,0,0,0,0,0,0,0,0,0,0,0,0,0,0,0,0,0,0,0,0,0,0,0,0],"id":2,"left_children":[1,3,5,7,9,11,13,15,17,19,21,-1,23,-1,-1,25,27,-1,29,-1,-1,31,33,35,37,-1,39,-1,-1,41,-1,-1,-1,43,45,-1,-1,47,49,-1,-1,-1,-1,-1,-1,-1,-1,-1,-1,-1,-1],"loss_changes":[8.768203E1,2.6983847E1,9.521202E0,2.8473846E1,2.242918E1,2.9265594E0,9.51946E-1,2.5349586E1,8.164E0,1.3342689E1,2.5448677E1,0E0,2.7309418E0,0E0,0E0,7.2301846E0,8.388997E0,0E0,3.2773762E0,0E0,0E0,2.546544E-1,1.4530891E1,6.110091E0,3.4994202E0,0E0,3.0871277E0,0E0,0E0,6.9784355E-1,0E0,0E0,0E0,3.8889885E-1,4.700859E0,0E0,0E0,5.419128E-1,1.9586105E0,0E0,0E0,0E0,0E0,0E0,0E0,0E0,0E0,0E0,0E0,0E0,0E0],"parents":[2147483647,0,0,1,1,2,2,3,3,4,4,5,5,6,6,7,7,8,8,9,9,10,10,12,12,15,15,16,16,18,18,21,21,22,22,23,23,24,24,26,26,29,29,33,33,34,34,37,37,38,38],"right_children":[2,4,6,8,10,12,14,16,18,20,22,-1,24,-1,-1,26,28,-1,30,-1,-1,32,34,36,38,-1,40,-1,-1,42,-1,-1,-1,44,46,-1,-1,48,50,-1,-1,-1,-1,-1,-1,-1,-1,-1,-1,-1,-1],"split_conditions":[5.1935446E-1,3.9267302E-3,9.999973E-1,-9.999987E-1,-9.9032724E-1,-9.999801E-1,-3.7978917E-1,-5.1653823E-3,-9.9539363E-1,4.3333292E-1,9.999994E-1,8.4104724E-2,-9.847746E-1,3.3275446E-1,-1.0140786E-3,-9.9846804E-1,5.370485E-1,2.8763667E-1,4.1805443E-1,3.6230153E-1,-3.5705292E-1,3.8369042E-1,-9.993445E-1,-9.7860163E-1,-9.987642E-1,-2.304371E-1,9.834814E-1,-3.390628E-1,3.0360365E-1,-9.998927E-1,8.4703356E-2,-3.1676897E-1,-6.3544676E-2,-4.7304028E-1,-9.9943006E-1,3.8082793E-1,-2.4851386E-1,-9.9999905E-1,3.495485E-1,4.199823E-1,-5.6665186E-2,-3.72833E-1,-5.4576956E-2,-2.3720488E-2,-2.5767756E-1,-5.184997E-2,4.2938653E-1,1.4478925E-1,-7.7141665E-2,-3.3695886E-1,3.2978203E-2],"split_indices":[43,14,31,3,15,27,26,37,8,14,25,0,15,0,0,17,42,0,41,0,0,38,27,45,4,0,23,0,0,2,0,0,0,7,41,0,0,3,41,0,0,0,0,0,0,0,0,0,0,0,0],"split_type":[0,0,0,0,0,0,0,0,0,0,0,0,0,0,0,0,0,0,0,0,0,0,0,0,0,0,0,0,0,0,0,0,0,0,0,0,0,0,0,0,0,0,0,0,0,0,0,0,0,0,0],"sum_hessian":[1.9681105E2,1.2441004E2,7.240101E1,5.1732487E1,7.267756E1,6.981538E1,2.5856304E0,3.0105827E1,2.162666E1,9.408994E0,6.3268562E1,1.4230895E0,6.839229E1,1.4795628E0,1.1060675E0,2.0463085E1,9.642742E0,1.36446E0,2.02622E1,2.3484457E0,7.0605483E0,5.000006E0,5.826856E1,4.4620624E0,6.393023E1,1.1892428E0,1.9273842E1,8.187073E0,1.4556687E0,1.9012945E1,1.2492554E0,3.9788582E0,1.0211481E0,3.105392E0,5.5163166E1,1.039578E0,3.4224844E0,2.0870395E0,6.184319E1,1.8204954E1,1.0688877E0,1.798372E1,1.0292232E0,1.091104E0,2.014288E0,1.6798717E0,5.3483295E1,1.051195E0,1.0358444E0,6.0701363E1,1.1418241E0],"tree_param":{"num_deleted":"0","num_feature":"49","num_nodes":"51","size_leaf_vector":"1"}},{"base_weights":[-3.8375832E-2,3.8064662E-1,-8.011546E-1,7.3086196E-1,-1.215014E-1,-8.8839567E-1,5.7395524E-1,1.0239193E0,-1.8043347E-1,-8.067173E-1,3.7074167E-1,-9.678894E-1,-1.3752969E-1,3.2945475E-1,-1.1538853E-1,1.1186497E0,-5.846637E-1,-6.2100273E-1,3.0510932E-1,2.0871517E-1,-9.33101E-1,7.892637E-1,-8.0915815E-1,-1.0730189E0,-1.86281E-1,-2.834087E-1,5.6296235E-1,1.2250934E0,-3.4586746E-1,-2.0989472E-1,-5.097398E-2,-9.4510204E-1,1.7238373E-1,6.0367595E-2,-1.0177575E0,-5.859486E-1,1.0152912E0,-3.0815676E-1,8.636555E-2,6.2491477E-2,-1.1120064E0,-2.7544916E-1,6.627458E-1,3.910208E-1,7.249917E-3,1.04451805E-1,-2.635675E-1,-8.3333746E-2,-3.1396607E-1,-2.3462367E-1,3.3010703E-1,-2.3514131E-2,-3.2447487E-1,-2.583291E-2,-2.2747123E-1,7.068925E-2,4.2006063E-1,-1.1299603E-1,-3.458721E-1,-8.885128E-2,3.613931E-1],"categories":[],"categories_nodes":[],"categories_segments":[],"categories_sizes":[],"default_left":[0,0,0,0,0,0,0,0,0,0,0,0,0,0,0,0,0,0,0,0,0,0,0,0,0,0,0,0,0,0,0,0,0,0,0,0,0,0,0,0,0,0,0,0,0,0,0,0,0,0,0,0,0,0,0,0,0,0,0,0,0],"id":3,"left_children":[1,3,5,7,9,11,13,15,17,19,21,23,25,-1,-1,27,29,31,-1,-1,33,35,37,39,41,-1,-1,43,45,-1,-1,47,49,-1,51,53,55,-1,-1,-1,57,-1,59,-1,-1,-1,-1,-1,-1,-1,-1,-1,-1,-1,-1,-1,-1,-1,-1,-1,-1],"loss_changes":[5.4292076E1,1.9380367E1,7.733181E0,1.7481968E1,1.57909E1,3.2698593E0,2.532751E0,8.144833E0,9.394685E0,4.3549547E0,1.4175949E1,4.022667E0,1.2540634E1,0E0,0E0,7.7142296E0,4.2823434E-2,3.4449387E0,0E0,0E0,1.9744949E0,7.042305E0,2.13069E0,2.4839058E0,5.1461983E0,0E0,0E0,4.089386E0,1.7657448E0,0E0,0E0,3.3323383E-1,4.888402E0,0E0,9.533138E-1,2.4145412E-1,5.125925E0,0E0,0E0,0E0,8.86467E-1,0E0,2.4153032E0,0E0,0E0,0E0,0E0,0E0,0E0,0E0,0E0,0E0,0E0,0E0,0E0,0E0,0E0,0E0,0E0,0E0,0E0],"parents":[2147483647,0,0,1,1,2,2,3,3,4,4,5,5,6,6,7,7,8,8,9,9,10,10,11,11,12,12,15,15,16,16,17,17,20,20,21,21,22,22,23,23,24,24,27,27,28,28,31,31,32,32,34,34,35,35,36,36,40,40,42,42],"right_children":[2,4,6,8,10,12,14,16,18,20,22,24,26,-1,-1,28,30,32,-1,-1,34,36,38,40,42,-1,-1,44,46,-1,-1,48,50,-1,52,54,56,-1,-1,-1,58,-1,60,-1,-1,-1,-1,-1,-1,-1,-1,-1,-1,-1,-1,-1,-1,-1,-1,-1,-1],"split_conditions":[5.224085E-1,-9.999975E-1,9.9999696E-1,-1.3069004E-3,7.928926E-1,8.843273E-1,4.0630794E-1,9.999938E-1,8.818682E-1,-9.945634E-1,-1.0808265E-1,9.969803E-1,-1.6209543E-2,3.2945475E-1,-1.1538853E-1,8.500582E-1,-4.1363963E-1,6.666944E-1,3.0510932E-1,2.0871517E-1,-7.902617E-1,-9.9919224E-1,9.94274E-1,-9.9433106E-1,-6.134846E-1,-2.834087E-1,5.6296235E-1,9.922328E-1,4.3395406E-1,-2.0989472E-1,-5.097398E-2,-9.82979E-1,-9.9516165E-1,6.0367595E-2,-9.9391335E-1,-9.9999714E-1,8.93643E-1,-3.0815676E-1,8.636555E-2,6.2491477E-2,-9.847746E-1,-2.7544916E-1,1.61163E-1,3.910208E-1,7.249917E-3,1.04451805E-1,-2.635675E-1,-8.3333746E-2,-3.1396607E-1,-2.3462367E-1,3.3010703E-1,-2.3514131E-2,-3.2447487E-1,-2.583291E-2,-2.2747123E-1,7.068925E-2,4.2006063E-1,-1.1299603E-1,-3.458721E-1,-8.885128E-2,3.613931E-1],"split_indices":[43,2,31,37,0,0,1,40,17,46,37,12,5,0,0,10,7,42,0,0,43,27,12,38,16,0,0,1,9,0,0,4,26,0,38,3,0,0,0,0,15,0,9,0,0,0,0,0,0,0,0,0,0,0,0,0,0,0,0,0,0],"split_type":[0,0,0,0,0,0,0,0,0,0,0,0,0,0,0,0,0,0,0,0,0,0,0,0,0,0,0,0,0,0,0,0,0,0,0,0,0,0,0,0,0,0,0,0,0,0,0,0,0,0,0,0,0,0,0,0,0,0,0,0,0],"sum_hessian":[1.6790956E2,1.0869846E2,5.9211094E1,6.3768585E1,4.492988E1,5.6011505E1,3.199589E0,4.8158146E1,1.5610442E1,1.85161E1,2.6413778E1,5.0387928E1,5.6235747E0,1.9742742E0,1.2253149E0,4.576745E1,2.3906958E0,1.1763745E1,3.8466966E0,1.0871683E0,1.742893E1,1.9742128E1,6.671651E0,4.4085426E1,6.3025036E0,4.3936944E0,1.22988E0,4.281879E1,2.9486604E0,1.3339547E0,1.0567412E0,8.216195E0,3.5475504E0,1.1147859E0,1.6314146E1,2.5619786E0,1.718015E1,5.618652E0,1.0529993E0,1.1735582E0,4.291187E1,3.3410244E0,2.9614792E0,4.01175E1,2.7012882E0,1.4308294E0,1.517831E0,1.5775447E0,6.6386504E0,1.8263175E0,1.721233E0,1.1796839E0,1.5134461E1,1.0411694E0,1.5208092E0,6.2111845E0,1.0968965E1,2.7989213E0,4.0112946E1,1.2330278E0,1.7284514E0],"tree_param":{"num_deleted":"0","num_feature":"49","num_nodes":"61","size_leaf_vector":"1"}},{"base_weights":[-3.8198248E-2,3.201986E-1,-7.1799916E-1,-7.150903E-1,4.4667393E-1,-1.1407376E-1,-9.1122717E-1,-3.1647885E-1,2.1032771E-1,5.7059044E-1,-6.959546E-1,-3.0152866E-1,9.8357964E-1,1.570696E-1,-9.6579325E-1,-3.8349777E-1,7.294163E-1,4.072284E-2,-8.295696E-1,-1.00435644E-1,1.5394238E0,-1.0065706E0,5.6906942E-2,2.5693595E-1,-7.5738436E-1,9.061302E-1,1.1867453E-1,-2.8947222E-1,-1.9364752E-2,5.163774E-1,1.349047E-1,-5.0281934E-2,-1.0442004E0,1.0049586E-1,-2.8269142E-1,3.113231E-1,-1.7196272E-1,1.7029636E-1,-2.5560695E-1,-1.0303243E-1,-3.271912E-1],"categories":[],"categories_nodes":[],"categories_segments":[],"categories_sizes":[],"default_left":[0,0,0,0,0,0,0,0,0,0,0,0,0,0,0,0,0,0,0,0,0,0,0,0,0,0,0,0,0,0,0,0,0,0,0,0,0,0,0,0,0],"id":4,"left_children":[1,3,5,7,9,11,13,-1,-1,15,17,-1,19,-1,21,23,25,-1,27,-1,29,31,-1,-1,33,35,37,-1,-1,-1,-1,-1,39,-1,-1,-1,-1,-1,-1,-1,-1],"loss_changes":[3.4948917E1,1.2627694E1,5.6726627E0,5.849693E0,1.2344894E1,1.3842079E1,3.4305649E0,0E0,0E0,1.1898785E1,1.0801215E0,0E0,5.2007422E0,0E0,1.9033012E0,6.0255156E0,7.024067E0,0E0,7.2892666E-1,0E0,1.5256786E-1,9.3820953E-1,0E0,0E0,2.2229042E0,1.0543846E1,7.447863E0,0E0,0E0,0E0,0E0,0E0,7.1741104E-1,0E0,0E0,0E0,0E0,0E0,0E0,0E0,0E0],"parents":[2147483647,0,0,1,1,2,2,3,3,4,4,5,5,6,6,9,9,10,10,12,12,14,14,15,15,16,16,18,18,20,20,21,21,24,24,25,25,26,26,32,32],"right_children":[2,4,6,8,10,12,14,-1,-1,16,18,-1,20,-1,22,24,26,-1,28,-1,30,32,-1,-1,34,36,38,-1,-1,-1,-1,-1,40,-1,-1,-1,-1,-1,-1,-1,-1],"split_conditions":[5.224085E-1,9.999998E-1,-9.999994E-1,9.985657E-1,2.3650494E-1,-1.0757182E-1,-9.99979E-1,-3.1647885E-1,2.1032771E-1,-9.967985E-1,6.5040484E-2,-3.0152866E-1,5.3033745E-1,1.570696E-1,3.495485E-1,-9.9433106E-1,7.4152195E-1,4.072284E-2,7.539927E-1,-1.00435644E-1,8.8530123E-1,-9.926693E-1,5.6906942E-2,2.5693595E-1,-9.9399996E-1,-1.3069004E-3,5.4989254E-1,-2.8947222E-1,-1.9364752E-2,5.163774E-1,1.349047E-1,-5.0281934E-2,-9.98343E-1,1.0049586E-1,-2.8269142E-1,3.113231E-1,-1.7196272E-1,1.7029636E-1,-2.5560695E-1,-1.0303243E-1,-3.271912E-1],"split_indices":[43,25,3,1,37,34,27,0,0,16,23,0,30,0,41,38,10,0,16,0,44,15,0,0,8,37,1,0,0,0,0,0,41,0,0,0,0,0,0,0,0],"split_type":[0,0,0,0,0,0,0,0,0,0,0,0,0,0,0,0,0,0,0,0,0,0,0,0,0,0,0,0,0,0,0,0,0,0,0,0,0,0,0,0,0],"sum_hessian":[1.4150215E2,9.300049E1,4.8501667E1,9.617833E0,8.338266E1,1.2142181E1,3.6359486E1,7.9622364E0,1.6555965E0,7.56763E1,7.7063594E0,6.748445E0,5.3937364E0,1.0172132E0,3.5342274E1,1.0598016E1,6.5078285E1,1.0644813E0,6.641878E0,1.7175968E0,3.6761398E0,3.4262028E1,1.0802441E0,2.1562824E0,8.441733E0,5.009887E1,1.4979414E1,5.4214926E0,1.2203857E0,2.6538146E0,1.0223253E0,1.704906E0,3.255712E1,1.1046683E0,7.337065E0,4.6279953E1,3.8189127E0,1.0525999E1,4.453415E0,2.5451539E0,3.0011969E1],"tree_param":{"num_deleted":"0","num_feature":"49","num_nodes":"41","size_leaf_vector":"1"}},{"base_weights":[-4.1506767E-2,1.8898809E-1,-8.892371E-1,-1.9088162E-1,5.6632566E-1,-9.9437904E-1,-1.8032755E-1,-3.8471007E-1,9.7858E-1,-7.725687E-1,6.880353E-1,-1.0211275E0,-6.7854255E-2,-2.3098867E-1,2.1259378E-1,8.410716E-2,-8.0833155E-1,3.5463566E-1,-2.8748011E-2,-2.634383E-1,-6.0571533E-2,-3.4680924E-1,8.674398E-1,-3.129041E-1,-8.550006E-2,7.94584E-1,-4.5307806E-1,-9.6717566E-1,3.7669116E-1,3.2211536E-1,-2.9847723E-1,1.0155821E0,-5.049543E-1,-3.895413E-2,2.773009E-1,-2.3624499E-1,2.0702472E-1,1.8300181E-2,-3.0795574E-1,2.5983512E-1,-1.11401945E-1,3.2157966E-1,-2.655222E-2,1.1791966E-1,-2.6724407E-1],"categories":[],"categories_nodes":[],"categories_segments":[],"categories_sizes":[],"default_left":[0,0,0,0,0,0,0,0,0,0,0,0,0,0,0,0,0,0,0,0,0,0,0,0,0,0,0,0,0,0,0,0,0,0,0,0,0,0,0,0,0,0,0,0,0],"id":5,"left_children":[1,3,5,7,9,11,13,15,17,19,21,23,-1,-1,-1,25,27,-1,-1,-1,-1,29,31,-1,-1,33,35,37,39,-1,-1,41,43,-1,-1,-1,-1,-1,-1,-1,-1,-1,-1,-1,-1],"loss_changes":[2.4123362E1,1.4042742E1,1.7871971E0,1.1527206E1,8.519981E0,2.3659515E-1,2.9720929E0,8.591223E0,1.7044744E0,9.7147465E-2,8.741846E0,5.241394E-2,0E0,0E0,0E0,8.480627E0,4.62578E0,0E0,0E0,0E0,0E0,7.910594E0,8.448801E0,0E0,0E0,1.2624145E0,5.4186716E0,1.2977886E0,1.564782E0,0E0,0E0,2.3074493E0,1.8993553E0,0E0,0E0,0E0,0E0,0E0,0E0,0E0,0E0,0E0,0E0,0E0,0E0],"parents":[2147483647,0,0,1,1,2,2,3,3,4,4,5,5,6,6,7,7,8,8,9,9,10,10,11,11,15,15,16,16,21,21,22,22,25,25,26,26,27,27,28,28,31,31,32,32],"right_children":[2,4,6,8,10,12,14,16,18,20,22,24,-1,-1,-1,26,28,-1,-1,-1,-1,30,32,-1,-1,34,36,38,40,-1,-1,42,44,-1,-1,-1,-1,-1,-1,-1,-1,-1,-1,-1,-1],"split_conditions":[7.414699E-1,8.0710515E-2,9.9791956E-1,4.1805443E-1,9.999994E-1,9.907638E-1,-6.134846E-1,-9.9999934E-1,-4.4403E-1,-9.9999857E-1,-9.9032724E-1,1E0,-6.7854255E-2,-2.3098867E-1,2.1259378E-1,-1.0808265E-1,9.420808E-1,3.5463566E-1,-2.8748011E-2,-2.634383E-1,-6.0571533E-2,4.3333292E-1,9.99996E-1,-3.129041E-1,-8.550006E-2,-7.261927E-1,-8.9379504E-2,-9.9999875E-1,9.907638E-1,3.2211536E-1,-2.9847723E-1,4.6911207E-1,-8.0020416E-1,-3.895413E-2,2.773009E-1,-2.3624499E-1,2.0702472E-1,1.8300181E-2,-3.0795574E-1,2.5983512E-1,-1.11401945E-1,3.2157966E-1,-2.655222E-2,1.1791966E-1,-2.6724407E-1],"split_indices":[43,14,12,41,25,1,16,3,37,6,15,47,0,0,0,37,0,0,0,0,0,14,28,0,0,37,7,2,1,0,0,41,46,0,0,0,0,0,0,0,0,0,0,0,0],"split_type":[0,0,0,0,0,0,0,0,0,0,0,0,0,0,0,0,0,0,0,0,0,0,0,0,0,0,0,0,0,0,0,0,0,0,0,0,0,0,0,0,0,0,0,0,0],"sum_hessian":[1.21597824E2,9.621451E1,2.5383316E1,4.8192627E1,4.8021885E1,2.175416E1,3.6291556E0,4.1916374E1,6.2762513E0,3.5559714E0,4.446591E1,2.0704004E1,1.0501555E0,2.2624211E0,1.3667345E0,2.0277235E1,2.163914E1,5.1923456E0,1.0839058E0,2.5462024E0,1.009769E0,6.4319434E0,3.803397E1,1.970136E1,1.0026433E0,8.52413E0,1.1753106E1,1.9243513E1,2.3956263E0,1.8094165E0,4.6225266E0,3.4563072E1,3.4708972E0,1.0490882E0,7.4750414E0,9.33384E0,2.4192653E0,1.0485504E0,1.8194962E1,1.352707E0,1.0429193E0,3.2912426E1,1.6506475E0,1.0375366E0,2.4333606E0],"tree_param":{"num_deleted":"0","num_feature":"49","num_nodes":"45","size_leaf_vector":"1"}},{"base_weights":[-4.256324E-2,1.5884785E-1,-8.339106E-1,-2.6508647E-1,4.1491687E-1,-1.2115868E-1,-9.424938E-1,3.4971482E-1,-6.472586E-1,-5.6269825E-1,5.759777E-1,1.74679E-1,-2.101929E-1,-9.7471106E-1,-5.8853973E-2,-3.855059E-1,9.1493225E-1,-8.779417E-1,8.044329E-2,1.8916482E-1,-2.9536128E-1,9.2287827E-1,-5.9142414E-2,-8.561789E-2,-3.007705E-1,-2.358666E-1,1.9722404E-1,3.0754787E-1,3.6843214E-2,8.638631E-2,-3.1625363E-1,2.606345E-1,-1.9833772E-1,2.5142463E-2,1.0583572E0,-2.9026565E-1,1.8486537E-1,-1.8073282E-1,2.1549122E-1,2.263101E-1,-2.3450959E-1,8.453653E-3,3.3836907E-1,-1.8494165E-1,2.1021296E-1],"categories":[],"categories_nodes":[],"categories_segments":[],"categories_sizes":[],"default_left":[0,0,0,0,0,0,0,0,0,0,0,0,0,0,0,0,0,0,0,0,0,0,0,0,0,0,0,0,0,0,0,0,0,0,0,0,0,0,0,0,0,0,0,0,0],"id":6,"left_children":[1,3,5,7,9,11,13,15,17,19,21,-1,-1,23,-1,25,27,29,31,-1,-1,33,35,-1,-1,-1,-1,-1,-1,37,-1,-1,-1,39,41,-1,43,-1,-1,-1,-1,-1,-1,-1,-1],"loss_changes":[1.6675322E1,9.182472E0,1.5278654E0,7.764247E0,8.5893E0,2.019082E0,2.4794006E-1,5.7330203E0,3.4505692E0,4.6127567E0,1.0092882E1,0E0,0E0,4.524994E-2,0E0,3.1626282E0,5.3910255E-1,2.7035503E0,3.943131E0,0E0,0E0,3.5646076E0,3.95472E0,0E0,0E0,0E0,0E0,0E0,0E0,1.8689569E0,0E0,0E0,0E0,3.470363E0,1.8043861E0,0E0,6.3295693E0,0E0,0E0,0E0,0E0,0E0,0E0,0E0,0E0],"parents":[2147483647,0,0,1,1,2,2,3,3,4,4,5,5,6,6,7,7,8,8,9,9,10,10,13,13,15,15,16,16,17,17,18,18,21,21,22,22,29,29,33,33,34,34,36,36],"right_children":[2,4,6,8,10,12,14,16,18,20,22,-1,-1,24,-1,26,28,30,32,-1,-1,34,36,-1,-1,-1,-1,-1,-1,38,-1,-1,-1,40,42,-1,44,-1,-1,-1,-1,-1,-1,-1,-1],"split_conditions":[7.414699E-1,-2.2580568E-1,-9.979602E-1,-9.827622E-1,-9.948044E-1,3.778466E-2,9.907638E-1,-9.950668E-1,8.974455E-1,-8.803303E-7,-1.8180284E-1,1.74679E-1,-2.101929E-1,-9.963848E-1,-5.8853973E-2,-2.0798147E-1,-9.947709E-1,-9.616086E-1,9.619664E-1,1.8916482E-1,-2.9536128E-1,-9.845319E-1,-9.993445E-1,-8.561789E-2,-3.007705E-1,-2.358666E-1,1.9722404E-1,3.0754787E-1,3.6843214E-2,4.5920348E-1,-3.1625363E-1,2.606345E-1,-1.9833772E-1,9.7658175E-1,9.999998E-1,-2.9026565E-1,-9.102581E-1,-1.8073282E-1,2.1549122E-1,2.263101E-1,-2.3450959E-1,8.453653E-3,3.3836907E-1,-1.8494165E-1,2.1021296E-1],"split_indices":[43,14,4,24,26,26,1,16,0,28,26,0,0,14,0,9,24,45,23,0,0,4,27,0,0,0,0,0,0,35,0,0,0,35,25,0,42,0,0,0,0,0,0,0,0],"split_type":[0,0,0,0,0,0,0,0,0,0,0,0,0,0,0,0,0,0,0,0,0,0,0,0,0,0,0,0,0,0,0,0,0,0,0,0,0,0,0,0,0,0,0,0,0],"sum_hessian":[1.0279105E2,8.257389E1,2.0217163E1,3.1081608E1,5.1492283E1,2.9524937E0,1.726467E1,1.1947141E1,1.9134468E1,6.930639E0,4.456164E1,1.331465E0,1.6210287E0,1.6256851E1,1.0078177E0,5.330852E0,6.616288E0,1.437204E1,4.7624273E0,1.6809659E0,5.249673E0,2.8527136E1,1.6034508E1,1.068247E0,1.5188605E1,4.028958E0,1.3018943E0,5.549813E0,1.0664755E0,2.2995064E0,1.2072534E1,2.2252693E0,2.5371583E0,3.8960412E0,2.4631094E1,2.7672265E0,1.3267281E1,1.1225271E0,1.1769793E0,2.0806143E0,1.8154268E0,1.6463833E0,2.298471E1,5.1194334E0,8.147847E0],"tree_param":{"num_deleted":"0","num_feature":"49","num_nodes":"45","size_leaf_vector":"1"}},{"base_weights":[-4.4620432E-2,1.3372251E-1,-7.794183E-1,-6.4426976E-1,2.4128205E-1,-9.192598E-1,-1.5775554E-1,-9.4870263E-1,1.241258E-1,-1.6794157E-1,4.8062423E-1,-2.9907238E-2,-2.9275718E-1,1.5825266E-1,-2.0793071E-1,-8.603656E-2,-3.0326572E-1,-3.684283E-1,7.45014E-1,-3.041525E-1,6.497067E-1,2.2815107E-1,-5.115215E-1,3.4723517E-2,2.6895252E-1,-6.386445E-1,1.9898047E-1,-4.1144168E-1,7.653461E-1,-2.3472248E-1,7.385538E-2,-2.7469027E-1,1.01079024E-1,1.13394074E-1,-2.4644472E-1,3.130085E-1,1.0593759E-1],"categories":[],"categories_nodes":[],"categories_segments":[],"categories_sizes":[],"default_left":[0,0,0,0,0,0,0,0,0,0,0,0,0,0,0,0,0,0,0,0,0,0,0,0,0,0,0,0,0,0,0,0,0,0,0,0,0],"id":7,"left_children":[1,3,5,7,9,11,13,15,-1,17,19,-1,-1,-1,-1,-1,-1,21,23,25,27,-1,29,-1,-1,31,-1,33,35,-1,-1,-1,-1,-1,-1,-1,-1],"loss_changes":[1.1581942E1,6.1246223E0,1.3548145E0,3.2709756E0,6.2900343E0,5.4641247E-1,1.9707458E0,8.228779E-3,0E0,4.692298E0,5.5397806E0,0E0,0E0,0E0,0E0,0E0,0E0,3.6940913E0,3.4208512E-1,2.9533467E0,4.4186087E0,0E0,4.0422945E0,0E0,0E0,2.0159373E0,0E0,1.5847741E0,3.1276226E0,0E0,0E0,0E0,0E0,0E0,0E0,0E0,0E0],"parents":[2147483647,0,0,1,1,2,2,3,3,4,4,5,5,6,6,7,7,9,9,10,10,17,17,18,18,19,19,20,20,22,22,25,25,27,27,28,28],"right_children":[2,4,6,8,10,12,14,16,-1,18,20,-1,-1,-1,-1,-1,-1,22,24,26,28,-1,30,-1,-1,32,-1,34,36,-1,-1,-1,-1,-1,-1,-1,-1],"split_conditions":[7.414699E-1,9.999998E-1,9.99997E-1,9.985657E-1,-2.8936258E-1,-9.9350405E-1,9.80982E-2,7.921131E-1,1.241258E-1,3.495485E-1,-9.931113E-1,-2.9907238E-2,-2.9275718E-1,1.5825266E-1,-2.0793071E-1,-8.603656E-2,-3.0326572E-1,9.9934876E-1,-9.831645E-1,-1.8870032E-1,-9.993445E-1,2.2815107E-1,9.999955E-1,3.4723517E-2,2.6895252E-1,9.4980496E-1,1.9898047E-1,-6.9357216E-1,9.919942E-1,-2.3472248E-1,7.385538E-2,-2.7469027E-1,1.01079024E-1,1.13394074E-1,-2.4644472E-1,3.130085E-1,1.0593759E-1],"split_indices":[43,25,47,1,14,24,5,12,0,41,26,0,0,0,0,0,0,31,42,45,27,0,31,0,0,38,0,24,34,0,0,0,0,0,0,0,0],"split_type":[0,0,0,0,0,0,0,0,0,0,0,0,0,0,0,0,0,0,0,0,0,0,0,0,0,0,0,0,0,0,0,0,0,0,0,0,0],"sum_hessian":[8.658539E1,7.033289E1,1.6252497E1,7.936592E0,6.23963E1,1.2877111E1,3.375385E0,6.243443E0,1.6931489E0,2.3136385E1,3.925992E1,1.010196E0,1.1866916E1,1.4868284E0,1.8885566E0,1.018106E0,5.225337E0,1.945949E1,3.676895E0,6.8176675E0,3.244225E1,1.70367E0,1.775582E1,1.0557209E0,2.621174E0,5.3185816E0,1.4990861E0,2.9366374E0,2.9505613E1,1.3055692E1,4.7001276E0,4.1902947E0,1.1282866E0,1.0306293E0,1.9060081E0,1.6706871E1,1.2798742E1],"tree_param":{"num_deleted":"0","num_feature":"49","num_nodes":"37","size_leaf_vector":"1"}},{"base_weights":[-4.028335E-2,1.0896414E-1,-7.521372E-1,3.2098782E-1,-2.4020159E-1,3.484613E-2,-9.0169346E-1,5.767323E-1,-3.1509733E-1,6.198414E-1,-3.6243933E-1,1.3349754E-1,-1.1243511E-1,-8.260536E-2,-2.8168285E-1,7.99556E-1,-5.767356E-1,-7.0398194E-1,3.3289912E-1,1.8368134E-2,2.6277432E-1,1.4691618E-1,-7.447255E-1,-1.12929344E-1,9.095959E-1,-2.4753708E-1,7.015608E-2,2.4047047E-2,-2.5741673E-1,-2.0360763E-1,2.7801204E-1,5.117768E-1,-6.3347113E-1,-1.9754156E-1,-9.1697395E-1,-3.929682E-2,2.917842E-1,-1.4955541E-1,2.3600537E-1,-4.9269713E-2,-2.2797175E-1,-1.7147037E-1,1.203381E-1,-7.6690346E-2,-2.9228726E-1],"categories":[],"categories_nodes":[],"categories_segments":[],"categories_sizes":[],"default_left":[0,0,0,0,0,0,0,0,0,0,0,0,0,0,0,0,0,0,0,0,0,0,0,0,0,0,0,0,0,0,0,0,0,0,0,0,0,0,0,0,0,0,0,0,0],"id":8,"left_children":[1,3,5,7,9,11,13,15,17,19,21,-1,-1,-1,-1,23,25,27,29,-1,-1,31,33,-1,35,-1,-1,-1,-1,-1,-1,37,39,41,43,-1,-1,-1,-1,-1,-1,-1,-1,-1,-1],"loss_changes":[8.161719E0,4.7960534E0,1.5977135E0,6.7030416E0,2.8165894E0,6.855676E-1,3.227234E-3,7.9007006E0,3.2942023E0,4.380294E-1,4.435609E0,0E0,0E0,0E0,0E0,3.5358982E0,1.2534726E0,1.0243618E0,3.7723598E0,0E0,0E0,3.2742772E0,1.0306225E0,0E0,1.6264153E0,0E0,0E0,0E0,0E0,0E0,0E0,2.5066438E0,9.7543E-2,1.203932E0,1.1119318E-1,0E0,0E0,0E0,0E0,0E0,0E0,0E0,0E0,0E0,0E0],"parents":[2147483647,0,0,1,1,2,2,3,3,4,4,5,5,6,6,7,7,8,8,9,9,10,10,15,15,16,16,17,17,18,18,21,21,22,22,24,24,31,31,32,32,33,33,34,34],"right_children":[2,4,6,8,10,12,14,16,18,20,22,-1,-1,-1,-1,24,26,28,30,-1,-1,32,34,-1,36,-1,-1,-1,-1,-1,-1,38,40,42,44,-1,-1,-1,-1,-1,-1,-1,-1,-1,-1],"split_conditions":[7.597655E-1,-3.0978912E-1,-9.979602E-1,7.732469E-1,-9.9433106E-1,-3.3626653E-2,-9.403882E-1,1.6984154E-2,9.9584615E-1,-6.321985E-1,5.4989254E-1,1.3349754E-1,-1.1243511E-1,-8.260536E-2,-2.8168285E-1,-5.877441E-1,8.9935744E-1,-9.999995E-1,9.723829E-1,1.8368134E-2,2.6277432E-1,6.0221636E-1,-9.85192E-1,-1.12929344E-1,-9.972736E-1,-2.4753708E-1,7.015608E-2,2.4047047E-2,-2.5741673E-1,-2.0360763E-1,2.7801204E-1,-6.759708E-1,-6.892725E-1,2.5567415E-1,7.5616725E-2,-3.929682E-2,2.917842E-1,-1.4955541E-1,2.3600537E-1,-4.9269713E-2,-2.2797175E-1,-1.7147037E-1,1.203381E-1,-7.6690346E-2,-2.9228726E-1],"split_indices":[43,26,4,10,38,26,29,37,40,40,1,0,0,0,0,44,30,3,12,0,0,32,8,0,17,0,0,0,0,0,0,14,24,41,33,0,0,0,0,0,0,0,0,0,0],"split_type":[0,0,0,0,0,0,0,0,0,0,0,0,0,0,0,0,0,0,0,0,0,0,0,0,0,0,0,0,0,0,0,0,0,0,0,0,0,0,0,0,0,0,0,0,0],"sum_hessian":[7.505027E1,6.274257E1,1.2307696E1,3.9087933E1,2.3654638E1,2.0879023E0,1.0219794E1,2.794548E1,1.1142453E1,2.437069E0,2.121757E1,1.0001582E0,1.0877441E0,1.0447409E0,9.175054E0,2.3678213E1,4.2672668E0,6.9094563E0,4.2329965E0,1.1554955E0,1.2815733E0,9.360884E0,1.1856686E1,1.8189024E0,2.185931E1,3.252635E0,1.0146319E0,1.2134595E0,5.6959968E0,1.5128334E0,2.7201629E0,6.613175E0,2.7477083E0,3.3527615E0,8.503924E0,1.1866208E0,2.067269E1,1.2405846E0,5.3725905E0,1.0711788E0,1.6765295E0,2.0913994E0,1.2613621E0,1.1137035E0,7.390221E0],"tree_param":{"num_deleted":"0","num_feature":"49","num_nodes":"45","size_leaf_vector":"1"}},{"base_weights":[-4.8144557E-2,-7.1129376E-1,9.621668E-2,-2.7721506E-1,1.2242275E-1,2.4944238E-1,-3.6867318E-1,7.191198E-1,-6.2472593E-2,3.380752E-1,-6.134196E-1,1.4049795E-1,9.635824E-1,1.5199819E-1,-6.38628E-1,-1.4662762E-1,2.2941771E-1,1.4191405E-1,-8.007082E-1,6.593007E-1,-4.777917E-1,3.1214696E-1,2.514281E-2,-4.6442723E-1,5.362796E-1,6.51938E-2,-8.666336E-1,-1.1262992E-2,-8.86528E-1,5.7747927E-2,2.2859132E-1,-2.3515557E-1,3.3959508E-2,-2.3268828E-1,1.1639921E-1,2.0700052E-1,-7.2009824E-2,-6.168563E-2,-2.883925E-1,-2.9103702E-1,-4.5340307E-2],"categories":[],"categories_nodes":[],"categories_segments":[],"categories_sizes":[],"default_left":[0,0,0,0,0,0,0,0,0,0,0,0,0,0,0,0,0,0,0,0,0,0,0,0,0,0,0,0,0,0,0,0,0,0,0,0,0,0,0,0,0],"id":9,"left_children":[1,3,5,-1,-1,7,9,11,13,15,17,19,21,23,25,-1,-1,-1,27,29,31,-1,-1,33,35,-1,37,-1,39,-1,-1,-1,-1,-1,-1,-1,-1,-1,-1,-1,-1],"loss_changes":[6.319886E0,3.1856666E0,3.9747097E0,0E0,0E0,6.1381445E0,2.6144109E0,2.223794E0,3.2991936E0,1.8638945E0,2.5542989E0,2.279502E0,6.945553E-1,4.9137096E0,1.5977304E0,0E0,0E0,0E0,5.8831453E-1,3.306508E-2,6.9902337E-1,0E0,0E0,2.4490857E0,1.6685629E0,0E0,1.7176723E-1,0E0,3.7513542E-1,0E0,0E0,0E0,0E0,0E0,0E0,0E0,0E0,0E0,0E0,0E0,0E0],"parents":[2147483647,0,0,1,1,2,2,5,5,6,6,7,7,8,8,9,9,10,10,11,11,12,12,13,13,14,14,18,18,19,19,20,20,23,23,24,24,26,26,28,28],"right_children":[2,4,6,-1,-1,8,10,12,14,16,18,20,22,24,26,-1,-1,-1,28,30,32,-1,-1,34,36,-1,38,-1,40,-1,-1,-1,-1,-1,-1,-1,-1,-1,-1,-1,-1],"split_conditions":[-4.2929374E-2,4.6736598E-1,8.738041E-1,-2.7721506E-1,1.2242275E-1,-6.650939E-1,-9.917933E-1,-1.4153744E-1,2.6258358E-1,-7.038145E-1,-9.6795386E-1,-9.986154E-1,9.691639E-2,-6.9916266E-1,-8.162893E-1,-1.4662762E-1,2.2941771E-1,1.4191405E-1,-3.2045764E-1,9.9999523E-1,7.669675E-1,3.1214696E-1,2.514281E-2,9.842638E-1,6.4314044E-1,6.51938E-2,-4.3186498E-1,-1.1262992E-2,9.527324E-1,5.7747927E-2,2.2859132E-1,-2.3515557E-1,3.3959508E-2,-2.3268828E-1,1.1639921E-1,2.0700052E-1,-7.2009824E-2,-6.168563E-2,-2.883925E-1,-2.9103702E-1,-4.5340307E-2],"split_indices":[0,18,10,0,0,26,20,14,14,16,45,27,37,14,10,0,0,0,1,31,0,0,0,12,5,0,45,0,0,0,0,0,0,0,0,0,0,0,0,0,0],"split_type":[0,0,0,0,0,0,0,0,0,0,0,0,0,0,0,0,0,0,0,0,0,0,0,0,0,0,0,0,0,0,0,0,0,0,0,0,0,0,0,0,0],"sum_hessian":[6.4300835E1,1.0793192E1,5.3507645E1,9.216013E0,1.5771792E0,4.05921E1,1.29155445E1,1.56783495E1,2.491375E1,3.2240891E0,9.691455E0,5.124299E0,1.055405E1,1.8691956E1,6.221795E0,1.04784E0,2.1762493E0,1.2006553E0,8.4908E0,2.7502515E0,2.3740475E0,9.537619E0,1.0164323E0,7.097808E0,1.1594147E1,1.3186048E0,4.90319E0,1.003602E0,7.487198E0,1.0141442E0,1.7361072E0,1.3490623E0,1.0249852E0,5.2655654E0,1.8322426E0,9.770595E0,1.823552E0,1.0116615E0,3.8915286E0,6.4363604E0,1.0508373E0],"tree_param":{"num_deleted":"0","num_feature":"49","num_nodes":"41","size_leaf_vector":"1"}},{"base_weights":[-4.519893E-2,2.9705077E-1,-2.743122E-1,6.7529714E-1,-1.8986316E-1,-3.9692262E-1,5.1445484E-1,-3.5371184E-2,7.743625E-1,-6.979577E-1,2.1420395E-1,9.727034E-2,-5.827523E-1,2.2493485E-1,-5.4093502E-2,-2.0573106E-2,8.8127005E-1,-2.7473998E-1,-5.308548E-2,-2.7569604E-1,6.0355467E-1,-1.9659013E-1,3.1907967E-1,-7.687101E-1,3.8198225E-2,2.892754E-1,2.2918046E-2,9.080245E-2,-1.8206142E-1,6.016817E-2,2.0850381E-1,5.659219E-1,-1.519453E-1,4.0234253E-2,-8.3589256E-1,-1.9571939E-1,4.081099E-1,-6.3224465E-2,2.4592872E-1,-1.2065433E-2,-2.6646486E-1,1.8005082E-1,-3.3662096E-2],"categories":[],"categories_nodes":[],"categories_segments":[],"categories_sizes":[],"default_left":[0,0,0,0,0,0,0,0,0,0,0,0,0,0,0,0,0,0,0,0,0,0,0,0,0,0,0,0,0,0,0,0,0,0,0,0,0,0,0,0,0,0,0],"id":10,"left_children":[1,3,5,7,9,11,13,-1,15,17,19,21,23,-1,-1,-1,25,-1,-1,27,29,-1,31,33,35,-1,-1,-1,-1,-1,-1,37,-1,-1,39,-1,41,-1,-1,-1,-1,-1,-1],"loss_changes":[4.542465E0,4.4181147E0,3.5501523E0,1.1386485E0,2.400478E0,2.8583536E0,9.6740186E-1,0E0,1.1401181E0,4.1583753E-1,1.4772605E0,1.7437739E0,2.6059384E0,0E0,0E0,0E0,6.4129734E-1,0E0,0E0,8.980774E-1,1.3296366E-2,0E0,1.8707201E0,1.1564856E0,1.823279E0,0E0,0E0,0E0,0E0,0E0,0E0,1.4456482E0,0E0,0E0,6.372433E-1,0E0,5.254513E-1,0E0,0E0,0E0,0E0,0E0,0E0],"parents":[2147483647,0,0,1,1,2,2,3,3,4,4,5,5,6,6,8,8,9,9,10,10,11,11,12,12,16,16,19,19,20,20,22,22,23,23,24,24,31,31,34,34,36,36],"right_children":[2,4,6,8,10,12,14,-1,16,18,20,22,24,-1,-1,-1,26,-1,-1,28,30,-1,32,34,36,-1,-1,-1,-1,-1,-1,38,-1,-1,40,-1,42,-1,-1,-1,-1,-1,-1],"split_conditions":[-9.9999934E-1,-1.0808265E-1,9.555292E-1,-9.642372E-1,-7.6212966E-1,-1.9381113E-1,9.6609986E-1,-3.5371184E-2,-9.972736E-1,-5.6999075E-1,-8.9379504E-2,9.999998E-1,8.568188E-1,2.2493485E-1,-5.4093502E-2,-2.0573106E-2,8.050852E-1,-2.7473998E-1,-5.308548E-2,5.343936E-1,-9.762834E-1,-1.9659013E-1,8.738041E-1,-9.9915206E-1,-9.948044E-1,2.892754E-1,2.2918046E-2,9.080245E-2,-1.8206142E-1,6.016817E-2,2.0850381E-1,-9.9616116E-1,-1.519453E-1,4.0234253E-2,-9.9723864E-1,-1.9571939E-1,8.007671E-1,-6.3224465E-2,2.4592872E-1,-1.2065433E-2,-2.6646486E-1,1.8005082E-1,-3.3662096E-2],"split_indices":[3,37,0,45,38,32,12,0,17,14,7,19,17,0,0,0,10,0,0,12,4,0,10,8,26,0,0,0,0,0,0,17,0,0,24,0,32,0,0,0,0,0,0],"split_type":[0,0,0,0,0,0,0,0,0,0,0,0,0,0,0,0,0,0,0,0,0,0,0,0,0,0,0,0,0,0,0,0,0,0,0,0,0,0,0,0,0,0,0],"sum_hessian":[5.5890144E1,2.2292723E1,3.3597424E1,1.2328645E1,9.964078E0,2.9507404E1,4.0900173E0,1.347695E0,1.0980949E1,4.091671E0,5.8724065E0,8.193714E0,2.131369E1,2.99603E0,1.0939875E0,1.2762866E0,9.704662E0,2.3509452E0,1.740726E0,2.7296884E0,3.1427183E0,1.4203404E0,6.773374E0,1.621868E1,5.095011E0,8.618137E0,1.0865256E0,1.0252432E0,1.7044451E0,1.1718938E0,1.9708245E0,5.456417E0,1.3169568E0,1.0543014E0,1.5164378E1,1.5108025E0,3.5842085E0,1.3858682E0,4.070549E0,1.04481E0,1.4119568E1,2.5057988E0,1.0784098E0],"tree_param":{"num_deleted":"0","num_feature":"49","num_nodes":"43","size_leaf_vector":"1"}},{"base_weights":[-4.142423E-2,6.1801612E-2,-7.235817E-1,-4.5940384E-1,1.6728806E-1,-1.9173995E-2,-2.5222418E-1,7.63951E-2,-7.15097E-1,2.6349705E-1,-5.0800234E-1,-5.455395E-2,-7.974822E-1,-1.8497181E-1,3.1899187E-1,-1.9558996E-1,8.284101E-3,-6.723413E-2,-2.684601E-1,4.2966124E-1,-1.3415039E-1,3.6375903E-2,2.2236636E-1,1.8718481E-1,-1.9693944E-1],"categories":[],"categories_nodes":[],"categories_segments":[],"categories_sizes":[],"default_left":[0,0,0,0,0,0,0,0,0,0,0,0,0,0,0,0,0,0,0,0,0,0,0,0,0],"id":11,"left_children":[1,3,5,7,9,-1,-1,-1,11,13,15,-1,17,-1,19,-1,-1,-1,-1,21,23,-1,-1,-1,-1],"loss_changes":[3.5569627E0,2.5093882E0,4.590385E-1,1.5905477E0,2.5721264E0,0E0,0E0,0E0,1.1605883E-1,1.8331931E0,4.0521967E-1,0E0,7.0378065E-2,0E0,1.6714091E0,0E0,0E0,0E0,0E0,2.4181094E0,3.212455E0,0E0,0E0,0E0,0E0],"parents":[2147483647,0,0,1,1,2,2,3,3,4,4,8,8,9,9,10,10,12,12,14,14,19,19,20,20],"right_children":[2,4,6,8,10,-1,-1,-1,12,14,16,-1,18,-1,20,-1,-1,-1,-1,22,24,-1,-1,-1,-1],"split_conditions":[8.3524626E-1,9.999999E-1,-9.999998E-1,-2.837976E-1,2.3650494E-1,-1.9173995E-2,-2.5222418E-1,7.63951E-2,-9.481678E-1,-9.982527E-1,9.954607E-1,-5.455395E-2,-2.4374433E-1,-1.8497181E-1,8.848139E-1,-1.9558996E-1,8.284101E-3,-6.723413E-2,-2.684601E-1,7.769989E-1,2.896933E-1,3.6375903E-2,2.2236636E-1,1.8718481E-1,-1.9693944E-1],"split_indices":[43,25,3,43,37,0,0,0,24,17,12,0,22,0,10,0,0,0,0,0,1,0,0,0,0],"split_type":[0,0,0,0,0,0,0,0,0,0,0,0,0,0,0,0,0,0,0,0,0,0,0,0,0],"sum_hessian":[4.8878296E1,4.324392E1,5.6343794E0,6.7141924E0,3.6529724E1,1.0829003E0,4.5514793E0,1.7714058E0,4.942786E0,3.2508083E1,4.021643E0,1.0906515E0,3.852135E0,1.3285581E0,3.1179523E1,2.9984775E0,1.0231656E0,1.03859E0,2.813545E0,2.510101E1,6.0785155E0,1.33124275E1,1.1788581E1,2.4002087E0,3.6783068E0],"tree_param":{"num_deleted":"0","num_feature":"49","num_nodes":"25","size_leaf_vector":"1"}},{"base_weights":[-4.98373E-2,-6.1431354E-1,5.6142386E-2,-2.5114024E-1,8.741152E-2,-2.0804684E-1,1.1999034E-1,4.6138456E-1,-9.859572E-2,-1.1493975E-1,6.231172E-1,2.1456628E-1,-3.2505214E-1,-8.1891134E-2,7.436057E-1,4.3616402E-1,-1.4678124E-1,-6.5535724E-1,1.0950348E-1,2.5012198E-1,2.6684194E-3,-1.1910567E-1,2.0293476E-1,5.565775E-2,-2.433721E-1,1.4055386E-1,-8.934026E-2],"categories":[],"categories_nodes":[],"categories_segments":[],"categories_sizes":[],"default_left":[0,0,0,0,0,0,0,0,0,0,0,0,0,0,0,0,0,0,0,0,0,0,0,0,0,0,0],"id":12,"left_children":[1,3,5,-1,-1,-1,7,9,11,-1,13,15,17,-1,19,21,-1,23,25,-1,-1,-1,-1,-1,-1,-1,-1],"loss_changes":[2.7776573E0,1.7235625E0,1.974865E0,0E0,0E0,0E0,2.826963E0,2.2500324E0,1.7396871E0,0E0,1.5784373E0,1.8486392E0,2.0903482E0,0E0,7.54014E-1,1.97079E0,0E0,1.2166028E0,1.152878E0,0E0,0E0,0E0,0E0,0E0,0E0,0E0,0E0],"parents":[2147483647,0,0,1,1,2,2,6,6,7,7,8,8,10,10,11,11,12,12,14,14,15,15,17,17,18,18],"right_children":[2,4,6,-1,-1,-1,8,10,12,-1,14,16,18,-1,20,22,-1,24,26,-1,-1,-1,-1,-1,-1,-1,-1],"split_conditions":[-7.6944694E-2,4.6736598E-1,-9.948044E-1,-2.5114024E-1,8.741152E-2,-2.0804684E-1,-6.786688E-1,-9.936298E-1,5.90668E-1,-1.1493975E-1,-5.9552896E-1,8.2665965E-2,-5.74903E-1,-8.1891134E-2,9.642248E-1,-6.759708E-1,-1.4678124E-1,-9.999978E-1,-3.90457E-1,2.5012198E-1,2.6684194E-3,-1.1910567E-1,2.0293476E-1,5.565775E-2,-2.433721E-1,1.4055386E-1,-8.934026E-2],"split_indices":[0,18,26,0,0,0,26,18,1,0,7,13,18,0,42,14,0,2,18,0,0,0,0,0,0,0,0],"split_type":[0,0,0,0,0,0,0,0,0,0,0,0,0,0,0,0,0,0,0,0,0,0,0,0,0,0,0],"sum_hessian":[4.4854733E1,6.332044E0,3.852269E1,5.142544E0,1.1895005E0,2.2495375E0,3.627315E1,1.3725495E1,2.2547655E1,1.9860485E0,1.1739447E1,9.48439E0,1.3063266E1,1.2414085E0,1.0498038E1,7.5025687E0,1.9818214E0,7.133212E0,5.9300537E0,9.230817E0,1.2672216E0,1.5333685E0,5.9692E0,1.0858154E0,6.0473967E0,3.072016E0,2.8580377E0],"tree_param":{"num_deleted":"0","num_feature":"49","num_nodes":"27","size_leaf_vector":"1"}},{"base_weights":[-5.3217683E-2,4.6362344E-2,-5.496683E-1,2.4677046E-1,-1.8016846E-1,-2.2409433E-1,3.230059E-2,-2.4512249E-1,3.8573617E-1,-3.5307956E-1,2.0009641E-1,5.768516E-2,-1.7459148E-1,3.111393E-2,6.5320057E-1,1.390461E-1,-5.0269955E-1,5.4922247E-1,-1.5658063E-1,2.0616387E-1,-2.7774698E-1,8.04991E-1,-1.5870333E-2,7.380699E-2,-7.027636E-1,-1.9944686E-2,2.3377155E-1,-2.6211548E-1,8.8719495E-2,1.4563553E-3,2.8075236E-1,-1.1868195E-1,1.269708E-1,-2.3765661E-1,-3.3702627E-2],"categories":[],"categories_nodes":[],"categories_segments":[],"categories_sizes":[],"default_left":[0,0,0,0,0,0,0,0,0,0,0,0,0,0,0,0,0,0,0,0,0,0,0,0,0,0,0,0,0,0,0,0,0,0,0],"id":13,"left_children":[1,3,5,7,9,-1,-1,11,13,15,17,-1,-1,19,21,-1,23,25,-1,-1,27,29,-1,31,33,-1,-1,-1,-1,-1,-1,-1,-1,-1,-1],"loss_changes":[2.0595932E0,1.642207E0,9.8212075E-1,1.3998529E0,1.19489E0,0E0,0E0,8.2176083E-1,1.4287517E0,1.7131873E0,1.7948054E0,0E0,0E0,1.7347366E0,9.7066236E-1,0E0,1.2881737E0,6.919471E-1,0E0,0E0,2.2722223E0,7.480974E-1,0E0,7.6882666E-1,3.3616376E-1,0E0,0E0,0E0,0E0,0E0,0E0,0E0,0E0,0E0,0E0],"parents":[2147483647,0,0,1,1,2,2,3,3,4,4,7,7,8,8,9,9,10,10,13,13,14,14,16,16,17,17,20,20,21,21,23,23,24,24],"right_children":[2,4,6,8,10,-1,-1,12,14,16,18,-1,-1,20,22,-1,24,26,-1,-1,28,30,-1,32,34,-1,-1,-1,-1,-1,-1,-1,-1,-1,-1],"split_conditions":[7.414699E-1,-9.99997E-1,9.99997E-1,-9.908794E-1,8.93643E-1,-2.2409433E-1,3.230059E-2,4.9953374E-1,6.451897E-1,-9.9433106E-1,-1.0808265E-1,5.768516E-2,-1.7459148E-1,-9.8662215E-1,9.922328E-1,1.390461E-1,-4.1563606E-1,-1.3042893E-1,-1.5658063E-1,2.0616387E-1,1.603306E-1,-9.917933E-1,-1.5870333E-2,7.8987405E-2,9.8041236E-1,-1.9944686E-2,2.3377155E-1,-2.6211548E-1,8.8719495E-2,1.4563553E-3,2.8075236E-1,-1.1868195E-1,1.269708E-1,-2.3765661E-1,-3.3702627E-2],"split_indices":[43,2,47,26,0,0,0,23,0,38,37,0,0,24,1,0,22,14,0,0,30,18,0,7,12,0,0,0,0,0,0,0,0,0,0],"split_type":[0,0,0,0,0,0,0,0,0,0,0,0,0,0,0,0,0,0,0,0,0,0,0,0,0,0,0,0,0,0,0,0,0,0,0],"sum_hessian":[4.014584E1,3.4193737E1,5.9521027E0,1.8095552E1,1.6098186E1,4.4730525E0,1.47905E0,3.8178196E0,1.4277733E1,1.1115378E1,4.9828076E0,1.8477032E0,1.9701163E0,6.6186347E0,7.6590986E0,1.3964342E0,9.718944E0,3.520074E0,1.4627335E0,1.7263781E0,4.8922563E0,6.1886725E0,1.4704262E0,2.6664267E0,7.0525174E0,1.1507428E0,2.3693311E0,2.142345E0,2.7499115E0,1.0155823E0,5.17309E0,1.0814648E0,1.584962E0,5.828067E0,1.2244503E0],"tree_param":{"num_deleted":"0","num_feature":"49","num_nodes":"35","size_leaf_vector":"1"}},{"base_weights":[-4.462996E-2,-1.060843E-1,1.9575207E-1,-2.1503986E-1,2.547831E-5,-3.253599E-1,1.3142474E-1,6.846048E-2,-5.578764E-1,-4.228817E-1,2.4911463E-1,-1.4740968E-1,4.01609E-1,4.8963163E-2,-7.4709004E-1,-1.9851016E-1,5.3799946E-2,-2.554276E-1,5.22854E-1,1.7714922E-1,-2.3027353E-3,-2.517016E-1,-6.591745E-2,1.165731E-1,-1.2557489E-1,-5.541167E-2,1.8832786E-1],"categories":[],"categories_nodes":[],"categories_segments":[],"categories_sizes":[],"default_left":[0,0,0,0,0,0,0,0,0,0,0,0,0,0,0,0,0,0,0,0,0,0,0,0,0,0,0],"id":14,"left_children":[1,3,-1,-1,5,7,9,11,13,15,17,-1,19,-1,21,-1,-1,23,25,-1,-1,-1,-1,-1,-1,-1,-1],"loss_changes":[1.6439054E0,2.2446666E0,0E0,0E0,1.3472567E0,8.682226E-1,1.5696535E0,9.910501E-1,9.1447437E-1,7.3735356E-1,2.777643E0,0E0,2.533337E-1,0E0,4.73814E-2,0E0,0E0,9.4075E-1,1.0615323E0,0E0,0E0,0E0,0E0,0E0,0E0,0E0,0E0],"parents":[2147483647,0,0,1,1,4,4,5,5,6,6,7,7,8,8,9,9,10,10,12,12,14,14,17,17,18,18],"right_children":[2,4,-1,-1,6,8,10,12,14,16,18,-1,20,-1,22,-1,-1,24,26,-1,-1,-1,-1,-1,-1,-1,-1],"split_conditions":[5.0612295E-1,-4.2929374E-2,1.9575207E-1,-2.1503986E-1,-8.9379504E-2,-7.666619E-1,-9.9616116E-1,-7.038145E-1,-9.837698E-1,-2.0385992E-2,-8.2522094E-1,-1.4740968E-1,7.983147E-1,4.8963163E-2,8.5597625E-5,-1.9851016E-1,5.3799946E-2,8.7064E-1,-9.9948645E-1,1.7714922E-1,-2.3027353E-3,-2.517016E-1,-6.591745E-2,1.165731E-1,-1.2557489E-1,-5.541167E-2,1.8832786E-1],"split_indices":[18,0,0,0,7,22,17,16,20,15,36,0,33,0,41,0,0,12,16,0,0,0,0,0,0,0,0],"split_type":[0,0,0,0,0,0,0,0,0,0,0,0,0,0,0,0,0,0,0,0,0,0,0,0,0,0,0],"sum_hessian":[3.5755558E1,3.3638103E1,2.1174536E0,4.1274257E0,2.9510677E1,8.064458E0,2.144622E1,3.2557168E0,4.808741E0,3.3018208E0,1.81444E1,1.0374542E0,2.2182627E0,1.0281025E0,3.7806387E0,2.293511E0,1.0083098E0,6.4053264E0,1.1739072E1,1.2148464E0,1.0034162E0,2.7162771E0,1.0643617E0,1.0154635E0,5.389863E0,1.41753E0,1.0321543E1],"tree_param":{"num_deleted":"0","num_feature":"49","num_nodes":"27","size_leaf_vector":"1"}},{"base_weights":[-4.4261005E-2,1.8899196E-1,-2.0400017E-1,4.9263802E-1,-1.7872487E-1,-3.6787325E-1,1.4751224E-1,-4.9807813E-2,6.1994386E-1,-5.3181094E-1,2.1744162E-1,8.812558E-2,-4.9086478E-1,-1.3899677E-1,3.9020267E-1,-3.5079997E-2,7.6580757E-1,-2.2791333E-1,-3.5347436E-2,-5.7707176E-2,1.339953E-1,-6.836328E-1,2.0589864E-2,-5.2407917E-2,2.0363556E-1,2.5015542E-1,6.583508E-2,-4.168804E-4,-8.0650496E-1,-1.1414424E-1,3.0948478E-1,1.1385795E-1,-1.4367525E-1,-6.0704265E-2,-2.6120877E-1,-6.559008E-3,1.4433752E-1],"categories":[],"categories_nodes":[],"categories_segments":[],"categories_sizes":[],"default_left":[0,0,0,0,0,0,0,0,0,0,0,0,0,0,0,0,0,0,0,0,0,0,0,0,0,0,0,0,0,0,0,0,0,0,0,0,0],"id":15,"left_children":[1,3,5,7,9,11,13,-1,15,17,19,-1,21,-1,23,-1,25,-1,-1,-1,-1,27,29,31,-1,-1,-1,-1,33,-1,35,-1,-1,-1,-1,-1,-1],"loss_changes":[1.292491E0,1.6733816E0,1.2325785E0,7.7734053E-1,1.116554E0,1.3027765E0,1.2507969E0,0E0,8.3671284E-1,2.9482782E-1,4.6932092E-1,0E0,1.2346749E0,0E0,7.647054E-1,0E0,3.7661076E-2,0E0,0E0,0E0,0E0,7.550688E-1,6.228925E-1,7.678302E-1,0E0,0E0,0E0,0E0,1.20193005E-1,0E0,1.8600917E-1,0E0,0E0,0E0,0E0,0E0,0E0],"parents":[2147483647,0,0,1,1,2,2,3,3,4,4,5,5,6,6,8,8,9,9,10,10,12,12,14,14,16,16,21,21,22,22,23,23,28,28,30,30],"right_children":[2,4,6,8,10,12,14,-1,16,18,20,-1,22,-1,24,-1,26,-1,-1,-1,-1,28,30,32,-1,-1,-1,-1,34,-1,36,-1,-1,-1,-1,-1,-1],"split_conditions":[-9.9999934E-1,-1.0808265E-1,8.843273E-1,-9.642372E-1,-6.728787E-1,-9.9391335E-1,-9.612854E-1,-4.9807813E-2,-9.9445057E-1,-5.6999075E-1,-9.999998E-1,8.812558E-2,8.568188E-1,-1.3899677E-1,6.851552E-2,-3.5079997E-2,7.4152195E-1,-2.2791333E-1,-3.5347436E-2,-5.7707176E-2,1.339953E-1,-6.28555E-1,-9.9347275E-1,-3.0978912E-1,2.0363556E-1,2.5015542E-1,6.583508E-2,-4.168804E-4,-9.9999875E-1,-1.1414424E-1,4.8328647E-1,1.1385795E-1,-1.4367525E-1,-6.0704265E-2,-2.6120877E-1,-6.559008E-3,1.4433752E-1],"split_indices":[3,37,0,45,38,38,15,0,16,14,2,0,17,0,14,0,10,0,0,0,0,43,26,26,0,0,0,0,3,0,7,0,0,0,0,0,0],"split_type":[0,0,0,0,0,0,0,0,0,0,0,0,0,0,0,0,0,0,0,0,0,0,0,0,0,0,0,0,0,0,0,0,0,0,0,0,0],"sum_hessian":[3.265402E1,1.3198414E1,1.9455605E1,7.0429244E0,6.15549E0,1.3237715E1,6.2178903E0,1.0914989E0,5.9514256E0,3.073669E0,3.0818212E0,1.857425E0,1.138029E1,1.5094929E0,4.7083974E0,1.0161842E0,4.935241E0,1.4437627E0,1.6299063E0,1.1631061E0,1.918715E0,8.020651E0,3.3596392E0,2.1812782E0,2.527119E0,3.9207463E0,1.0144948E0,1.3784064E0,6.642244E0,1.2739719E0,2.0856671E0,1.1384777E0,1.0428007E0,1.0367502E0,5.605494E0,1.0094892E0,1.0761781E0],"tree_param":{"num_deleted":"0","num_feature":"49","num_nodes":"37","size_leaf_vector":"1"}},{"base_weights":[-4.013E-2,2.2169506E-2,-1.7291708E-1,1.6676077E-1,-2.3998354E-1,5.661563E-1,-8.189552E-2,-3.9177578E-2,-1.9658208E-1,7.4402213E-1,-1.45116085E-2,1.3388287E-1,-2.1792468E-1,1.4524707E-1,-1.7979863E-1,4.8879694E-2,2.5263733E-1,-4.319307E-1,1.9548689E-1,-1.1714045E-1,4.1623387E-1,-1.7989811E-1,6.649932E-2,-9.6929945E-2,1.6068321E-1,-2.0098746E-2,2.055693E-1],"categories":[],"categories_nodes":[],"categories_segments":[],"categories_sizes":[],"default_left":[0,0,0,0,0,0,0,0,0,0,0,0,0,0,0,0,0,0,0,0,0,0,0,0,0,0,0],"id":16,"left_children":[1,3,-1,5,7,9,11,13,-1,15,-1,-1,17,19,-1,-1,-1,21,23,-1,25,-1,-1,-1,-1,-1,-1],"loss_changes":[1.0318592E0,1.1124104E0,0E0,1.9158514E0,8.4721446E-1,8.392873E-1,9.935497E-1,9.2580724E-1,0E0,1.9118214E-1,0E0,0E0,1.0215452E0,1.1661059E0,0E0,0E0,0E0,9.32194E-1,9.3173146E-1,0E0,7.055748E-1,0E0,0E0,0E0,0E0,0E0,0E0],"parents":[2147483647,0,0,1,1,3,3,4,4,5,5,6,6,7,7,9,9,12,12,13,13,17,17,18,18,20,20],"right_children":[2,4,-1,6,8,10,12,14,-1,16,-1,-1,18,20,-1,-1,-1,22,24,-1,26,-1,-1,-1,-1,-1,-1],"split_conditions":[9.1717803E-1,-1.1659832E-1,-1.7291708E-1,-5.528008E-1,8.7139463E-1,6.043429E-1,-9.999997E-1,9.939265E-1,-1.9658208E-1,5.03821E-1,-1.45116085E-2,1.3388287E-1,-2.8828785E-1,-9.948044E-1,-1.7979863E-1,4.8879694E-2,2.5263733E-1,8.93643E-1,-5.2538294E-1,-1.1714045E-1,6.940208E-1,-1.7989811E-1,6.649932E-2,-9.6929945E-2,1.6068321E-1,-2.0098746E-2,2.055693E-1],"split_indices":[32,37,0,26,33,10,3,34,0,34,0,0,46,26,0,0,0,0,18,0,30,0,0,0,0,0,0],"split_type":[0,0,0,0,0,0,0,0,0,0,0,0,0,0,0,0,0,0,0,0,0,0,0,0,0,0,0],"sum_hessian":[2.950341E1,2.7291506E1,2.2119048E0,1.7824327E1,9.467178E0,6.3492312E0,1.1475096E1,7.11917E0,2.348008E0,4.7606215E0,1.5886099E0,1.8830155E0,9.59208E0,5.913052E0,1.206118E0,1.071953E0,3.6886683E0,6.290799E0,3.301281E0,1.8381975E0,4.074855E0,5.0717697E0,1.2190292E0,1.3274187E0,1.9738623E0,1.7257102E0,2.3491445E0],"tree_param":{"num_deleted":"0","num_feature":"49","num_nodes":"27","size_leaf_vector":"1"}},{"base_weights":[-3.34681E-2,-8.983552E-2,1.681361E-1,-1.8488349E-1,-5.7296194E-3,8.232834E-2,-4.485216E-1,-1.5718752E-1,1.4047715E-1,-1.9782756E-1,7.0017097E-3,-2.1749167E-1,2.557411E-1,-1.4754346E-1,5.524679E-2,1.0866763E-1,-7.2587885E-2],"categories":[],"categories_nodes":[],"categories_segments":[],"categories_sizes":[],"default_left":[0,0,0,0,0,0,0,0,0,0,0,0,0,0,0,0,0],"id":17,"left_children":[1,3,-1,-1,5,7,9,-1,11,-1,-1,13,15,-1,-1,-1,-1],"loss_changes":[9.8574173E-1,1.1645219E0,0E0,0E0,9.632028E-1,8.019764E-1,4.2298758E-1,0E0,8.660136E-1,0E0,0E0,6.771939E-1,8.993739E-1,0E0,0E0,0E0,0E0],"parents":[2147483647,0,0,1,1,4,4,5,5,6,6,8,8,11,11,12,12],"right_children":[2,4,-1,-1,6,8,10,-1,12,-1,-1,14,16,-1,-1,-1,-1],"split_conditions":[5.0612295E-1,-6.092478E-2,1.681361E-1,-1.8488349E-1,8.3045423E-1,-9.982527E-1,7.1684754E-1,-1.5718752E-1,-8.5693926E-2,-1.9782756E-1,7.0017097E-3,-6.728787E-1,8.848139E-1,-1.4754346E-1,5.524679E-2,1.0866763E-1,-7.2587885E-2],"split_indices":[18,0,0,0,14,17,17,0,7,0,0,38,10,0,0,0,0],"split_type":[0,0,0,0,0,0,0,0,0,0,0,0,0,0,0,0,0],"sum_hessian":[2.6940674E1,2.5380615E1,1.5600598E0,2.6246667E0,2.2755947E1,1.9660198E1,3.0957499E0,1.0195233E0,1.8640675E1,1.8647695E0,1.2309804E0,4.324236E0,1.4316439E1,2.4359977E0,1.8882381E0,1.2017473E1,2.2989657E0],"tree_param":{"num_deleted":"0","num_feature":"49","num_nodes":"17","size_leaf_vector":"1"}},{"base_weights":[-4.2360127E-2,9.8788016E-2,-2.8374362E-1,1.7624229E-1,7.3415274E-4,-4.9013692E-1,6.9217026E-2,-2.3663734E-1,2.2415993E-1,3.9704606E-2,-6.333988E-1,-2.6788148E-1,1.3943015E-1,-4.8323256E-1,1.6945645E-1,4.122284E-1,-8.176155E-2,-4.015286E-2,-2.1763356E-1,-1.2343331E-1,5.011832E-3,9.682163E-2,-2.3195793E-1,1.2209548E-1,-3.3947676E-2,-4.440427E-3,5.956934E-1,-6.878587E-2,6.677693E-2,2.1563223E-1,3.9603144E-2],"categories":[],"categories_nodes":[],"categories_segments":[],"categories_sizes":[],"default_left":[0,0,0,0,0,0,0,0,0,0,0,0,0,0,0,0,0,0,0,0,0,0,0,0,0,0,0,0,0,0,0],"id":18,"left_children":[1,3,5,-1,7,9,11,13,15,-1,17,19,-1,21,23,25,-1,-1,-1,-1,-1,-1,-1,-1,-1,27,29,-1,-1,-1,-1],"loss_changes":[9.300192E-1,8.3559716E-1,7.643588E-1,0E0,8.768229E-1,6.590972E-1,7.346585E-1,8.847952E-1,9.0775865E-1,0E0,1.5197825E-1,1.3372743E-1,0E0,1.4760396E0,2.991048E-1,5.0521684E-1,0E0,0E0,0E0,0E0,0E0,0E0,0E0,0E0,0E0,2.0430104E-1,1.6603649E-1,0E0,0E0,0E0,0E0],"parents":[2147483647,0,0,1,1,2,2,4,4,5,5,6,6,7,7,8,8,10,10,11,11,13,13,14,14,15,15,25,25,26,26],"right_children":[2,4,6,-1,8,10,12,14,16,-1,18,20,-1,22,24,26,-1,-1,-1,-1,-1,-1,-1,-1,-1,28,30,-1,-1,-1,-1],"split_conditions":[-9.999968E-1,-9.953597E-1,-4.515248E-1,1.7624229E-1,-4.156701E-2,-2.176412E-1,-3.3376637E-1,6.34794E-1,8.341199E-1,3.9704606E-2,-9.7076243E-1,-9.17647E-1,1.3943015E-1,-9.4651777E-1,-9.923474E-1,6.451897E-1,-8.176155E-2,-4.015286E-2,-2.1763356E-1,-1.2343331E-1,5.011832E-3,9.682163E-2,-2.3195793E-1,1.2209548E-1,-3.3947676E-2,2.4295917E-1,-3.9146464E-2,-6.878587E-2,6.677693E-2,2.1563223E-1,3.9603144E-2],"split_indices":[3,24,18,0,14,43,46,30,14,0,46,13,0,35,15,0,0,0,0,0,0,0,0,0,0,9,37,0,0,0,0],"split_type":[0,0,0,0,0,0,0,0,0,0,0,0,0,0,0,0,0,0,0,0,0,0,0,0,0,0,0,0,0,0,0],"sum_hessian":[2.5473928E1,1.6447218E1,9.0267105E0,1.9144639E0,1.4532755E1,5.450748E0,3.5759628E0,7.017794E0,7.5149603E0,1.0340189E0,4.416729E0,2.104885E0,1.4710777E0,4.2481856E0,2.7696087E0,5.5743628E0,1.940598E0,1.0690176E0,3.3477113E0,1.1028073E0,1.0020778E0,1.0940716E0,3.1541138E0,1.2657354E0,1.5038735E0,2.0024283E0,3.5719342E0,1.0010616E0,1.0013669E0,2.3879359E0,1.1839982E0],"tree_param":{"num_deleted":"0","num_feature":"49","num_nodes":"31","size_leaf_vector":"1"}},{"base_weights":[-2.97471E-2,1.3244858E-1,-2.0668662E-1,1.8641934E-1,1.665104E-2,-4.0218973E-1,1.6779754E-1,-2.4676578E-1,2.4564438E-1,7.064251E-2,-5.377113E-1,3.8091466E-1,-5.1551E-2,1.3923426E-1,-5.4976267E-1,4.9217454E-1,-1.4567363E-1,-2.2397013E-1,2.5489567E-2,-1.4891886E-2,1.8420275E-1,1.2691376E-1,-4.7687523E-2,-3.37979E-2,-2.0291325E-1,3.138817E-2,1.9215351E-1,-1.3219965E-1,8.250169E-2],"categories":[],"categories_nodes":[],"categories_segments":[],"categories_sizes":[],"default_left":[0,0,0,0,0,0,0,0,0,0,0,0,0,0,0,0,0,0,0,0,0,0,0,0,0,0,0,0,0],"id":19,"left_children":[1,3,5,-1,7,9,11,13,15,-1,17,19,-1,21,23,25,27,-1,-1,-1,-1,-1,-1,-1,-1,-1,-1,-1,-1],"loss_changes":[7.291808E-1,7.46543E-1,9.5234054E-1,0E0,7.7456594E-1,8.3826244E-1,4.1658497E-1,7.786487E-1,7.308686E-1,0E0,9.862809E-1,3.6082208E-1,0E0,3.5819545E-1,1.2111235E-1,1.8709683E-1,5.446679E-1,0E0,0E0,0E0,0E0,0E0,0E0,0E0,0E0,0E0,0E0,0E0,0E0],"parents":[2147483647,0,0,1,1,2,2,4,4,5,5,6,6,7,7,8,8,10,10,11,11,13,13,14,14,15,15,16,16],"right_children":[2,4,6,-1,8,10,12,14,16,-1,18,20,-1,22,24,26,28,-1,-1,-1,-1,-1,-1,-1,-1,-1,-1,-1,-1],"split_conditions":[-9.999987E-1,-9.953597E-1,8.826808E-1,1.8641934E-1,4.5920348E-1,-9.9433106E-1,2.5859347E-2,-6.541041E-1,-4.8222047E-1,7.064251E-2,7.188919E-1,-9.994219E-1,-5.1551E-2,-6.5509844E-1,-3.982187E-1,9.995513E-1,6.287881E-1,-2.2397013E-1,2.5489567E-2,-1.4891886E-2,1.8420275E-1,1.2691376E-1,-4.7687523E-2,-3.37979E-2,-2.0291325E-1,3.138817E-2,1.9215351E-1,-1.3219965E-1,8.250169E-2],"split_indices":[3,24,0,0,35,38,10,29,22,0,14,16,0,39,10,47,16,0,0,0,0,0,0,0,0,0,0,0,0],"split_type":[0,0,0,0,0,0,0,0,0,0,0,0,0,0,0,0,0,0,0,0,0,0,0,0,0,0,0,0,0],"sum_hessian":[2.3454151E1,1.2368097E1,1.1086055E1,1.5322036E0,1.0835894E1,7.234979E0,3.8510754E0,5.0030956E0,5.8327985E0,1.1388487E0,6.096131E0,2.2915847E0,1.5594907E0,2.43787E0,2.5652254E0,3.420285E0,2.4125135E0,4.4159765E0,1.6801543E0,1.0813109E0,1.2102737E0,1.0345315E0,1.4033384E0,1.000625E0,1.5646005E0,1.418813E0,2.001472E0,1.3901751E0,1.0223383E0],"tree_param":{"num_deleted":"0","num_feature":"49","num_nodes":"29","size_leaf_vector":"1"}},{"base_weights":[-1.6121794E-2,-6.7512654E-2,1.4539519E-1,-1.6879566E-1,6.3406085E-5,3.0602726E-1,-1.7453948E-1,-6.603984E-2,5.183975E-1,-2.637339E-2,-5.1248384E-1,-1.1459453E-1,8.746817E-2,-2.0324094E-3,2.0366833E-1,-2.7085662E-1,1.2766108E-1,-1.9560343E-1,-1.8596759E-2,-1.379195E-1,3.715781E-2,-9.0746686E-2,1.0266945E-1],"categories":[],"categories_nodes":[],"categories_segments":[],"categories_sizes":[],"default_left":[0,0,0,0,0,0,0,0,0,0,0,0,0,0,0,0,0,0,0,0,0,0,0],"id":20,"left_children":[1,3,-1,-1,5,7,9,11,13,15,17,-1,-1,-1,-1,19,21,-1,-1,-1,-1,-1,-1],"loss_changes":[6.141788E-1,7.150281E-1,0E0,0E0,1.1113096E0,6.3143766E-1,6.496643E-1,5.2187526E-1,4.1968715E-1,4.210285E-1,2.099191E-1,0E0,0E0,0E0,0E0,3.7652776E-1,7.4730855E-1,0E0,0E0,0E0,0E0,0E0,0E0],"parents":[2147483647,0,0,1,1,4,4,5,5,6,6,7,7,8,8,9,9,10,10,15,15,16,16],"right_children":[2,4,-1,-1,6,8,10,12,14,16,18,-1,-1,-1,-1,20,22,-1,-1,-1,-1,-1,-1],"split_conditions":[5.0612295E-1,-9.948044E-1,1.4539519E-1,-1.6879566E-1,-7.392325E-1,-1.4153744E-1,4.750505E-1,-7.8344785E-2,-9.908794E-1,9.999503E-1,8.5597625E-5,-1.1459453E-1,8.746817E-2,-2.0324094E-3,2.0366833E-1,1.170096E-1,-9.9616116E-1,-1.9560343E-1,-1.8596759E-2,-1.379195E-1,3.715781E-2,-9.0746686E-2,1.0266945E-1],"split_indices":[18,26,0,0,26,14,32,36,26,47,41,0,0,0,0,32,17,0,0,0,0,0,0],"split_type":[0,0,0,0,0,0,0,0,0,0,0,0,0,0,0,0,0,0,0,0,0,0,0],"sum_hessian":[2.1593975E1,2.0368843E1,1.2251325E0,1.5662795E0,1.8802563E1,6.5580015E0,1.2244561E1,2.6333957E0,3.9246056E0,9.261884E0,2.982678E0,1.3619367E0,1.2714589E0,1.142839E0,2.7817667E0,3.286748E0,5.975136E0,1.9357979E0,1.04688E0,2.1116092E0,1.1751388E0,1.8522272E0,4.1229086E0],"tree_param":{"num_deleted":"0","num_feature":"49","num_nodes":"23","size_leaf_vector":"1"}},{"base_weights":[-1.9644352E-2,-2.520226E-1,7.628707E-2,-1.7089172E-1,-2.2693947E-2,2.388172E-1,-2.1198525E-1,1.726059E-1,-8.140376E-2,4.3006277E-1,-8.470134E-2,1.6744559E-1,-5.676554E-1,1.1247158E-1,-3.5979852E-2,-2.9391821E-2,5.620662E-1,-1.2666774E-1,2.374668E-1,-6.8072565E-2,1.6471328E-1,-5.27993E-2,-1.9744243E-1,6.1951244E-1,4.601297E-2,1.5089446E-1,-4.291659E-2,2.0810981E-1,5.4318585E-2],"categories":[],"categories_nodes":[],"categories_segments":[],"categories_sizes":[],"default_left":[0,0,0,0,0,0,0,0,0,0,0,0,0,0,0,0,0,0,0,0,0,0,0,0,0,0,0,0,0],"id":21,"left_children":[1,3,5,-1,7,9,11,13,-1,15,17,19,21,-1,-1,-1,23,-1,25,-1,-1,-1,-1,27,-1,-1,-1,-1,-1],"loss_changes":[4.8957974E-1,4.5305994E-1,7.862997E-1,0E0,2.7782464E-1,6.8675613E-1,9.3051344E-1,2.3879829E-1,0E0,5.2698576E-1,6.157447E-1,6.9154423E-1,5.4867268E-3,0E0,0E0,0E0,3.563118E-2,0E0,3.8167045E-1,0E0,0E0,0E0,0E0,2.2396922E-2,0E0,0E0,0E0,0E0,0E0],"parents":[2147483647,0,0,1,1,2,2,4,4,5,5,6,6,7,7,9,9,10,10,11,11,12,12,16,16,18,18,23,23],"right_children":[2,4,6,-1,8,10,12,14,-1,16,18,20,22,-1,-1,-1,24,-1,26,-1,-1,-1,-1,28,-1,-1,-1,-1,-1],"split_conditions":[-8.2522094E-1,-2.1747327E-1,-1.7636713E-1,-1.7089172E-1,1.3409454E-1,-6.5476054E-1,-9.5347893E-1,5.691725E-1,-8.140376E-2,-9.6354884E-1,-2.1328263E-2,-3.9173168E-1,-6.3839114E-1,1.1247158E-1,-3.5979852E-2,-2.9391821E-2,2.6006502E-1,-1.2666774E-1,-8.559886E-1,-6.8072565E-2,1.6471328E-1,-5.27993E-2,-1.9744243E-1,9.9422276E-1,4.601297E-2,1.5089446E-1,-4.291659E-2,2.0810981E-1,5.4318585E-2],"split_indices":[36,14,29,0,37,8,24,32,0,24,18,46,10,0,0,0,20,0,10,0,0,0,0,34,0,0,0,0,0],"split_type":[0,0,0,0,0,0,0,0,0,0,0,0,0,0,0,0,0,0,0,0,0,0,0,0,0,0,0,0,0],"sum_hessian":[2.0099306E1,5.397537E0,1.4701769E1,1.640932E0,3.7566054E0,9.510968E0,5.1908E0,2.275322E0,1.4812834E0,5.770469E0,3.7404993E0,2.7675612E0,2.4232388E0,1.1786748E0,1.096647E0,1.2056142E0,4.564855E0,1.675041E0,2.0654585E0,1.5603884E0,1.2071729E0,1.0074855E0,1.4157531E0,3.5500078E0,1.0148473E0,1.0270205E0,1.038438E0,2.538351E0,1.0116565E0],"tree_param":{"num_deleted":"0","num_feature":"49","num_nodes":"29","size_leaf_vector":"1"}},{"base_weights":[-1.7352475E-2,3.572865E-2,-1.2336899E-1,1.7552029E-1,-1.9558819E-1,4.9243265E-1,-1.908402E-2,-3.293573E-1,6.1400954E-2,4.665254E-3,1.9588909E-1,2.5618774E-1,-1.7467926E-1,4.7866236E-2,-4.6451375E-1,-1.9516967E-2,1.2538622E-1,-4.086574E-1,1.8355313E-1,-1.7185113E-1,-6.9092005E-3,-1.7263524E-1,-2.2765797E-2,-5.2227456E-2,1.3612755E-1],"categories":[],"categories_nodes":[],"categories_segments":[],"categories_sizes":[],"default_left":[0,0,0,0,0,0,0,0,0,0,0,0,0,0,0,0,0,0,0,0,0,0,0,0,0],"id":22,"left_children":[1,3,-1,5,7,9,11,13,-1,-1,-1,15,17,-1,19,-1,-1,21,23,-1,-1,-1,-1,-1,-1],"loss_changes":[4.2750806E-1,6.2672913E-1,0E0,7.46147E-1,4.6222258E-1,3.4063065E-1,4.029883E-1,4.6464783E-1,0E0,0E0,0E0,2.0521885E-1,5.727382E-1,0E0,2.2045815E-1,0E0,0E0,1.7290705E-1,3.7240416E-1,0E0,0E0,0E0,0E0,0E0,0E0],"parents":[2147483647,0,0,1,1,3,3,4,4,5,5,6,6,7,7,11,11,12,12,14,14,17,17,18,18],"right_children":[2,4,-1,6,8,10,12,14,-1,-1,-1,16,18,-1,20,-1,-1,22,24,-1,-1,-1,-1,-1,-1],"split_conditions":[9.1717803E-1,-1.4643416E-1,-1.2336899E-1,-5.528008E-1,9.954273E-1,-9.883957E-1,-2.1288995E-1,1.8367064E-1,6.1400954E-2,4.665254E-3,1.9588909E-1,2.754006E-1,3.773014E-1,4.7866236E-2,9.954607E-1,-1.9516967E-2,1.2538622E-1,9.8397416E-1,9.9995595E-1,-1.7185113E-1,-6.9092005E-3,-1.7263524E-1,-2.2765797E-2,-5.2227456E-2,1.3612755E-1],"split_indices":[32,37,0,26,40,18,20,34,0,0,0,30,41,0,12,0,0,12,47,0,0,0,0,0,0],"split_type":[0,0,0,0,0,0,0,0,0,0,0,0,0,0,0,0,0,0,0,0,0,0,0,0,0],"sum_hessian":[1.8744884E1,1.732003E1,1.4248538E0,1.09461565E1,6.3738747E0,3.5821722E0,7.363984E0,4.9100413E0,1.4638333E0,1.1784062E0,2.403766E0,2.425826E0,4.938158E0,1.0242896E0,3.8857515E0,1.0126625E0,1.4131637E0,2.90198E0,2.0361779E0,2.8812683E0,1.0044833E0,1.4472932E0,1.4546868E0,1.029386E0,1.006792E0],"tree_param":{"num_deleted":"0","num_feature":"49","num_nodes":"25","size_leaf_vector":"1"}},{"base_weights":[-1.2685311E-2,-2.3052432E-1,8.017784E-2,-1.539897E-1,-2.6225254E-2,2.224626E-1,-1.7740831E-1,5.4184865E-2,-6.2291425E-2,-8.249565E-2,3.7881544E-1,1.624254E-1,-1.5514436E-1,5.926983E-2,-1.177847E-1,4.88541E-1,-2.974585E-2,-6.36264E-2,1.2433006E-1,3.0255886E-2,2.036623E-1],"categories":[],"categories_nodes":[],"categories_segments":[],"categories_sizes":[],"default_left":[0,0,0,0,0,0,0,0,0,0,0,0,0,0,0,0,0,0,0,0,0],"id":23,"left_children":[1,3,5,-1,7,9,11,-1,-1,13,15,17,-1,-1,-1,19,-1,-1,-1,-1,-1],"loss_changes":[3.9607733E-1,3.237408E-1,5.4630315E-1,0E0,2.042023E-1,4.7715747E-1,7.163471E-1,0E0,0E0,4.241804E-1,3.8204747E-1,4.1814476E-1,0E0,0E0,0E0,3.257283E-1,0E0,0E0,0E0,0E0,0E0],"parents":[2147483647,0,0,1,1,2,2,4,4,5,5,6,6,9,9,10,10,11,11,15,15],"right_children":[2,4,6,-1,8,10,12,-1,-1,14,16,18,-1,-1,-1,20,-1,-1,-1,-1,-1],"split_conditions":[-8.2522094E-1,-2.1747327E-1,-1.7636713E-1,-1.539897E-1,2.896933E-1,4.556348E-2,-9.928897E-1,5.4184865E-2,-6.2291425E-2,-7.850741E-1,5.3368456E-4,3.773014E-1,-1.5514436E-1,5.926983E-2,-1.177847E-1,-5.1154137E-1,-2.974585E-2,-6.36264E-2,1.2433006E-1,3.0255886E-2,2.036623E-1],"split_indices":[36,14,29,0,1,30,17,0,0,39,41,41,0,0,0,38,0,0,0,0,0],"split_type":[0,0,0,0,0,0,0,0,0,0,0,0,0,0,0,0,0,0,0,0,0],"sum_hessian":[1.7665796E1,4.8369164E0,1.2828879E1,1.3944037E0,3.4425125E0,8.351858E0,4.4770207E0,1.6105746E0,1.8319379E0,2.9908106E0,5.3610477E0,2.4991202E0,1.9779006E0,1.7622776E0,1.228533E0,4.3421216E0,1.0189261E0,1.0689477E0,1.4301726E0,1.9335561E0,2.4085655E0],"tree_param":{"num_deleted":"0","num_feature":"49","num_nodes":"21","size_leaf_vector":"1"}},{"base_weights":[-1.4817178E-2,2.4621382E-1,-9.9200755E-2,-4.5208897E-2,1.698975E-1,-1.6448979E-1,9.757922E-2,8.237929E-2,-1.1217364E-1,-2.452944E-1,1.4458449E-1,-4.9682884E-3,-4.9524572E-1,-5.7398498E-2,1.2914008E-1,2.4792896E-1,-2.7437147E-1,-2.024887E-1,-1.4588075E-2,1.1711373E-1,-1.7530357E-2,-1.4590445E-1,2.577369E-2],"categories":[],"categories_nodes":[],"categories_segments":[],"categories_sizes":[],"default_left":[0,0,0,0,0,0,0,0,0,0,0,0,0,0,0,0,0,0,0,0,0,0,0],"id":24,"left_children":[1,3,5,7,-1,9,-1,-1,-1,11,13,15,17,-1,-1,19,21,-1,-1,-1,-1,-1,-1],"loss_changes":[4.1503417E-1,4.5653677E-1,4.4464317E-1,4.5421523E-1,0E0,3.5755414E-1,0E0,0E0,0E0,6.339536E-1,3.994619E-1,5.0484294E-1,3.8320363E-1,0E0,0E0,1.9006026E-1,3.1512442E-1,0E0,0E0,0E0,0E0,0E0,0E0],"parents":[2147483647,0,0,1,1,2,2,3,3,5,5,9,9,10,10,11,11,12,12,15,15,16,16],"right_children":[2,4,6,8,-1,10,-1,-1,-1,12,14,16,18,-1,-1,20,22,-1,-1,-1,-1,-1,-1],"split_conditions":[7.974341E-1,6.2910306E-1,9.9999774E-1,9.9900216E-1,1.698975E-1,6.287881E-1,9.757922E-2,8.237929E-2,-1.1217364E-1,-9.166025E-1,5.6587636E-1,-9.814769E-1,-1.2593624E-1,-5.7398498E-2,1.2914008E-1,-9.597438E-1,9.1354454E-1,-2.024887E-1,-1.4588075E-2,1.1711373E-1,-1.7530357E-2,-1.4590445E-1,2.577369E-2],"split_indices":[12,0,31,31,0,16,0,0,0,24,7,13,24,0,0,4,0,0,0,0,0,0,0],"split_type":[0,0,0,0,0,0,0,0,0,0,0,0,0,0,0,0,0,0,0,0,0,0,0],"sum_hessian":[1.6733435E1,3.6194096E0,1.3114025E1,2.344131E0,1.2752786E0,1.1896624E1,1.2174017E0,1.2715755E0,1.0725557E0,9.59457E0,2.302054E0,5.4114156E0,4.1831546E0,1.2104802E0,1.0915737E0,2.8323293E0,2.5790863E0,2.6182966E0,1.5648577E0,1.746174E0,1.0861552E0,1.4034494E0,1.175637E0],"tree_param":{"num_deleted":"0","num_feature":"49","num_nodes":"23","size_leaf_vector":"1"}},{"base_weights":[-8.075921E-3,-1.1795176E-1,5.2619524E-2,2.9709783E-1,-9.753826E-2,4.1574842E-1,-3.0289344E-2,9.99851E-2,-2.793613E-1,1.7603575E-1,-1.518714E-2,1.357992E-1,-1.2861915E-1,2.9865518E-2,-4.8238358E-1,2.7237097E-2,-1.0793784E-1,-1.8917538E-1,-9.904972E-3],"categories":[],"categories_nodes":[],"categories_segments":[],"categories_sizes":[],"default_left":[0,0,0,0,0,0,0,0,0,0,0,0,0,0,0,0,0,0,0],"id":25,"left_children":[1,-1,3,5,7,9,-1,11,13,-1,-1,-1,15,-1,17,-1,-1,-1,-1],"loss_changes":[4.109113E-1,0E0,5.9079015E-1,3.286758E-1,3.9546695E-1,4.1831172E-1,0E0,5.1305985E-1,4.7821608E-1,0E0,0E0,0E0,2.4577603E-1,0E0,2.3306549E-1,0E0,0E0,0E0,0E0],"parents":[2147483647,0,0,2,2,3,3,4,4,5,5,7,7,8,8,12,12,14,14],"right_children":[2,-1,4,6,8,10,-1,12,14,-1,-1,-1,16,-1,18,-1,-1,-1,-1],"split_conditions":[-9.948044E-1,-1.1795176E-1,-7.0225906E-1,7.92416E-1,-3.833865E-1,-3.0399686E-1,-3.0289344E-2,-9.674452E-1,-9.986888E-1,1.7603575E-1,-1.518714E-2,1.357992E-1,9.9968386E-1,2.9865518E-2,-4.8552433E-1,2.7237097E-2,-1.0793784E-1,-1.8917538E-1,-9.904972E-3],"split_indices":[26,0,26,32,10,8,0,4,4,0,0,0,31,0,38,0,0,0,0],"split_type":[0,0,0,0,0,0,0,0,0,0,0,0,0,0,0,0,0,0,0],"sum_hessian":[1.5695014E1,1.3910943E0,1.430392E1,5.070253E0,9.233666E0,3.8717642E0,1.1984886E0,4.6414866E0,4.59218E0,2.6439352E0,1.2278292E0,1.4399246E0,3.2015622E0,1.7798976E0,2.812282E0,1.954135E0,1.2474273E0,1.811558E0,1.0007241E0],"tree_param":{"num_deleted":"0","num_feature":"49","num_nodes":"19","size_leaf_vector":"1"}},{"base_weights":[-1.2446166E-2,8.943993E-2,-1.9681838E-1,-8.802836E-2,2.656048E-1,-1.5096235E-1,-3.0151417E-2,6.4184144E-2,-2.769293E-1,1.6360146E-1,2.0386097E-3,-2.2278048E-1,7.519999E-2,-3.9290673E-1,8.906225E-3,-9.120044E-2,7.168934E-2,-1.2404521E-1,2.6925297E-2,-2.6096359E-2,-1.5123296E-1],"categories":[],"categories_nodes":[],"categories_segments":[],"categories_sizes":[],"default_left":[0,0,0,0,0,0,0,0,0,0,0,0,0,0,0,0,0,0,0,0,0],"id":26,"left_children":[1,3,5,7,9,-1,11,-1,13,-1,15,17,-1,19,-1,-1,-1,-1,-1,-1,-1],"loss_changes":[3.1551152E-1,3.642133E-1,2.8902104E-1,4.1188625E-1,4.206104E-1,0E0,3.2209086E-1,0E0,1.6239938E-1,0E0,3.5897073E-1,2.4266426E-1,0E0,6.31645E-2,0E0,0E0,0E0,0E0,0E0,0E0,0E0],"parents":[2147483647,0,0,1,1,2,2,3,3,4,4,6,6,8,8,10,10,11,11,13,13],"right_children":[2,4,6,8,10,-1,12,-1,14,-1,16,18,-1,20,-1,-1,-1,-1,-1,-1,-1],"split_conditions":[4.8016104E-1,8.88115E-2,-7.458668E-2,9.997174E-1,-9.999992E-1,-1.5096235E-1,9.029318E-1,6.4184144E-2,9.7395897E-1,1.6360146E-1,-4.411564E-1,6.755783E-1,7.519999E-2,-3.6549053E-1,8.906225E-3,-9.120044E-2,7.168934E-2,-1.2404521E-1,2.6925297E-2,-2.6096359E-2,-1.5123296E-1],"split_indices":[43,32,7,31,3,0,44,0,12,0,5,0,0,37,0,0,0,0,0,0,0],"split_type":[0,0,0,0,0,0,0,0,0,0,0,0,0,0,0,0,0,0,0,0,0],"sum_hessian":[1.4858858E1,9.901871E0,4.956987E0,5.1819186E0,4.719952E0,1.0350249E0,3.921962E0,1.9431022E0,3.2388165E0,1.7711182E0,2.9488337E0,2.448838E0,1.473124E0,2.145759E0,1.0930574E0,1.1632026E0,1.7856312E0,1.320231E0,1.128607E0,1.0471901E0,1.098569E0],"tree_param":{"num_deleted":"0","num_feature":"49","num_nodes":"21","size_leaf_vector":"1"}},{"base_weights":[-1.8308524E-2,2.0554464E-1,-9.012375E-2,-2.8046334E-2,1.2588733E-1,-2.4368128E-1,6.0707994E-2,-3.512693E-2,-1.3686687E-1,1.8038389E-1,-8.089182E-2,-6.674262E-2,6.24367E-2,3.8190246E-1,-5.5599812E-2,1.6479775E-1,-4.7936575E-3],"categories":[],"categories_nodes":[],"categories_segments":[],"categories_sizes":[],"default_left":[0,0,0,0,0,0,0,0,0,0,0,0,0,0,0,0,0],"id":27,"left_children":[1,3,5,-1,-1,7,9,11,-1,13,-1,-1,-1,15,-1,-1,-1],"loss_changes":[2.624648E-1,2.946872E-1,2.9698333E-1,0E0,0E0,2.6042607E-1,3.2328317E-1,2.3913267E-1,0E0,4.907648E-1,0E0,0E0,0E0,2.7529448E-1,0E0,0E0,0E0],"parents":[2147483647,0,0,1,1,2,2,5,5,6,6,7,7,9,9,13,13],"right_children":[2,4,6,-1,-1,8,10,12,-1,14,-1,-1,-1,16,-1,-1,-1],"split_conditions":[7.974341E-1,-3.1385985E-1,9.7350514E-1,-2.8046334E-2,1.2588733E-1,-5.4621494E-1,-3.0399686E-1,-9.588205E-1,-1.3686687E-1,-9.99993E-1,-8.089182E-2,-6.674262E-2,6.24367E-2,2.920474E-1,-5.5599812E-2,1.6479775E-1,-4.7936575E-3],"split_indices":[12,7,12,0,0,37,8,8,0,2,0,0,0,32,0,0,0],"split_type":[0,0,0,0,0,0,0,0,0,0,0,0,0,0,0,0,0],"sum_hessian":[1.4174132E1,2.9904754E0,1.1183657E1,1.4827018E0,1.5077736E0,5.236718E0,5.946938E0,3.231304E0,2.0054142E0,4.6986876E0,1.2482505E0,1.8736424E0,1.3576616E0,3.0008757E0,1.6978121E0,1.844223E0,1.1566527E0],"tree_param":{"num_deleted":"0","num_feature":"49","num_nodes":"17","size_leaf_vector":"1"}},{"base_weights":[-1.4022342E-2,-9.9379875E-2,3.777288E-2,2.598124E-1,-1.00746535E-1,-7.173826E-3,4.0861857E-1,7.2994987E-3,-1.1546262E-1,1.5667415E-1,1.771263E-2,1.1590504E-1,-9.135603E-2,-6.965038E-2,1.0658606E-1,-9.58788E-2,4.2400576E-2],"categories":[],"categories_nodes":[],"categories_segments":[],"categories_sizes":[],"default_left":[0,0,0,0,0,0,0,0,0,0,0,0,0,0,0,0,0],"id":28,"left_children":[1,-1,3,5,7,-1,9,11,-1,-1,-1,13,-1,15,-1,-1,-1],"loss_changes":[2.5263888E-1,0E0,4.4016698E-1,2.3989344E-1,2.7939606E-1,0E0,1.13381624E-1,2.8958422E-1,0E0,0E0,0E0,3.0429143E-1,0E0,2.7622312E-1,0E0,0E0,0E0],"parents":[2147483647,0,0,2,2,3,3,4,4,6,6,7,7,11,11,13,13],"right_children":[2,-1,4,6,8,-1,10,12,-1,-1,-1,14,-1,16,-1,-1,-1],"split_conditions":[-9.948044E-1,-9.9379875E-2,-6.650939E-1,-1.4153744E-1,6.4314044E-1,-7.173826E-3,9.196439E-1,9.619664E-1,-1.1546262E-1,1.5667415E-1,1.771263E-2,8.754198E-1,-9.135603E-2,-6.694892E-1,1.0658606E-1,-9.58788E-2,4.2400576E-2],"split_indices":[26,0,26,14,5,0,10,23,0,0,0,0,0,16,0,0,0],"split_type":[0,0,0,0,0,0,0,0,0,0,0,0,0,0,0,0,0],"sum_hessian":[1.3613568E1,1.1533921E0,1.2460176E1,4.4505434E0,8.009633E0,1.819895E0,2.6306486E0,6.5088234E0,1.5008093E0,1.6125518E0,1.0180968E0,5.2934356E0,1.2153882E0,3.3814023E0,1.9120332E0,1.3121629E0,2.0692391E0],"tree_param":{"num_deleted":"0","num_feature":"49","num_nodes":"17","size_leaf_vector":"1"}},{"base_weights":[-1.5908346E-2,9.186526E-2,-6.398807E-2,4.6738736E-2,-2.6331478E-1,-9.221248E-2,1.3717978E-1,-4.2413485E-1,2.5658494E-2,-6.288224E-2,2.5297612E-1,-1.6712996E-1,-1.9847648E-2,4.0718558E-1,-2.133347E-2,1.5176009E-1,2.328502E-2],"categories":[],"categories_nodes":[],"categories_segments":[],"categories_sizes":[],"default_left":[0,0,0,0,0,0,0,0,0,0,0,0,0,0,0,0,0],"id":29,"left_children":[1,-1,3,5,7,-1,9,11,-1,-1,13,-1,-1,15,-1,-1,-1],"loss_changes":[2.3767126E-1,0E0,3.0097327E-1,3.3865094E-1,3.0677044E-1,0E0,3.769126E-1,1.2821275E-1,0E0,0E0,3.537929E-1,0E0,0E0,1.08803034E-1,0E0,0E0,0E0],"parents":[2147483647,0,0,2,2,3,3,4,4,6,6,7,7,10,10,13,13],"right_children":[2,-1,4,6,8,-1,10,12,-1,-1,14,-1,-1,16,-1,-1,-1],"split_conditions":[-9.953597E-1,9.186526E-2,-6.5476054E-1,-9.9616116E-1,1.0547813E-1,-9.221248E-2,-8.5350525E-1,7.1684754E-1,2.5658494E-2,-6.288224E-2,-1.7636713E-1,-1.6712996E-1,-1.9847648E-2,-9.9999887E-1,-2.133347E-2,1.5176009E-1,2.328502E-2],"split_indices":[24,0,8,17,18,0,36,17,0,0,29,0,0,3,0,0,0],"split_type":[0,0,0,0,0,0,0,0,0,0,0,0,0,0,0,0,0],"sum_hessian":[1.3080637E1,1.0015397E0,1.2079098E1,8.257525E0,3.8215723E0,1.1919461E0,7.065579E0,2.4679775E0,1.3535947E0,1.5658944E0,5.499685E0,1.3939615E0,1.074016E0,3.552775E0,1.9469098E0,2.3224409E0,1.2303342E0],"tree_param":{"num_deleted":"0","num_feature":"49","num_nodes":"17","size_leaf_vector":"1"}},{"base_weights":[-1.6859053E-2,-1.0822622E-1,1.4759192E-1,-2.668249E-1,8.555868E-2,-4.239886E-2,2.486192E-1,1.44055905E-2,-3.8347813E-1,2.6315024E-1,-4.0362284E-2,-9.21836E-3,1.3142636E-1,-1.5023357E-1,-4.5114583E-3,3.869295E-3,1.1620292E-1],"categories":[],"categories_nodes":[],"categories_segments":[],"categories_sizes":[],"default_left":[0,0,0,0,0,0,0,0,0,0,0,0,0,0,0,0,0],"id":30,"left_children":[1,3,5,7,9,-1,11,-1,13,15,-1,-1,-1,-1,-1,-1,-1],"loss_changes":[2.1996033E-1,3.0878675E-1,1.890174E-1,2.1525356E-1,2.2868629E-1,0E0,2.3938105E-1,0E0,1.6628557E-1,9.057319E-2,0E0,0E0,0E0,0E0,0E0,0E0,0E0],"parents":[2147483647,0,0,1,1,2,2,3,3,4,4,6,6,8,8,9,9],"right_children":[2,4,6,8,10,-1,12,-1,14,16,-1,-1,-1,-1,-1,-1,-1],"split_conditions":[-9.3847054E-1,4.7650717E-2,-9.999998E-1,-9.986888E-1,6.16658E-1,-4.239886E-2,-9.102581E-1,1.44055905E-2,9.3218595E-1,8.572351E-1,-4.0362284E-2,-9.21836E-3,1.3142636E-1,-1.5023357E-1,-4.5114583E-3,3.869295E-3,1.1620292E-1],"split_indices":[39,14,2,4,14,0,42,0,0,0,0,0,0,0,0,0,0],"split_type":[0,0,0,0,0,0,0,0,0,0,0,0,0,0,0,0,0],"sum_hessian":[1.2576128E1,8.304263E0,4.2718644E0,4.359456E0,3.9448073E0,1.003395E0,3.2684696E0,1.3376213E0,3.021835E0,2.074977E0,1.8698304E0,1.6595292E0,1.6089402E0,2.019651E0,1.0021839E0,1.0543264E0,1.0206505E0],"tree_param":{"num_deleted":"0","num_feature":"49","num_nodes":"17","size_leaf_vector":"1"}},{"base_weights":[-1.0982107E-2,-7.173488E-2,4.9267806E-2,1.1953758E-1,-6.5947086E-2,2.58754E-1,-6.892844E-2,3.7769863E-1,-3.9126847E-2,-9.056643E-2,1.7159033E-1,1.2072468E-3,4.8303306E-1,-2.4568874E-2,1.0202717E-1,1.7198181E-1,3.8122423E-2],"categories":[],"categories_nodes":[],"categories_segments":[],"categories_sizes":[],"default_left":[0,0,0,0,0,0,0,0,0,0,0,0,0,0,0,0,0],"id":31,"left_children":[1,-1,3,5,-1,7,9,11,-1,-1,13,-1,15,-1,-1,-1,-1],"loss_changes":[1.9277914E-1,0E0,2.389327E-1,2.688061E-1,0E0,3.1366384E-1,3.2374766E-1,1.8035322E-1,0E0,0E0,1.570831E-1,0E0,4.2936206E-2,0E0,0E0,0E0,0E0],"parents":[2147483647,0,0,2,2,3,3,5,5,6,6,7,7,10,10,12,12],"right_children":[2,-1,4,6,-1,8,10,12,-1,-1,14,-1,16,-1,-1,-1,-1],"split_conditions":[9.999999E-1,-7.173488E-2,1.3409454E-1,-3.0978912E-1,-6.5947086E-2,8.738041E-1,-6.47919E-1,-8.5693926E-2,-3.9126847E-2,-9.056643E-2,6.20485E-1,1.2072468E-3,9.693853E-1,-2.4568874E-2,1.0202717E-1,1.7198181E-1,3.8122423E-2],"split_indices":[25,0,37,26,0,10,46,7,0,0,30,0,23,0,0,0,0],"split_type":[0,0,0,0,0,0,0,0,0,0,0,0,0,0,0,0,0],"sum_hessian":[1.2168248E1,1.921984E0,1.0246264E1,8.565315E0,1.6809489E0,4.711827E0,3.8534884E0,3.631439E0,1.0803882E0,1.8278912E0,2.0255973E0,1.026858E0,2.6045809E0,1.0140544E0,1.0115429E0,1.5907915E0,1.0137894E0],"tree_param":{"num_deleted":"0","num_feature":"49","num_nodes":"17","size_leaf_vector":"1"}},{"base_weights":[-5.0987834E-3,8.199698E-2,-1.700327E-1,-6.6467986E-2,2.2883958E-1,-2.916722E-1,2.78484E-2,-1.9058754E-1,5.828688E-2,3.9093643E-1,-1.7329115E-2,-1.23755306E-1,-1.0587361E-2,2.915309E-2,-3.221835E-1,1.4331022E-1,3.059747E-2,-2.6205266E-2,-1.1879386E-1],"categories":[],"categories_nodes":[],"categories_segments":[],"categories_sizes":[],"default_left":[0,0,0,0,0,0,0,0,0,0,0,0,0,0,0,0,0,0,0],"id":32,"left_children":[1,3,5,7,9,11,-1,13,-1,15,-1,-1,-1,-1,17,-1,-1,-1,-1],"loss_changes":[1.9708559E-1,2.1181278E-1,1.7835182E-1,2.0724282E-1,2.436673E-1,9.313285E-2,0E0,1.8535632E-1,0E0,3.0711263E-2,0E0,0E0,0E0,0E0,1.7801046E-2,0E0,0E0,0E0,0E0],"parents":[2147483647,0,0,1,1,2,2,3,3,4,4,5,5,7,7,9,9,14,14],"right_children":[2,4,6,8,10,12,-1,14,-1,16,-1,-1,-1,-1,18,-1,-1,-1,-1],"split_conditions":[4.8016104E-1,8.88115E-2,9.307577E-1,-3.243778E-1,6.15607E-1,6.755783E-1,2.78484E-2,2.896933E-1,5.828688E-2,-2.1389034E-1,-1.7329115E-2,-1.23755306E-1,-1.0587361E-2,2.915309E-2,3.3294827E-1,1.4331022E-1,3.059747E-2,-2.6205266E-2,-1.1879386E-1],"split_indices":[43,32,44,46,32,0,0,1,0,29,0,0,0,0,14,0,0,0,0],"split_type":[0,0,0,0,0,0,0,0,0,0,0,0,0,0,0,0,0,0,0],"sum_hessian":[1.1749242E1,8.018045E0,3.7311966E0,4.2591705E0,3.758875E0,2.4758723E0,1.2553242E0,3.067943E0,1.1912277E0,2.1684256E0,1.5904495E0,1.2688133E0,1.207059E0,1.0448003E0,2.0231428E0,1.1652619E0,1.0031636E0,1.0058912E0,1.0172516E0],"tree_param":{"num_deleted":"0","num_feature":"49","num_nodes":"19","size_leaf_vector":"1"}},{"base_weights":[-4.351285E-3,-1.5754761E-1,9.264967E-2,3.4057073E-2,-3.259616E-1,-1.352152E-1,2.0117322E-1,-1.4492002E-1,4.0067922E-4,5.7392713E-2,-1.2994279E-1,3.2333156E-1,-1.9500755E-2,4.375425E-3,4.411368E-1,4.225412E-2,1.5643667E-1],"categories":[],"categories_nodes":[],"categories_segments":[],"categories_sizes":[],"default_left":[0,0,0,0,0,0,0,0,0,0,0,0,0,0,0,0,0],"id":33,"left_children":[1,3,5,-1,7,9,11,-1,-1,-1,-1,13,-1,-1,15,-1,-1],"loss_changes":[1.9893804E-1,2.734696E-1,2.3060334E-1,0E0,1.7820483E-1,3.991856E-1,2.152552E-1,0E0,0E0,0E0,0E0,1.48581E-1,0E0,0E0,1.334548E-4,0E0,0E0],"parents":[2147483647,0,0,1,1,2,2,4,4,5,5,6,6,11,11,14,14],"right_children":[2,4,6,-1,8,10,12,-1,-1,-1,-1,14,-1,-1,16,-1,-1],"split_conditions":[-2.8936258E-1,-4.3171018E-1,-7.294117E-1,3.4057073E-2,9.999957E-1,-9.928897E-1,6.0221636E-1,-1.4492002E-1,4.0067922E-4,5.7392713E-2,-1.2994279E-1,-9.908794E-1,-1.9500755E-2,4.375425E-3,-8.65054E-1,4.225412E-2,1.5643667E-1],"split_indices":[14,10,16,0,31,17,32,0,0,0,0,26,0,0,41,0,0],"split_type":[0,0,0,0,0,0,0,0,0,0,0,0,0,0,0,0,0],"sum_hessian":[1.1405043E1,4.179715E0,7.2253275E0,1.7265949E0,2.4531202E0,2.2516427E0,4.973685E0,1.3359346E0,1.1171856E0,1.2450035E0,1.0066392E0,3.2619293E0,1.7117554E0,1.2112527E0,2.0506766E0,1.0138332E0,1.0368434E0],"tree_param":{"num_deleted":"0","num_feature":"49","num_nodes":"17","size_leaf_vector":"1"}},{"base_weights":[-3.5032453E-3,-2.0386304E-1,6.281107E-2,1.1540709E-2,-9.936788E-2,-7.2341785E-3,1.00969665E-1,1.6644377E-1,-9.495639E-2,9.401887E-2,-2.499408E-2,1.3590434E-1,-2.693692E-1,-2.6453407E-2,9.27848E-2,1.6844735E-2,-1.2816292E-1],"categories":[],"categories_nodes":[],"categories_segments":[],"categories_sizes":[],"default_left":[0,0,0,0,0,0,0,0,0,0,0,0,0,0,0,0,0],"id":34,"left_children":[1,3,5,-1,-1,7,-1,9,11,-1,-1,13,15,-1,-1,-1,-1],"loss_changes":[1.7213425E-1,1.12047866E-1,1.8985529E-1,0E0,0E0,1.4929312E-1,0E0,1.4735915E-1,2.9664594E-1,0E0,0E0,1.6107385E-1,2.3023519E-1,0E0,0E0,0E0,0E0],"parents":[2147483647,0,0,1,1,2,2,5,5,7,7,8,8,11,11,12,12],"right_children":[2,4,6,-1,-1,8,-1,10,12,-1,-1,14,16,-1,-1,-1,-1],"split_conditions":[-6.759708E-1,-9.9990386E-1,9.9999315E-1,1.1540709E-2,-9.936788E-2,-8.456745E-1,1.00969665E-1,7.864084E-1,6.817801E-1,9.401887E-2,-2.499408E-2,-7.294117E-1,-6.076232E-1,-2.6453407E-2,9.27848E-2,1.6844735E-2,-1.2816292E-1],"split_indices":[14,27,47,0,0,46,0,32,23,0,0,16,37,0,0,0,0],"split_type":[0,0,0,0,0,0,0,0,0,0,0,0,0,0,0,0,0],"sum_hessian":[1.0991624E1,2.2175128E0,8.774112E0,1.0044049E0,1.213108E0,7.7617064E0,1.0124048E0,2.3035662E0,5.4581404E0,1.2898438E0,1.0137223E0,2.4439743E0,3.014166E0,1.2804598E0,1.1635145E0,1.1946588E0,1.8195072E0],"tree_param":{"num_deleted":"0","num_feature":"49","num_nodes":"17","size_leaf_vector":"1"}},{"base_weights":[3.5064013E-4,-8.0305465E-2,5.0913334E-2,-5.9525184E-2,1.0607442E-1,1.3648383E-1,3.9598914E-3,-7.9667546E-2,9.601761E-2,-4.899772E-2,2.1890712E-1,9.4956286E-2,-1.9848082E-2],"categories":[],"categories_nodes":[],"categories_segments":[],"categories_sizes":[],"default_left":[0,0,0,0,0,0,0,0,0,0,0,0,0],"id":35,"left_children":[1,-1,3,-1,5,-1,7,-1,9,-1,11,-1,-1],"loss_changes":[1.7128353E-1,0E0,1.6720161E-1,0E0,3.3140984E-1,0E0,2.3004934E-1,0E0,2.5501403E-1,0E0,1.6272168E-1,0E0,0E0],"parents":[2147483647,0,0,2,2,4,4,6,6,8,8,10,10],"right_children":[2,-1,4,-1,6,-1,8,-1,10,-1,12,-1,-1],"split_conditions":[-2.7413199E-2,-8.0305465E-2,-9.9616116E-1,-5.9525184E-2,-9.926159E-1,1.3648383E-1,-7.294117E-1,-7.9667546E-2,-2.8936258E-1,-4.899772E-2,-1.7219052E-1,9.4956286E-2,-1.9848082E-2],"split_indices":[0,0,17,0,17,0,16,0,14,0,22,0,0],"split_type":[0,0,0,0,0,0,0,0,0,0,0,0,0],"sum_hessian":[1.0632812E1,1.0059736E0,9.626838E0,1.2735018E0,8.353336E0,1.1090481E0,7.2442875E0,1.3645588E0,5.879729E0,1.7845685E0,4.0951605E0,2.9683795E0,1.1267807E0],"tree_param":{"num_deleted":"0","num_feature":"49","num_nodes":"13","size_leaf_vector":"1"}},{"base_weights":[-4.15332E-3,1.2180623E-1,-9.575757E-2,-4.8153177E-2,2.8437808E-1,-2.2223635E-1,1.4311185E-1,6.4361244E-3,1.2964778E-1,-1.986175E-2,-1.2656084E-1,-2.7280454E-2,9.331883E-2,3.8792588E-2,-5.992971E-2],"categories":[],"categories_nodes":[],"categories_segments":[],"categories_sizes":[],"default_left":[0,0,0,0,0,0,0,0,0,0,0,0,0,0,0],"id":36,"left_children":[1,3,5,-1,7,9,11,-1,-1,13,-1,-1,-1,-1,-1],"loss_changes":[1.4220102E-1,2.844709E-1,2.4660303E-1,0E0,1.3304898E-1,1.952461E-1,1.4894655E-1,0E0,0E0,1.21161945E-1,0E0,0E0,0E0,0E0,0E0],"parents":[2147483647,0,0,1,1,2,2,4,4,5,5,6,6,9,9],"right_children":[2,4,6,-1,8,10,12,-1,-1,14,-1,-1,-1,-1,-1],"split_conditions":[-6.650939E-1,-9.908794E-1,-3.100284E-1,-4.8153177E-2,-1.4153744E-1,1.0936938E-1,4.1469425E-1,6.4361244E-3,1.2964778E-1,4.5739812E-1,-1.2656084E-1,-2.7280454E-2,9.331883E-2,3.8792588E-2,-5.992971E-2],"split_indices":[26,26,46,0,14,20,36,0,0,43,0,0,0,0,0],"split_type":[0,0,0,0,0,0,0,0,0,0,0,0,0,0,0],"sum_hessian":[1.0313252E1,4.203529E0,6.109723E0,1.5406928E0,2.662836E0,4.0401435E0,2.0695798E0,1.3702077E0,1.2926283E0,2.5522923E0,1.487851E0,1.0562348E0,1.0133451E0,1.549081E0,1.0032113E0],"tree_param":{"num_deleted":"0","num_feature":"49","num_nodes":"15","size_leaf_vector":"1"}},{"base_weights":[-2.3139124E-3,-6.4148426E-2,5.8255877E-2,1.2439817E-1,-5.8102876E-2,-2.679011E-2,2.025423E-1,3.129509E-1,-3.087716E-2,-8.557743E-3,1.245003E-1],"categories":[],"categories_nodes":[],"categories_segments":[],"categories_sizes":[],"default_left":[0,0,0,0,0,0,0,0,0,0,0],"id":37,"left_children":[1,-1,3,5,-1,-1,7,9,-1,-1,-1],"loss_changes":[1.534121E-1,0E0,1.797117E-1,1.5177944E-1,0E0,0E0,2.4023935E-1,1.7834488E-1,0E0,0E0,0E0],"parents":[2147483647,0,0,2,2,3,3,6,6,7,7],"right_children":[2,-1,4,6,-1,-1,8,10,-1,-1,-1],"split_conditions":[9.999999E-1,-6.4148426E-2,1.3409454E-1,-4.3122092E-1,-5.8102876E-2,-2.679011E-2,8.738041E-1,-1.6333982E-2,-3.087716E-2,-8.557743E-3,1.245003E-1],"split_indices":[25,0,37,9,0,0,10,7,0,0,0],"split_type":[0,0,0,0,0,0,0,0,0,0,0],"sum_hessian":[1.0002365E1,1.6633942E0,8.338971E0,7.005872E0,1.333099E0,1.8376737E0,5.1681986E0,3.7781205E0,1.3900778E0,1.035071E0,2.7430496E0],"tree_param":{"num_deleted":"0","num_feature":"49","num_nodes":"11","size_leaf_vector":"1"}},{"base_weights":[-6.8893847E-3,6.684215E-2,-1.4809203E-1,1.7117326E-1,-1.3345283E-1,3.6551904E-2,-9.782154E-2,-2.4065891E-2,2.9188052E-1,4.942076E-2,-1.1312484E-1,1.2521157E-1,-7.8490854E-4],"categories":[],"categories_nodes":[],"categories_segments":[],"categories_sizes":[],"default_left":[0,0,0,0,0,0,0,0,0,0,0,0,0],"id":38,"left_children":[1,3,5,7,9,-1,-1,-1,11,-1,-1,-1,-1],"loss_changes":[1.221522E-1,1.8526325E-1,2.3236436E-1,1.9178416E-1,2.96326E-1,0E0,0E0,0E0,1.4759609E-1,0E0,0E0,0E0,0E0],"parents":[2147483647,0,0,1,1,2,2,3,3,4,4,8,8],"right_children":[2,4,6,8,10,-1,-1,-1,12,-1,-1,-1,-1],"split_conditions":[3.4579402E-1,8.738041E-1,-9.814769E-1,4.556348E-2,2.896933E-1,3.6551904E-2,-9.782154E-2,-2.4065891E-2,-9.77353E-1,4.942076E-2,-1.1312484E-1,1.2521157E-1,-7.8490854E-4],"split_indices":[20,10,13,30,1,0,0,0,27,0,0,0,0],"split_type":[0,0,0,0,0,0,0,0,0,0,0,0,0],"sum_hessian":[9.782102E0,6.7723947E0,3.009707E0,4.548522E0,2.223873E0,1.321259E0,1.688448E0,1.5843242E0,2.9641976E0,1.1455792E0,1.0782937E0,1.7859356E0,1.1782619E0],"tree_param":{"num_deleted":"0","num_feature":"49","num_nodes":"13","size_leaf_vector":"1"}},{"base_weights":[-7.268537E-3,1.15109265E-1,-9.4992824E-2,-4.928969E-2,2.3132588E-1,-2.1976063E-1,4.037234E-2,5.936213E-4,1.0591969E-1,-3.1557226E-1,1.5802208E-2,-1.4353065E-1,3.4731277E-3],"categories":[],"categories_nodes":[],"categories_segments":[],"categories_sizes":[],"default_left":[0,0,0,0,0,0,0,0,0,0,0,0,0],"id":39,"left_children":[1,3,5,-1,7,9,-1,-1,-1,11,-1,-1,-1],"loss_changes":[1.2359368E-1,1.94967E-1,2.2034356E-1,0E0,1.0621217E-1,1.3917077E-1,0E0,0E0,0E0,1.982233E-1,0E0,0E0,0E0],"parents":[2147483647,0,0,1,1,2,2,4,4,5,5,9,9],"right_children":[2,4,6,-1,8,10,-1,-1,-1,12,-1,-1,-1],"split_conditions":[-6.650939E-1,-9.9347275E-1,-3.100284E-1,-4.928969E-2,-1.4153744E-1,9.99993E-1,4.037234E-2,5.936213E-4,1.0591969E-1,-4.4121045E-1,1.5802208E-2,-1.4353065E-1,3.4731277E-3],"split_indices":[26,26,46,0,14,31,0,0,0,40,0,0,0],"split_type":[0,0,0,0,0,0,0,0,0,0,0,0,0],"sum_hessian":[9.494069E0,3.8337336E0,5.6603355E0,1.0046417E0,2.829092E0,3.694905E0,1.9654305E0,1.3333775E0,1.4957144E0,2.616408E0,1.0784969E0,1.4380653E0,1.1783427E0],"tree_param":{"num_deleted":"0","num_feature":"49","num_nodes":"13","size_leaf_vector":"1"}},{"base_weights":[-8.3893305E-3,7.5496614E-2,-1.4384507E-1,3.0785778E-1,-9.7349666E-2,5.093639E-2,-1.1619244E-1,1.8669637E-2,1.2372812E-1,5.2212853E-2,-2.9574886E-1,-4.31005E-2,6.801187E-2,-1.10165514E-1,-2.2514937E-2],"categories":[],"categories_nodes":[],"categories_segments":[],"categories_sizes":[],"default_left":[0,0,0,0,0,0,0,0,0,0,0,0,0,0,0],"id":40,"left_children":[1,3,5,7,9,11,-1,-1,-1,-1,13,-1,-1,-1,-1],"loss_changes":[1.2734778E-1,3.1057826E-1,2.2197784E-1,5.705312E-2,3.0810642E-1,1.4384466E-1,0E0,0E0,0E0,0E0,2.1713793E-2,0E0,0E0,0E0,0E0],"parents":[2147483647,0,0,1,1,2,2,3,3,4,4,5,5,10,10],"right_children":[2,4,6,8,10,12,-1,-1,-1,-1,14,-1,-1,-1,-1],"split_conditions":[-9.518275E-1,-3.941826E-1,-4.565994E-1,-3.936738E-1,3.516672E-1,-7.1902525E-1,-1.1619244E-1,1.8669637E-2,1.2372812E-1,5.2212853E-2,-1.7787167E-1,-4.31005E-2,6.801187E-2,-1.10165514E-1,-2.2514937E-2],"split_indices":[4,10,29,46,1,29,0,0,0,0,5,0,0,0,0],"split_type":[0,0,0,0,0,0,0,0,0,0,0,0,0,0,0],"sum_hessian":[9.251667E0,5.98678E0,3.2648861E0,2.2205446E0,3.7662358E0,2.2530932E0,1.0117929E0,1.1393714E0,1.0811732E0,1.6423757E0,2.1238601E0,1.1559309E0,1.0971625E0,1.1028379E0,1.0210221E0],"tree_param":{"num_deleted":"0","num_feature":"49","num_nodes":"15","size_leaf_vector":"1"}},{"base_weights":[-9.189381E-3,-8.567293E-2,1.17388226E-1,-2.657958E-1,7.470175E-2,-2.9334018E-2,7.171155E-2,-1.1718346E-1,7.3075667E-4,-5.38878E-2,2.2793537E-1,1.1001859E-1,-1.0835767E-2],"categories":[],"categories_nodes":[],"categories_segments":[],"categories_sizes":[],"default_left":[0,0,0,0,0,0,0,0,0,0,0,0,0],"id":41,"left_children":[1,3,5,7,9,-1,-1,-1,-1,-1,11,-1,-1],"loss_changes":[1.0661713E-1,2.161554E-1,1.3275114E-1,1.1545265E-1,2.1145831E-1,0E0,0E0,0E0,0E0,0E0,1.2946244E-1,0E0,0E0],"parents":[2147483647,0,0,1,1,2,2,3,3,4,4,10,10],"right_children":[2,4,6,8,10,-1,-1,-1,-1,-1,12,-1,-1],"split_conditions":[-9.426513E-1,7.2002137E-1,-3.6047715E-1,9.1354454E-1,9.723829E-1,-2.9334018E-2,7.171155E-2,-1.1718346E-1,7.3075667E-4,-5.38878E-2,3.9623493E-1,1.1001859E-1,-1.0835767E-2],"split_indices":[39,30,7,0,12,0,0,0,0,0,7,0,0],"split_type":[0,0,0,0,0,0,0,0,0,0,0,0,0],"sum_hessian":[8.974083E0,5.7954097E0,3.178673E0,2.4200346E0,3.375375E0,1.2189252E0,1.9597479E0,1.3401692E0,1.0798656E0,1.2043061E0,2.171069E0,1.1681998E0,1.0028692E0],"tree_param":{"num_deleted":"0","num_feature":"49","num_nodes":"13","size_leaf_vector":"1"}},{"base_weights":[-9.645081E-3,1.1014991E-1,-9.3340725E-2,-3.8991507E-2,2.4949874E-1,3.193348E-2,-1.9883946E-1,1.0862333E-1,6.972255E-3,-3.2668412E-1,2.3745444E-2,-1.3402288E-1,-9.101142E-3],"categories":[],"categories_nodes":[],"categories_segments":[],"categories_sizes":[],"default_left":[0,0,0,0,0,0,0,0,0,0,0,0,0],"id":42,"left_children":[1,3,5,-1,7,-1,9,-1,-1,11,-1,-1,-1],"loss_changes":[1.0808767E-1,1.8202719E-1,1.5361501E-1,0E0,7.2371945E-2,0E0,1.8440373E-1,0E0,0E0,1.0210824E-1,0E0,0E0,0E0],"parents":[2147483647,0,0,1,1,2,2,4,4,6,6,9,9],"right_children":[2,4,6,-1,8,-1,10,-1,-1,12,-1,-1,-1],"split_conditions":[-7.12608E-1,-9.908794E-1,8.779975E-1,-3.8991507E-2,-9.4551593E-1,3.193348E-2,3.773014E-1,1.0862333E-1,6.972255E-3,8.974455E-1,2.3745444E-2,-1.3402288E-1,-9.101142E-3],"split_indices":[26,26,34,0,4,0,41,0,0,0,0,0,0],"split_type":[0,0,0,0,0,0,0,0,0,0,0,0,0],"sum_hessian":[8.754945E0,3.470904E0,5.284041E0,1.2992938E0,2.1716104E0,1.8229345E0,3.4611065E0,1.0492483E0,1.122362E0,2.2508204E0,1.2102863E0,1.2406838E0,1.0101366E0],"tree_param":{"num_deleted":"0","num_feature":"49","num_nodes":"13","size_leaf_vector":"1"}},{"base_weights":[-8.432504E-3,4.0730827E-2,-5.670205E-2,-2.156396E-2,7.301051E-2,1.2588672E-1,-1.6262536E-1,7.872747E-2,-2.743071E-2,-8.917448E-2,4.9502244E-3],"categories":[],"categories_nodes":[],"categories_segments":[],"categories_sizes":[],"default_left":[0,0,0,0,0,0,0,0,0,0,0],"id":43,"left_children":[1,3,-1,5,-1,7,9,-1,-1,-1,-1],"loss_changes":[9.257498E-2,1.10493846E-1,0E0,1.7221865E-1,0E0,1.4656451E-1,1.0533995E-1,0E0,0E0,0E0,0E0],"parents":[2147483647,0,0,1,1,3,3,5,5,6,6],"right_children":[2,4,-1,6,-1,8,10,-1,-1,-1,-1],"split_conditions":[-1.68916E-1,-3.7005582E-1,-5.670205E-2,-6.650939E-1,7.301051E-2,9.996268E-1,-2.2545817E-1,7.872747E-2,-2.743071E-2,-8.917448E-2,4.9502244E-3],"split_indices":[46,46,0,26,0,28,16,0,0,0,0],"split_type":[0,0,0,0,0,0,0,0,0,0,0],"sum_hessian":[8.560718E0,7.3374534E0,1.2232642E0,6.2956343E0,1.041819E0,3.1307032E0,3.1649313E0,1.7952538E0,1.3354493E0,1.4304417E0,1.7344894E0],"tree_param":{"num_deleted":"0","num_feature":"49","num_nodes":"11","size_leaf_vector":"1"}},{"base_weights":[-7.7877464E-3,4.4550832E-2,-6.432659E-2,-2.065011E-1,7.945525E-2,-3.3254525E-1,2.7359182E-2,2.0910028E-1,-4.2360116E-2,-1.2700312E-1,-2.1528319E-2,-1.893739E-2,1.1079113E-1],"categories":[],"categories_nodes":[],"categories_segments":[],"categories_sizes":[],"default_left":[0,0,0,0,0,0,0,0,0,0,0,0,0],"id":44,"left_children":[1,-1,3,5,7,9,-1,11,-1,-1,-1,-1,-1],"loss_changes":[9.26132E-2,0E0,1.71776E-1,1.841505E-1,1.582843E-1,4.2912185E-2,0E0,1.6453761E-1,0E0,0E0,0E0,0E0,0E0],"parents":[2147483647,0,0,2,2,3,3,4,4,5,5,7,7],"right_children":[2,-1,4,6,8,10,-1,12,-1,-1,-1,-1,-1],"split_conditions":[-9.8160875E-1,4.4550832E-2,1.3000849E-1,7.729474E-1,8.195321E-1,9.999925E-1,2.7359182E-2,7.850121E-1,-4.2360116E-2,-1.2700312E-1,-2.1528319E-2,-1.893739E-2,1.1079113E-1],"split_indices":[24,0,14,30,14,47,0,23,0,0,0,0,0],"split_type":[0,0,0,0,0,0,0,0,0,0,0,0,0],"sum_hessian":[8.399724E0,1.7993135E0,6.60041E0,3.0994236E0,3.5009863E0,2.0952497E0,1.0041739E0,2.2382708E0,1.2627156E0,1.0917732E0,1.0034765E0,1.053718E0,1.1845527E0],"tree_param":{"num_deleted":"0","num_feature":"49","num_nodes":"13","size_leaf_vector":"1"}},{"base_weights":[-8.764659E-3,4.505498E-2,-6.4122E-2,-2.2100267E-1,3.45432E-2,-9.309351E-2,-7.0013916E-3,-1.0155435E-1,5.9091102E-2,-9.372948E-2,4.5444682E-2],"categories":[],"categories_nodes":[],"categories_segments":[],"categories_sizes":[],"default_left":[0,0,0,0,0,0,0,0,0,0,0],"id":45,"left_children":[1,-1,3,5,7,-1,-1,9,-1,-1,-1],"loss_changes":[9.0550974E-2,0E0,1.2406256E-1,4.641205E-2,1.4119965E-1,0E0,0E0,2.4170937E-1,0E0,0E0,0E0],"parents":[2147483647,0,0,2,2,3,3,4,4,7,7],"right_children":[2,-1,4,6,8,-1,-1,10,-1,-1,-1],"split_conditions":[-6.193566E-1,4.505498E-2,6.34794E-1,8.346537E-1,5.370485E-1,-9.309351E-2,-7.0013916E-3,8.7313116E-1,5.9091102E-2,-9.372948E-2,4.5444682E-2],"split_indices":[43,0,30,0,42,0,0,0,0,0,0],"split_type":[0,0,0,0,0,0,0,0,0,0,0],"sum_hessian":[8.196673E0,1.6748075E0,6.5218654E0,2.039335E0,4.4825306E0,1.0121402E0,1.0271949E0,2.6428547E0,1.8396758E0,1.3134851E0,1.3293694E0],"tree_param":{"num_deleted":"0","num_feature":"49","num_nodes":"11","size_leaf_vector":"1"}},{"base_weights":[-1.1573593E-2,-1.4282717E-1,6.932786E-2,2.8367262E-2,-1.0881179E-1,2.1364018E-1,-1.3094486E-1,-1.06318E-2,1.0061285E-1,3.494668E-2,-1.0264406E-1],"categories":[],"categories_nodes":[],"categories_segments":[],"categories_sizes":[],"default_left":[0,0,0,0,0,0,0,0,0,0,0],"id":46,"left_children":[1,3,5,-1,-1,7,9,-1,-1,-1,-1],"loss_changes":[1.0581984E-1,2.3114556E-1,2.0894834E-1,0E0,0E0,1.3375786E-1,2.092981E-1,0E0,0E0,0E0,0E0],"parents":[2147483647,0,0,1,1,2,2,5,5,6,6],"right_children":[2,4,6,-1,-1,8,10,-1,-1,-1,-1],"split_conditions":[-6.5202695E-1,2.896933E-1,-1.7636713E-1,2.8367262E-2,-1.0881179E-1,-6.759708E-1,-9.928897E-1,-1.06318E-2,1.0061285E-1,3.494668E-2,-1.0264406E-1],"split_indices":[5,1,29,0,0,14,17,0,0,0,0],"split_type":[0,0,0,0,0,0,0,0,0,0,0],"sum_hessian":[8.033009E0,2.7713525E0,5.2616563E0,1.6066948E0,1.1646576E0,3.01928E0,2.2423763E0,1.2239282E0,1.7953516E0,1.2391257E0,1.0032505E0],"tree_param":{"num_deleted":"0","num_feature":"49","num_nodes":"11","size_leaf_vector":"1"}},{"base_weights":[-1.5220559E-2,-4.9484983E-2,5.236795E-2,1.3401043E-1,-3.135435E-2,-2.682083E-2,2.3624703E-1,1.1200795E-1,1.7521078E-3],"categories":[],"categories_nodes":[],"categories_segments":[],"categories_sizes":[],"default_left":[0,0,0,0,0,0,0,0,0],"id":47,"left_children":[1,-1,3,5,-1,-1,7,-1,-1],"loss_changes":[9.78962E-2,0E0,1.0156194E-1,1.3382469E-1,0E0,0E0,1.1343579E-1,0E0,0E0],"parents":[2147483647,0,0,2,2,3,3,6,6],"right_children":[2,-1,4,6,-1,-1,8,-1,-1],"split_conditions":[-9.948204E-1,-4.9484983E-2,3.4579402E-1,4.556348E-2,-3.135435E-2,-2.682083E-2,4.5426932E-1,1.1200795E-1,1.7521078E-3],"split_indices":[39,0,20,30,0,0,9,0,0],"split_type":[0,0,0,0,0,0,0,0,0],"sum_hessian":[7.819983E0,1.9840962E0,5.835887E0,3.934265E0,1.9016223E0,1.2745583E0,2.6597066E0,1.2784655E0,1.381241E0],"tree_param":{"num_deleted":"0","num_feature":"49","num_nodes":"9","size_leaf_vector":"1"}},{"base_weights":[-9.640449E-3,7.4143164E-2,-1.2872468E-1,6.320538E-2,-4.3489687E-2,8.063477E-3,-8.070605E-2,3.2702424E-2,-7.119637E-2],"categories":[],"categories_nodes":[],"categories_segments":[],"categories_sizes":[],"default_left":[0,0,0,0,0,0,0,0,0],"id":48,"left_children":[1,3,5,-1,7,-1,-1,-1,-1],"loss_changes":[9.635605E-2,1.0138946E-1,9.3655795E-2,0E0,1.4154817E-1,0E0,0E0,0E0,0E0],"parents":[2147483647,0,0,1,1,2,2,4,4],"right_children":[2,4,6,-1,8,-1,-1,-1,-1],"split_conditions":[-7.0656866E-1,6.09936E-1,-7.809242E-1,6.320538E-2,-3.941826E-1,8.063477E-3,-8.070605E-2,3.2702424E-2,-7.119637E-2],"split_indices":[24,1,46,0,10,0,0,0,0],"split_type":[0,0,0,0,0,0,0,0,0],"sum_hessian":[7.7009444E0,4.742014E0,2.9589307E0,1.828528E0,2.9134858E0,1.7862275E0,1.1727033E0,1.8755239E0,1.037962E0],"tree_param":{"num_deleted":"0","num_feature":"49","num_nodes":"9","size_leaf_vector":"1"}},{"base_weights":[-1.2605965E-2,6.1174005E-2,-1.2680586E-1,8.160293E-2,-9.7444244E-2,-7.15205E-2,2.3509057E-2,2.8124878E-2,-6.778005E-2],"categories":[],"categories_nodes":[],"categories_segments":[],"categories_sizes":[],"default_left":[0,0,0,0,0,0,0,0,0],"id":49,"left_children":[1,3,5,-1,7,-1,-1,-1,-1],"loss_changes":[8.014381E-2,2.2360936E-1,1.0333732E-1,0E0,1.2189503E-1,0E0,0E0,0E0,0E0],"parents":[2147483647,0,0,1,1,2,2,4,4],"right_children":[2,4,6,-1,8,-1,-1,-1,-1],"split_conditions":[-9.519514E-1,-3.941826E-1,1.417403E-1,8.160293E-2,3.516672E-1,-7.15205E-2,2.3509057E-2,2.8124878E-2,-6.778005E-2],"split_indices":[4,10,16,0,1,0,0,0,0],"split_type":[0,0,0,0,0,0,0,0,0],"sum_hessian":[7.591202E0,4.8938236E0,2.6973782E0,1.7941562E0,3.0996673E0,1.6421852E0,1.055193E0,1.3545088E0,1.7451586E0],"tree_param":{"num_deleted":"0","num_feature":"49","num_nodes":"9","size_leaf_vector":"1"}},{"base_weights":[-9.710384E-3,3.9245065E-2,-5.6037445E-2,1.8915664E-1,-5.941228E-2,-1.7293071E-4,9.070478E-2,-6.561112E-2,3.4364663E-2,5.2210744E-2,-3.986576E-2],"categories":[],"categories_nodes":[],"categories_segments":[],"categories_sizes":[],"default_left":[0,0,0,0,0,0,0,0,0,0,0],"id":50,"left_children":[1,3,-1,5,7,-1,-1,-1,9,-1,-1],"loss_changes":[8.0755755E-2,1.2159649E-1,0E0,6.891147E-2,8.610601E-2,0E0,0E0,0E0,1.206736E-1,0E0,0E0],"parents":[2147483647,0,0,1,1,3,3,4,4,8,8],"right_children":[2,4,-1,6,8,-1,-1,-1,10,-1,-1],"split_conditions":[1.3409454E-1,-7.0225906E-1,-5.6037445E-2,6.851552E-2,-9.993445E-1,-1.7293071E-4,9.070478E-2,-6.561112E-2,-9.9999714E-1,5.2210744E-2,-3.986576E-2],"split_indices":[37,26,0,14,27,0,0,0,3,0,0],"split_type":[0,0,0,0,0,0,0,0,0,0,0],"sum_hessian":[7.469765E0,6.461744E0,1.0080214E0,2.2005937E0,4.2611504E0,1.1940457E0,1.006548E0,1.0853623E0,3.175788E0,1.7084714E0,1.4673165E0],"tree_param":{"num_deleted":"0","num_feature":"49","num_nodes":"11","size_leaf_vector":"1"}},{"base_weights":[-9.018246E-3,5.881387E-2,-1.3065384E-1,1.5645699E-1,-3.7397332E-2,2.2118744E-2,-7.809576E-2,-3.0641267E-2,2.6335186E-1,-2.4231786E-3,1.2889738E-1],"categories":[],"categories_nodes":[],"categories_segments":[],"categories_sizes":[],"default_left":[0,0,0,0,0,0,0,0,0,0,0],"id":51,"left_children":[1,3,5,7,-1,-1,-1,-1,9,-1,-1],"loss_changes":[7.651669E-2,1.2780467E-1,1.0657228E-1,1.482205E-1,0E0,0E0,0E0,0E0,1.5626112E-1,0E0,0E0],"parents":[2147483647,0,0,1,1,2,2,3,3,8,8],"right_children":[2,4,6,8,-1,-1,-1,-1,10,-1,-1],"split_conditions":[4.8016104E-1,-1.0309176E-1,-9.5622176E-1,-3.5030976E-1,-3.7397332E-2,2.2118744E-2,-7.809576E-2,-3.0641267E-2,-9.962486E-1,-2.4231786E-3,1.2889738E-1],"split_indices":[43,37,24,5,0,0,0,0,16,0,0],"split_type":[0,0,0,0,0,0,0,0,0,0,0],"sum_hessian":[7.342516E0,5.0453615E0,2.2971547E0,3.3889909E0,1.6563705E0,1.0591207E0,1.238034E0,1.0041962E0,2.3847947E0,1.267512E0,1.1172827E0],"tree_param":{"num_deleted":"0","num_feature":"49","num_nodes":"11","size_leaf_vector":"1"}},{"base_weights":[-5.536072E-3,-8.185159E-2,9.956541E-2,-7.362842E-2,6.7103185E-2,8.451568E-2,-1.8348422E-2,-3.596632E-2,6.1201587E-2],"categories":[],"categories_nodes":[],"categories_segments":[],"categories_sizes":[],"default_left":[0,0,0,0,0,0,0,0,0],"id":52,"left_children":[1,3,5,-1,7,-1,-1,-1,-1],"loss_changes":[7.380726E-2,1.4539129E-1,1.3125437E-1,0E0,1.1545499E-1,0E0,0E0,0E0,0E0],"parents":[2147483647,0,0,1,1,2,2,4,4],"right_children":[2,4,6,-1,8,-1,-1,-1,-1],"split_conditions":[-1.2548304E-1,7.2002137E-1,-9.592735E-1,-7.362842E-2,5.149075E-1,8.451568E-2,-1.8348422E-2,-3.596632E-2,6.1201587E-2],"split_indices":[15,30,4,0,42,0,0,0,0],"split_type":[0,0,0,0,0,0,0,0,0],"sum_hessian":[7.185852E0,4.2911835E0,2.8946686E0,1.7365272E0,2.5546563E0,1.0040201E0,1.8906486E0,1.132325E0,1.4223312E0],"tree_param":{"num_deleted":"0","num_feature":"49","num_nodes":"9","size_leaf_vector":"1"}},{"base_weights":[-1.657231E-3,-6.5560244E-2,3.8746607E-2,5.2430607E-2,-7.193307E-2,1.597364E-1,-3.5834722E-2,8.059397E-2,-5.000961E-3],"categories":[],"categories_nodes":[],"categories_segments":[],"categories_sizes":[],"default_left":[0,0,0,0,0,0,0,0,0],"id":53,"left_children":[1,3,-1,5,-1,7,-1,-1,-1],"loss_changes":[7.596274E-2,1.3771017E-1,0E0,1.0115677E-1,0E0,6.533454E-2,0E0,0E0,0E0],"parents":[2147483647,0,0,1,1,3,3,5,5],"right_children":[2,4,-1,6,-1,8,-1,-1,-1],"split_conditions":[8.93643E-1,1.0936938E-1,3.8746607E-2,-9.9999917E-1,-7.193307E-2,8.351485E-1,-3.5834722E-2,8.059397E-2,-5.000961E-3],"split_indices":[0,20,0,3,0,33,0,0,0],"split_type":[0,0,0,0,0,0,0,0,0],"sum_hessian":[7.074256E0,5.0876975E0,1.9865584E0,3.4501088E0,1.637589E0,2.1675441E0,1.2825644E0,1.0168643E0,1.15068E0],"tree_param":{"num_deleted":"0","num_feature":"49","num_nodes":"9","size_leaf_vector":"1"}},{"base_weights":[-3.3733118E-4,-4.219204E-2,6.1975364E-2,-2.298233E-2,1.4071079E-1,7.945288E-2,-4.4437352E-4,-4.44922E-2,4.4320516E-2],"categories":[],"categories_nodes":[],"categories_segments":[],"categories_sizes":[],"default_left":[0,0,0,0,0,0,0,0,0],"id":54,"left_children":[1,-1,3,-1,5,-1,7,-1,-1],"loss_changes":[7.841737E-2,0E0,7.859149E-2,0E0,7.573611E-2,0E0,8.8028476E-2,0E0,0E0],"parents":[2147483647,0,0,2,2,4,4,6,6],"right_children":[2,-1,4,-1,6,-1,8,-1,-1],"split_conditions":[-9.948204E-1,-4.219204E-2,-8.9379504E-2,-2.298233E-2,-9.118846E-1,