{"learner":{"attributes":{"scikit_learn":"{\"_estimator_type\": \"classifier\"}"},"feature_names":["deep_ela.large_25d_v1.X0","deep_ela.large_25d_v1.X1","deep_ela.large_25d_v1.X2","deep_ela.large_25d_v1.X3","deep_ela.large_25d_v1.X4","deep_ela.large_25d_v1.X5","deep_ela.large_25d_v1.X6","deep_ela.large_25d_v1.X7","deep_ela.large_25d_v1.X8","deep_ela.large_25d_v1.X9","deep_ela.large_25d_v1.X10","deep_ela.large_25d_v1.X11","deep_ela.large_25d_v1.X12","deep_ela.large_25d_v1.X13","deep_ela.large_25d_v1.X14","deep_ela.large_25d_v1.X15","deep_ela.large_25d_v1.X16","deep_ela.large_25d_v1.X17","deep_ela.large_25d_v1.X18","deep_ela.large_25d_v1.X19","deep_ela.large_25d_v1.X20","deep_ela.large_25d_v1.X21","deep_ela.large_25d_v1.X22","deep_ela.large_25d_v1.X23","deep_ela.large_25d_v1.X24","deep_ela.large_25d_v1.X25","deep_ela.large_25d_v1.X26","deep_ela.large_25d_v1.X27","deep_ela.large_25d_v1.X28","deep_ela.large_25d_v1.X29","deep_ela.large_25d_v1.X30","deep_ela.large_25d_v1.X31","deep_ela.large_25d_v1.X32","deep_ela.large_25d_v1.X33","deep_ela.large_25d_v1.X34","deep_ela.large_25d_v1.X35","deep_ela.large_25d_v1.X36","deep_ela.large_25d_v1.X37","deep_ela.large_25d_v1.X38","deep_ela.large_25d_v1.X39","deep_ela.large_25d_v1.X40","deep_ela.large_25d_v1.X41","deep_ela.large_25d_v1.X42","deep_ela.large_25d_v1.X43","deep_ela.large_25d_v1.X44","deep_ela.large_25d_v1.X45","deep_ela.large_25d_v1.X46","deep_ela.large_25d_v1.X47","dim","50d_deep_ela.large_50d_v1.X0","50d_deep_ela.large_50d_v1.X1","50d_deep_ela.large_50d_v1.X2","50d_deep_ela.large_50d_v1.X3","50d_deep_ela.large_50d_v1.X4","50d_deep_ela.large_50d_v1.X5","50d_deep_ela.large_50d_v1.X6","50d_deep_ela.large_50d_v1.X7","50d_deep_ela.large_50d_v1.X8","50d_deep_ela.large_50d_v1.X9","50d_deep_ela.large_50d_v1.X10","50d_deep_ela.large_50d_v1.X11","50d_deep_ela.large_50d_v1.X12","50d_deep_ela.large_50d_v1.X13","50d_deep_ela.large_50d_v1.X14","50d_deep_ela.large_50d_v1.X15","50d_deep_ela.large_50d_v1.X16","50d_deep_ela.large_50d_v1.X17","50d_deep_ela.large_50d_v1.X18","50d_deep_ela.large_50d_v1.X19","50d_deep_ela.large_50d_v1.X20","50d_deep_ela.large_50d_v1.X21","50d_deep_ela.large_50d_v1.X22","50d_deep_ela.large_50d_v1.X23","50d_deep_ela.large_50d_v1.X24","50d_deep_ela.large_50d_v1.X25","50d_deep_ela.large_50d_v1.X26","50d_deep_ela.large_50d_v1.X27","50d_deep_ela.large_50d_v1.X28","50d_deep_ela.large_50d_v1.X29","50d_deep_ela.large_50d_v1.X30","50d_deep_ela.large_50d_v1.X31","50d_deep_ela.large_50d_v1.X32","50d_deep_ela.large_50d_v1.X33","50d_deep_ela.large_50d_v1.X34","50d_deep_ela.large_50d_v1.X35","50d_deep_ela.large_50d_v1.X36","50d_deep_ela.large_50d_v1.X37","50d_deep_ela.large_50d_v1.X38","50d_deep_ela.large_50d_v1.X39","50d_deep_ela.large_50d_v1.X40","50d_deep_ela.large_50d_v1.X41","50d_deep_ela.large_50d_v1.X42","50d_deep_ela.large_50d_v1.X43","50d_deep_ela.large_50d_v1.X44","50d_deep_ela.large_50d_v1.X45","50d_deep_ela.large_50d_v1.X46","50d_deep_ela.large_50d_v1.X47","ela_meta.lin_simple.adj_r2","ela_meta.lin_simple.intercept","ela_meta.lin_simple.coef.min","ela_meta.lin_simple.coef.max","ela_meta.lin_simple.coef.max_by_min","ela_meta.lin_w_interact.adj_r2","ela_meta.quad_simple.adj_r2","ela_meta.quad_simple.cond","ela_meta.quad_w_interact.adj_r2","ela_distr.skewness","ela_distr.kurtosis","ela_distr.number_of_peaks","nbc.nn_nb.sd_ratio","nbc.nn_nb.mean_ratio","nbc.nn_nb.cor","nbc.dist_ratio.coeff_var","nbc.nb_fitness.cor","disp.ratio_mean_02","disp.ratio_mean_05","disp.ratio_mean_10","disp.ratio_mean_25","disp.ratio_median_02","disp.ratio_median_05","disp.ratio_median_10","disp.ratio_median_25","disp.diff_mean_02","disp.diff_mean_05","disp.diff_mean_10","disp.diff_mean_25","disp.diff_median_02","disp.diff_median_05","disp.diff_median_10","disp.diff_median_25","pca.expl_var.cov_x","pca.expl_var.cor_x","pca.expl_var.cov_init","pca.expl_var.cor_init","pca.expl_var_PC1.cov_x","pca.expl_var_PC1.cor_x","pca.expl_var_PC1.cov_init","pca.expl_var_PC1.cor_init","ic.h_max","ic.eps_s","ic.eps_max","ic.eps_ratio","ic.m0"],"feature_types":["float","float","float","float","float","float","float","float","float","float","float","float","float","float","float","float","float","float","float","float","float","float","float","float","float","float","float","float","float","float","float","float","float","float","float","float","float","float","float","float","float","float","float","float","float","float","float","float","float","float","float","float","float","float","float","float","float","float","float","float","float","float","float","float","float","float","float","float","float","float","float","float","float","float","float","float","float","float","float","float","float","float","float","float","float","float","float","float","float","float","float","float","float","float","float","float","float","float","float","float","float","float","float","float","float","float","float","float","float","float","float","float","float","float","float","float","float","float","float","float","float","float","float","float","float","float","float","float","float","float","float","float","float","float","float","float","float","float","float","float","float","float","float"],"gradient_booster":{"model":{"cats":{"enc":[],"feature_segments":[],"sorted_idx":[]},"gbtree_model_param":{"num_parallel_tree":"1","num_trees":"100"},"iteration_indptr":[0,1,2,3,4,5,6,7,8,9,10,11,12,13,14,15,16,17,18,19,20,21,22,23,24,25,26,27,28,29,30,31,32,33,34,35,36,37,38,39,40,41,42,43,44,45,46,47,48,49,50,51,52,53,54,55,56,57,58,59,60,61,62,63,64,65,66,67,68,69,70,71,72,73,74,75,76,77,78,79,80,81,82,83,84,85,86,87,88,89,90,91,92,93,94,95,96,97,98,99,100],"tree_info":[0,0,0,0,0,0,0,0,0,0,0,0,0,0,0,0,0,0,0,0,0,0,0,0,0,0,0,0,0,0,0,0,0,0,0,0,0,0,0,0,0,0,0,0,0,0,0,0,0,0,0,0,0,0,0,0,0,0,0,0,0,0,0,0,0,0,0,0,0,0,0,0,0,0,0,0,0,0,0,0,0,0,0,0,0,0,0,0,0,0,0,0,0,0,0,0,0,0,0,0],"trees":[{"base_weights":[-5.3288918E-8,-4.9978197E-1,2.5869071E0,5.923682E-1,-1.1006395E0,4.117274E0,-3.154639E-1,2.7220445E0,-6.8426013E-1,3.7894738E-1,-1.1484135E0,-2.4827588E-1,4.889292E0,1.5481865E0,-3.1304348E-1,-1.0148368E0,1.0465117E0,-3.5550937E-1,2E-1,5.2250485E0,9.473684E-2,-3.462274E-1,1.6981131E-1,1.6563193E0,5.625E-1],"categories":[],"categories_nodes":[],"categories_segments":[],"categories_sizes":[],"default_left":[0,0,0,0,0,0,0,0,0,0,0,0,0,0,0,0,0,0,0,0,0,0,0,0,0],"id":0,"left_children":[1,3,5,7,9,11,-1,13,15,-1,17,-1,19,-1,-1,21,-1,-1,-1,23,-1,-1,-1,-1,-1],"loss_changes":[1.9651921E2,8.424797E1,1.413683E2,1.2655002E2,1.0770332E1,7.0958984E1,0E0,1.6505878E2,4.4193367E1,0E0,6.201294E0,0E0,2.1852997E1,0E0,0E0,6.835638E0,0E0,0E0,0E0,3.724121E0,0E0,0E0,0E0,0E0,0E0],"parents":[2147483647,0,0,1,1,2,2,3,3,4,4,5,5,7,7,8,8,10,10,12,12,15,15,19,19],"right_children":[2,4,6,8,10,12,-1,14,16,-1,18,-1,20,-1,-1,22,-1,-1,-1,24,-1,-1,-1,-1,-1],"split_conditions":[9.3121654E-1,8.669097E-1,6.69623E-1,-2.2443995E-1,-9.906867E-1,-8.6182356E-1,-3.154639E-1,8.559422E-1,8.637452E-1,3.7894738E-1,9.9999905E-1,-2.4827588E-1,-9.999813E-1,1.5481865E0,-3.1304348E-1,8.7033176E-1,1.0465117E0,-3.5550937E-1,2E-1,9.545611E-1,9.473684E-2,-3.462274E-1,1.6981131E-1,1.6563193E0,5.625E-1],"split_indices":[49,105,59,47,95,24,0,138,65,0,80,0,19,0,0,49,0,0,0,32,0,0,0,0,0],"split_type":[0,0,0,0,0,0,0,0,0,0,0,0,0,0,0,0,0,0,0,0,0,0,0,0,0],"sum_hessian":[1.5E2,1.2638889E2,2.3611113E1,4.4861115E1,8.152778E1,1.6527779E1,7.0833335E0,1.638889E1,2.8472223E1,1.1111112E0,8.041667E1,2.2222223E0,1.4305556E1,9.722222E0,6.666667E0,2.7083334E1,1.388889E0,7.916667E1,1.25E0,1.3194445E1,1.1111112E0,2.513889E1,1.9444445E0,1.1527779E1,1.6666667E0],"tree_param":{"num_deleted":"0","num_feature":"143","num_nodes":"25","size_leaf_vector":"1"}},{"base_weights":[-1.2589276E-1,-6.4698267E-1,8.39641E-1,6.955173E-1,-8.7513447E-1,1.5492928E0,-3.2271865E-1,5.2683175E-1,-5.284549E-1,8.5292E-1,-1.014849E0,2.083273E0,4.311694E-2,3.3153087E-1,-2.889192E-1,4.8854813E-1,-2.2210905E-1,-1.093201E0,1.015536E-2,6.426443E-1,1.2642644E-1,1.2489635E0,-7.883911E-1,9.6718594E-2,-1.120715E0,5.115462E-1,-2.7041656E-1,4.9502414E-1,1.0299109E-2,-2.9543415E-1,5.1255543E-2,-3.4047842E-1,-2.6696043E-2],"categories":[],"categories_nodes":[],"categories_segments":[],"categories_sizes":[],"default_left":[0,0,0,0,0,0,0,0,0,0,0,0,0,0,0,0,0,0,0,0,0,0,0,0,0,0,0,0,0,0,0,0,0],"id":1,"left_children":[1,3,5,7,9,11,-1,-1,13,15,17,19,21,-1,-1,-1,-1,23,25,-1,-1,27,29,-1,31,-1,-1,-1,-1,-1,-1,-1,-1],"loss_changes":[7.299359E1,2.9427746E1,7.0865425E1,1.9393383E1,2.0389175E1,3.011567E1,0E0,0E0,6.298334E0,9.351824E0,6.0563583E0,1.8079987E0,1.1864641E1,0E0,0E0,0E0,0E0,3.0852432E0,1.1326702E1,0E0,0E0,2.2895565E0,1.4936152E0,0E0,9.0826416E-1,0E0,0E0,0E0,0E0,0E0,0E0,0E0,0E0],"parents":[2147483647,0,0,1,1,2,2,3,3,4,4,5,5,8,8,9,9,10,10,11,11,12,12,17,17,18,18,21,21,22,22,24,24],"right_children":[2,4,6,8,10,12,-1,-1,14,16,18,20,22,-1,-1,-1,-1,24,26,-1,-1,28,30,-1,32,-1,-1,-1,-1,-1,-1,-1,-1],"split_conditions":[8.496463E-1,-5.021531E-1,6.69623E-1,8.633051E-1,-1.2149047E0,9.4479895E-1,-3.2271865E-1,5.2683175E-1,7.191417E-1,-2.1256581E-1,8.445811E-1,9.027646E-1,-6.6660434E-1,3.3153087E-1,-2.889192E-1,4.8854813E-1,-2.2210905E-1,-9.974799E-1,-4.1546136E-1,6.426443E-1,1.2642644E-1,6.3499814E-1,6.4975905E-1,9.6718594E-2,9.2028856E-1,5.115462E-1,-2.7041656E-1,4.9502414E-1,1.0299109E-2,-2.9543415E-1,5.1255543E-2,-3.4047842E-1,-2.6696043E-2],"split_indices":[49,5,59,85,106,61,0,0,121,1,65,43,78,0,0,0,0,95,59,0,0,0,3,0,43,0,0,0,0,0,0,0,0],"split_type":[0,0,0,0,0,0,0,0,0,0,0,0,0,0,0,0,0,0,0,0,0,0,0,0,0,0,0,0,0,0,0,0,0],"sum_hessian":[1.4299933E2,9.308962E1,4.9909714E1,1.3224575E1,7.986504E1,3.655651E1,1.3353201E1,6.852249E0,6.372326E0,5.5922866E0,7.427276E1,2.6705526E1,9.850986E0,1.0148972E0,5.3574286E0,3.7464848E0,1.8458016E0,6.893665E1,5.336104E0,2.551267E1,1.1928546E0,3.8155944E0,6.035391E0,1.1099887E0,6.782667E1,1.5616407E0,3.7744632E0,2.5988548E0,1.2167397E0,4.987632E0,1.047759E0,6.680633E1,1.0203416E0],"tree_param":{"num_deleted":"0","num_feature":"143","num_nodes":"33","size_leaf_vector":"1"}},{"base_weights":[-1.207694E-1,3.5122043E-1,-9.0299785E-1,8.758476E-1,-9.364209E-1,-1.0508401E0,3.0982476E-1,1.2113912E0,-7.678153E-1,-1.0402936E0,8.259094E-2,2.7098699E-2,-3.244595E-1,2.8193262E-3,1.522166E0,-2.9397982E-1,1.627984E-1,-3.2218385E-1,-5.840306E-2,3.84251E-1,-2.807773E-1,1.6171522E0,-2.0021005E-1,7.413973E-2,4.958773E-1],"categories":[],"categories_nodes":[],"categories_segments":[],"categories_sizes":[],"default_left":[0,0,0,0,0,0,0,0,0,0,0,0,0,0,0,0,0,0,0,0,0,0,0,0,0],"id":2,"left_children":[1,3,5,7,9,11,-1,13,15,17,-1,-1,-1,19,21,-1,-1,-1,-1,-1,-1,23,-1,-1,-1],"loss_changes":[4.4941803E1,5.2229614E1,1.4182529E1,3.1036728E1,3.1201E0,1.6042023E0,0E0,1.7168495E1,3.2744565E0,3.8697815E-1,0E0,0E0,0E0,1.3620781E1,8.642822E0,0E0,0E0,0E0,0E0,0E0,0E0,1.3140488E0,0E0,0E0,0E0],"parents":[2147483647,0,0,1,1,2,2,3,3,4,4,5,5,7,7,8,8,9,9,13,13,14,14,21,21],"right_children":[2,4,6,8,10,12,-1,14,16,18,-1,-1,-1,20,22,-1,-1,-1,-1,-1,-1,24,-1,-1,-1],"split_conditions":[1.01872765E-1,-2.381798E-1,9.9047536E-1,-6.3122374E-1,9.857397E-1,-9.99998E-1,3.0982476E-1,-3.2790488E-1,-6.9769824E-1,9.343073E-1,8.259094E-2,2.7098699E-2,-3.244595E-1,-9.35503E-1,9.9479926E-1,-2.9397982E-1,1.627984E-1,-3.2218385E-1,-5.840306E-2,3.84251E-1,-2.807773E-1,-8.360775E-1,-2.0021005E-1,7.413973E-2,4.958773E-1],"split_indices":[59,78,49,88,22,34,0,83,92,49,0,0,0,85,15,0,0,0,0,0,0,29,0,0,0],"split_type":[0,0,0,0,0,0,0,0,0,0,0,0,0,0,0,0,0,0,0,0,0,0,0,0,0],"sum_hessian":[1.1986723E2,7.510221E1,4.4765022E1,5.3588367E1,2.1513847E1,4.2013397E1,2.7516248E0,4.4721703E1,8.866665E0,1.9945532E1,1.5683143E0,1.0494548E0,4.0963943E1,9.354004E0,3.53677E1,7.848514E0,1.0181504E0,1.892247E1,1.0230615E0,3.806869E0,5.5471344E0,3.414772E1,1.2199783E0,1.0701709E0,3.307755E1],"tree_param":{"num_deleted":"0","num_feature":"143","num_nodes":"25","size_leaf_vector":"1"}},{"base_weights":[-1.2094201E-1,2.4171327E-1,-9.817659E-1,9.53025E-1,-5.888599E-1,-1.0117208E0,-2.6842775E-2,1.3043492E0,-3.3851692E-3,7.599687E-1,-9.322073E-1,-2.9423362E-2,-3.1237626E-1,-8.735854E-2,1.4107957E0,-2.7605858E-1,8.1742436E-1,-1.8194474E-1,3.4252444E-1,2.1842863E-1,-3.104453E-1,4.4196013E-1,-1.742348E-2,-1.8111423E-1,3.7458646E-1],"categories":[],"categories_nodes":[],"categories_segments":[],"categories_sizes":[],"default_left":[0,0,0,0,0,0,0,0,0,0,0,0,0,0,0,0,0,0,0,0,0,0,0,0,0],"id":3,"left_children":[1,3,5,7,9,11,-1,13,15,17,19,-1,-1,-1,21,-1,23,-1,-1,-1,-1,-1,-1,-1,-1],"loss_changes":[3.1344166E1,4.2454636E1,7.041912E-1,1.2967457E1,1.6144487E1,6.714878E-1,0E0,5.203293E0,9.3022375E0,4.507935E0,5.3561687E0,0E0,0E0,0E0,2.52602E0,0E0,4.7518578E0,0E0,0E0,0E0,0E0,0E0,0E0,0E0,0E0],"parents":[2147483647,0,0,1,1,2,2,3,3,4,4,5,5,7,7,8,8,9,9,10,10,14,14,16,16],"right_children":[2,4,6,8,10,12,-1,14,16,18,20,-1,-1,-1,22,-1,24,-1,-1,-1,-1,-1,-1,-1,-1],"split_conditions":[2.9763013E-1,-8.42896E-1,9.8033035E-1,9.814899E-1,-6.6737145E-2,-6.096304E-1,-2.6842775E-2,-9.624489E-1,9.3784297E-1,-8.296747E-1,-6.03154E-1,-2.9423362E-2,-3.1237626E-1,-8.735854E-2,8.725687E-1,-2.7605858E-1,-9.6532935E-1,-1.8194474E-1,3.4252444E-1,2.1842863E-1,-3.104453E-1,4.4196013E-1,-1.742348E-2,-1.8111423E-1,3.7458646E-1],"split_indices":[47,67,49,105,61,59,0,15,49,58,25,0,0,0,40,0,64,0,0,0,0,0,0,0,0],"split_type":[0,0,0,0,0,0,0,0,0,0,0,0,0,0,0,0,0,0,0,0,0,0,0,0,0],"sum_hessian":[9.864323E1,6.99101E1,2.873312E1,3.7579334E1,3.233077E1,2.767036E1,1.0627604E0,2.7217545E1,1.036179E1,6.313802E0,2.6016968E1,1.0017344E0,2.6668627E1,1.5937008E0,2.5623842E1,4.837463E0,5.5243273E0,1.2502792E0,5.063523E0,1.1595157E0,2.4857452E1,2.4576763E1,1.0470809E0,1.1928492E0,4.331478E0],"tree_param":{"num_deleted":"0","num_feature":"143","num_nodes":"25","size_leaf_vector":"1"}},{"base_weights":[-1.1761556E-1,2.1240406E-1,-9.350102E-1,8.125424E-1,-5.578709E-1,-9.7229654E-1,-2.2781057E-2,9.6794647E-1,-2.2899784E-1,6.6317487E-1,-9.0114963E-1,-2.9249327E-2,-3.0266616E-1,-2.0014305E-1,1.0811605E0,-1.6707447E-1,3.0598354E-1,1.9634232E-1,-3.0477858E-1,1.1709753E0,-1.7428249E-1,3.6998203E-1,3.9610915E-2],"categories":[],"categories_nodes":[],"categories_segments":[],"categories_sizes":[],"default_left":[0,0,0,0,0,0,0,0,0,0,0,0,0,0,0,0,0,0,0,0,0,0,0],"id":4,"left_children":[1,3,5,7,9,11,-1,13,-1,15,17,-1,-1,-1,19,-1,-1,-1,-1,21,-1,-1,-1],"loss_changes":[2.1925426E1,2.7353657E1,6.741314E-1,8.848648E0,1.1527824E1,6.1527824E-1,0E0,6.3827724E0,0E0,3.309642E0,4.374899E0,0E0,0E0,0E0,5.0071335E0,0E0,0E0,0E0,0E0,1.6384468E0,0E0,0E0,0E0],"parents":[2147483647,0,0,1,1,2,2,3,3,4,4,5,5,7,7,9,9,10,10,14,14,19,19],"right_children":[2,4,6,8,10,12,-1,14,-1,16,18,-1,-1,-1,20,-1,-1,-1,-1,22,-1,-1,-1],"split_conditions":[2.9763013E-1,-8.37924E-1,9.8033035E-1,6.043429E-1,-6.6737145E-2,-9.965703E-1,-2.2781057E-2,3.9076304E-1,-2.2899784E-1,-8.296747E-1,-6.03154E-1,-2.9249327E-2,-3.0266616E-1,-2.0014305E-1,9.4686145E-1,-1.6707447E-1,3.0598354E-1,1.9634232E-1,-3.0477858E-1,6.354133E-1,-1.7428249E-1,3.6998203E-1,3.9610915E-2],"split_indices":[47,67,49,59,61,95,0,142,0,58,25,0,0,0,79,0,0,0,0,97,0,0,0],"split_type":[0,0,0,0,0,0,0,0,0,0,0,0,0,0,0,0,0,0,0,0,0,0,0],"sum_hessian":[7.954244E1,5.719169E1,2.2350756E1,3.2115173E1,2.5076515E1,2.1294706E1,1.0560496E0,2.958356E1,2.5316098E0,5.298349E0,1.9778168E1,1.0020698E0,2.0292637E1,1.5988911E0,2.798467E1,1.0718445E0,4.226505E0,1.0359303E0,1.8742237E1,2.6830332E1,1.1543397E0,2.5136044E1,1.6942881E0],"tree_param":{"num_deleted":"0","num_feature":"143","num_nodes":"23","size_leaf_vector":"1"}},{"base_weights":[-1.2028507E-1,2.3575251E-1,-7.761669E-1,6.0704905E-1,-8.092213E-1,-9.581008E-1,2.0954908E-1,8.133128E-1,-7.0876056E-1,-9.101246E-1,2.1339085E-2,-2.990229E-1,-2.7759144E-2,-1.9818969E-1,9.8025876E-1,-2.3427194E-1,-6.4308956E-2,-2.8558666E-1,-7.7907935E-2,-8.4514484E-2,1.073532E0,-6.0042776E-2,3.4208232E-1],"categories":[],"categories_nodes":[],"categories_segments":[],"categories_sizes":[],"default_left":[0,0,0,0,0,0,0,0,0,0,0,0,0,0,0,0,0,0,0,0,0,0,0],"id":5,"left_children":[1,3,5,7,9,11,-1,13,15,17,-1,-1,-1,-1,19,-1,-1,-1,-1,-1,21,-1,-1],"loss_changes":[1.5444019E1,1.7223795E1,6.900796E0,9.367491E0,1.1071334E0,6.1343575E-1,0E0,7.6524906E0,8.228779E-3,4.1202545E-2,0E0,0E0,0E0,0E0,3.3597317E0,0E0,0E0,0E0,0E0,0E0,2.3018837E0,0E0,0E0],"parents":[2147483647,0,0,1,1,2,2,3,3,4,4,5,5,7,7,8,8,9,9,14,14,20,20],"right_children":[2,4,6,8,10,12,-1,14,16,18,-1,-1,-1,-1,20,-1,-1,-1,-1,-1,22,-1,-1],"split_conditions":[6.9374606E-2,-2.381798E-1,9.9047536E-1,8.520274E-1,9.857397E-1,6.9341546E-1,2.0954908E-1,-5.023948E-1,7.6205206E-1,9.8122835E-1,2.1339085E-2,-2.990229E-1,-2.7759144E-2,-1.9818969E-1,-7.6762307E-1,-2.3427194E-1,-6.4308956E-2,-2.8558666E-1,-7.7907935E-2,-8.4514484E-2,-9.948243E-1,-6.0042776E-2,3.4208232E-1],"split_indices":[59,78,49,138,22,94,0,33,106,39,0,0,0,0,29,0,0,0,0,0,66,0,0],"split_type":[0,0,0,0,0,0,0,0,0,0,0,0,0,0,0,0,0,0,0,0,0,0,0],"sum_hessian":[6.435255E1,4.2125683E1,2.2226864E1,3.1391014E1,1.0734671E1,2.0097647E1,2.1292174E0,2.74672E1,3.923814E0,9.600473E0,1.134197E0,1.909369E1,1.003956E0,2.493676E0,2.4973524E1,2.9184256E0,1.0053884E0,8.584788E0,1.0156853E0,1.5797263E0,2.3393797E1,1.0653088E0,2.232849E1],"tree_param":{"num_deleted":"0","num_feature":"143","num_nodes":"23","size_leaf_vector":"1"}},{"base_weights":[-1.2450024E-1,-5.029983E-1,4.1853607E-1,-7.0604074E-1,2.4021545E-1,7.044961E-1,-2.4494758E-1,-7.359723E-2,-9.415205E-1,-2.1124102E-1,7.03854E-1,9.322022E-1,-3.7091482E-1,2.884132E-1,-7.0966333E-1,-4.495655E-2,-2.9366648E-1,2.809697E-1,-3.313337E-2,-5.1252406E-2,1.0318816E0,1.0081331E-1,-2.2144645E-1,-2.4406773E-1,-3.6774985E-2,3.3335778E-1,5.0897367E-2],"categories":[],"categories_nodes":[],"categories_segments":[],"categories_sizes":[],"default_left":[0,0,0,0,0,0,0,0,0,0,0,0,0,0,0,0,0,0,0,0,0,0,0,0,0,0,0],"id":6,"left_children":[1,3,5,7,9,11,-1,13,15,-1,17,19,21,-1,23,-1,-1,-1,-1,-1,25,-1,-1,-1,-1,-1,-1],"loss_changes":[1.1224837E1,5.003357E0,8.541173E0,3.7153492E0,3.8316698E0,4.9621563E0,0E0,5.9353185E0,3.9860535E-1,0E0,1.1666098E0,1.9181595E0,1.2890196E0,0E0,2.3681521E-1,0E0,0E0,0E0,0E0,0E0,8.1476116E-1,0E0,0E0,0E0,0E0,0E0,0E0],"parents":[2147483647,0,0,1,1,2,2,3,3,4,4,5,5,7,7,8,8,10,10,11,11,12,12,14,14,20,20],"right_children":[2,4,6,8,10,12,-1,14,16,-1,18,20,22,-1,24,-1,-1,-1,-1,-1,26,-1,-1,-1,-1,-1,-1],"split_conditions":[8.496463E-1,7.577578E-1,6.69623E-1,-8.8625747E-1,5.7753485E-1,9.863224E-1,-2.4494758E-1,-9.9997455E-1,-8.940011E-1,-2.1124102E-1,-6.6903955E-1,-9.5183146E-1,-8.920906E-1,2.884132E-1,7.630382E-1,-4.495655E-2,-2.9366648E-1,2.809697E-1,-3.313337E-2,-5.1252406E-2,7.162779E-1,1.0081331E-1,-2.2144645E-1,-2.4406773E-1,-3.6774985E-2,3.3335778E-1,5.0897367E-2],"split_indices":[49,139,59,13,110,50,0,23,59,0,88,64,91,0,65,0,0,0,0,0,40,0,0,0,0,0,0],"split_type":[0,0,0,0,0,0,0,0,0,0,0,0,0,0,0,0,0,0,0,0,0,0,0,0,0,0,0],"sum_hessian":[5.258768E1,3.1032003E1,2.1555677E1,2.4412611E1,6.6193924E0,1.7851814E1,3.7038624E0,6.9795947E0,1.7433016E1,2.0088964E0,4.610496E0,1.4842293E1,3.009522E0,2.462042E0,4.517553E0,1.0116074E0,1.642141E1,3.4689755E0,1.1415203E0,1.1709335E0,1.3671359E1,1.057916E0,1.9516059E0,3.5105224E0,1.0070302E0,1.2255313E1,1.4160465E0],"tree_param":{"num_deleted":"0","num_feature":"143","num_nodes":"27","size_leaf_vector":"1"}},{"base_weights":[-1.2035637E-1,1.2395367E-1,-2.694749E-1,5.5357563E-1,-4.987613E-1,8.825558E-1,-1.6072382E-1,4.8139024E-1,-7.83015E-1,-6.3708425E-2,3.1682605E-1,-2.368967E-1,3.856668E-1,-3.4172595E-2,2.1884185E-1,6.3979715E-2,-2.7115503E-1,-1.687342E-1,1.5098046E-1,-1.1060464E-1,2.2074397E-1],"categories":[],"categories_nodes":[],"categories_segments":[],"categories_sizes":[],"default_left":[0,0,0,0,0,0,0,0,0,0,0,0,0,0,0,0,0,0,0,0,0],"id":7,"left_children":[1,3,-1,5,7,9,11,13,15,17,-1,-1,19,-1,-1,-1,-1,-1,-1,-1,-1],"loss_changes":[8.451254E0,9.445456E0,0E0,5.0191503E0,4.4219656E0,2.426031E0,2.844329E0,6.5657926E-1,1.593483E0,1.1792082E0,0E0,0E0,1.4933627E0,0E0,0E0,0E0,0E0,0E0,0E0,0E0,0E0],"parents":[2147483647,0,0,1,1,3,3,4,4,5,5,6,6,7,7,8,8,9,9,12,12],"right_children":[2,4,-1,6,8,10,12,14,16,18,-1,-1,20,-1,-1,-1,-1,-1,-1,-1,-1],"split_conditions":[3.3203682E-1,-8.5259306E-1,-2.694749E-1,9.814899E-1,-3.798018E-1,1.1745961E-1,9.3784297E-1,-5.2217084E-1,-9.8398507E-1,7.336546E-2,3.1682605E-1,-2.368967E-1,4.5821553E-1,-3.4172595E-2,2.1884185E-1,6.3979715E-2,-2.7115503E-1,-1.687342E-1,1.5098046E-1,-1.1060464E-1,2.2074397E-1],"split_indices":[47,67,0,105,40,49,49,58,84,0,0,0,100,0,0,0,0,0,0,0,0],"split_type":[0,0,0,0,0,0,0,0,0,0,0,0,0,0,0,0,0,0,0,0,0],"sum_hessian":[4.2883392E1,3.3273853E1,9.609541E0,1.9755331E1,1.351852E1,1.3364553E1,6.390778E0,2.8832157E0,1.0635304E1,2.1691344E0,1.1195419E1,2.764004E0,3.6267738E0,1.007195E0,1.8760207E0,1.0676482E0,9.5676565E0,1.1582619E0,1.0108724E0,1.1329755E0,2.4937983E0],"tree_param":{"num_deleted":"0","num_feature":"143","num_nodes":"21","size_leaf_vector":"1"}},{"base_weights":[-1.1242428E-1,1.0217734E-1,-2.6811635E-1,-5.4242796E-1,4.2644146E-1,8.698186E-2,-6.679219E-1,-1.813634E-1,5.8087605E-1,-8.2467604E-1,2.660221E-2,-1.593301E-1,7.154023E-1,-6.839368E-2,-2.6416817E-1,8.7602603E-1,-1.3790117E-1,2.846923E-1,1.5821392E-2],"categories":[],"categories_nodes":[],"categories_segments":[],"categories_sizes":[],"default_left":[0,0,0,0,0,0,0,0,0,0,0,0,0,0,0,0,0,0,0],"id":8,"left_children":[1,3,-1,5,7,-1,9,-1,11,13,-1,-1,15,-1,-1,17,-1,-1,-1],"loss_changes":[6.1456347E0,6.3400927E0,0E0,1.2613559E0,3.5362115E0,0E0,1.1624584E0,0E0,3.0588002E0,5.6205273E-2,0E0,0E0,3.4983492E0,0E0,0E0,8.371906E-1,0E0,0E0,0E0],"parents":[2147483647,0,0,1,1,3,3,4,4,6,6,8,8,9,9,12,12,15,15],"right_children":[2,4,-1,6,8,-1,10,-1,12,14,-1,-1,16,-1,-1,18,-1,-1,-1],"split_conditions":[3.5332304E-1,-6.451298E-2,-2.6811635E-1,-1.4266116E-2,-2.0354478E-1,8.698186E-2,9.9999446E-1,-1.813634E-1,-9.5747745E-1,-9.1646737E-1,2.660221E-2,-1.593301E-1,8.520274E-1,-6.839368E-2,-2.6416817E-1,6.250301E-1,-1.3790117E-1,2.846923E-1,1.5821392E-2],"split_indices":[47,33,0,61,49,0,80,0,64,67,0,0,138,0,0,100,0,0,0],"split_type":[0,0,0,0,0,0,0,0,0,0,0,0,0,0,0,0,0,0,0],"sum_hessian":[3.510905E1,2.8225477E1,6.8835726E0,9.221414E0,1.9004065E1,1.0364612E0,8.184953E0,2.0961125E0,1.6907951E1,6.705668E0,1.479285E0,1.5066063E0,1.5401345E1,1.0092319E0,5.696436E0,1.37731495E1,1.6281953E0,1.2511861E1,1.2612891E0],"tree_param":{"num_deleted":"0","num_feature":"143","num_nodes":"19","size_leaf_vector":"1"}},{"base_weights":[-1.1907407E-1,9.267409E-2,-2.4769954E-1,3.4254768E-1,-6.6918385E-1,-5.7532214E-2,8.234226E-1,-2.4759617E-1,-2.0632109E-2,-2.2914445E-1,2.728898E-1,3.278498E-2,2.7167854E-1,4.8665494E-1,-9.2073075E-2,-4.4326745E-2,2.1069492E-1],"categories":[],"categories_nodes":[],"categories_segments":[],"categories_sizes":[],"default_left":[0,0,0,0,0,0,0,0,0,0,0,0,0,0,0,0,0],"id":9,"left_children":[1,3,-1,5,7,9,11,-1,-1,-1,13,-1,-1,15,-1,-1,-1],"loss_changes":[4.6350503E0,4.8630733E0,0E0,3.7010505E0,5.385597E-1,2.8457985E0,4.1098642E-1,0E0,0E0,0E0,1.1949227E0,0E0,0E0,9.9996924E-1,0E0,0E0,0E0],"parents":[2147483647,0,0,1,1,3,3,4,4,5,5,6,6,10,10,13,13],"right_children":[2,4,-1,6,8,10,12,-1,-1,-1,14,-1,-1,16,-1,-1,-1],"split_conditions":[6.043429E-1,-2.381798E-1,-2.4769954E-1,4.203394E0,9.999746E-1,7.995333E-2,-3.4279314E-1,-2.4759617E-1,-2.0632109E-2,-2.2914445E-1,3.427667E-1,3.278498E-2,2.7167854E-1,-1.0832705E-1,-9.2073075E-2,-4.4326745E-2,2.1069492E-1],"split_indices":[59,78,0,107,80,83,63,0,0,0,5,0,0,33,0,0,0],"split_type":[0,0,0,0,0,0,0,0,0,0,0,0,0,0,0,0,0],"sum_hessian":[2.9467531E1,2.3341496E1,6.1260357E0,1.7991152E1,5.3503456E0,1.0301137E1,7.690014E0,3.9488518E0,1.4014937E0,2.8651648E0,7.435972E0,1.0339702E0,6.6560435E0,5.5502963E0,1.8856759E0,1.4879801E0,4.0623164E0],"tree_param":{"num_deleted":"0","num_feature":"143","num_nodes":"17","size_leaf_vector":"1"}},{"base_weights":[-1.1583234E-1,-3.883974E-1,3.773414E-1,-5.4180488E-2,-2.6333147E-1,-1.6095147E-1,6.153481E-1,2.2471675E-1,-5.352668E-1,8.087562E-1,-7.214983E-2,-1.751697E-1,4.7794628E-1,-1.299248E-2,-1.9985554E-1,6.633139E-2,2.6406768E-1,7.1839046E-1,-1.259433E-1,2.4522084E-1,4.9989216E-2],"categories":[],"categories_nodes":[],"categories_segments":[],"categories_sizes":[],"default_left":[0,0,0,0,0,0,0,0,0,0,0,0,0,0,0,0,0,0,0,0,0],"id":10,"left_children":[1,3,5,7,-1,-1,9,11,13,15,-1,-1,17,-1,-1,-1,-1,19,-1,-1,-1],"loss_changes":[3.6477587E0,2.7767327E0,2.4569602E0,1.6399753E0,0E0,0E0,1.5557549E0,1.8914187E0,2.5789833E-1,9.672785E-2,0E0,0E0,1.7146505E0,0E0,0E0,0E0,0E0,1.6602182E-1,0E0,0E0,0E0],"parents":[2147483647,0,0,1,1,2,2,3,3,6,6,7,7,8,8,9,9,12,12,17,17],"right_children":[2,4,6,8,-1,-1,10,12,14,16,-1,-1,18,-1,-1,-1,-1,20,-1,-1,-1],"split_conditions":[9.024801E-1,9.686253E-1,-9.567003E-1,-5.9457576E-1,-2.6333147E-1,-1.6095147E-1,9.863224E-1,-9.40524E-1,-8.9803725E-1,-6.451298E-2,-7.214983E-2,-1.751697E-1,-6.3122374E-1,-1.299248E-2,-1.9985554E-1,6.633139E-2,2.6406768E-1,2.3415914E-1,-1.259433E-1,2.4522084E-1,4.9989216E-2],"split_indices":[49,105,64,75,0,0,50,15,67,33,0,0,88,0,0,0,0,69,0,0,0],"split_type":[0,0,0,0,0,0,0,0,0,0,0,0,0,0,0,0,0,0,0,0,0],"sum_hessian":[2.5046349E1,1.626792E1,8.778428E0,1.0326306E1,5.9416127E0,1.5547355E0,7.2236924E0,6.874115E0,3.4521918E0,5.9370384E0,1.2866541E0,1.327933E0,5.546182E0,1.0053058E0,2.446886E0,1.0876467E0,4.8493915E0,4.532143E0,1.0140388E0,3.4343994E0,1.0977437E0],"tree_param":{"num_deleted":"0","num_feature":"143","num_nodes":"21","size_leaf_vector":"1"}},{"base_weights":[-1.1470265E-1,1.2736088E-1,-6.238916E-1,4.41876E-1,-4.0345746E-1,-2.4523318E-1,6.1359774E-2,6.365075E-1,-1.452805E-1,9.9984095E-2,-2.1527871E-1,-4.7161218E-2,8.1318796E-1,2.6663947E-1,5.221917E-2],"categories":[],"categories_nodes":[],"categories_segments":[],"categories_sizes":[],"default_left":[0,0,0,0,0,0,0,0,0,0,0,0,0,0,0],"id":11,"left_children":[1,3,5,7,9,-1,-1,11,-1,-1,-1,-1,13,-1,-1],"loss_changes":[2.8231387E0,2.8357935E0,1.344435E0,2.1960373E0,1.7308167E0,0E0,0E0,1.4020262E0,0E0,0E0,0E0,0E0,2.1226168E-1,0E0,0E0],"parents":[2147483647,0,0,1,1,2,2,3,3,4,4,7,7,12,12],"right_children":[2,4,6,8,10,-1,-1,12,-1,-1,-1,-1,14,-1,-1],"split_conditions":[5.0174188E-2,-8.022469E-1,9.8033035E-1,7.6329273E-1,-6.6737145E-2,-2.4523318E-1,6.1359774E-2,1.8E0,-1.452805E-1,9.9984095E-2,-2.1527871E-1,-4.7161218E-2,9.686253E-1,2.6663947E-1,5.221917E-2],"split_indices":[59,67,49,69,61,0,0,108,0,0,0,0,105,0,0],"split_type":[0,0,0,0,0,0,0,0,0,0,0,0,0,0,0],"sum_hessian":[2.1259993E1,1.4917995E1,6.341997E0,9.4728155E0,5.44518E0,5.151629E0,1.1903679E0,8.086212E0,1.3866034E0,1.6095116E0,3.8356683E0,1.4923371E0,6.593875E0,5.546998E0,1.0468768E0],"tree_param":{"num_deleted":"0","num_feature":"143","num_nodes":"15","size_leaf_vector":"1"}},{"base_weights":[-1.05203256E-1,-3.668855E-1,3.2833868E-1,1.6459592E-1,-5.8476186E-1,-1.3807395E-1,5.4150736E-1,1.472742E-1,-9.6896164E-2,-7.5372714E-1,3.616433E-2,7.2824895E-1,-5.6650523E-2,-2.504908E-1,-3.4866266E-2,4.918412E-2,2.4675693E-1],"categories":[],"categories_nodes":[],"categories_segments":[],"categories_sizes":[],"default_left":[0,0,0,0,0,0,0,0,0,0,0,0,0,0,0,0,0],"id":12,"left_children":[1,3,5,7,9,-1,11,-1,-1,13,-1,15,-1,-1,-1,-1,-1],"loss_changes":[2.3049464E0,1.5413641E0,1.5562679E0,8.600359E-1,1.1718609E0,0E0,1.0349603E0,0E0,0E0,2.8910685E-1,0E0,1.5488267E-1,0E0,0E0,0E0,0E0,0E0],"parents":[2147483647,0,0,1,1,2,2,3,3,4,4,6,6,9,9,11,11],"right_children":[2,4,6,8,10,-1,12,-1,-1,14,-1,16,-1,-1,-1,-1,-1],"split_conditions":[9.024801E-1,-2.794362E-1,-9.567003E-1,8.790668E-1,5.2E0,-1.3807395E-1,6.717478E-1,1.472742E-1,-9.6896164E-2,3.020488E-1,3.616433E-2,-2.143377E-1,-5.6650523E-2,-2.504908E-1,-3.4866266E-2,4.918412E-2,2.4675693E-1],"split_indices":[49,5,64,85,108,0,97,0,0,86,0,2,0,0,0,0,0],"split_type":[0,0,0,0,0,0,0,0,0,0,0,0,0,0,0,0,0],"sum_hessian":[1.8254997E1,1.1479698E1,6.7753E0,3.4088328E0,8.070865E0,1.195108E0,5.5801916E0,2.0380342E0,1.3707987E0,6.4556823E0,1.6151824E0,4.446206E0,1.1339858E0,5.4512463E0,1.0044361E0,1.0285574E0,3.4176486E0],"tree_param":{"num_deleted":"0","num_feature":"143","num_nodes":"17","size_leaf_vector":"1"}},{"base_weights":[-9.2666835E-2,1.1415551E-1,-6.405001E-1,4.2299214E-1,-3.6898994E-1,-2.2774926E-1,-3.0445876E-2,2.196217E-1,3.630274E-2,1.550878E-1,-2.114875E-1,4.074694E-1,-1.526496E-1,1.6208339E-1,-9.502715E-2,1.987088E-1,-2.5107104E-2],"categories":[],"categories_nodes":[],"categories_segments":[],"categories_sizes":[],"default_left":[0,0,0,0,0,0,0,0,0,0,0,0,0,0,0,0,0],"id":13,"left_children":[1,3,5,7,9,-1,-1,-1,11,13,-1,15,-1,-1,-1,-1,-1],"loss_changes":[2.0102825E0,2.1346633E0,2.3233187E-1,9.9592364E-1,1.1138184E0,0E0,0E0,0E0,1.1891946E0,7.251564E-1,0E0,4.8638415E-1,0E0,0E0,0E0,0E0,0E0],"parents":[2147483647,0,0,1,1,2,2,3,3,4,4,8,8,9,9,11,11],"right_children":[2,4,6,8,10,-1,-1,-1,12,14,-1,16,-1,-1,-1,-1,-1],"split_conditions":[2.9763013E-1,-8.37924E-1,7.062659E-1,9.139389E-1,2.4593179E-1,-2.2774926E-1,-3.0445876E-2,2.196217E-1,-9.9999905E-1,-1.681795E-1,-2.114875E-1,9.9999875E-1,-1.526496E-1,1.6208339E-1,-9.502715E-2,1.987088E-1,-2.5107104E-2],"split_indices":[47,67,65,61,61,0,0,0,51,124,0,37,0,0,0,0,0],"split_type":[0,0,0,0,0,0,0,0,0,0,0,0,0,0,0,0,0],"sum_hessian":[1.6097042E1,1.2260126E1,3.836916E0,7.555193E0,4.704933E0,2.8098872E0,1.0270287E0,3.7025626E0,3.8526306E0,2.04825E0,2.6566832E0,2.4422839E0,1.4103467E0,1.0478257E0,1.0004243E0,1.3783854E0,1.0638984E0],"tree_param":{"num_deleted":"0","num_feature":"143","num_nodes":"17","size_leaf_vector":"1"}},{"base_weights":[-8.7422475E-2,-4.426174E-1,1.8389398E-1,7.838567E-2,-2.1282892E-1,-1.4583729E-1,3.8571835E-1,1.1186492E-1,-7.5676754E-2,6.882113E-1,-1.526099E-1,2.302168E-1,5.5366788E-2,7.2607435E-2,-1.5001564E-1],"categories":[],"categories_nodes":[],"categories_segments":[],"categories_sizes":[],"default_left":[0,0,0,0,0,0,0,0,0,0,0,0,0,0,0],"id":14,"left_children":[1,3,5,7,-1,-1,9,-1,-1,11,13,-1,-1,-1,-1],"loss_changes":[1.5203944E0,9.953109E-1,1.4278054E0,4.0467432E-1,0E0,0E0,1.343653E0,0E0,0E0,5.9816122E-2,6.084551E-1,0E0,0E0,0E0,0E0],"parents":[2147483647,0,0,1,1,2,2,3,3,6,6,9,9,10,10],"right_children":[2,4,6,8,-1,-1,10,-1,-1,12,14,-1,-1,-1,-1],"split_conditions":[-1.9802496E-1,-1.4535594E-1,2.2295503E-1,6.044993E-1,-2.1282892E-1,-1.4583729E-1,9.814899E-1,1.1186492E-1,-7.5676754E-2,-6.343333E-1,-9.8020285E-1,2.302168E-1,5.5366788E-2,7.2607435E-2,-1.5001564E-1],"split_indices":[2,47,49,105,0,0,105,0,0,75,57,0,0,0,0],"split_type":[0,0,0,0,0,0,0,0,0,0,0,0,0,0,0],"sum_hessian":[1.3931995E1,5.7599573E0,8.172038E0,2.1899216E0,3.5700357E0,1.5656685E0,6.60637E0,1.0906975E0,1.0992242E0,4.051411E0,2.5549588E0,3.0485237E0,1.0028875E0,1.3382951E0,1.2166637E0],"tree_param":{"num_deleted":"0","num_feature":"143","num_nodes":"15","size_leaf_vector":"1"}},{"base_weights":[-7.8434475E-2,1.00104384E-1,-5.582779E-1,3.6798546E-1,-3.3600703E-1,-4.4058777E-2,-1.9620676E-1,2.0264739E-1,4.905695E-2,7.1455605E-2,-1.8103029E-1,3.662375E-1,-1.18162245E-1,1.7152452E-1,-2.23817E-3],"categories":[],"categories_nodes":[],"categories_segments":[],"categories_sizes":[],"default_left":[0,0,0,0,0,0,0,0,0,0,0,0,0,0,0],"id":15,"left_children":[1,3,5,7,9,-1,-1,-1,11,-1,-1,13,-1,-1,-1],"loss_changes":[1.2017045E0,1.3615007E0,5.2805066E-2,6.5740526E-1,8.4310347E-1,0E0,0E0,0E0,7.813264E-1,0E0,0E0,2.4699882E-1,0E0,0E0,0E0],"parents":[2147483647,0,0,1,1,2,2,3,3,4,4,8,8,11,11],"right_children":[2,4,6,8,10,-1,-1,-1,12,-1,-1,14,-1,-1,-1],"split_conditions":[2.9763013E-1,-8.1657904E-1,-8.2111245E-1,8.900469E-1,-6.6737145E-2,-4.4058777E-2,-1.9620676E-1,2.0264739E-1,-9.9999905E-1,7.1455605E-2,-1.8103029E-1,9.9999875E-1,-1.18162245E-1,1.7152452E-1,-2.23817E-3],"split_indices":[47,67,73,61,61,0,0,0,51,0,0,37,0,0,0],"split_type":[0,0,0,0,0,0,0,0,0,0,0,0,0,0,0],"sum_hessian":[1.2374683E1,9.595716E0,2.7789671E0,6.0411544E0,3.5545619E0,1.0029941E0,1.7759732E0,2.5064616E0,3.5346925E0,1.1642178E0,2.390344E0,2.1606286E0,1.3740642E0,1.0520768E0,1.1085516E0],"tree_param":{"num_deleted":"0","num_feature":"143","num_nodes":"15","size_leaf_vector":"1"}},{"base_weights":[-6.99853E-2,-4.1577798E-1,1.6815819E-1,3.7661158E-2,-1.8749392E-1,-3.4913105E-1,4.1422516E-1,1.9015671E-3,-1.5716499E-1,6.235439E-1,-8.3671555E-2,3.5621706E-2,2.1991013E-1],"categories":[],"categories_nodes":[],"categories_segments":[],"categories_sizes":[],"default_left":[0,0,0,0,0,0,0,0,0,0,0,0,0],"id":16,"left_children":[1,3,5,-1,-1,7,9,-1,-1,11,-1,-1,-1],"loss_changes":[1.0645473E0,6.6889226E-1,1.145677E0,0E0,0E0,1.9450822E-1,1.013484E0,0E0,0E0,1.7569685E-1,0E0,0E0,0E0],"parents":[2147483647,0,0,1,1,2,2,5,5,6,6,9,9],"right_children":[2,4,6,-1,-1,8,10,-1,-1,12,-1,-1,-1],"split_conditions":[-2.1659954E-1,-2.9047322E-1,9.6222705E-1,3.7661158E-2,-1.8749392E-1,7.6696473E-1,-1.6605316E-1,1.9015671E-3,-1.5716499E-1,-6.642465E-1,-8.3671555E-2,3.5621706E-2,2.1991013E-1],"split_indices":[2,12,107,0,0,31,113,0,0,54,0,0,0],"split_type":[0,0,0,0,0,0,0,0,0,0,0,0,0],"sum_hessian":[1.1078343E1,4.2138186E0,6.8645253E0,1.2860508E0,2.9277678E0,2.0777571E0,4.786768E0,1.0024227E0,1.0753345E0,3.7536085E0,1.0331595E0,1.0405602E0,2.7130482E0],"tree_param":{"num_deleted":"0","num_feature":"143","num_nodes":"13","size_leaf_vector":"1"}},{"base_weights":[-6.58947E-2,-2.8755507E-1,2.8132525E-1,-4.8224637E-1,5.518167E-2,4.5908734E-1,-5.3708937E-2,-1.9682072E-1,2.1885192E-2,4.082559E-3,1.856717E-1],"categories":[],"categories_nodes":[],"categories_segments":[],"categories_sizes":[],"default_left":[0,0,0,0,0,0,0,0,0,0,0],"id":17,"left_children":[1,3,5,7,-1,9,-1,-1,-1,-1,-1],"loss_changes":[9.293175E-1,7.5172454E-1,4.750492E-1,5.678383E-1,0E0,2.581281E-1,0E0,0E0,0E0,0E0,0E0],"parents":[2147483647,0,0,1,1,2,2,3,3,5,5],"right_children":[2,4,6,8,-1,10,-1,-1,-1,-1,-1],"split_conditions":[9.1083974E-1,7.577578E-1,9.5039004E-1,7.6576245E-1,5.518167E-2,-1.7191002E-1,-5.3708937E-2,-1.9682072E-1,2.1885192E-2,4.082559E-3,1.856717E-1],"split_indices":[49,139,84,65,0,42,0,0,0,0,0],"split_type":[0,0,0,0,0,0,0,0,0,0,0],"sum_hessian":[1.00234785E1,6.2227793E0,3.8006992E0,4.3880444E0,1.8347352E0,2.7439144E0,1.0567849E0,3.2034209E0,1.1846232E0,1.0109988E0,1.7329155E0],"tree_param":{"num_deleted":"0","num_feature":"143","num_nodes":"11","size_leaf_vector":"1"}},{"base_weights":[-5.0324064E-2,8.1546694E-2,-1.6735196E-1,2.585807E-1,-3.5808164E-1,4.1700563E-1,-9.030478E-2,-9.093158E-3,-1.5251125E-1,5.692078E-1,2.0343114E-3,3.0558547E-2,2.0432803E-1],"categories":[],"categories_nodes":[],"categories_segments":[],"categories_sizes":[],"default_left":[0,0,0,0,0,0,0,0,0,0,0,0,0],"id":18,"left_children":[1,3,-1,5,7,9,-1,-1,-1,11,-1,-1,-1],"loss_changes":[7.329632E-1,7.9507565E-1,0E0,7.47471E-1,1.3289121E-1,3.6369252E-1,0E0,0E0,0E0,1.5450692E-1,0E0,0E0,0E0],"parents":[2147483647,0,0,1,1,3,3,4,4,5,5,9,9],"right_children":[2,4,-1,6,8,10,-1,-1,-1,12,-1,-1,-1],"split_conditions":[6.69623E-1,2.7581695E-1,-1.6735196E-1,8.398802E-1,9.501731E-1,9.814899E-1,-9.030478E-2,-9.093158E-3,-1.5251125E-1,-1.9205508E-1,2.0343114E-3,3.0558547E-2,2.0432803E-1],"split_indices":[59,69,0,138,61,105,0,0,0,33,0,0,0],"split_type":[0,0,0,0,0,0,0,0,0,0,0,0,0],"sum_hessian":[9.272063E0,8.025955E0,1.2461083E0,6.015423E0,2.0105324E0,4.8867636E0,1.1286595E0,1.0098329E0,1.0006995E0,3.281649E0,1.6051142E0,1.0029092E0,2.27874E0],"tree_param":{"num_deleted":"0","num_feature":"143","num_nodes":"13","size_leaf_vector":"1"}},{"base_weights":[-5.6169894E-2,-3.5588485E-1,1.5549855E-1,1.6130105E-2,-1.7828718E-1,-9.0165034E-2,3.7147978E-1,-1.7205171E-2,1.866906E-1],"categories":[],"categories_nodes":[],"categories_segments":[],"categories_sizes":[],"default_left":[0,0,0,0,0,0,0,0,0],"id":19,"left_children":[1,3,5,-1,-1,-1,7,-1,-1],"loss_changes":[6.588244E-1,4.461913E-1,7.293453E-1,0E0,0E0,0E0,5.4153687E-1,0E0,0E0],"parents":[2147483647,0,0,1,1,2,2,6,6],"right_children":[2,4,6,-1,-1,-1,8,-1,-1],"split_conditions":[-2.1659954E-1,-1.4535594E-1,9.6222705E-1,1.6130105E-2,-1.7828718E-1,-9.0165034E-2,-7.030887E-1,-1.7205171E-2,1.866906E-1],"split_indices":[2,47,107,0,0,0,11,0,0],"split_type":[0,0,0,0,0,0,0,0,0],"sum_hessian":[8.512656E0,3.24149E0,5.2711663E0,1.4773816E0,1.7641083E0,1.5682399E0,3.7029262E0,1.651208E0,2.0517182E0],"tree_param":{"num_deleted":"0","num_feature":"143","num_nodes":"9","size_leaf_vector":"1"}},{"base_weights":[-5.1276658E-2,-2.2576638E-1,2.9901728E-1,5.074445E-2,-1.9184414E-1,1.3725014E-1,-1.0794505E-2,-9.789676E-2,2.4582241E-1,-5.0141275E-2,1.3981451E-1],"categories":[],"categories_nodes":[],"categories_segments":[],"categories_sizes":[],"default_left":[0,0,0,0,0,0,0,0,0,0,0],"id":20,"left_children":[1,3,5,7,-1,-1,-1,-1,9,-1,-1],"loss_changes":[6.1201507E-1,7.778777E-1,1.9656172E-1,4.3566296E-1,0E0,0E0,0E0,0E0,4.1938886E-1,0E0,0E0],"parents":[2147483647,0,0,1,1,2,2,3,3,8,8],"right_children":[2,4,6,8,-1,-1,-1,-1,10,-1,-1],"split_conditions":[9.3784297E-1,9.686253E-1,9.9391654E-2,7.995333E-2,-1.9184414E-1,1.3725014E-1,-1.0794505E-2,-9.789676E-2,-6.538866E-1,-5.0141275E-2,1.3981451E-1],"split_indices":[49,105,47,83,0,0,0,0,11,0,0],"split_type":[0,0,0,0,0,0,0,0,0,0,0],"sum_hessian":[7.908427E0,5.5161805E0,2.392246E0,3.832216E0,1.6839644E0,1.3757304E0,1.0165156E0,1.0772381E0,2.754978E0,1.0420414E0,1.7129365E0],"tree_param":{"num_deleted":"0","num_feature":"143","num_nodes":"11","size_leaf_vector":"1"}},{"base_weights":[-4.91061E-2,1.4189714E-1,-3.415892E-1,-7.525464E-2,3.2598335E-1,-5.4204464E-3,-1.6176407E-1,-9.854056E-3,1.3923088E-1],"categories":[],"categories_nodes":[],"categories_segments":[],"categories_sizes":[],"default_left":[0,0,0,0,0,0,0,0,0],"id":21,"left_children":[1,3,5,-1,7,-1,-1,-1,-1],"loss_changes":[5.1231575E-1,4.9599862E-1,2.1873742E-1,0E0,2.3013243E-1,0E0,0E0,0E0,0E0],"parents":[2147483647,0,0,1,1,2,2,4,4],"right_children":[2,4,6,-1,8,-1,-1,-1,-1],"split_conditions":[-5.528008E-1,-6.921733E-1,-9.999994E-1,-7.525464E-2,7.2238E-1,-5.4204464E-3,-1.6176407E-1,-9.854056E-3,1.3923088E-1],"split_indices":[75,54,52,0,83,0,0,0,0],"split_type":[0,0,0,0,0,0,0,0,0],"sum_hessian":[7.3029337E0,4.7293386E0,2.5735948E0,1.3935484E0,3.3357904E0,1.3898184E0,1.1837764E0,1.1389695E0,2.196821E0],"tree_param":{"num_deleted":"0","num_feature":"143","num_nodes":"9","size_leaf_vector":"1"}},{"base_weights":[-5.0835963E-2,-2.3793823E-1,2.1908028E-1,-4.151277E-1,2.7430568E-2,-1.704014E-2,1.4651425E-1,-1.7892426E-1,-1.5310136E-3],"categories":[],"categories_nodes":[],"categories_segments":[],"categories_sizes":[],"default_left":[0,0,0,0,0,0,0,0,0],"id":22,"left_children":[1,3,5,7,-1,-1,-1,-1,-1],"loss_changes":[4.5300147E-1,3.395373E-1,3.0785733E-1,2.601238E-1,0E0,0E0,0E0,0E0,0E0],"parents":[2147483647,0,0,1,1,2,2,3,3],"right_children":[2,4,6,8,-1,-1,-1,-1,-1],"split_conditions":[9.024801E-1,4.658237E0,5.649319E-1,7.577578E-1,2.7430568E-2,-1.704014E-2,1.4651425E-1,-1.7892426E-1,-1.5310136E-3],"split_indices":[49,107,142,139,0,0,0,0,0],"split_type":[0,0,0,0,0,0,0,0,0],"sum_hessian":[6.937792E0,4.1674476E0,2.770344E0,2.5404394E0,1.6270084E0,1.758232E0,1.012112E0,1.4463662E0,1.0940732E0],"tree_param":{"num_deleted":"0","num_feature":"143","num_nodes":"9","size_leaf_vector":"1"}},{"base_weights":[-4.2029135E-2,1.3170776E-1,-3.368865E-1,3.6486566E-1,-9.21493E-2,-1.5807192E-1,8.613484E-3,1.4804941E-1,9.23629E-3],"categories":[],"categories_nodes":[],"categories_segments":[],"categories_sizes":[],"default_left":[0,0,0,0,0,0,0,0,0],"id":23,"left_children":[1,3,5,7,-1,-1,-1,-1,-1],"loss_changes":[4.3241772E-1,6.733738E-1,2.297641E-1,1.5838921E-1,0E0,0E0,0E0,0E0,0E0],"parents":[2147483647,0,0,1,1,2,2,3,3],"right_children":[2,4,6,8,-1,-1,-1,-1,-1],"split_conditions":[-8.022469E-1,2.672511E-1,-2.1328263E-2,-9.99997E-1,-9.21493E-2,-1.5807192E-1,8.613484E-3,1.4804941E-1,9.23629E-3],"split_indices":[67,47,67,51,0,0,0,0,0],"split_type":[0,0,0,0,0,0,0,0,0],"sum_hessian":[6.5749617E0,4.4853845E0,2.0895772E0,3.0393236E0,1.446061E0,1.084625E0,1.0049522E0,1.8498638E0,1.1894599E0],"tree_param":{"num_deleted":"0","num_feature":"143","num_nodes":"9","size_leaf_vector":"1"}},{"base_weights":[-4.3174975E-2,8.787893E-2,-1.9092134E-1,7.000678E-2,-4.1838136E-1,3.6849587E-3,-1.7620145E-1],"categories":[],"categories_nodes":[],"categories_segments":[],"categories_sizes":[],"default_left":[0,0,0,0,0,0,0],"id":24,"left_children":[1,-1,3,-1,5,-1,-1],"loss_changes":[4.129874E-1,0E0,6.380817E-1,0E0,2.9854035E-1,0E0,0E0],"parents":[2147483647,0,0,2,2,4,4],"right_children":[2,-1,4,-1,6,-1,-1],"split_conditions":[-9.99998E-1,8.787893E-2,-8.540044E-1,7.000678E-2,-3.8471293E-1,3.6849587E-3,-1.7620145E-1],"split_indices":[34,0,13,0,5,0,0],"split_type":[0,0,0,0,0,0,0],"sum_hessian":[6.1903634E0,1.5902008E0,4.600163E0,1.5964365E0,3.0037262E0,1.1076548E0,1.8960714E0],"tree_param":{"num_deleted":"0","num_feature":"143","num_nodes":"7","size_leaf_vector":"1"}},{"base_weights":[-3.6791466E-2,-2.8167152E-1,1.4397064E-1,1.9533634E-2,-1.4681143E-1,3.2792968E-1,-6.195275E-2,1.3841178E-1,2.1582511E-3],"categories":[],"categories_nodes":[],"categories_segments":[],"categories_sizes":[],"default_left":[0,0,0,0,0,0,0,0,0],"id":25,"left_children":[1,3,5,-1,-1,7,-1,-1,-1],"loss_changes":[3.4393328E-1,2.6587182E-1,3.6461267E-1,0E0,0E0,1.424663E-1,0E0,0E0,0E0],"parents":[2147483647,0,0,1,1,2,2,5,5],"right_children":[2,4,6,-1,-1,8,-1,-1,-1],"split_conditions":[-2.1659954E-1,-1.4535594E-1,1.7495752E-4,1.9533634E-2,-1.4681143E-1,1.440043E-1,-6.195275E-2,1.3841178E-1,2.1582511E-3],"split_indices":[2,47,25,0,0,30,0,0,0],"split_type":[0,0,0,0,0,0,0,0,0],"sum_hessian":[5.8537354E0,2.248894E0,3.6048412E0,1.0995508E0,1.1493433E0,2.4062138E0,1.1986275E0,1.3895888E0,1.016625E0],"tree_param":{"num_deleted":"0","num_feature":"143","num_nodes":"9","size_leaf_vector":"1"}},{"base_weights":[-3.4694184E-2,1.3193339E-1,-9.213893E-2,1.3442369E-1,-1.3229464E-1,3.4725174E-2,-1.0379448E-1],"categories":[],"categories_nodes":[],"categories_segments":[],"categories_sizes":[],"default_left":[0,0,0,0,0,0,0],"id":26,"left_children":[1,3,-1,-1,5,-1,-1],"loss_changes":[3.387158E-1,4.5819265E-1,0E0,0E0,2.188496E-1,0E0,0E0],"parents":[2147483647,0,0,1,1,4,4],"right_children":[2,4,-1,-1,6,-1,-1],"split_conditions":[-8.022469E-1,-3.833865E-1,-9.213893E-2,1.3442369E-1,5.846413E-1,3.4725174E-2,-1.0379448E-1],"split_indices":[67,59,0,0,102,0,0],"split_type":[0,0,0,0,0,0,0],"sum_hessian":[5.568857E0,3.7754412E0,1.7934163E0,1.4020735E0,2.3733675E0,1.3104869E0,1.0628806E0],"tree_param":{"num_deleted":"0","num_feature":"143","num_nodes":"7","size_leaf_vector":"1"}},{"base_weights":[-2.934108E-2,1.3688114E-1,-8.4583364E-2,1.000218E-1,-3.2174956E-2],"categories":[],"categories_nodes":[],"categories_segments":[],"categories_sizes":[],"default_left":[0,0,0,0,0],"id":27,"left_children":[1,3,-1,-1,-1],"loss_changes":[3.0351833E-1,2.5063056E-1,0E0,0E0,0E0],"parents":[2147483647,0,0,1,1],"right_children":[2,4,-1,-1,-1],"split_conditions":[-5.528008E-1,8.900469E-1,-8.4583364E-2,1.000218E-1,-3.2174956E-2],"split_indices":[75,61,0,0,0],"split_type":[0,0,0,0,0],"sum_hessian":[5.3095045E0,3.478587E0,1.8309176E0,1.7246019E0,1.7539852E0],"tree_param":{"num_deleted":"0","num_feature":"143","num_nodes":"5","size_leaf_vector":"1"}},{"base_weights":[-2.3611598E-2,-2.0241857E-1,1.8780585E-1,2.857641E-2,-1.0573958E-1,-1.8968225E-2,1.1353007E-1],"categories":[],"categories_nodes":[],"categories_segments":[],"categories_sizes":[],"default_left":[0,0,0,0,0,0,0],"id":28,"left_children":[1,3,5,-1,-1,-1,-1],"loss_changes":[2.7092656E-1,2.041633E-1,1.838494E-1,0E0,0E0,0E0,0E0],"parents":[2147483647,0,0,1,1,2,2],"right_children":[2,4,6,-1,-1,-1,-1],"split_conditions":[8.496463E-1,-7.6553637E-1,5.540064E-1,2.857641E-2,-1.0573958E-1,-1.8968225E-2,1.1353007E-1],"split_indices":[49,30,142,0,0,0,0],"split_type":[0,0,0,0,0,0,0],"sum_hessian":[5.1611977E0,2.8193164E0,2.3418813E0,1.0672319E0,1.7520845E0,1.2992495E0,1.0426317E0],"tree_param":{"num_deleted":"0","num_feature":"143","num_nodes":"7","size_leaf_vector":"1"}},{"base_weights":[-1.4266123E-2,7.5573295E-2,-1.463737E-1,5.9003796E-2,-3.431592E-1,1.9260343E-3,-1.5159287E-1],"categories":[],"categories_nodes":[],"categories_segments":[],"categories_sizes":[],"default_left":[0,0,0,0,0,0,0],"id":29,"left_children":[1,-1,3,-1,5,-1,-1],"loss_changes":[2.4718526E-1,0E0,3.8002473E-1,0E0,1.9065967E-1,0E0,0E0],"parents":[2147483647,0,0,2,2,4,4],"right_children":[2,-1,4,-1,6,-1,-1],"split_conditions":[-9.99998E-1,7.5573295E-2,-8.540044E-1,5.9003796E-2,-2.4541822E-1,1.9260343E-3,-1.5159287E-1],"split_indices":[34,0,13,0,5,0,0],"split_type":[0,0,0,0,0,0,0],"sum_hessian":[4.9808908E0,1.3513199E0,3.629571E0,1.3232719E0,2.3062992E0,1.0351117E0,1.2711874E0],"tree_param":{"num_deleted":"0","num_feature":"143","num_nodes":"7","size_leaf_vector":"1"}},{"base_weights":[-1.4699497E-2,1.7539978E-1,-2.120382E-1,1.09903716E-1,-4.1699365E-2,-1.2457137E-1,3.7451394E-2],"categories":[],"categories_nodes":[],"categories_segments":[],"categories_sizes":[],"default_left":[0,0,0,0,0,0,0],"id":30,"left_children":[1,3,5,-1,-1,-1,-1],"loss_changes":[2.5380293E-1,2.603347E-1,2.767641E-1,0E0,0E0,0E0,0E0],"parents":[2147483647,0,0,1,1,2,2],"right_children":[2,4,6,-1,-1,-1,-1],"split_conditions":[-9.0865946E-1,2.4201909E-1,-1.3750744E-1,1.09903716E-1,-4.1699365E-2,-1.2457137E-1,3.7451394E-2],"split_indices":[67,47,45,0,0,0,0],"split_type":[0,0,0,0,0,0,0],"sum_hessian":[4.774158E0,2.488308E0,2.2858498E0,1.4452943E0,1.0430138E0,1.2807213E0,1.0051284E0],"tree_param":{"num_deleted":"0","num_feature":"143","num_nodes":"7","size_leaf_vector":"1"}},{"base_weights":[-1.4504507E-2,1.348393E-1,-6.9100186E-2,-3.523701E-2,9.396788E-2],"categories":[],"categories_nodes":[],"categories_segments":[],"categories_sizes":[],"default_left":[0,0,0,0,0],"id":31,"left_children":[1,3,-1,-1,-1],"loss_changes":[2.1062148E-1,2.1336369E-1,0E0,0E0,0E0],"parents":[2147483647,0,0,1,1],"right_children":[2,4,-1,-1,-1],"split_conditions":[9.814899E-1,-1.8399392E-1,-6.9100186E-2,-3.523701E-2,9.396788E-2],"split_indices":[105,2,0,0,0],"split_type":[0,0,0,0,0],"sum_hessian":[4.570831E0,2.9232974E0,1.6475335E0,1.3522903E0,1.571007E0],"tree_param":{"num_deleted":"0","num_feature":"143","num_nodes":"5","size_leaf_vector":"1"}},{"base_weights":[-1.2016932E-2,1.3072407E-1,-7.3734574E-2,1.0230963E-1,-4.147481E-2],"categories":[],"categories_nodes":[],"categories_segments":[],"categories_sizes":[],"default_left":[0,0,0,0,0],"id":32,"left_children":[1,3,-1,-1,-1],"loss_changes":[2.1427578E-1,2.7579314E-1,0E0,0E0,0E0],"parents":[2147483647,0,0,1,1],"right_children":[2,4,-1,-1,-1],"split_conditions":[-8.022469E-1,9.9391654E-2,-7.3734574E-2,1.0230963E-1,-4.147481E-2],"split_indices":[67,47,0,0,0],"split_type":[0,0,0,0,0],"sum_hessian":[4.4587326E0,3.042014E0,1.4167188E0,1.5568354E0,1.4851785E0],"tree_param":{"num_deleted":"0","num_feature":"143","num_nodes":"5","size_leaf_vector":"1"}},{"base_weights":[-1.0684977E-2,1.528069E-1,-6.306402E-2,9.262557E-2,-2.8049147E-2],"categories":[],"categories_nodes":[],"categories_segments":[],"categories_sizes":[],"default_left":[0,0,0,0,0],"id":33,"left_children":[1,3,-1,-1,-1],"loss_changes":[2.0606676E-1,1.6368055E-1,0E0,0E0,0E0],"parents":[2147483647,0,0,1,1],"right_children":[2,4,-1,-1,-1],"split_conditions":[4.2743722E-1,-6.817737E-1,-6.306402E-2,9.262557E-2,-2.8049147E-2],"split_indices":[40,73,0,0,0],"split_type":[0,0,0,0,0],"sum_hessian":[4.332248E0,2.5098546E0,1.8223937E0,1.3815804E0,1.1282741E0],"tree_param":{"num_deleted":"0","num_feature":"143","num_nodes":"5","size_leaf_vector":"1"}},{"base_weights":[-7.0777433E-3,-1.569147E-1,5.8938455E-2,-8.924614E-2,3.0147126E-2],"categories":[],"categories_nodes":[],"categories_segments":[],"categories_sizes":[],"default_left":[0,0,0,0,0],"id":34,"left_children":[1,3,-1,-1,-1],"loss_changes":[1.9049004E-1,1.5912107E-1,0E0,0E0,0E0],"parents":[2147483647,0,0,1,1],"right_children":[2,4,-1,-1,-1],"split_conditions":[9.024801E-1,7.577578E-1,5.8938455E-2,-8.924614E-2,3.0147126E-2],"split_indices":[49,139,0,0,0],"split_type":[0,0,0,0,0],"sum_hessian":[4.235225E0,2.5713649E0,1.6638604E0,1.562401E0,1.0089638E0],"tree_param":{"num_deleted":"0","num_feature":"143","num_nodes":"5","size_leaf_vector":"1"}},{"base_weights":[-5.489367E-3,1.2735239E-1,-6.720845E-2,1.1116767E-1,-2.9773733E-2],"categories":[],"categories_nodes":[],"categories_segments":[],"categories_sizes":[],"default_left":[0,0,0,0,0],"id":35,"left_children":[1,3,-1,-1,-1],"loss_changes":[1.7787014E-1,2.482298E-1,0E0,0E0,0E0],"parents":[2147483647,0,0,1,1],"right_children":[2,4,-1,-1,-1],"split_conditions":[-8.022469E-1,-3.833865E-1,-6.720845E-2,1.1116767E-1,-2.9773733E-2],"split_indices":[67,59,0,0,0],"split_type":[0,0,0,0,0],"sum_hessian":[4.1441298E0,2.8369226E0,1.3072071E0,1.0618896E0,1.775033E0],"tree_param":{"num_deleted":"0","num_feature":"143","num_nodes":"5","size_leaf_vector":"1"}},{"base_weights":[-5.696901E-4,-1.7107493E-1,1.7005223E-1,-9.875535E-2,2.1856692E-2,9.601071E-2,-1.9654429E-2],"categories":[],"categories_nodes":[],"categories_segments":[],"categories_sizes":[],"default_left":[0,0,0,0,0,0,0],"id":36,"left_children":[1,3,5,-1,-1,-1,-1],"loss_changes":[1.7549333E-1,1.4028603E-1,1.2755507E-1,0E0,0E0,0E0,0E0],"parents":[2147483647,0,0,1,1,2,2],"right_children":[2,4,6,-1,-1,-1,-1],"split_conditions":[-6.335371E-1,3.8401687E-1,-2.190795E-1,-9.875535E-2,2.1856692E-2,9.601071E-2,-1.9654429E-2],"split_indices":[11,56,123,0,0,0,0],"split_type":[0,0,0,0,0,0,0],"sum_hessian":[4.0323806E0,2.015552E0,2.0168285E0,1.0108463E0,1.0047057E0,1.0131737E0,1.0036548E0],"tree_param":{"num_deleted":"0","num_feature":"143","num_nodes":"7","size_leaf_vector":"1"}},{"base_weights":[-6.205744E-4,1.4504562E-1,-5.932686E-2,1.1447372E-1,-4.0464774E-2],"categories":[],"categories_nodes":[],"categories_segments":[],"categories_sizes":[],"default_left":[0,0,0,0,0],"id":37,"left_children":[1,3,-1,-1,-1],"loss_changes":[1.699056E-1,2.7692273E-1,0E0,0E0,0E0],"parents":[2147483647,0,0,1,1],"right_children":[2,4,-1,-1,-1],"split_conditions":[9.9391654E-2,2.0550127E-1,-5.932686E-2,1.1447372E-1,-4.0464774E-2],"split_indices":[47,3,0,0,0],"split_type":[0,0,0,0,0],"sum_hessian":[3.9178839E0,2.4050179E0,1.512866E0,1.1067257E0,1.298292E0],"tree_param":{"num_deleted":"0","num_feature":"143","num_nodes":"5","size_leaf_vector":"1"}},{"base_weights":[3.3028352E-3,1.2940122E-1,-5.9821893E-2,9.2742465E-2,-3.0522814E-2],"categories":[],"categories_nodes":[],"categories_segments":[],"categories_sizes":[],"default_left":[0,0,0,0,0],"id":38,"left_children":[1,3,-1,-1,-1],"loss_changes":[1.4854547E-1,1.7963862E-1,0E0,0E0,0E0],"parents":[2147483647,0,0,1,1],"right_children":[2,4,-1,-1,-1],"split_conditions":[-8.37924E-1,9.9391654E-2,-5.9821893E-2,9.2742465E-2,-3.0522814E-2],"split_indices":[67,47,0,0,0],"split_type":[0,0,0,0,0],"sum_hessian":[3.8018713E0,2.5667963E0,1.235075E0,1.2541288E0,1.3126676E0],"tree_param":{"num_deleted":"0","num_feature":"143","num_nodes":"5","size_leaf_vector":"1"}},{"base_weights":[3.2047464E-3,-5.786642E-2,1.4228211E-1,-3.6501307E-2,9.418308E-2],"categories":[],"categories_nodes":[],"categories_segments":[],"categories_sizes":[],"default_left":[0,0,0,0,0],"id":39,"left_children":[1,-1,3,-1,-1],"loss_changes":[1.560589E-1,0E0,1.8929026E-1,0E0,0E0],"parents":[2147483647,0,0,2,2],"right_children":[2,-1,4,-1,-1],"split_conditions":[-7.030887E-1,-5.786642E-2,-1.9802496E-1,-3.6501307E-2,9.418308E-2],"split_indices":[11,0,2,0,0],"split_type":[0,0,0,0,0],"sum_hessian":[3.7159736E0,1.3813791E0,2.3345945E0,1.0347457E0,1.2998487E0],"tree_param":{"num_deleted":"0","num_feature":"143","num_nodes":"5","size_leaf_vector":"1"}},{"base_weights":[2.629789E-3,-6.0211666E-2,1.3681945E-1,-3.9721902E-2,9.202576E-2],"categories":[],"categories_nodes":[],"categories_segments":[],"categories_sizes":[],"default_left":[0,0,0,0,0],"id":40,"left_children":[1,-1,3,-1,-1],"loss_changes":[1.5365791E-1,0E0,1.9529456E-1,0E0,0E0],"parents":[2147483647,0,0,2,2],"right_children":[2,-1,4,-1,-1],"split_conditions":[9.6222705E-1,-6.0211666E-2,-6.9509876E-1,-3.9721902E-2,9.202576E-2],"split_indices":[107,0,11,0,0],"split_type":[0,0,0,0,0],"sum_hessian":[3.6250756E0,1.2441502E0,2.3809254E0,1.0067533E0,1.3741721E0],"tree_param":{"num_deleted":"0","num_feature":"143","num_nodes":"5","size_leaf_vector":"1"}},{"base_weights":[4.7812247E-4,-1.3767973E-1,5.3167697E-2,1.718985E-2,-7.723296E-2],"categories":[],"categories_nodes":[],"categories_segments":[],"categories_sizes":[],"default_left":[0,0,0,0,0],"id":41,"left_children":[1,3,-1,-1,-1],"loss_changes":[1.3511717E-1,8.731845E-2,0E0,0E0,0E0],"parents":[2147483647,0,0,1,1],"right_children":[2,4,-1,-1,-1],"split_conditions":[9.024801E-1,-2.323029E-1,5.3167697E-2,1.718985E-2,-7.723296E-2],"split_indices":[49,5,0,0,0],"split_type":[0,0,0,0,0],"sum_hessian":[3.5340319E0,2.1076145E0,1.4264171E0,1.0004336E0,1.1071811E0],"tree_param":{"num_deleted":"0","num_feature":"143","num_nodes":"5","size_leaf_vector":"1"}},{"base_weights":[-1.435571E-3,4.5200963E-2,-4.953313E-2],"categories":[],"categories_nodes":[],"categories_segments":[],"categories_sizes":[],"default_left":[0,0,0],"id":42,"left_children":[1,-1,-1],"loss_changes":[1.3629152E-1,0E0,0E0],"parents":[2147483647,0,0],"right_children":[2,-1,-1],"split_conditions":[-9.0865946E-1,4.5200963E-2,-4.953313E-2],"split_indices":[67,0,0],"split_type":[0,0,0],"sum_hessian":[3.47522E0,1.8424554E0,1.6327647E0],"tree_param":{"num_deleted":"0","num_feature":"143","num_nodes":"3","size_leaf_vector":"1"}},{"base_weights":[-2.0335945E-3,1.3369195E-1,-5.45886E-2,9.6466385E-2,-3.2836996E-2],"categories":[],"categories_nodes":[],"categories_segments":[],"categories_sizes":[],"default_left":[0,0,0,0,0],"id":43,"left_children":[1,3,-1,-1,-1],"loss_changes":[1.3278688E-1,1.7716843E-1,0E0,0E0,0E0],"parents":[2147483647,0,0,1,1],"right_children":[2,4,-1,-1,-1],"split_conditions":[9.9391654E-2,2.4848215E-1,-5.45886E-2,9.6466385E-2,-3.2836996E-2],"split_indices":[47,3,0,0,0],"split_type":[0,0,0,0,0],"sum_hessian":[3.4412827E0,2.108071E0,1.3332117E0,1.0073252E0,1.1007458E0],"tree_param":{"num_deleted":"0","num_feature":"143","num_nodes":"5","size_leaf_vector":"1"}},{"base_weights":[1.0363002E-3,1.2744752E-1,-5.105553E-2,-3.6106702E-2,9.328215E-2],"categories":[],"categories_nodes":[],"categories_segments":[],"categories_sizes":[],"default_left":[0,0,0,0,0],"id":44,"left_children":[1,3,-1,-1,-1],"loss_changes":[1.1605457E-1,1.774666E-1,0E0,0E0,0E0],"parents":[2147483647,0,0,1,1],"right_children":[2,4,-1,-1,-1],"split_conditions":[-6.817737E-1,-9.6948415E-1,-5.105553E-2,-3.6106702E-2,9.328215E-2],"split_indices":[73,66,0,0,0],"split_type":[0,0,0,0,0],"sum_hessian":[3.359803E0,2.079893E0,1.2799098E0,1.0312705E0,1.0486225E0],"tree_param":{"num_deleted":"0","num_feature":"143","num_nodes":"5","size_leaf_vector":"1"}},{"base_weights":[2.563817E-3,5.649563E-2,-1.1725675E-1,-9.7575486E-2,4.553891E-2],"categories":[],"categories_nodes":[],"categories_segments":[],"categories_sizes":[],"default_left":[0,0,0,0,0],"id":45,"left_children":[1,-1,3,-1,-1],"loss_changes":[1.17403865E-1,0E0,2.295515E-1,0E0,0E0],"parents":[2147483647,0,0,2,2],"right_children":[2,-1,4,-1,-1],"split_conditions":[-9.9999774E-1,5.649563E-2,-8.946414E-1,-9.7575486E-2,4.553891E-2],"split_indices":[34,0,53,0,0],"split_type":[0,0,0,0,0],"sum_hessian":[3.2827463E0,1.063051E0,2.2196953E0,1.1340945E0,1.085601E0],"tree_param":{"num_deleted":"0","num_feature":"143","num_nodes":"5","size_leaf_vector":"1"}},{"base_weights":[2.3421121E-3,1.21859364E-1,-5.6454662E-2,8.3173305E-2,-2.8080937E-2],"categories":[],"categories_nodes":[],"categories_segments":[],"categories_sizes":[],"default_left":[0,0,0,0,0],"id":46,"left_children":[1,3,-1,-1,-1],"loss_changes":[1.1841682E-1,1.3254282E-1,0E0,0E0,0E0],"parents":[2147483647,0,0,1,1],"right_children":[2,4,-1,-1,-1],"split_conditions":[-8.37924E-1,9.9391654E-2,-5.6454662E-2,8.3173305E-2,-2.8080937E-2],"split_indices":[67,47,0,0,0],"split_type":[0,0,0,0,0],"sum_hessian":[3.1932857E0,2.183783E0,1.0095026E0,1.1021823E0,1.0816008E0],"tree_param":{"num_deleted":"0","num_feature":"143","num_nodes":"5","size_leaf_vector":"1"}},{"base_weights":[1.5882808E-3,3.856357E-2,-5.153365E-2],"categories":[],"categories_nodes":[],"categories_segments":[],"categories_sizes":[],"default_left":[0,0,0],"id":47,"left_children":[1,-1,-1],"loss_changes":[1.1292084E-1,0E0,0E0],"parents":[2147483647,0,0],"right_children":[2,-1,-1],"split_conditions":[9.814899E-1,3.856357E-2,-5.153365E-2],"split_indices":[105,0,0],"split_type":[0,0,0],"sum_hessian":[3.1271622E0,1.9544522E0,1.1727102E0],"tree_param":{"num_deleted":"0","num_feature":"143","num_nodes":"3","size_leaf_vector":"1"}},{"base_weights":[-2.11457E-3,-1.2402952E-1,5.4888695E-2,1.684147E-2,-7.183534E-2],"categories":[],"categories_nodes":[],"categories_segments":[],"categories_sizes":[],"default_left":[0,0,0,0,0],"id":48,"left_children":[1,3,-1,-1,-1],"loss_changes":[1.1515189E-1,7.720846E-2,0E0,0E0,0E0],"parents":[2147483647,0,0,1,1],"right_children":[2,4,-1,-1,-1],"split_conditions":[9.3784297E-1,9.174153E-1,5.4888695E-2,1.684147E-2,-7.183534E-2],"split_indices":[49,39,0,0,0],"split_type":[0,0,0,0,0],"sum_hessian":[3.0977058E0,2.0663779E0,1.0313281E0,1.0074383E0,1.0589395E0],"tree_param":{"num_deleted":"0","num_feature":"143","num_nodes":"5","size_leaf_vector":"1"}},{"base_weights":[-1.7123644E-3,-4.8810106E-2,3.7182476E-2],"categories":[],"categories_nodes":[],"categories_segments":[],"categories_sizes":[],"default_left":[0,0,0],"id":49,"left_children":[1,-1,-1],"loss_changes":[1.020324E-1,0E0,0E0],"parents":[2147483647,0,0],"right_children":[2,-1,-1],"split_conditions":[-2.1659954E-1,-4.8810106E-2,3.7182476E-2],"split_indices":[2,0,0],"split_type":[0,0,0],"sum_hessian":[3.0470607E0,1.2064837E0,1.840577E0],"tree_param":{"num_deleted":"0","num_feature":"143","num_nodes":"3","size_leaf_vector":"1"}},{"base_weights":[-4.16108E-3,3.8355064E-2,-4.333528E-2],"categories":[],"categories_nodes":[],"categories_segments":[],"categories_sizes":[],"default_left":[0,0,0],"id":50,"left_children":[1,-1,-1],"loss_changes":[9.291759E-2,0E0,0E0],"parents":[2147483647,0,0],"right_children":[2,-1,-1],"split_conditions":[-9.0865946E-1,3.8355064E-2,-4.333528E-2],"split_indices":[67,0,0],"split_type":[0,0,0],"sum_hessian":[3.0199854E0,1.6015834E0,1.4184021E0],"tree_param":{"num_deleted":"0","num_feature":"143","num_nodes":"3","size_leaf_vector":"1"}},{"base_weights":[-4.2117964E-3,3.5072427E-2,-5.007596E-2],"categories":[],"categories_nodes":[],"categories_segments":[],"categories_sizes":[],"default_left":[0,0,0],"id":51,"left_children":[1,-1,-1],"loss_changes":[9.827428E-2,0E0,0E0],"parents":[2147483647,0,0],"right_children":[2,-1,-1],"split_conditions":[9.814899E-1,3.5072427E-2,-5.007596E-2],"split_indices":[105,0,0],"split_type":[0,0,0],"sum_hessian":[2.9965127E0,1.8791552E0,1.1173575E0],"tree_param":{"num_deleted":"0","num_feature":"143","num_nodes":"3","size_leaf_vector":"1"}},{"base_weights":[-6.8186377E-3,4.1628167E-2,-3.900271E-2],"categories":[],"categories_nodes":[],"categories_segments":[],"categories_sizes":[],"default_left":[0,0,0],"id":52,"left_children":[1,-1,-1],"loss_changes":[8.925024E-2,0E0,0E0],"parents":[2147483647,0,0],"right_children":[2,-1,-1],"split_conditions":[-9.9999684E-1,4.1628167E-2,-3.900271E-2],"split_indices":[34,0,0],"split_type":[0,0,0],"sum_hessian":[2.9706855E0,1.3036808E0,1.6670046E0],"tree_param":{"num_deleted":"0","num_feature":"143","num_nodes":"3","size_leaf_vector":"1"}},{"base_weights":[-4.1500544E-3,-3.544708E-2,4.540103E-2],"categories":[],"categories_nodes":[],"categories_segments":[],"categories_sizes":[],"default_left":[0,0,0],"id":53,"left_children":[1,-1,-1],"loss_changes":[8.784608E-2,0E0,0E0],"parents":[2147483647,0,0],"right_children":[2,-1,-1],"split_conditions":[4.1472873E-1,-3.544708E-2,4.540103E-2],"split_indices":[56,0,0],"split_type":[0,0,0],"sum_hessian":[2.9468782E0,1.8387465E0,1.1081318E0],"tree_param":{"num_deleted":"0","num_feature":"143","num_nodes":"3","size_leaf_vector":"1"}},{"base_weights":[-3.7568752E-4,-4.078786E-2,3.971024E-2],"categories":[],"categories_nodes":[],"categories_segments":[],"categories_sizes":[],"default_left":[0,0,0],"id":54,"left_children":[1,-1,-1],"loss_changes":[8.863923E-2,0E0,0E0],"parents":[2147483647,0,0],"right_children":[2,-1,-1],"split_conditions":[-6.335371E-1,-4.078786E-2,3.971024E-2],"split_indices":[11,0,0],"split_type":[0,0,0],"sum_hessian":[2.9250631E0,1.4350615E0,1.4900018E0],"tree_param":{"num_deleted":"0","num_feature":"143","num_nodes":"3","size_leaf_vector":"1"}},{"base_weights":[-5.6094246E-4,3.3645526E-2,-4.4610858E-2],"categories":[],"categories_nodes":[],"categories_segments":[],"categories_sizes":[],"default_left":[0,0,0],"id":55,"left_children":[1,-1,-1],"loss_changes":[8.1816055E-2,0E0,0E0],"parents":[2147483647,0,0],"right_children":[2,-1,-1],"split_conditions":[9.9391654E-2,3.3645526E-2,-4.4610858E-2],"split_indices":[47,0,0],"split_type":[0,0,0],"sum_hessian":[2.9011152E0,1.7855424E0,1.1155729E0],"tree_param":{"num_deleted":"0","num_feature":"143","num_nodes":"3","size_leaf_vector":"1"}},{"base_weights":[-3.2683988E-3,3.3040445E-2,-4.814947E-2],"categories":[],"categories_nodes":[],"categories_segments":[],"categories_sizes":[],"default_left":[0,0,0],"id":56,"left_children":[1,-1,-1],"loss_changes":[8.685271E-2,0E0,0E0],"parents":[2147483647,0,0],"right_children":[2,-1,-1],"split_conditions":[-8.6961603E-1,3.3040445E-2,-4.814947E-2],"split_indices":[67,0,0],"split_type":[0,0,0],"sum_hessian":[2.8796878E0,1.8470318E0,1.032656E0],"tree_param":{"num_deleted":"0","num_feature":"143","num_nodes":"3","size_leaf_vector":"1"}},{"base_weights":[-6.281774E-3,-4.962133E-2,3.22961E-2],"categories":[],"categories_nodes":[],"categories_segments":[],"categories_sizes":[],"default_left":[0,0,0],"id":57,"left_children":[1,-1,-1],"loss_changes":[8.774375E-2,0E0,0E0],"parents":[2147483647,0,0],"right_children":[2,-1,-1],"split_conditions":[9.6222705E-1,-4.962133E-2,3.22961E-2],"split_indices":[107,0,0],"split_type":[0,0,0],"sum_hessian":[2.8576114E0,1.0038677E0,1.8537437E0],"tree_param":{"num_deleted":"0","num_feature":"143","num_nodes":"3","size_leaf_vector":"1"}},{"base_weights":[-9.015916E-3,-3.5645783E-2,4.4564743E-2],"categories":[],"categories_nodes":[],"categories_segments":[],"categories_sizes":[],"default_left":[0,0,0],"id":58,"left_children":[1,-1,-1],"loss_changes":[8.399505E-2,0E0,0E0],"parents":[2147483647,0,0],"right_children":[2,-1,-1],"split_conditions":[9.8912585E-1,-3.5645783E-2,4.4564743E-2],"split_indices":[93,0,0],"split_type":[0,0,0],"sum_hessian":[2.8346848E0,1.8154466E0,1.0192384E0],"tree_param":{"num_deleted":"0","num_feature":"143","num_nodes":"3","size_leaf_vector":"1"}},{"base_weights":[-4.002961E-3,-3.6236014E-2,4.3369927E-2],"categories":[],"categories_nodes":[],"categories_segments":[],"categories_sizes":[],"default_left":[0,0,0],"id":59,"left_children":[1,-1,-1],"loss_changes":[8.3610535E-2,0E0,0E0],"parents":[2147483647,0,0],"right_children":[2,-1,-1],"split_conditions":[9.024801E-1,-3.6236014E-2,4.3369927E-2],"split_indices":[49,0,0],"split_type":[0,0,0],"sum_hessian":[2.8125055E0,1.6794031E0,1.1331024E0],"tree_param":{"num_deleted":"0","num_feature":"143","num_nodes":"3","size_leaf_vector":"1"}},{"base_weights":[-9.319788E-4,4.1001666E-2,-3.5753526E-2],"categories":[],"categories_nodes":[],"categories_segments":[],"categories_sizes":[],"default_left":[0,0,0],"id":60,"left_children":[1,-1,-1],"loss_changes":[7.795048E-2,0E0,0E0],"parents":[2147483647,0,0],"right_children":[2,-1,-1],"split_conditions":[-8.4191704E-1,4.1001666E-2,-3.5753526E-2],"split_indices":[75,0,0],"split_type":[0,0,0],"sum_hessian":[2.789646E0,1.2172724E0,1.5723734E0],"tree_param":{"num_deleted":"0","num_feature":"143","num_nodes":"3","size_leaf_vector":"1"}},{"base_weights":[7.366724E-4,3.309514E-2,-4.479442E-2],"categories":[],"categories_nodes":[],"categories_segments":[],"categories_sizes":[],"default_left":[0,0,0],"id":61,"left_children":[1,-1,-1],"loss_changes":[7.844994E-2,0E0,0E0],"parents":[2147483647,0,0],"right_children":[2,-1,-1],"split_conditions":[9.814899E-1,3.309514E-2,-4.479442E-2],"split_indices":[105,0,0],"split_type":[0,0,0],"sum_hessian":[2.7693303E0,1.753545E0,1.0157851E0],"tree_param":{"num_deleted":"0","num_feature":"143","num_nodes":"3","size_leaf_vector":"1"}},{"base_weights":[-2.6497592E-3,3.5269003E-2,-3.932914E-2],"categories":[],"categories_nodes":[],"categories_segments":[],"categories_sizes":[],"default_left":[0,0,0],"id":62,"left_children":[1,-1,-1],"loss_changes":[7.3297136E-2,0E0,0E0],"parents":[2147483647,0,0],"right_children":[2,-1,-1],"split_conditions":[-9.0865946E-1,3.5269003E-2,-3.932914E-2],"split_indices":[67,0,0],"split_type":[0,0,0],"sum_hessian":[2.7487667E0,1.4636661E0,1.2851006E0],"tree_param":{"num_deleted":"0","num_feature":"143","num_nodes":"3","size_leaf_vector":"1"}},{"base_weights":[-2.9782143E-3,3.3616606E-2,-4.5165736E-2],"categories":[],"categories_nodes":[],"categories_segments":[],"categories_sizes":[],"default_left":[0,0,0],"id":63,"left_children":[1,-1,-1],"loss_changes":[8.0193065E-2,0E0,0E0],"parents":[2147483647,0,0],"right_children":[2,-1,-1],"split_conditions":[9.9391654E-2,3.3616606E-2,-4.5165736E-2],"split_indices":[47,0,0],"split_type":[0,0,0],"sum_hessian":[2.7301424E0,1.6694765E0,1.060666E0],"tree_param":{"num_deleted":"0","num_feature":"143","num_nodes":"3","size_leaf_vector":"1"}},{"base_weights":[-5.2611805E-3,-4.034727E-2,3.3715025E-2],"categories":[],"categories_nodes":[],"categories_segments":[],"categories_sizes":[],"default_left":[0,0,0],"id":64,"left_children":[1,-1,-1],"loss_changes":[7.150464E-2,0E0,0E0],"parents":[2147483647,0,0],"right_children":[2,-1,-1],"split_conditions":[7.631079E-1,-4.034727E-2,3.3715025E-2],"split_indices":[49,0,0],"split_type":[0,0,0],"sum_hessian":[2.7090995E0,1.2227461E0,1.4863533E0],"tree_param":{"num_deleted":"0","num_feature":"143","num_nodes":"3","size_leaf_vector":"1"}},{"base_weights":[-5.534128E-3,-4.4410013E-2,3.185251E-2],"categories":[],"categories_nodes":[],"categories_segments":[],"categories_sizes":[],"default_left":[0,0,0],"id":65,"left_children":[1,-1,-1],"loss_changes":[7.445283E-2,0E0,0E0],"parents":[2147483647,0,0],"right_children":[2,-1,-1],"split_conditions":[-6.790696E-1,-4.4410013E-2,3.185251E-2],"split_indices":[11,0,0],"split_type":[0,0,0],"sum_hessian":[2.689763E0,1.0390961E0,1.650667E0],"tree_param":{"num_deleted":"0","num_feature":"143","num_nodes":"3","size_leaf_vector":"1"}},{"base_weights":[-7.369065E-3,3.0314378E-2,-4.2966884E-2],"categories":[],"categories_nodes":[],"categories_segments":[],"categories_sizes":[],"default_left":[0,0,0],"id":66,"left_children":[1,-1,-1],"loss_changes":[6.852435E-2,0E0,0E0],"parents":[2147483647,0,0],"right_children":[2,-1,-1],"split_conditions":[-6.817737E-1,3.0314378E-2,-4.2966884E-2],"split_indices":[73,0,0],"split_type":[0,0,0],"sum_hessian":[2.6697977E0,1.6273259E0,1.0424716E0],"tree_param":{"num_deleted":"0","num_feature":"143","num_nodes":"3","size_leaf_vector":"1"}},{"base_weights":[-8.695268E-3,3.2415856E-2,-3.921152E-2],"categories":[],"categories_nodes":[],"categories_segments":[],"categories_sizes":[],"default_left":[0,0,0],"id":67,"left_children":[1,-1,-1],"loss_changes":[6.6148736E-2,0E0,0E0],"parents":[2147483647,0,0],"right_children":[2,-1,-1],"split_conditions":[-9.0865946E-1,3.2415856E-2,-3.921152E-2],"split_indices":[67,0,0],"split_type":[0,0,0],"sum_hessian":[2.6523576E0,1.4138613E0,1.2384964E0],"tree_param":{"num_deleted":"0","num_feature":"143","num_nodes":"3","size_leaf_vector":"1"}},{"base_weights":[-8.017269E-3,2.911727E-2,-4.2700082E-2],"categories":[],"categories_nodes":[],"categories_segments":[],"categories_sizes":[],"default_left":[0,0,0],"id":68,"left_children":[1,-1,-1],"loss_changes":[6.512171E-2,0E0,0E0],"parents":[2147483647,0,0],"right_children":[2,-1,-1],"split_conditions":[9.9391654E-2,2.911727E-2,-4.2700082E-2],"split_indices":[47,0,0],"split_type":[0,0,0],"sum_hessian":[2.6353858E0,1.6342881E0,1.0010977E0],"tree_param":{"num_deleted":"0","num_feature":"143","num_nodes":"3","size_leaf_vector":"1"}},{"base_weights":[-9.442596E-3,-3.6185347E-2,3.586713E-2],"categories":[],"categories_nodes":[],"categories_segments":[],"categories_sizes":[],"default_left":[0,0,0],"id":69,"left_children":[1,-1,-1],"loss_changes":[6.630893E-2,0E0,0E0],"parents":[2147483647,0,0],"right_children":[2,-1,-1],"split_conditions":[3.641067E-1,-3.6185347E-2,3.586713E-2],"split_indices":[56,0,0],"split_type":[0,0,0],"sum_hessian":[2.6180294E0,1.4410616E0,1.1769677E0],"tree_param":{"num_deleted":"0","num_feature":"143","num_nodes":"3","size_leaf_vector":"1"}},{"base_weights":[-6.746786E-3,-3.3274043E-2,3.8889498E-2],"categories":[],"categories_nodes":[],"categories_segments":[],"categories_sizes":[],"default_left":[0,0,0],"id":70,"left_children":[1,-1,-1],"loss_changes":[6.553595E-2,0E0,0E0],"parents":[2147483647,0,0],"right_children":[2,-1,-1],"split_conditions":[5.649319E-1,-3.3274043E-2,3.8889498E-2],"split_indices":[142,0,0],"split_type":[0,0,0],"sum_hessian":[2.6011348E0,1.5805918E0,1.0205429E0],"tree_param":{"num_deleted":"0","num_feature":"143","num_nodes":"3","size_leaf_vector":"1"}},{"base_weights":[-3.179078E-3,3.3108894E-2,-3.550205E-2],"categories":[],"categories_nodes":[],"categories_segments":[],"categories_sizes":[],"default_left":[0,0,0],"id":71,"left_children":[1,-1,-1],"loss_changes":[5.9915353E-2,0E0,0E0],"parents":[2147483647,0,0],"right_children":[2,-1,-1],"split_conditions":[-9.999957E-1,3.3108894E-2,-3.550205E-2],"split_indices":[34,0,0],"split_type":[0,0,0],"sum_hessian":[2.5833836E0,1.3218154E0,1.2615681E0],"tree_param":{"num_deleted":"0","num_feature":"143","num_nodes":"3","size_leaf_vector":"1"}},{"base_weights":[-2.9235461E-3,-3.544843E-2,3.4476373E-2],"categories":[],"categories_nodes":[],"categories_segments":[],"categories_sizes":[],"default_left":[0,0,0],"id":72,"left_children":[1,-1,-1],"loss_changes":[6.202889E-2,0E0,0E0],"parents":[2147483647,0,0],"right_children":[2,-1,-1],"split_conditions":[2.2E0,-3.544843E-2,3.4476373E-2],"split_indices":[108,0,0],"split_type":[0,0,0],"sum_hessian":[2.567672E0,1.2968366E0,1.2708354E0],"tree_param":{"num_deleted":"0","num_feature":"143","num_nodes":"3","size_leaf_vector":"1"}},{"base_weights":[-2.3443892E-3,3.2438632E-2,-3.6181107E-2],"categories":[],"categories_nodes":[],"categories_segments":[],"categories_sizes":[],"default_left":[0,0,0],"id":73,"left_children":[1,-1,-1],"loss_changes":[5.9431467E-2,0E0,0E0],"parents":[2147483647,0,0],"right_children":[2,-1,-1],"split_conditions":[-9.0865946E-1,3.2438632E-2,-3.6181107E-2],"split_indices":[67,0,0],"split_type":[0,0,0],"sum_hessian":[2.5509071E0,1.3631604E0,1.1877466E0],"tree_param":{"num_deleted":"0","num_feature":"143","num_nodes":"3","size_leaf_vector":"1"}},{"base_weights":[-2.7265057E-3,3.3070862E-2,-3.5930704E-2],"categories":[],"categories_nodes":[],"categories_segments":[],"categories_sizes":[],"default_left":[0,0,0],"id":74,"left_children":[1,-1,-1],"loss_changes":[5.994992E-2,0E0,0E0],"parents":[2147483647,0,0],"right_children":[2,-1,-1],"split_conditions":[-3.833865E-1,3.3070862E-2,-3.5930704E-2],"split_indices":[59,0,0],"split_type":[0,0,0],"sum_hessian":[2.5357E0,1.319931E0,1.215769E0],"tree_param":{"num_deleted":"0","num_feature":"143","num_nodes":"3","size_leaf_vector":"1"}},{"base_weights":[-2.7478237E-3,-3.1389244E-2,3.7776254E-2],"categories":[],"categories_nodes":[],"categories_segments":[],"categories_sizes":[],"default_left":[0,0,0],"id":75,"left_children":[1,-1,-1],"loss_changes":[5.931831E-2,0E0,0E0],"parents":[2147483647,0,0],"right_children":[2,-1,-1],"split_conditions":[9.024801E-1,-3.1389244E-2,3.7776254E-2],"split_indices":[49,0,0],"split_type":[0,0,0],"sum_hessian":[2.5199168E0,1.5106038E0,1.0093131E0],"tree_param":{"num_deleted":"0","num_feature":"143","num_nodes":"3","size_leaf_vector":"1"}},{"base_weights":[-1.0538024E-4,-3.559743E-2,3.4474436E-2],"categories":[],"categories_nodes":[],"categories_segments":[],"categories_sizes":[],"default_left":[0,0,0],"id":76,"left_children":[1,-1,-1],"loss_changes":[6.140953E-2,0E0,0E0],"parents":[2147483647,0,0],"right_children":[2,-1,-1],"split_conditions":[-6.335371E-1,-3.559743E-2,3.4474436E-2],"split_indices":[11,0,0],"split_type":[0,0,0],"sum_hessian":[2.5035293E0,1.2172579E0,1.2862715E0],"tree_param":{"num_deleted":"0","num_feature":"143","num_nodes":"3","size_leaf_vector":"1"}},{"base_weights":[-4.100304E-4,-3.762495E-2,3.0104104E-2],"categories":[],"categories_nodes":[],"categories_segments":[],"categories_sizes":[],"default_left":[0,0,0],"id":77,"left_children":[1,-1,-1],"loss_changes":[5.650003E-2,0E0,0E0],"parents":[2147483647,0,0],"right_children":[2,-1,-1],"split_conditions":[-2.1659954E-1,-3.762495E-2,3.0104104E-2],"split_indices":[2,0,0],"split_type":[0,0,0],"sum_hessian":[2.4866114E0,1.0005344E0,1.486077E0],"tree_param":{"num_deleted":"0","num_feature":"143","num_nodes":"3","size_leaf_vector":"1"}},{"base_weights":[-2.4824955E-3,3.1039054E-2,-3.553448E-2],"categories":[],"categories_nodes":[],"categories_segments":[],"categories_sizes":[],"default_left":[0,0,0],"id":78,"left_children":[1,-1,-1],"loss_changes":[5.4904103E-2,0E0,0E0],"parents":[2147483647,0,0],"right_children":[2,-1,-1],"split_conditions":[-5.139529E-1,3.1039054E-2,-3.553448E-2],"split_indices":[30,0,0],"split_type":[0,0,0],"sum_hessian":[2.471321E0,1.3477919E0,1.1235292E0],"tree_param":{"num_deleted":"0","num_feature":"143","num_nodes":"3","size_leaf_vector":"1"}},{"base_weights":[-3.0658164E-3,3.1263158E-2,-3.5087578E-2],"categories":[],"categories_nodes":[],"categories_segments":[],"categories_sizes":[],"default_left":[0,0,0],"id":79,"left_children":[1,-1,-1],"loss_changes":[5.4424472E-2,0E0,0E0],"parents":[2147483647,0,0],"right_children":[2,-1,-1],"split_conditions":[-9.0865946E-1,3.1263158E-2,-3.5087578E-2],"split_indices":[67,0,0],"split_type":[0,0,0],"sum_hessian":[2.4568794E0,1.3089669E0,1.1479125E0],"tree_param":{"num_deleted":"0","num_feature":"143","num_nodes":"3","size_leaf_vector":"1"}},{"base_weights":[-3.284664E-3,3.297286E-2,-3.522157E-2],"categories":[],"categories_nodes":[],"categories_segments":[],"categories_sizes":[],"default_left":[0,0,0],"id":80,"left_children":[1,-1,-1],"loss_changes":[5.7379454E-2,0E0,0E0],"parents":[2147483647,0,0],"right_children":[2,-1,-1],"split_conditions":[8.900469E-1,3.297286E-2,-3.522157E-2],"split_indices":[61,0,0],"split_type":[0,0,0],"sum_hessian":[2.4429667E0,1.2449863E0,1.1979803E0],"tree_param":{"num_deleted":"0","num_feature":"143","num_nodes":"3","size_leaf_vector":"1"}},{"base_weights":[-2.9825508E-3,-3.179618E-2,3.3602983E-2],"categories":[],"categories_nodes":[],"categories_segments":[],"categories_sizes":[],"default_left":[0,0,0],"id":81,"left_children":[1,-1,-1],"loss_changes":[5.2465826E-2,0E0,0E0],"parents":[2147483647,0,0],"right_children":[2,-1,-1],"split_conditions":[3.641067E-1,-3.179618E-2,3.3602983E-2],"split_indices":[56,0,0],"split_type":[0,0,0],"sum_hessian":[2.427184E0,1.321637E0,1.1055471E0],"tree_param":{"num_deleted":"0","num_feature":"143","num_nodes":"3","size_leaf_vector":"1"}},{"base_weights":[-1.5736234E-3,2.8904593E-2,-3.5585847E-2],"categories":[],"categories_nodes":[],"categories_segments":[],"categories_sizes":[],"default_left":[0,0,0],"id":82,"left_children":[1,-1,-1],"loss_changes":[5.055631E-2,0E0,0E0],"parents":[2147483647,0,0],"right_children":[2,-1,-1],"split_conditions":[9.705362E-1,2.8904593E-2,-3.5585847E-2],"split_indices":[105,0,0],"split_type":[0,0,0],"sum_hessian":[2.4138503E0,1.4105738E0,1.0032765E0],"tree_param":{"num_deleted":"0","num_feature":"143","num_nodes":"3","size_leaf_vector":"1"}},{"base_weights":[-3.0938094E-3,3.0195447E-2,-3.24936E-2],"categories":[],"categories_nodes":[],"categories_segments":[],"categories_sizes":[],"default_left":[0,0,0],"id":83,"left_children":[1,-1,-1],"loss_changes":[4.8020512E-2,0E0,0E0],"parents":[2147483647,0,0],"right_children":[2,-1,-1],"split_conditions":[-9.999957E-1,3.0195447E-2,-3.24936E-2],"split_indices":[34,0,0],"split_type":[0,0,0],"sum_hessian":[2.4004323E0,1.2305299E0,1.1699023E0],"tree_param":{"num_deleted":"0","num_feature":"143","num_nodes":"3","size_leaf_vector":"1"}},{"base_weights":[-2.8662465E-3,3.319684E-2,-3.0379305E-2],"categories":[],"categories_nodes":[],"categories_segments":[],"categories_sizes":[],"default_left":[0,0,0],"id":84,"left_children":[1,-1,-1],"loss_changes":[4.904909E-2,0E0,0E0],"parents":[2147483647,0,0],"right_children":[2,-1,-1],"split_conditions":[-8.4191704E-1,3.319684E-2,-3.0379305E-2],"split_indices":[75,0,0],"split_type":[0,0,0],"sum_hessian":[2.3878481E0,1.0508739E0,1.3369743E0],"tree_param":{"num_deleted":"0","num_feature":"143","num_nodes":"3","size_leaf_vector":"1"}},{"base_weights":[-1.1830775E-3,-2.8446222E-2,3.209016E-2],"categories":[],"categories_nodes":[],"categories_segments":[],"categories_sizes":[],"default_left":[0,0,0],"id":85,"left_children":[1,-1,-1],"loss_changes":[4.432001E-2,0E0,0E0],"parents":[2147483647,0,0],"right_children":[2,-1,-1],"split_conditions":[2.4E0,-2.8446222E-2,3.209016E-2],"split_indices":[108,0,0],"split_type":[0,0,0],"sum_hessian":[2.3748899E0,1.3389033E0,1.0359865E0],"tree_param":{"num_deleted":"0","num_feature":"143","num_nodes":"3","size_leaf_vector":"1"}},{"base_weights":[2.5177785E-4,2.9200045E-2,-3.2138944E-2],"categories":[],"categories_nodes":[],"categories_segments":[],"categories_sizes":[],"default_left":[0,0,0],"id":86,"left_children":[1,-1,-1],"loss_changes":[4.5481805E-2,0E0,0E0],"parents":[2147483647,0,0],"right_children":[2,-1,-1],"split_conditions":[-5.139529E-1,2.9200045E-2,-3.2138944E-2],"split_indices":[30,0,0],"split_type":[0,0,0],"sum_hessian":[2.3626094E0,1.2899569E0,1.0726525E0],"tree_param":{"num_deleted":"0","num_feature":"143","num_nodes":"3","size_leaf_vector":"1"}},{"base_weights":[-7.133043E-4,-3.0402457E-2,3.282203E-2],"categories":[],"categories_nodes":[],"categories_segments":[],"categories_sizes":[],"default_left":[0,0,0],"id":87,"left_children":[1,-1,-1],"loss_changes":[4.82172E-2,0E0,0E0],"parents":[2147483647,0,0],"right_children":[2,-1,-1],"split_conditions":[3.641067E-1,-3.0402457E-2,3.282203E-2],"split_indices":[56,0,0],"split_type":[0,0,0],"sum_hessian":[2.350702E0,1.2699417E0,1.0807605E0],"tree_param":{"num_deleted":"0","num_feature":"143","num_nodes":"3","size_leaf_vector":"1"}},{"base_weights":[2.1995792E-4,-3.195923E-2,3.0677974E-2],"categories":[],"categories_nodes":[],"categories_segments":[],"categories_sizes":[],"default_left":[0,0,0],"id":88,"left_children":[1,-1,-1],"loss_changes":[4.7258783E-2,0E0,0E0],"parents":[2147483647,0,0],"right_children":[2,-1,-1],"split_conditions":[-6.335371E-1,-3.195923E-2,3.0677974E-2],"split_indices":[11,0,0],"split_type":[0,0,0],"sum_hessian":[2.3384285E0,1.1213256E0,1.2171028E0],"tree_param":{"num_deleted":"0","num_feature":"143","num_nodes":"3","size_leaf_vector":"1"}},{"base_weights":[-2.4109922E-4,-2.8984327E-2,3.132535E-2],"categories":[],"categories_nodes":[],"categories_segments":[],"categories_sizes":[],"default_left":[0,0,0],"id":89,"left_children":[1,-1,-1],"loss_changes":[4.3628477E-2,0E0,0E0],"parents":[2147483647,0,0],"right_children":[2,-1,-1],"split_conditions":[8.496463E-1,-2.8984327E-2,3.132535E-2],"split_indices":[49,0,0],"split_type":[0,0,0],"sum_hessian":[2.325314E0,1.2505922E0,1.0747218E0],"tree_param":{"num_deleted":"0","num_feature":"143","num_nodes":"3","size_leaf_vector":"1"}},{"base_weights":[5.3495733E-4,2.9361837E-2,-3.0636933E-2],"categories":[],"categories_nodes":[],"categories_segments":[],"categories_sizes":[],"default_left":[0,0,0],"id":90,"left_children":[1,-1,-1],"loss_changes":[4.3100968E-2,0E0,0E0],"parents":[2147483647,0,0],"right_children":[2,-1,-1],"split_conditions":[-3.833865E-1,2.9361837E-2,-3.0636933E-2],"split_indices":[59,0,0],"split_type":[0,0,0],"sum_hessian":[2.31307E0,1.2112278E0,1.1018423E0],"tree_param":{"num_deleted":"0","num_feature":"143","num_nodes":"3","size_leaf_vector":"1"}},{"base_weights":[-1.9944486E-5,3.0274669E-2,-3.258E-2],"categories":[],"categories_nodes":[],"categories_segments":[],"categories_sizes":[],"default_left":[0,0,0],"id":91,"left_children":[1,-1,-1],"loss_changes":[4.714424E-2,0E0,0E0],"parents":[2147483647,0,0],"right_children":[2,-1,-1],"split_conditions":[-9.0865946E-1,3.0274669E-2,-3.258E-2],"split_indices":[67,0,0],"split_type":[0,0,0],"sum_hessian":[2.3016596E0,1.2294018E0,1.0722578E0],"tree_param":{"num_deleted":"0","num_feature":"143","num_nodes":"3","size_leaf_vector":"1"}},{"base_weights":[-7.272111E-4,3.0345403E-2,-2.9523402E-2],"categories":[],"categories_nodes":[],"categories_segments":[],"categories_sizes":[],"default_left":[0,0,0],"id":92,"left_children":[1,-1,-1],"loss_changes":[4.269185E-2,0E0,0E0],"parents":[2147483647,0,0],"right_children":[2,-1,-1],"split_conditions":[-1.4535594E-1,3.0345403E-2,-2.9523402E-2],"split_indices":[47,0,0],"split_type":[0,0,0],"sum_hessian":[2.2895584E0,1.1033442E0,1.1862143E0],"tree_param":{"num_deleted":"0","num_feature":"143","num_nodes":"3","size_leaf_vector":"1"}},{"base_weights":[-2.6573852E-4,2.9272625E-2,-2.8907772E-2],"categories":[],"categories_nodes":[],"categories_segments":[],"categories_sizes":[],"default_left":[0,0,0],"id":93,"left_children":[1,-1,-1],"loss_changes":[4.0223222E-2,0E0,0E0],"parents":[2147483647,0,0],"right_children":[2,-1,-1],"split_conditions":[-8.129342E-1,2.9272625E-2,-2.8907772E-2],"split_indices":[16,0,0],"split_type":[0,0,0],"sum_hessian":[2.27816E0,1.1211739E0,1.1569861E0],"tree_param":{"num_deleted":"0","num_feature":"143","num_nodes":"3","size_leaf_vector":"1"}},{"base_weights":[-8.1072976E-5,2.8369784E-2,-3.0875493E-2],"categories":[],"categories_nodes":[],"categories_segments":[],"categories_sizes":[],"default_left":[0,0,0],"id":94,"left_children":[1,-1,-1],"loss_changes":[4.1538306E-2,0E0,0E0],"parents":[2147483647,0,0],"right_children":[2,-1,-1],"split_conditions":[9.3707174E-1,2.8369784E-2,-3.0875493E-2],"split_indices":[105,0,0],"split_type":[0,0,0],"sum_hessian":[2.2677453E0,1.2227807E0,1.0449646E0],"tree_param":{"num_deleted":"0","num_feature":"143","num_nodes":"3","size_leaf_vector":"1"}},{"base_weights":[-8.378106E-4,2.8158162E-2,-3.164842E-2],"categories":[],"categories_nodes":[],"categories_segments":[],"categories_sizes":[],"default_left":[0,0,0],"id":95,"left_children":[1,-1,-1],"loss_changes":[4.2178202E-2,0E0,0E0],"parents":[2147483647,0,0],"right_children":[2,-1,-1],"split_conditions":[-1.5357597E-1,2.8158162E-2,-3.164842E-2],"split_indices":[129,0,0],"split_type":[0,0,0],"sum_hessian":[2.2566783E0,1.2388607E0,1.0178177E0],"tree_param":{"num_deleted":"0","num_feature":"143","num_nodes":"3","size_leaf_vector":"1"}},{"base_weights":[-1.6764668E-3,-3.0354194E-2,2.8309144E-2],"categories":[],"categories_nodes":[],"categories_segments":[],"categories_sizes":[],"default_left":[0,0,0],"id":96,"left_children":[1,-1,-1],"loss_changes":[4.057129E-2,0E0,0E0],"parents":[2147483647,0,0],"right_children":[2,-1,-1],"split_conditions":[-6.335371E-1,-3.0354194E-2,2.8309144E-2],"split_indices":[11,0,0],"split_type":[0,0,0],"sum_hessian":[2.2463555E0,1.0769942E0,1.1693614E0],"tree_param":{"num_deleted":"0","num_feature":"143","num_nodes":"3","size_leaf_vector":"1"}},{"base_weights":[-1.820831E-3,2.7581276E-2,-3.0725941E-2],"categories":[],"categories_nodes":[],"categories_segments":[],"categories_sizes":[],"default_left":[0,0,0],"id":97,"left_children":[1,-1,-1],"loss_changes":[3.992865E-2,0E0,0E0],"parents":[2147483647,0,0],"right_children":[2,-1,-1],"split_conditions":[-9.0865946E-1,2.7581276E-2,-3.0725941E-2],"split_indices":[67,0,0],"split_type":[0,0,0],"sum_hessian":[2.234989E0,1.2013897E0,1.0335993E0],"tree_param":{"num_deleted":"0","num_feature":"143","num_nodes":"3","size_leaf_vector":"1"}},{"base_weights":[-2.2663826E-3,2.7383374E-2,-2.9460082E-2],"categories":[],"categories_nodes":[],"categories_segments":[],"categories_sizes":[],"default_left":[0,0,0],"id":98,"left_children":[1,-1,-1],"loss_changes":[3.790219E-2,0E0,0E0],"parents":[2147483647,0,0],"right_children":[2,-1,-1],"split_conditions":[9.017132E-1,2.7383374E-2,-2.9460082E-2],"split_indices":[61,0,0],"split_type":[0,0,0],"sum_hessian":[2.2247E0,1.1509509E0,1.0737491E0],"tree_param":{"num_deleted":"0","num_feature":"143","num_nodes":"3","size_leaf_vector":"1"}},{"base_weights":[-2.2486364E-3,2.6683634E-2,-3.0566698E-2],"categories":[],"categories_nodes":[],"categories_segments":[],"categories_sizes":[],"default_left":[0,0,0],"id":99,"left_children":[1,-1,-1],"loss_changes":[3.8267165E-2,0E0,0E0],"parents":[2147483647,0,0],"right_children":[2,-1,-1],"split_conditions":[-1.5357597E-1,2.6683634E-2,-3.0566698E-2],"split_indices":[129,0,0],"split_type":[0,0,0],"sum_hessian":[2.2140265E0,1.2120521E0,1.0019742E0],"tree_param":{"num_deleted":"0","num_feature":"143","num_nodes":"3","size_leaf_vector":"1"}}]},"name":"gbtree"},"learner_model_param":{"base_score":"[1.6666667E-1]","boost_from_average":"1","num_class":"0","num_feature":"143","num_target":"1"},"objective":{"name":"binary:logistic","reg_loss_param":{"scale_pos_weight":"1"}}},"version":[3,2,0]}