{"learner":{"attributes":{"scikit_learn":"{\"_estimator_type\": \"classifier\"}"},"feature_names":["deep_ela.large_50d_v1.X0","deep_ela.large_50d_v1.X1","deep_ela.large_50d_v1.X2","deep_ela.large_50d_v1.X3","deep_ela.large_50d_v1.X4","deep_ela.large_50d_v1.X5","deep_ela.large_50d_v1.X6","deep_ela.large_50d_v1.X7","deep_ela.large_50d_v1.X8","deep_ela.large_50d_v1.X9","deep_ela.large_50d_v1.X10","deep_ela.large_50d_v1.X11","deep_ela.large_50d_v1.X12","deep_ela.large_50d_v1.X13","deep_ela.large_50d_v1.X14","deep_ela.large_50d_v1.X15","deep_ela.large_50d_v1.X16","deep_ela.large_50d_v1.X17","deep_ela.large_50d_v1.X18","deep_ela.large_50d_v1.X19","deep_ela.large_50d_v1.X20","deep_ela.large_50d_v1.X21","deep_ela.large_50d_v1.X22","deep_ela.large_50d_v1.X23","deep_ela.large_50d_v1.X24","deep_ela.large_50d_v1.X25","deep_ela.large_50d_v1.X26","deep_ela.large_50d_v1.X27","deep_ela.large_50d_v1.X28","deep_ela.large_50d_v1.X29","deep_ela.large_50d_v1.X30","deep_ela.large_50d_v1.X31","deep_ela.large_50d_v1.X32","deep_ela.large_50d_v1.X33","deep_ela.large_50d_v1.X34","deep_ela.large_50d_v1.X35","deep_ela.large_50d_v1.X36","deep_ela.large_50d_v1.X37","deep_ela.large_50d_v1.X38","deep_ela.large_50d_v1.X39","deep_ela.large_50d_v1.X40","deep_ela.large_50d_v1.X41","deep_ela.large_50d_v1.X42","deep_ela.large_50d_v1.X43","deep_ela.large_50d_v1.X44","deep_ela.large_50d_v1.X45","deep_ela.large_50d_v1.X46","deep_ela.large_50d_v1.X47","dim"],"feature_types":["float","float","float","float","float","float","float","float","float","float","float","float","float","float","float","float","float","float","float","float","float","float","float","float","float","float","float","float","float","float","float","float","float","float","float","float","float","float","float","float","float","float","float","float","float","float","float","float","float"],"gradient_booster":{"model":{"cats":{"enc":[],"feature_segments":[],"sorted_idx":[]},"gbtree_model_param":{"num_parallel_tree":"1","num_trees":"100"},"iteration_indptr":[0,1,2,3,4,5,6,7,8,9,10,11,12,13,14,15,16,17,18,19,20,21,22,23,24,25,26,27,28,29,30,31,32,33,34,35,36,37,38,39,40,41,42,43,44,45,46,47,48,49,50,51,52,53,54,55,56,57,58,59,60,61,62,63,64,65,66,67,68,69,70,71,72,73,74,75,76,77,78,79,80,81,82,83,84,85,86,87,88,89,90,91,92,93,94,95,96,97,98,99,100],"tree_info":[0,0,0,0,0,0,0,0,0,0,0,0,0,0,0,0,0,0,0,0,0,0,0,0,0,0,0,0,0,0,0,0,0,0,0,0,0,0,0,0,0,0,0,0,0,0,0,0,0,0,0,0,0,0,0,0,0,0,0,0,0,0,0,0,0,0,0,0,0,0,0,0,0,0,0,0,0,0,0,0,0,0,0,0,0,0,0,0,0,0,0,0,0,0,0,0,0,0,0,0],"trees":[{"base_weights":[-5.3288918E-8,-4.9978197E-1,2.5869071E0,6.7061424E-1,-9.7768265E-1,4.117274E0,-3.154639E-1,1.677631E-1,1.2315788E0,-1.0928502E0,8.3333325E-1,4.9830503E0,-3.529412E-1,-3.8991272E-1,2.7420812E0,5.9999996E-1,-1.16218E0,1.0879121E0,-2.795031E-1,9.473684E-2,1.6020366E0,-2.2500001E-1,9.473684E-2,1.8778625E0,-6.923077E-1,1.3561645E0,-1.4594595E-1,-1.0058284E-8,-3.5565975E-1,9.692308E-1,-1.8947369E-1,4.9655172E-1,-2.9439253E-1],"categories":[],"categories_nodes":[],"categories_segments":[],"categories_sizes":[],"default_left":[0,0,0,0,0,0,0,0,0,0,0,0,0,0,0,0,0,0,0,0,0,0,0,0,0,0,0,0,0,0,0,0,0],"id":0,"left_children":[1,3,5,7,9,11,-1,13,-1,15,17,19,21,23,25,-1,27,-1,-1,-1,-1,-1,-1,29,31,-1,-1,-1,-1,-1,-1,-1,-1],"loss_changes":[1.9651921E2,7.190848E1,1.413683E2,6.412616E1,1.9861633E1,6.959485E1,0E0,4.9561733E1,0E0,2.0735245E1,3.2957077E1,2.2895233E1,1.239938E0,2.0939571E1,3.7448067E1,0E0,2.2963333E0,0E0,0E0,0E0,0E0,0E0,0E0,1.4394659E1,1.9263243E1,0E0,0E0,0E0,0E0,0E0,0E0,0E0,0E0],"parents":[2147483647,0,0,1,1,2,2,3,3,4,4,5,5,7,7,9,9,10,10,11,11,12,12,13,13,14,14,16,16,23,23,24,24],"right_children":[2,4,6,8,10,12,-1,14,-1,16,18,20,22,24,26,-1,28,-1,-1,-1,-1,-1,-1,30,32,-1,-1,-1,-1,-1,-1,-1,-1],"split_conditions":[9.3121654E-1,-9.999995E-1,6.69623E-1,1.6740944E-2,9.269376E-1,9.9027205E-1,-3.154639E-1,8.2158536E-1,1.2315788E0,1.868391E-1,-7.333554E-1,-9.5451224E-1,9.965294E-1,-9.819557E-1,9.359185E-1,5.9999996E-1,-9.9934435E-1,1.0879121E0,-2.795031E-1,9.473684E-2,1.6020366E0,-2.2500001E-1,9.473684E-2,-5.8615863E-1,-9.62002E-1,1.3561645E0,-1.4594595E-1,-1.0058284E-8,-3.5565975E-1,9.692308E-1,-1.8947369E-1,4.9655172E-1,-2.9439253E-1],"split_indices":[0,3,10,24,17,1,0,0,0,12,24,15,1,43,12,0,41,0,0,0,0,0,0,29,14,0,0,0,0,0,0,0,0],"split_type":[0,0,0,0,0,0,0,0,0,0,0,0,0,0,0,0,0,0,0,0,0,0,0,0,0,0,0,0,0,0,0,0,0],"sum_hessian":[1.5E2,1.2638889E2,2.3611113E1,3.652778E1,8.9861115E1,1.6527779E1,7.0833335E0,3.277778E1,3.7500002E0,8.4861115E1,5E0,1.3750001E1,2.777778E0,2.763889E1,5.1388893E0,1.25E0,8.3611115E1,1.5277779E0,3.4722223E0,1.1111112E0,1.2638889E1,1.6666667E0,1.1111112E0,2.638889E0,2.5000002E1,3.0555558E0,2.0833335E0,1.6666667E0,8.194445E1,1.5277779E0,1.1111112E0,2.2222223E0,2.2777779E1],"tree_param":{"num_deleted":"0","num_feature":"49","num_nodes":"33","size_leaf_vector":"1"}},{"base_weights":[-9.436545E-2,4.7909746E-1,-9.5455784E-1,1.4371946E0,-4.9745113E-1,-1.1013013E0,3.9009896E-1,2.0278444E0,-1.8272462E-1,1.4561496E0,-9.7969306E-1,5.0050605E-2,-3.3885247E-1,2.2268386E0,-2.2667219E-1,1.0676776E0,-3.1176457E-1,-2.399714E-1,6.661556E-1,3.6459655E-1,-1.0813631E0,-5.0087385E-3,2.3178253E0,6.025148E-1,-2.1670973E-1,-3.386765E-1,5.841714E-2,8.073419E-1,5.50445E-1],"categories":[],"categories_nodes":[],"categories_segments":[],"categories_sizes":[],"default_left":[0,0,0,0,0,0,0,0,0,0,0,0,0,0,0,0,0,0,0,0,0,0,0,0,0,0,0,0,0],"id":1,"left_children":[1,3,5,7,9,11,-1,13,15,17,19,-1,-1,21,-1,23,-1,-1,-1,-1,25,-1,27,-1,-1,-1,-1,-1,-1],"loss_changes":[7.1700485E1,8.2414665E1,2.0658157E1,4.2789406E1,4.2866924E1,2.1592178E0,0E0,1.9723007E1,1.4778254E1,1.7487045E1,9.320602E0,0E0,0E0,6.295532E0,0E0,1.1018162E1,0E0,0E0,0E0,0E0,2.33284E0,0E0,3.7493896E-1,0E0,0E0,0E0,0E0,0E0,0E0],"parents":[2147483647,0,0,1,1,2,2,3,3,4,4,5,5,7,7,8,8,9,9,10,10,13,13,15,15,20,20,22,22],"right_children":[2,4,6,8,10,12,-1,14,16,18,20,-1,-1,22,-1,24,-1,-1,-1,-1,26,-1,28,-1,-1,-1,-1,-1,-1],"split_conditions":[1.01872765E-1,-8.37924E-1,9.9047536E-1,2.6006502E-1,-6.6737145E-2,-9.9997246E-1,3.9009896E-1,9.4686145E-1,8.8526106E-1,-8.296747E-1,-8.064335E-1,5.0050605E-2,-3.3885247E-1,-4.623188E-1,-2.2667219E-1,7.4458694E-1,-3.1176457E-1,-2.399714E-1,6.661556E-1,3.6459655E-1,9.8211014E-1,-5.0087385E-3,9.420808E-1,6.025148E-1,-2.1670973E-1,-3.386765E-1,5.841714E-2,8.073419E-1,5.50445E-1],"split_indices":[10,18,0,20,12,40,0,30,12,9,30,0,0,30,0,43,0,0,0,0,23,0,0,0,0,0,0,0,0],"split_type":[0,0,0,0,0,0,0,0,0,0,0,0,0,0,0,0,0,0,0,0,0,0,0,0,0,0,0,0,0],"sum_hessian":[1.4342494E2,8.63207E1,5.7104233E1,4.3333885E1,4.298682E1,5.409541E1,3.0088243E0,3.1570818E1,1.1763069E1,8.110598E0,3.487622E1,1.0701139E0,5.3025295E1,2.9650951E1,1.9198653E0,4.681667E0,7.0814023E0,2.0407581E0,6.0698395E0,1.0590115E0,3.381721E1,1.1874526E0,2.84635E1,2.988942E0,1.6927251E0,3.271334E1,1.1038688E0,1.347621E1,1.4987289E1],"tree_param":{"num_deleted":"0","num_feature":"49","num_nodes":"29","size_leaf_vector":"1"}},{"base_weights":[-9.9020734E-2,3.5198638E-1,-9.2809856E-1,8.460527E-1,-9.1529304E-1,-1.064912E0,3.4540343E-1,1.1527963E0,-7.312995E-1,-9.901187E-1,1.0260705E-1,-3.2478905E-1,-6.0450047E-2,-8.347203E-2,1.4837198E0,-2.9662684E-1,2.3694761E-1,-3.1689614E-1,5.8998037E-2,3.5778826E-1,-2.940701E-1,-1.9927001E-1,1.6163989E0,5.051471E-1,-8.302955E-2],"categories":[],"categories_nodes":[],"categories_segments":[],"categories_sizes":[],"default_left":[0,0,0,0,0,0,0,0,0,0,0,0,0,0,0,0,0,0,0,0,0,0,0,0,0],"id":2,"left_children":[1,3,5,7,9,11,-1,13,15,17,-1,-1,-1,19,21,-1,-1,-1,-1,-1,-1,-1,23,-1,-1],"loss_changes":[4.6265556E1,5.1049732E1,1.36189575E1,2.9047527E1,2.5028458E0,4.1505814E-1,0E0,2.0248146E1,4.7372446E0,1.9337368E0,0E0,0E0,0E0,1.4138777E1,1.2147392E1,0E0,0E0,0E0,0E0,0E0,0E0,0E0,5.174568E0,0E0,0E0],"parents":[2147483647,0,0,1,1,2,2,3,3,4,4,5,5,7,7,8,8,9,9,13,13,14,14,22,22],"right_children":[2,4,6,8,10,12,-1,14,16,18,-1,-1,-1,20,22,-1,-1,-1,-1,-1,-1,-1,24,-1,-1],"split_conditions":[2.3232622E-1,-2.381798E-1,9.930941E-1,-6.3122374E-1,9.7040063E-1,9.676237E-1,3.4540343E-1,-3.2790488E-1,-6.9769824E-1,8.388876E-1,1.0260705E-1,-3.2478905E-1,-6.0450047E-2,-9.35503E-1,-9.999812E-1,-2.9662684E-1,2.3694761E-1,-3.1689614E-1,5.8998037E-2,3.5778826E-1,-2.940701E-1,-1.9927001E-1,8.916588E-1,5.051471E-1,-8.302955E-2],"split_indices":[10,29,0,39,0,1,0,34,43,37,0,0,0,36,27,0,0,0,0,0,0,0,30,0,0],"split_type":[0,0,0,0,0,0,0,0,0,0,0,0,0,0,0,0,0,0,0,0,0,0,0,0,0],"sum_hessian":[1.2185751E2,7.929665E1,4.256086E1,5.7292694E1,2.200396E1,4.039127E1,2.1695876E0,4.819039E1,9.102303E0,2.0968588E1,1.0353721E0,3.933027E1,1.0610027E0,1.0333633E1,3.785676E1,8.084031E0,1.0182716E0,1.9964823E1,1.0037647E0,4.1286297E0,6.2050033E0,1.969298E0,3.588746E1,3.4760063E1,1.1273963E0],"tree_param":{"num_deleted":"0","num_feature":"49","num_nodes":"25","size_leaf_vector":"1"}},{"base_weights":[-1.0266174E-1,2.2936648E-1,-1.0201368E0,5.9857124E-1,-8.622011E-1,-3.114435E-1,-8.331922E-2,-9.604892E-2,1.0690063E0,-9.4273055E-1,8.667597E-2,-2.8842065E-1,4.0507743E-1,1.5289006E-1,1.2894509E0,-3.056003E-1,5.6043487E-2,-2.1562265E-1,3.7810898E-1,9.4344676E-1,-2.7115485E-1,1.3885201E0,-9.6058235E-2,2.5087947E-1,-2.5843138E-1,3.220462E-1,7.820347E-2,-1.5140811E-2,4.3944925E-1],"categories":[],"categories_nodes":[],"categories_segments":[],"categories_sizes":[],"default_left":[0,0,0,0,0,0,0,0,0,0,0,0,0,0,0,0,0,0,0,0,0,0,0,0,0,0,0,0,0],"id":3,"left_children":[1,3,5,7,9,-1,-1,11,13,15,-1,-1,17,19,21,-1,-1,23,-1,25,-1,27,-1,-1,-1,-1,-1,-1,-1],"loss_changes":[3.1240252E1,3.0965124E1,7.573128E-2,1.8744463E1,2.080534E0,0E0,0E0,1.0776624E1,6.6884727E0,1.7741089E0,0E0,0E0,8.697947E0,7.3251214E0,4.805622E0,0E0,0E0,7.5485253E0,0E0,1.5710926E-1,0E0,2.9234428E0,0E0,0E0,0E0,0E0,0E0,0E0,0E0],"parents":[2147483647,0,0,1,1,2,2,3,3,4,4,7,7,8,8,9,9,12,12,13,13,14,14,17,17,19,19,21,21],"right_children":[2,4,6,8,10,-1,-1,12,14,16,-1,-1,18,20,22,-1,-1,24,-1,26,-1,28,-1,-1,-1,-1,-1,-1,-1],"split_conditions":[6.043429E-1,-2.381798E-1,9.8033035E-1,6.2910306E-1,9.7040063E-1,-3.114435E-1,-8.331922E-2,-5.914802E-1,-9.6948415E-1,9.993431E-1,8.667597E-2,-2.8842065E-1,3.9544064E-1,-9.999997E-1,9.969419E-1,-3.056003E-1,5.6043487E-2,9.9934876E-1,3.7810898E-1,9.7523135E-1,-2.7115485E-1,-9.705083E-1,-9.6058235E-2,2.5087947E-1,-2.5843138E-1,3.220462E-1,7.820347E-2,-1.5140811E-2,4.3944925E-1],"split_indices":[10,29,0,0,0,0,0,5,17,44,0,0,37,2,23,0,0,31,0,0,0,15,0,0,0,0,0,0,0],"split_type":[0,0,0,0,0,0,0,0,0,0,0,0,0,0,0,0,0,0,0,0,0,0,0,0,0,0,0,0,0],"sum_hessian":[1.00784164E2,7.455368E1,2.6230486E1,5.6048008E1,1.8505676E1,2.5220375E1,1.0101107E0,2.2952847E1,3.309516E1,1.7464909E1,1.0407673E0,8.080619E0,1.4872228E1,6.747535E0,2.6347626E1,1.6456713E1,1.0081948E0,9.0513525E0,5.820875E0,3.9212332E0,2.8263018E0,2.494943E1,1.398195E0,3.3310022E0,5.72035E0,2.813177E0,1.1080561E0,1.2735075E0,2.3675922E1],"tree_param":{"num_deleted":"0","num_feature":"49","num_nodes":"29","size_leaf_vector":"1"}},{"base_weights":[-1.0008811E-1,2.675776E-1,-8.181688E-1,8.0792576E-1,-4.3944806E-1,-9.78252E-1,2.1702856E-1,1.1623845E0,-1.0891812E-1,5.06833E-1,-3.0395746E-1,-3.0573452E-1,4.9285223E-3,-1.10922895E-1,1.2497354E0,5.4222405E-1,-2.622225E-1,-2.5338915E-1,3.4747335E-1,-3.636902E-2,3.9628452E-1,9.257534E-1,-1.8827537E-1,1.952135E-2,3.4417596E-1],"categories":[],"categories_nodes":[],"categories_segments":[],"categories_sizes":[],"default_left":[0,0,0,0,0,0,0,0,0,0,0,0,0,0,0,0,0,0,0,0,0,0,0,0,0],"id":4,"left_children":[1,3,5,7,9,11,-1,13,15,17,-1,-1,-1,-1,19,21,-1,-1,-1,-1,-1,23,-1,-1,-1],"loss_changes":[2.2285591E1,2.176148E1,7.7532806E0,1.0562416E1,1.4043201E1,1.0852737E0,0E0,3.5729198E0,5.390237E0,9.845984E0,0E0,0E0,0E0,0E0,2.3293762E0,3.2496538E0,0E0,0E0,0E0,0E0,0E0,8.563466E-1,0E0,0E0,0E0],"parents":[2147483647,0,0,1,1,2,2,3,3,4,4,5,5,7,7,8,8,9,9,14,14,15,15,21,21],"right_children":[2,4,6,8,10,12,-1,14,16,18,-1,-1,-1,-1,20,22,-1,-1,-1,-1,-1,24,-1,-1,-1],"split_conditions":[1.01872765E-1,-8.1657904E-1,9.9047536E-1,1.7045236E-1,2.4593179E-1,7.192977E-1,2.1702856E-1,-7.8768027E-1,9.017132E-1,-7.001357E-1,-3.0395746E-1,-3.0573452E-1,4.9285223E-3,-1.10922895E-1,-9.9370116E-1,9.9949646E-1,-2.622225E-1,-2.5338915E-1,3.4747335E-1,-3.636902E-2,3.9628452E-1,1.8121274E-1,-1.8827537E-1,1.952135E-2,3.4417596E-1],"split_indices":[10,18,0,20,12,45,0,5,12,9,0,0,0,0,17,40,0,0,0,0,0,9,0,0,0],"split_type":[0,0,0,0,0,0,0,0,0,0,0,0,0,0,0,0,0,0,0,0,0,0,0,0,0],"sum_hessian":[8.258155E1,5.5031933E1,2.7549622E1,3.1111834E1,2.39201E1,2.528898E1,2.2606392E0,2.2244236E1,8.867599E0,9.072821E0,1.4847279E1,2.4267471E1,1.0215094E0,1.0254302E0,2.1218805E1,4.9481335E0,3.9194648E0,2.854357E0,6.218464E0,1.0130764E0,2.0205729E1,3.883523E0,1.0646102E0,1.0596833E0,2.8238397E0],"tree_param":{"num_deleted":"0","num_feature":"49","num_nodes":"25","size_leaf_vector":"1"}},{"base_weights":[-9.878443E-2,1.7414072E-1,-2.858783E-1,4.640272E-1,-7.677903E-1,3.196456E-4,9.046518E-1,-8.8298666E-1,6.509582E-2,-2.6458237E-1,3.566633E-1,-1.246255E-1,1.0342486E0,-2.8411174E-1,-3.4508288E-2,6.8712276E-1,-5.486879E-1,-1.66286E-2,1.0988994E0,3.372416E-1,-4.238482E-2,-1.5716987E-2,-2.2514908E-1,3.4411603E-1,4.448865E-2],"categories":[],"categories_nodes":[],"categories_segments":[],"categories_sizes":[],"default_left":[0,0,0,0,0,0,0,0,0,0,0,0,0,0,0,0,0,0,0,0,0,0,0,0,0],"id":5,"left_children":[1,3,-1,5,7,9,11,13,-1,-1,15,-1,17,-1,-1,19,21,-1,23,-1,-1,-1,-1,-1,-1],"loss_changes":[1.5930667E1,1.4581067E1,0E0,8.266315E0,1.6251049E0,6.82662E0,3.978714E0,4.5725155E-1,0E0,0E0,5.0042486E0,0E0,1.4119339E0,0E0,0E0,4.421516E0,4.305942E-1,0E0,6.6077995E-1,0E0,0E0,0E0,0E0,0E0,0E0],"parents":[2147483647,0,0,1,1,3,3,4,4,5,5,6,6,7,7,10,10,12,12,15,15,16,16,18,18],"right_children":[2,4,-1,6,8,10,12,14,-1,-1,16,-1,18,-1,-1,20,22,-1,24,-1,-1,-1,-1,-1,-1],"split_conditions":[6.043429E-1,-2.381798E-1,-2.858783E-1,8.0723304E-1,9.968749E-1,-6.5202695E-1,-9.926159E-1,9.3218595E-1,6.509582E-2,-2.6458237E-1,8.790668E-1,-1.246255E-1,-9.948271E-1,-2.8411174E-1,-3.4508288E-2,-4.1546136E-1,-6.6903955E-1,-1.66286E-2,8.5136527E-1,3.372416E-1,-4.238482E-2,-1.5716987E-2,-2.2514908E-1,3.4411603E-1,4.448865E-2],"split_indices":[10,29,0,0,33,5,17,0,0,0,36,0,18,0,0,10,39,0,30,0,0,0,0,0,0],"split_type":[0,0,0,0,0,0,0,0,0,0,0,0,0,0,0,0,0,0,0,0,0,0,0,0,0],"sum_hessian":[6.6625755E1,5.1095333E1,1.5530417E1,3.945892E1,1.1636417E1,1.9713459E1,1.9745459E1,1.0510314E1,1.1261034E0,5.24717E0,1.4466289E1,1.5680338E0,1.8177425E1,9.485939E0,1.0243746E0,1.0774547E1,3.6917417E0,1.0260581E0,1.7151367E1,6.819832E0,3.9547148E0,1.4313364E0,2.2604053E0,1.612774E1,1.0236269E0],"tree_param":{"num_deleted":"0","num_feature":"49","num_nodes":"25","size_leaf_vector":"1"}},{"base_weights":[-9.84322E-2,1.5790513E-1,-8.640673E-1,5.744358E-1,-4.4544777E-1,-2.8712082E-1,5.1753744E-2,9.118506E-1,-2.8812855E-1,3.5198173E-1,-2.7945533E-1,1.000759E0,-8.66421E-2,3.7871966E-1,-2.5291577E-1,-2.2521478E-1,2.7260247E-1,-3.8653437E-2,1.0768963E0,-1.0766466E-1,2.552164E-1,3.3859536E-1,9.835253E-2],"categories":[],"categories_nodes":[],"categories_segments":[],"categories_sizes":[],"default_left":[0,0,0,0,0,0,0,0,0,0,0,0,0,0,0,0,0,0,0,0,0,0,0],"id":6,"left_children":[1,3,5,7,9,-1,-1,11,13,15,-1,17,-1,19,-1,-1,-1,-1,21,-1,-1,-1,-1],"loss_changes":[1.1181166E1,1.1063885E1,1.5407858E0,7.7944813E0,7.3541136E0,0E0,0E0,2.3003845E0,3.2931976E0,5.341799E0,0E0,1.6667995E0,0E0,1.81634E0,0E0,0E0,0E0,0E0,2.794037E-1,0E0,0E0,0E0,0E0],"parents":[2147483647,0,0,1,1,2,2,3,3,4,4,7,7,8,8,9,9,11,11,13,13,18,18],"right_children":[2,4,6,8,10,-1,-1,12,14,16,-1,18,-1,20,-1,-1,-1,-1,22,-1,-1,-1,-1],"split_conditions":[5.1061136E-1,-8.37924E-1,9.889844E-1,2.3415914E-1,2.4593179E-1,-2.8712082E-1,5.1753744E-2,9.969419E-1,9.017132E-1,-7.001357E-1,-2.7945533E-1,-9.9370116E-1,-8.66421E-2,1.8121274E-1,-2.5291577E-1,-2.2521478E-1,2.7260247E-1,-3.8653437E-2,1.8779314E-1,-1.0766466E-1,2.552164E-1,3.3859536E-1,9.835253E-2],"split_indices":[10,18,0,20,12,0,0,23,12,9,0,17,0,9,0,0,0,0,10,0,0,0,0],"split_type":[0,0,0,0,0,0,0,0,0,0,0,0,0,0,0,0,0,0,0,0,0,0,0],"sum_hessian":[5.5275738E1,4.2005806E1,1.3269933E1,2.4878569E1,1.7127237E1,1.2247766E1,1.0221668E0,1.7842043E1,7.0365257E0,6.5906725E0,1.0536566E1,1.6766947E1,1.0750972E0,3.3401818E0,3.696344E0,2.0941176E0,4.496555E0,1.0150468E0,1.5751899E1,1.3968964E0,1.9432853E0,1.4259868E1,1.4920316E0],"tree_param":{"num_deleted":"0","num_feature":"49","num_nodes":"23","size_leaf_vector":"1"}},{"base_weights":[-9.631768E-2,1.2342277E-1,-8.7284666E-1,3.569792E-1,-6.800384E-1,-2.747988E-1,-7.1952514E-2,-4.43291E-2,7.421156E-1,-2.527624E-1,2.8226726E-2,2.2383203E-1,-2.5081554E-1,8.706326E-1,-2.6429407E-2,-2.010394E-1,4.491089E-1,9.701672E-1,-2.9394276E-2,2.2437343E-1,-1.5321927E-1,5.2174184E-2,3.0849904E-1],"categories":[],"categories_nodes":[],"categories_segments":[],"categories_sizes":[],"default_left":[0,0,0,0,0,0,0,0,0,0,0,0,0,0,0,0,0,0,0,0,0,0,0],"id":7,"left_children":[1,3,5,7,9,-1,-1,11,13,-1,-1,15,-1,17,-1,-1,19,21,-1,-1,-1,-1,-1],"loss_changes":[7.9734726E0,7.1494894E0,6.1395645E-2,4.5417004E0,1.1653643E0,0E0,0E0,3.4205573E0,1.6710024E0,0E0,0E0,2.750924E0,0E0,1.351409E0,0E0,0E0,3.3404791E0,3.726778E-1,0E0,0E0,0E0,0E0,0E0],"parents":[2147483647,0,0,1,1,2,2,3,3,4,4,7,7,8,8,11,11,13,13,16,16,17,17],"right_children":[2,4,6,8,10,-1,-1,12,14,-1,-1,16,-1,18,-1,-1,20,22,-1,-1,-1,-1,-1],"split_conditions":[6.043429E-1,-2.381798E-1,9.9267626E-1,7.3032176E-1,9.94003E-1,-2.747988E-1,-7.1952514E-2,-1.7219052E-1,-5.528008E-1,-2.527624E-1,2.8226726E-2,-8.019718E-1,-2.5081554E-1,9.9391496E-1,-2.6429407E-2,-2.010394E-1,8.790668E-1,1.21909834E-1,-2.9394276E-2,2.2437343E-1,-1.5321927E-1,5.2174184E-2,3.0849904E-1],"split_indices":[10,29,23,34,33,0,0,22,26,0,0,5,0,23,0,0,36,0,0,0,0,0,0],"split_type":[0,0,0,0,0,0,0,0,0,0,0,0,0,0,0,0,0,0,0,0,0,0,0],"sum_hessian":[4.509694E1,3.5805763E1,9.291177E0,2.8172157E1,7.633606E0,8.279723E0,1.0114543E0,1.4229775E1,1.3942382E1,6.236153E0,1.3974527E0,1.1165305E1,3.0644698E0,1.203126E1,1.9111221E0,1.8498538E0,9.315452E0,1.090868E1,1.1225792E0,7.272336E0,2.0431156E0,1.0142097E0,9.89447E0],"tree_param":{"num_deleted":"0","num_feature":"49","num_nodes":"23","size_leaf_vector":"1"}},{"base_weights":[-1.0066267E-1,1.5445913E-1,-6.5301865E-1,5.302839E-1,-4.040726E-1,-8.4358513E-1,1.9798024E-1,8.551033E-1,-1.9970348E-1,4.8807633E-1,-7.904089E-1,-3.9596617E-2,-2.7902597E-1,9.4054455E-1,-7.84538E-3,1.8468261E-1,-5.4872686E-1,2.3436539E-1,-6.5413706E-2,9.600637E-3,-2.7202877E-1,5.4993206E-3,3.098634E-1,-2.3070084E-1,-4.671324E-3],"categories":[],"categories_nodes":[],"categories_segments":[],"categories_sizes":[],"default_left":[0,0,0,0,0,0,0,0,0,0,0,0,0,0,0,0,0,0,0,0,0,0,0,0,0],"id":8,"left_children":[1,3,5,7,9,11,-1,13,15,17,19,-1,-1,21,-1,-1,23,-1,-1,-1,-1,-1,-1,-1,-1],"loss_changes":[5.641123E0,6.029306E0,3.712535E0,4.1998625E0,4.4219522E0,5.822325E-1,0E0,9.242964E-1,2.057499E0,1.0307895E0,8.4749603E-1,0E0,0E0,9.1090584E-1,0E0,0E0,5.471015E-1,0E0,0E0,0E0,0E0,0E0,0E0,0E0,0E0],"parents":[2147483647,0,0,1,1,2,2,3,3,4,4,5,5,7,7,8,8,9,9,10,10,13,13,16,16],"right_children":[2,4,6,8,10,12,-1,14,16,18,20,-1,-1,22,-1,-1,24,-1,-1,-1,-1,-1,-1,-1,-1],"split_conditions":[6.9374606E-2,-8.022469E-1,9.930941E-1,1.7045236E-1,-6.6737145E-2,-9.8505336E-1,1.9798024E-1,9.334439E-1,-9.5101273E-1,-9.937579E-1,-2.914612E-1,-3.9596617E-2,-2.7902597E-1,-1.5052184E-1,-7.84538E-3,1.8468261E-1,1.8121274E-1,2.3436539E-1,-6.5413706E-2,9.600637E-3,-2.7202877E-1,5.4993206E-3,3.098634E-1,-2.3070084E-1,-4.671324E-3],"split_indices":[10,18,0,20,12,36,0,30,13,27,36,0,0,30,0,0,9,0,0,0,0,0,0,0,0],"split_type":[0,0,0,0,0,0,0,0,0,0,0,0,0,0,0,0,0,0,0,0,0,0,0,0,0],"sum_hessian":[3.831546E1,2.6702494E1,1.1612967E1,1.5992224E1,1.071027E1,1.0453238E1,1.159729E0,1.094893E1,5.0432935E0,3.156881E0,7.553389E0,1.4067326E0,9.046505E0,9.919878E0,1.0290519E0,1.2828277E0,3.7604656E0,2.1556349E0,1.0012463E0,1.0260459E0,6.5273433E0,1.011881E0,8.907997E0,2.3480124E0,1.4124532E0],"tree_param":{"num_deleted":"0","num_feature":"49","num_nodes":"25","size_leaf_vector":"1"}},{"base_weights":[-8.896131E-2,-3.8376775E-1,3.568633E-1,9.535003E-2,-7.2485304E-1,7.5025785E-1,-2.2146437E-1,5.4254127E-1,-4.0964457E-1,1.1058718E-1,-8.6043143E-1,2.790792E-1,-1.9835189E-2,1.8941383E-1,-5.6277597E-1,2.3455608E-1,-5.553113E-2,1.3326536E-1,-2.3119776E-1,-3.503017E-2,-2.773175E-1,-7.6329284E-3,-2.2328761E-1],"categories":[],"categories_nodes":[],"categories_segments":[],"categories_sizes":[],"default_left":[0,0,0,0,0,0,0,0,0,0,0,0,0,0,0,0,0,0,0,0,0,0,0],"id":9,"left_children":[1,3,5,7,9,11,13,15,17,-1,19,-1,-1,-1,21,-1,-1,-1,-1,-1,-1,-1,-1],"loss_changes":[4.438926E0,3.3676956E0,3.24822E0,2.3174112E0,2.0824165E0,1.2798071E0,2.176486E0,1.0764543E0,1.8611226E0,0E0,4.1020775E-1,0E0,0E0,0E0,4.6843946E-1,0E0,0E0,0E0,0E0,0E0,0E0,0E0,0E0],"parents":[2147483647,0,0,1,1,2,2,3,3,4,4,5,5,6,6,7,7,8,8,10,10,14,14],"right_children":[2,4,6,8,10,12,14,16,18,-1,20,-1,-1,-1,22,-1,-1,-1,-1,-1,-1,-1,-1],"split_conditions":[8.496463E-1,-9.999998E-1,9.173807E-1,-8.5259306E-1,2.6865953E-1,9.5910513E-1,-9.999999E-1,8.8235795E-1,-9.863784E-1,1.1058718E-1,-9.8805636E-1,2.790792E-1,-1.9835189E-2,1.8941383E-1,-9.443591E-1,2.3455608E-1,-5.553113E-2,1.3326536E-1,-2.3119776E-1,-3.503017E-2,-2.773175E-1,-7.6329284E-3,-2.2328761E-1],"split_indices":[0,3,12,18,12,35,2,23,43,0,37,0,0,0,38,0,0,0,0,0,0,0,0],"split_type":[0,0,0,0,0,0,0,0,0,0,0,0,0,0,0,0,0,0,0,0,0,0,0],"sum_hessian":[3.1731564E1,1.9184679E1,1.2546885E1,8.277642E0,1.0907038E1,7.290438E0,5.256447E0,4.3506403E0,3.927002E0,1.0135531E0,9.893484E0,5.859046E0,1.4313923E0,1.2594831E0,3.9969635E0,3.217839E0,1.132801E0,1.0984664E0,2.8285353E0,1.0072958E0,8.8861885E0,1.297174E0,2.6997895E0],"tree_param":{"num_deleted":"0","num_feature":"49","num_nodes":"23","size_leaf_vector":"1"}},{"base_weights":[-7.604062E-2,8.9024946E-2,-2.4505764E-1,3.5320017E-1,-4.757978E-1,6.4226663E-1,-1.6724865E-1,9.56813E-2,-2.4834602E-1,-4.8024107E-2,7.4013233E-1,4.1079566E-1,-5.8052516E-1,1.5341601E-1,-1.6770257E-1,9.163067E-3,8.275764E-1,-2.2250015E-2,1.9323473E-1,-2.1828426E-1,-1.3660499E-2,5.0920257E-3,2.8060874E-1],"categories":[],"categories_nodes":[],"categories_segments":[],"categories_sizes":[],"default_left":[0,0,0,0,0,0,0,0,0,0,0,0,0,0,0,0,0,0,0,0,0,0,0],"id":10,"left_children":[1,3,-1,5,7,9,11,13,-1,-1,15,17,19,-1,-1,-1,21,-1,-1,-1,-1,-1,-1],"loss_changes":[3.4697847E0,3.6924396E0,0E0,2.6148705E0,1.6791357E0,9.761038E-1,1.8497905E0,1.3548876E0,0E0,0E0,5.897865E-1,4.322083E-1,3.0897033E-1,0E0,0E0,0E0,7.518277E-1,0E0,0E0,0E0,0E0,0E0,0E0],"parents":[2147483647,0,0,1,1,3,3,4,4,5,5,6,6,7,7,10,10,11,11,12,12,16,16],"right_children":[2,4,-1,6,8,10,12,14,-1,-1,16,18,20,-1,-1,-1,22,-1,-1,-1,-1,-1,-1],"split_conditions":[6.69623E-1,1.7045236E-1,-2.4505764E-1,-8.022469E-1,9.017132E-1,-9.4766915E-1,-6.6737145E-2,1.1437114E-4,-2.4834602E-1,-4.8024107E-2,-9.934516E-1,-5.2217084E-1,4.5213133E-1,1.5341601E-1,-1.6770257E-1,9.163067E-3,1.4176527E-1,-2.2250015E-2,1.9323473E-1,-2.1828426E-1,-1.3660499E-2,5.0920257E-3,2.8060874E-1],"split_indices":[10,20,0,18,12,15,12,41,0,0,14,9,9,0,0,0,0,0,0,0,0,0,0],"split_type":[0,0,0,0,0,0,0,0,0,0,0,0,0,0,0,0,0,0,0,0,0,0,0],"sum_hessian":[2.6780216E1,2.261997E1,4.1602454E0,1.5666983E1,6.952988E0,9.922043E0,5.7449403E0,2.9279299E0,4.0250587E0,1.0095536E0,8.912489E0,2.3975384E0,3.3474019E0,1.9246993E0,1.0032305E0,1.1258409E0,7.786648E0,1.0003686E0,1.3971698E0,2.3431342E0,1.0042676E0,1.0497204E0,6.7369275E0],"tree_param":{"num_deleted":"0","num_feature":"49","num_nodes":"23","size_leaf_vector":"1"}},{"base_weights":[-7.817339E-2,2.363803E-1,-4.065955E-1,5.482459E-1,-4.465427E-1,5.6043667E-1,-7.018093E-1,7.435258E-1,-1.13313906E-1,-5.2448837E-3,-1.8538441E-1,1.9575296E-1,5.242506E-2,-7.8219265E-1,-2.9112732E-3,2.7939034E-1,-7.7702895E-2,-4.8348352E-2,-2.5408027E-1],"categories":[],"categories_nodes":[],"categories_segments":[],"categories_sizes":[],"default_left":[0,0,0,0,0,0,0,0,0,0,0,0,0,0,0,0,0,0,0],"id":11,"left_children":[1,3,5,7,9,11,13,15,-1,-1,-1,-1,-1,17,-1,-1,-1,-1,-1],"loss_changes":[2.5595078E0,2.9735813E0,3.8285837E0,1.9524467E0,3.2512408E-1,5.658865E-3,5.2999353E-1,1.7418308E0,0E0,0E0,0E0,0E0,0E0,2.1108627E-1,0E0,0E0,0E0,0E0,0E0],"parents":[2147483647,0,0,1,1,2,2,3,3,4,4,5,5,6,6,7,7,13,13],"right_children":[2,4,6,8,10,12,14,16,-1,-1,-1,-1,-1,18,-1,-1,-1,-1,-1],"split_conditions":[8.900469E-1,-4.0651885E-1,-9.999999E-1,-6.6903955E-1,-8.4335196E-1,1.6588792E-1,9.789381E-1,-9.999989E-1,-1.13313906E-1,-5.2448837E-3,-1.8538441E-1,1.9575296E-1,5.242506E-2,-9.9998873E-1,-2.9112732E-3,2.7939034E-1,-7.7702895E-2,-4.8348352E-2,-2.5408027E-1],"split_indices":[12,26,2,39,22,43,44,11,0,0,0,0,0,40,0,0,0,0,0],"split_type":[0,0,0,0,0,0,0,0,0,0,0,0,0,0,0,0,0,0,0],"sum_hessian":[2.2845541E1,1.18123E1,1.1033241E1,8.244534E0,3.5677655E0,2.370332E0,8.6629095E0,6.971336E0,1.2731979E0,1.3330034E0,2.2347622E0,1.3550361E0,1.0152959E0,7.644847E0,1.0180625E0,5.931431E0,1.0399048E0,1.0511372E0,6.5937095E0],"tree_param":{"num_deleted":"0","num_feature":"49","num_nodes":"19","size_leaf_vector":"1"}},{"base_weights":[-7.178275E-2,-2.8910467E-1,3.5651845E-1,4.367296E-2,-6.3197476E-1,5.6670135E-1,-5.7741296E-2,5.4373485E-1,-3.3545408E-1,-3.0261997E-2,-2.3591177E-1,2.3049374E-1,-3.3951614E-2,2.1113862E-1,1.643632E-2,-2.1337703E-1,1.7230488E-1,1.6656817E-1,-9.078484E-2],"categories":[],"categories_nodes":[],"categories_segments":[],"categories_sizes":[],"default_left":[0,0,0,0,0,0,0,0,0,0,0,0,0,0,0,0,0,0,0],"id":12,"left_children":[1,3,5,7,9,11,-1,13,15,-1,-1,-1,-1,-1,-1,-1,17,-1,-1],"loss_changes":[2.0234601E0,1.6522808E0,9.6209335E-1,1.7296721E0,5.010674E-1,8.544661E-1,0E0,2.6672876E-1,1.1263274E0,0E0,0E0,0E0,0E0,0E0,0E0,0E0,7.213011E-1,0E0,0E0],"parents":[2147483647,0,0,1,1,2,2,3,3,4,4,5,5,7,7,8,8,16,16],"right_children":[2,4,6,8,10,12,-1,14,16,-1,-1,-1,-1,-1,-1,-1,18,-1,-1],"split_conditions":[9.024801E-1,-4.1185585E-1,9.5039004E-1,-8.022469E-1,-8.8094395E-1,9.651512E-1,-5.7741296E-2,2.3415914E-1,-9.596268E-1,-3.0261997E-2,-2.3591177E-1,2.3049374E-1,-3.3951614E-2,2.1113862E-1,1.643632E-2,-2.1337703E-1,-8.7132454E-1,1.6656817E-1,-9.078484E-2],"split_indices":[0,10,35,18,35,12,0,20,17,0,0,0,0,0,0,0,13,0,0],"split_type":[0,0,0,0,0,0,0,0,0,0,0,0,0,0,0,0,0,0,0],"sum_hessian":[1.9631765E1,1.3239156E1,6.392609E0,7.161288E0,6.077868E0,4.599434E0,1.7931751E0,2.9008896E0,4.2603984E0,1.7413298E0,4.3365383E0,3.447132E0,1.1523019E0,1.8544209E0,1.0464686E0,2.2180202E0,2.0423782E0,1.0370916E0,1.0052866E0],"tree_param":{"num_deleted":"0","num_feature":"49","num_nodes":"19","size_leaf_vector":"1"}},{"base_weights":[-6.0870122E-2,7.1747474E-2,-2.0923007E-1,2.974375E-1,-4.1718343E-1,5.440644E-1,-1.5329817E-1,4.0663723E-2,-2.1541828E-1,2.3417763E-1,2.3724075E-1,1.0091059E-1,-1.5247458E-1,-9.7779915E-2,1.1048197E-1,5.365155E-1,-9.224261E-2,1.9528982E-1,3.8631227E-2],"categories":[],"categories_nodes":[],"categories_segments":[],"categories_sizes":[],"default_left":[0,0,0,0,0,0,0,0,0,0,0,0,0,0,0,0,0,0,0],"id":13,"left_children":[1,3,-1,5,7,9,11,13,-1,-1,15,-1,-1,-1,-1,17,-1,-1,-1],"loss_changes":[1.5952854E0,1.8957222E0,0E0,1.3693929E0,7.850276E-1,3.7340117E-1,1.0176495E0,4.9501082E-1,0E0,0E0,9.4537854E-1,0E0,0E0,0E0,0E0,7.736188E-2,0E0,0E0,0E0],"parents":[2147483647,0,0,1,1,3,3,4,4,5,5,6,6,7,7,10,10,15,15],"right_children":[2,4,-1,6,8,10,12,14,-1,-1,16,-1,-1,-1,-1,18,-1,-1,-1],"split_conditions":[6.69623E-1,1.7045236E-1,-2.0923007E-1,-8.022469E-1,9.017132E-1,-3.800115E-1,-6.6737145E-2,2.1288645E-1,-2.1541828E-1,2.3417763E-1,9.993578E-1,1.0091059E-1,-1.5247458E-1,-9.7779915E-2,1.1048197E-1,7.102933E-1,-9.224261E-2,1.9528982E-1,3.8631227E-2],"split_indices":[10,20,0,18,12,10,12,9,0,0,47,0,0,0,0,17,0,0,0],"split_type":[0,0,0,0,0,0,0,0,0,0,0,0,0,0,0,0,0,0,0],"sum_hessian":[1.7304373E1,1.5055164E1,2.2492085E0,1.056844E1,4.486724E0,6.69701E0,3.8714302E0,2.122203E0,2.3645205E0,2.9097793E0,3.7872307E0,1.6489688E0,2.2224615E0,1.0039241E0,1.118279E0,2.454015E0,1.3332157E0,1.4503968E0,1.0036182E0],"tree_param":{"num_deleted":"0","num_feature":"49","num_nodes":"19","size_leaf_vector":"1"}},{"base_weights":[-5.5068355E-2,1.15637586E-1,-4.9661508E-1,-3.8433138E-1,3.386553E-1,2.6402788E-2,-2.0818837E-1,3.1829447E-2,-1.9043091E-1,-2.99862E-2,5.595589E-1,2.8874794E-1,-1.4891663E-1,1.9196515E-1,2.820928E-2,-3.9985597E-2,1.6783541E-1],"categories":[],"categories_nodes":[],"categories_segments":[],"categories_sizes":[],"default_left":[0,0,0,0,0,0,0,0,0,0,0,0,0,0,0,0,0],"id":14,"left_children":[1,3,5,7,9,-1,-1,-1,-1,11,13,15,-1,-1,-1,-1,-1],"loss_changes":[1.2815188E0,1.5265191E0,6.052766E-1,5.9934235E-1,7.6530695E-1,0E0,0E0,0E0,0E0,7.964357E-1,1.566565E-1,4.4495633E-1,0E0,0E0,0E0,0E0,0E0],"parents":[2147483647,0,0,1,1,2,2,3,3,4,4,9,9,10,10,11,11],"right_children":[2,4,6,8,10,-1,-1,-1,-1,12,14,16,-1,-1,-1,-1,-1],"split_conditions":[-3.0978912E-1,-6.921733E-1,-5.780204E-1,-6.594241E-1,7.2238E-1,2.6402788E-2,-2.0818837E-1,3.1829447E-2,-1.9043091E-1,-5.016144E-1,-6.4763084E-2,9.9992096E-1,-1.4891663E-1,1.9196515E-1,2.820928E-2,-3.9985597E-2,1.6783541E-1],"split_indices":[26,5,29,24,34,0,0,0,0,22,10,31,0,0,0,0,0],"split_type":[0,0,0,0,0,0,0,0,0,0,0,0,0,0,0,0,0],"sum_hessian":[1.5240094E1,1.1523221E1,3.7168732E0,3.3314147E0,8.191806E0,1.0778507E0,2.6390226E0,1.3209562E0,2.0104585E0,3.3933234E0,4.7984824E0,2.2420418E0,1.1512816E0,3.7729435E0,1.025539E0,1.0745013E0,1.1675406E0],"tree_param":{"num_deleted":"0","num_feature":"49","num_nodes":"17","size_leaf_vector":"1"}},{"base_weights":[-5.4106627E-2,6.368028E-2,-1.8698983E-1,2.638826E-1,-3.8153023E-1,-2.5922325E-1,4.3684855E-1,5.160221E-3,-1.9344907E-1,4.1549552E-2,-1.5703273E-1,6.4072675E-1,-2.8150093E-2,2.1824954E-1,4.519274E-2,8.2684934E-2,-9.578617E-2],"categories":[],"categories_nodes":[],"categories_segments":[],"categories_sizes":[],"default_left":[0,0,0,0,0,0,0,0,0,0,0,0,0,0,0,0,0],"id":15,"left_children":[1,3,-1,5,7,9,11,-1,-1,-1,-1,13,15,-1,-1,-1,-1],"loss_changes":[1.0318478E0,1.2744318E0,0E0,9.886295E-1,4.8286474E-1,3.9108598E-1,7.426424E-1,0E0,0E0,0E0,0E0,1.1815882E-1,3.787518E-1,0E0,0E0,0E0,0E0],"parents":[2147483647,0,0,1,1,3,3,4,4,5,5,6,6,11,11,12,12],"right_children":[2,4,-1,6,8,10,12,-1,-1,-1,-1,14,16,-1,-1,-1,-1],"split_conditions":[6.69623E-1,1.7045236E-1,-1.8698983E-1,7.995333E-2,9.017132E-1,9.9993485E-1,-7.1762705E-1,5.160221E-3,-1.9344907E-1,4.1549552E-2,-1.5703273E-1,-1.6301993E-1,-5.062671E-1,2.1824954E-1,4.519274E-2,8.2684934E-2,-9.578617E-2],"split_indices":[10,20,0,34,12,47,13,0,0,0,0,37,45,0,0,0,0],"split_type":[0,0,0,0,0,0,0,0,0,0,0,0,0,0,0,0,0],"sum_hessian":[1.3798699E1,1.2168675E1,1.6300244E0,8.674991E0,3.493685E0,2.0317166E0,6.643274E0,1.7612263E0,1.7324586E0,1.0009036E0,1.030813E0,4.3556376E0,2.287636E0,3.288889E0,1.0667489E0,1.1456249E0,1.1420112E0],"tree_param":{"num_deleted":"0","num_feature":"49","num_nodes":"17","size_leaf_vector":"1"}},{"base_weights":[-6.0383644E-2,-2.628813E-1,2.4186552E-1,-4.1587576E-1,8.5643105E-2,5.0247085E-1,-1.6068827E-1,-5.325751E-1,4.103254E-2,1.9794235E-1,9.023497E-3,4.956361E-2,-1.2434373E-1,-6.745059E-1,2.6352843E-2,-2.3046699E-1,-4.6401333E-2],"categories":[],"categories_nodes":[],"categories_segments":[],"categories_sizes":[],"default_left":[0,0,0,0,0,0,0,0,0,0,0,0,0,0,0,0,0],"id":16,"left_children":[1,3,5,7,-1,9,11,13,-1,-1,-1,-1,-1,15,-1,-1,-1],"loss_changes":[8.902027E-1,8.37429E-1,7.0380616E-1,5.310689E-1,0E0,2.6612097E-1,3.241883E-1,5.938022E-1,0E0,0E0,0E0,0E0,0E0,1.2747431E-1,0E0,0E0,0E0],"parents":[2147483647,0,0,1,1,2,2,3,3,5,5,6,6,7,7,13,13],"right_children":[2,4,6,8,-1,10,12,14,-1,-1,-1,-1,-1,16,-1,-1,-1],"split_conditions":[8.496463E-1,4.3306535E-1,9.38319E-1,2.929508E-1,8.5643105E-2,9.156691E-1,-6.6660434E-1,7.6576245E-1,4.103254E-2,1.9794235E-1,9.023497E-3,4.956361E-2,-1.2434373E-1,5.17921E-1,2.6352843E-2,-2.3046699E-1,-4.6401333E-2],"split_indices":[0,37,12,41,0,35,29,16,0,0,0,0,0,15,0,0,0],"split_type":[0,0,0,0,0,0,0,0,0,0,0,0,0,0,0,0,0],"sum_hessian":[1.2505828E1,7.5666523E0,4.9391756E0,6.1049438E0,1.4617085E0,2.8475318E0,2.0916436E0,5.0705576E0,1.0343864E0,1.838468E0,1.0090638E0,1.0685323E0,1.0231111E0,4.0555935E0,1.0149641E0,3.0312827E0,1.0243108E0],"tree_param":{"num_deleted":"0","num_feature":"49","num_nodes":"17","size_leaf_vector":"1"}},{"base_weights":[-4.8890166E-2,1.5979947E-1,-3.0520132E-1,3.670059E-1,-2.1479526E-1,-1.8047188E-1,3.2869473E-2,1.9060436E-1,-7.2505986E-3,-1.5640429E-1,4.694246E-2,-8.680869E-2,7.914161E-2,8.709434E-2,-9.615766E-2],"categories":[],"categories_nodes":[],"categories_segments":[],"categories_sizes":[],"default_left":[0,0,0,0,0,0,0,0,0,0,0,0,0,0,0],"id":17,"left_children":[1,3,5,7,9,-1,11,-1,13,-1,-1,-1,-1,-1,-1],"loss_changes":[7.1366954E-1,6.615969E-1,6.1316276E-1,5.2716696E-1,4.577079E-1,0E0,3.5276797E-1,0E0,3.877723E-1,0E0,0E0,0E0,0E0,0E0,0E0],"parents":[2147483647,0,0,1,1,2,2,3,3,4,4,6,6,8,8],"right_children":[2,4,6,8,10,-1,12,-1,14,-1,-1,-1,-1,-1,-1],"split_conditions":[-9.999994E-1,-8.022469E-1,2.2643249E-1,-3.800115E-1,1.2827712E-1,-1.8047188E-1,8.0653983E-1,1.9060436E-1,-2.7932659E-2,-1.5640429E-1,4.694246E-2,-8.680869E-2,7.914161E-2,8.709434E-2,-9.615766E-2],"split_indices":[3,18,9,10,18,0,1,0,1,0,0,0,0,0,0],"split_type":[0,0,0,0,0,0,0,0,0,0,0,0,0,0,0],"sum_hessian":[1.1430453E1,6.5080843E0,4.922369E0,4.2032967E0,2.3047876E0,2.2076187E0,2.71475E0,2.0417414E0,2.161555E0,1.041012E0,1.2637756E0,1.0277297E0,1.6870204E0,1.146162E0,1.0153931E0],"tree_param":{"num_deleted":"0","num_feature":"49","num_nodes":"15","size_leaf_vector":"1"}},{"base_weights":[-4.811262E-2,5.6810927E-2,-1.6042942E-1,-3.7931162E-1,2.1445698E-1,-1.6102186E-1,-7.1287244E-3,4.391004E-1,-1.1375715E-1,1.8664774E-1,-4.4345308E-2,-3.562718E-1,8.866291E-2,-2.5173329E-2,-1.3551034E-1],"categories":[],"categories_nodes":[],"categories_segments":[],"categories_sizes":[],"default_left":[0,0,0,0,0,0,0,0,0,0,0,0,0,0,0],"id":18,"left_children":[1,3,-1,5,7,-1,-1,9,11,-1,-1,13,-1,-1,-1],"loss_changes":[6.1864316E-1,7.950945E-1,0E0,1.6173905E-1,6.5925825E-1,0E0,0E0,6.4117855E-1,5.174388E-1,0E0,0E0,4.1648477E-2,0E0,0E0,0E0],"parents":[2147483647,0,0,1,1,3,3,4,4,7,7,8,8,11,11],"right_children":[2,4,-1,6,8,-1,-1,10,12,-1,-1,14,-1,-1,-1],"split_conditions":[6.69623E-1,7.995333E-2,-1.6042942E-1,5.909555E-1,-7.7103215E-1,-1.6102186E-1,-7.1287244E-3,-3.7978917E-1,3.449866E-1,1.8664774E-1,-4.4345308E-2,-9.7712576E-1,8.866291E-2,-2.5173329E-2,-1.3551034E-1],"split_indices":[10,34,0,43,13,0,0,26,16,0,0,16,0,0,0],"split_type":[0,0,0,0,0,0,0,0,0,0,0,0,0,0,0],"sum_hessian":[1.0520724E1,9.381343E0,1.1393819E0,2.1174345E0,7.263908E0,1.1144E0,1.0030344E0,4.111784E0,3.152124E0,3.088456E0,1.0233283E0,2.0606976E0,1.0914264E0,1.022299E0,1.0383985E0],"tree_param":{"num_deleted":"0","num_feature":"49","num_nodes":"15","size_leaf_vector":"1"}},{"base_weights":[-6.033586E-2,1.1429767E-1,-1.7876753E-1,1.06414646E-1,-5.386064E-1,3.306353E-1,-9.615784E-2,-4.7189586E-2,-1.99107E-1,1.5940614E-1,-4.9018297E-2],"categories":[],"categories_nodes":[],"categories_segments":[],"categories_sizes":[],"default_left":[0,0,0,0,0,0,0,0,0,0,0],"id":19,"left_children":[1,-1,3,5,7,9,-1,-1,-1,-1,-1],"loss_changes":[6.2624174E-1,0E0,9.9113154E-1,6.718816E-1,9.5362544E-2,5.19974E-1,0E0,0E0,0E0,0E0,0E0],"parents":[2147483647,0,0,2,2,3,3,4,4,5,5],"right_children":[2,-1,4,6,8,10,-1,-1,-1,-1,-1],"split_conditions":[-9.999999E-1,1.1429767E-1,9.139389E-1,7.5881517E-1,-9.868E-1,-9.999897E-1,-9.615784E-2,-4.7189586E-2,-1.99107E-1,1.5940614E-1,-4.9018297E-2],"split_indices":[2,0,12,36,8,3,0,0,0,0,0],"split_type":[0,0,0,0,0,0,0,0,0,0,0],"sum_hessian":[9.678445E0,1.5786662E0,8.099779E0,4.911529E0,3.18825E0,3.3681931E0,1.5433358E0,1.3451649E0,1.8430853E0,2.341371E0,1.0268221E0],"tree_param":{"num_deleted":"0","num_feature":"49","num_nodes":"11","size_leaf_vector":"1"}},{"base_weights":[-5.858844E-2,-2.1151404E-1,2.2302485E-1,7.256534E-2,-4.3514746E-1,1.17310405E-1,-4.175606E-2,-6.723296E-2,9.558036E-2,-1.717506E-1,-1.9950531E-2],"categories":[],"categories_nodes":[],"categories_segments":[],"categories_sizes":[],"default_left":[0,0,0,0,0,0,0,0,0,0,0],"id":20,"left_children":[1,3,5,7,9,-1,-1,-1,-1,-1,-1],"loss_changes":[4.7532347E-1,4.73504E-1,2.9696617E-1,3.5761377E-1,1.6624719E-1,0E0,0E0,0E0,0E0,0E0,0E0],"parents":[2147483647,0,0,1,1,2,2,3,3,4,4],"right_children":[2,4,6,8,10,-1,-1,-1,-1,-1,-1],"split_conditions":[9.024801E-1,-9.999998E-1,9.485181E-1,1.2135289E-1,9.342755E-1,1.17310405E-1,-4.175606E-2,-6.723296E-2,9.558036E-2,-1.717506E-1,-1.9950531E-2],"split_indices":[0,3,35,30,33,0,0,0,0,0,0],"split_type":[0,0,0,0,0,0,0,0,0,0,0],"sum_hessian":[8.941758E0,5.9562383E0,2.9855196E0,2.9211042E0,3.035134E0,1.9851462E0,1.0003736E0,1.3646717E0,1.5564326E0,1.8083643E0,1.2267697E0],"tree_param":{"num_deleted":"0","num_feature":"49","num_nodes":"11","size_leaf_vector":"1"}},{"base_weights":[-5.368955E-2,8.28432E-2,-3.63001E-1,-9.18533E-2,2.4709293E-1,-2.2936516E-2,-1.3939458E-1,-3.7509706E-2,4.3311083E-1,1.669801E-1,1.2704097E-2],"categories":[],"categories_nodes":[],"categories_segments":[],"categories_sizes":[],"default_left":[0,0,0,0,0,0,0,0,0,0,0],"id":21,"left_children":[1,3,5,-1,7,-1,-1,-1,9,-1,-1],"loss_changes":[4.3054307E-1,5.480451E-1,5.447042E-2,0E0,4.5229474E-1,0E0,0E0,0E0,1.7228645E-1,0E0,0E0],"parents":[2147483647,0,0,1,1,2,2,4,4,8,8],"right_children":[2,4,6,-1,8,-1,-1,-1,10,-1,-1],"split_conditions":[-3.5740468E-1,-7.3478377E-1,-3.2529032E-1,-9.18533E-2,-6.759708E-1,-2.2936516E-2,-1.3939458E-1,-3.7509706E-2,-5.1522255E-1,1.669801E-1,1.2704097E-2],"split_indices":[29,5,26,0,14,0,0,0,26,0,0],"split_type":[0,0,0,0,0,0,0,0,0,0,0],"sum_hessian":[8.482834E0,6.393054E0,2.0897803E0,1.641384E0,4.75167E0,1.0060029E0,1.0837775E0,1.6929011E0,3.0587687E0,2.0017755E0,1.0569932E0],"tree_param":{"num_deleted":"0","num_feature":"49","num_nodes":"11","size_leaf_vector":"1"}},{"base_weights":[-5.0957948E-2,9.725E-2,-1.5764861E-1,1.09258726E-1,-4.5992127E-1,3.1632784E-1,-7.0948474E-2,-4.378706E-2,-1.676321E-1,1.5680504E-1,-1.6919814E-2],"categories":[],"categories_nodes":[],"categories_segments":[],"categories_sizes":[],"default_left":[0,0,0,0,0,0,0,0,0,0,0],"id":22,"left_children":[1,-1,3,5,7,9,-1,-1,-1,-1,-1],"loss_changes":[4.135711E-1,0E0,6.7341113E-1,4.2633998E-1,3.681439E-2,2.985765E-1,0E0,0E0,0E0,0E0,0E0],"parents":[2147483647,0,0,2,2,3,3,4,4,5,5],"right_children":[2,-1,4,6,8,10,-1,-1,-1,-1,-1],"split_conditions":[-9.999999E-1,9.725E-2,8.8526106E-1,-6.151153E-1,-9.868E-1,-8.7132454E-1,-7.0948474E-2,-4.378706E-2,-1.676321E-1,1.5680504E-1,-1.6919814E-2],"split_indices":[2,0,12,26,8,13,0,0,0,0,0],"split_type":[0,0,0,0,0,0,0,0,0,0,0],"sum_hessian":[8.05662E0,1.3326478E0,6.7239723E0,3.909988E0,2.8139842E0,2.4986641E0,1.4113239E0,1.266853E0,1.5471312E0,1.3493128E0,1.1493512E0],"tree_param":{"num_deleted":"0","num_feature":"49","num_nodes":"11","size_leaf_vector":"1"}},{"base_weights":[-4.338626E-2,1.1734796E-1,-2.929292E-1,1.371683E-1,-1.1430043E-1,4.793811E-2,-1.7035566E-1,6.079198E-2,-3.0748335E-1,-1.6306585E-2,-1.2182111E-1],"categories":[],"categories_nodes":[],"categories_segments":[],"categories_sizes":[],"default_left":[0,0,0,0,0,0,0,0,0,0,0],"id":23,"left_children":[1,3,5,-1,7,-1,-1,-1,9,-1,-1],"loss_changes":[3.7840337E-1,5.192114E-1,5.445689E-1,0E0,3.2723922E-1,0E0,0E0,0E0,5.4929614E-2,0E0,0E0],"parents":[2147483647,0,0,1,1,2,2,4,4,8,8],"right_children":[2,4,6,-1,8,-1,-1,-1,10,-1,-1],"split_conditions":[-8.42896E-1,-4.1546136E-1,1.57143E-1,1.371683E-1,-7.500267E-1,4.793811E-2,-1.7035566E-1,6.079198E-2,9.993578E-1,-1.6306585E-2,-1.2182111E-1],"split_indices":[18,10,12,0,20,0,0,0,47,0,0],"split_type":[0,0,0,0,0,0,0,0,0,0,0],"sum_hessian":[7.577111E0,4.930836E0,2.6462746E0,1.6038425E0,3.3269937E0,1.158051E0,1.4882236E0,1.2413888E0,2.085605E0,1.0194498E0,1.0661551E0],"tree_param":{"num_deleted":"0","num_feature":"49","num_nodes":"11","size_leaf_vector":"1"}},{"base_weights":[-4.166071E-2,2.1412043E-1,-1.7088634E-1,1.123211E-1,-1.3245421E-2,4.398549E-2,-3.4199867E-1,-1.4346737E-1,-7.3877326E-3],"categories":[],"categories_nodes":[],"categories_segments":[],"categories_sizes":[],"default_left":[0,0,0,0,0,0,0,0,0],"id":24,"left_children":[1,3,5,-1,-1,-1,7,-1,-1],"loss_changes":[3.0456117E-1,1.4755046E-1,3.7297678E-1,0E0,0E0,0E0,1.681357E-1,0E0,0E0],"parents":[2147483647,0,0,1,1,2,2,6,6],"right_children":[2,4,6,-1,-1,-1,8,-1,-1],"split_conditions":[-9.999998E-1,-9.592735E-1,6.9488096E-1,1.123211E-1,-1.3245421E-2,4.398549E-2,4.5913807E-1,-1.4346737E-1,-7.3877326E-3],"split_indices":[2,4,12,0,0,0,7,0,0],"split_type":[0,0,0,0,0,0,0,0,0],"sum_hessian":[7.1071916E0,2.1649919E0,4.9421997E0,1.0584619E0,1.10653E0,1.7808743E0,3.1613255E0,1.8572967E0,1.3040287E0],"tree_param":{"num_deleted":"0","num_feature":"49","num_nodes":"9","size_leaf_vector":"1"}},{"base_weights":[-3.216116E-2,1.195868E-1,-2.8319463E-1,1.2518008E-1,-9.128515E-2,3.0989982E-2,-1.6043432E-1,-8.15905E-2,5.374295E-2],"categories":[],"categories_nodes":[],"categories_segments":[],"categories_sizes":[],"default_left":[0,0,0,0,0,0,0,0,0],"id":25,"left_children":[1,3,5,-1,7,-1,-1,-1,-1],"loss_changes":[3.3313245E-1,3.895759E-1,3.7191027E-1,0E0,2.48961E-1,0E0,0E0,0E0,0E0],"parents":[2147483647,0,0,1,1,2,2,4,4],"right_children":[2,4,6,-1,8,-1,-1,-1,-1],"split_conditions":[-8.022469E-1,-4.1546136E-1,1.57143E-1,1.2518008E-1,9.4665873E-1,3.0989982E-2,-1.6043432E-1,-8.15905E-2,5.374295E-2],"split_indices":[18,10,12,0,0,0,0,0,0],"split_type":[0,0,0,0,0,0,0,0,0],"sum_hessian":[6.856029E0,4.5993667E0,2.2566628E0,1.5012866E0,3.09808E0,1.1221651E0,1.1344976E0,1.8537955E0,1.2442843E0],"tree_param":{"num_deleted":"0","num_feature":"49","num_nodes":"9","size_leaf_vector":"1"}},{"base_weights":[-2.9045267E-2,1.4467403E-1,-2.4734776E-1,-1.8041457E-1,1.4945272E-1,4.8136044E-2,-1.4545378E-1,3.793133E-2,-1.1340007E-1],"categories":[],"categories_nodes":[],"categories_segments":[],"categories_sizes":[],"default_left":[0,0,0,0,0,0,0,0,0],"id":26,"left_children":[1,3,5,7,-1,-1,-1,-1,-1],"loss_changes":[3.2018426E-1,6.4230126E-1,4.353992E-1,2.4413016E-1,0E0,0E0,0E0,0E0,0E0],"parents":[2147483647,0,0,1,1,2,2,3,3],"right_children":[2,4,6,8,-1,-1,-1,-1,-1],"split_conditions":[-6.817737E-1,5.9147764E-2,1.3420689E-1,-8.2058966E-1,1.4945272E-1,4.8136044E-2,-1.4545378E-1,3.793133E-2,-1.1340007E-1],"split_indices":[24,14,35,26,0,0,0,0,0],"split_type":[0,0,0,0,0,0,0,0,0],"sum_hessian":[6.499322E0,3.8070502E0,2.6922717E0,2.2382958E0,1.5687547E0,1.1102664E0,1.5820053E0,1.0177723E0,1.2205234E0],"tree_param":{"num_deleted":"0","num_feature":"49","num_nodes":"9","size_leaf_vector":"1"}},{"base_weights":[-2.5422866E-2,-9.519551E-2,9.532817E-2,-9.869864E-2,1.0312672E-1,-1.1061557E-1,9.190146E-2],"categories":[],"categories_nodes":[],"categories_segments":[],"categories_sizes":[],"default_left":[0,0,0,0,0,0,0],"id":27,"left_children":[1,-1,3,5,-1,-1,-1],"loss_changes":[2.8010988E-1,0E0,3.1270194E-1,5.530738E-1,0E0,0E0,0E0],"parents":[2147483647,0,0,2,2,3,3],"right_children":[2,-1,4,6,-1,-1,-1],"split_conditions":[7.995333E-2,-9.519551E-2,9.8912585E-1,7.2440195E-1,1.0312672E-1,-1.1061557E-1,9.190146E-2],"split_indices":[34,0,44,16,0,0,0],"split_type":[0,0,0,0,0,0,0],"sum_hessian":[6.088909E0,1.3054144E0,4.7834945E0,3.024223E0,1.7592714E0,1.8683468E0,1.1558764E0],"tree_param":{"num_deleted":"0","num_feature":"49","num_nodes":"7","size_leaf_vector":"1"}},{"base_weights":[-2.0500803E-2,1.2915303E-1,-8.126123E-2,2.7208915E-1,-5.2957755E-2,1.3286541E-1,-2.787873E-2],"categories":[],"categories_nodes":[],"categories_segments":[],"categories_sizes":[],"default_left":[0,0,0,0,0,0,0],"id":28,"left_children":[1,3,-1,5,-1,-1,-1],"loss_changes":[2.9010877E-1,2.6381963E-1,0E0,2.7548793E-1,0E0,0E0,0E0],"parents":[2147483647,0,0,1,1,3,3],"right_children":[2,4,-1,6,-1,-1,-1],"split_conditions":[-8.022469E-1,5.0174188E-2,-8.126123E-2,1.579315E-1,-5.2957755E-2,1.3286541E-1,-2.787873E-2],"split_indices":[18,10,0,20,0,0,0],"split_type":[0,0,0,0,0,0,0],"sum_hessian":[5.808994E0,3.938802E0,1.8701918E0,2.758709E0,1.1800929E0,1.7340215E0,1.0246874E0],"tree_param":{"num_deleted":"0","num_feature":"49","num_nodes":"7","size_leaf_vector":"1"}},{"base_weights":[-1.8361306E-2,-1.6184992E-1,6.421662E-2,3.701501E-2,-2.8131878E-1,-5.2775107E-3,-1.3300784E-1],"categories":[],"categories_nodes":[],"categories_segments":[],"categories_sizes":[],"default_left":[0,0,0,0,0,0,0],"id":29,"left_children":[1,3,-1,-1,5,-1,-1],"loss_changes":[2.5450513E-1,1.9301572E-1,0E0,0E0,1.4515081E-1,0E0,0E0],"parents":[2147483647,0,0,1,1,4,4],"right_children":[2,4,-1,-1,6,-1,-1],"split_conditions":[9.024801E-1,-9.478299E-1,6.421662E-2,3.701501E-2,-6.98802E-1,-5.2775107E-3,-1.3300784E-1],"split_indices":[0,16,0,0,24,0,0],"split_type":[0,0,0,0,0,0,0],"sum_hessian":[5.59268E0,3.6455963E0,1.9470836E0,1.0665147E0,2.5790815E0,1.4034609E0,1.1756207E0],"tree_param":{"num_deleted":"0","num_feature":"49","num_nodes":"7","size_leaf_vector":"1"}},{"base_weights":[-1.994161E-2,1.4036356E-1,-1.9543368E-1,-3.8079936E-2,8.312181E-2,-1.198866E-1,2.2953946E-2],"categories":[],"categories_nodes":[],"categories_segments":[],"categories_sizes":[],"default_left":[0,0,0,0,0,0,0],"id":30,"left_children":[1,3,5,-1,-1,-1,-1],"loss_changes":[2.0852947E-1,1.7937309E-1,2.2443207E-1,0E0,0E0,0E0,0E0],"parents":[2147483647,0,0,1,1,2,2],"right_children":[2,4,6,-1,-1,-1,-1],"split_conditions":[-9.0865946E-1,-4.411564E-1,-9.500003E-1,-3.8079936E-2,8.312181E-2,-1.198866E-1,2.2953946E-2],"split_indices":[18,5,17,0,0,0,0],"split_type":[0,0,0,0,0,0,0],"sum_hessian":[5.4373617E0,2.9462492E0,2.4911125E0,1.0211613E0,1.9250878E0,1.1546617E0,1.3364509E0],"tree_param":{"num_deleted":"0","num_feature":"49","num_nodes":"7","size_leaf_vector":"1"}},{"base_weights":[-2.3106255E-2,-8.229694E-2,9.2921704E-2,2.4115264E-1,-4.860359E-2,-8.021568E-3,1.0681541E-1],"categories":[],"categories_nodes":[],"categories_segments":[],"categories_sizes":[],"default_left":[0,0,0,0,0,0,0],"id":31,"left_children":[1,-1,3,5,-1,-1,-1],"loss_changes":[2.087207E-1,0E0,2.2979388E-1,1.201226E-1,0E0,0E0,0E0],"parents":[2147483647,0,0,2,2,3,3],"right_children":[2,-1,4,6,-1,-1,-1],"split_conditions":[1.8337937E-1,-8.229694E-2,-9.9999696E-1,-9.596268E-1,-4.860359E-2,-8.021568E-3,1.0681541E-1],"split_indices":[0,0,2,17,0,0,0],"split_type":[0,0,0,0,0,0,0],"sum_hessian":[5.2861605E0,1.2390842E0,4.047076E0,2.5932758E0,1.4538003E0,1.0087106E0,1.5845652E0],"tree_param":{"num_deleted":"0","num_feature":"49","num_nodes":"7","size_leaf_vector":"1"}},{"base_weights":[-2.1463491E-2,-8.136747E-2,7.998045E-2,2.7035353E-1,-1.307968E-1,8.172181E-3,1.1417769E-1,-9.469326E-2,3.6874294E-2],"categories":[],"categories_nodes":[],"categories_segments":[],"categories_sizes":[],"default_left":[0,0,0,0,0,0,0,0,0],"id":32,"left_children":[1,-1,3,5,7,-1,-1,-1,-1],"loss_changes":[1.772674E-1,0E0,2.4156861E-1,7.0736706E-2,1.8477741E-1,0E0,0E0,0E0,0E0],"parents":[2147483647,0,0,2,2,3,3,4,4],"right_children":[2,-1,4,6,8,-1,-1,-1,-1],"split_conditions":[7.995333E-2,-8.136747E-2,-4.0352407E-1,6.77134E-1,-9.4701326E-1,8.172181E-3,1.1417769E-1,-9.469326E-2,3.6874294E-2],"split_indices":[34,0,10,23,4,0,0,0,0],"split_type":[0,0,0,0,0,0,0,0,0],"sum_hessian":[5.140272E0,1.0013189E0,4.138953E0,2.0262253E0,2.112728E0,1.0212147E0,1.0050105E0,1.0810177E0,1.0317103E0],"tree_param":{"num_deleted":"0","num_feature":"49","num_nodes":"9","size_leaf_vector":"1"}},{"base_weights":[-1.8319923E-2,8.243965E-2,-7.2047554E-2,-5.6359764E-2,2.021912E-1,-2.1116892E-2,1.02845006E-1],"categories":[],"categories_nodes":[],"categories_segments":[],"categories_sizes":[],"default_left":[0,0,0,0,0,0,0],"id":33,"left_children":[1,3,-1,-1,5,-1,-1],"loss_changes":[1.5307388E-1,1.9480269E-1,0E0,0E0,1.7128296E-1,0E0,0E0],"parents":[2147483647,0,0,1,1,4,4],"right_children":[2,4,-1,-1,6,-1,-1],"split_conditions":[-3.5740468E-1,-7.160815E-1,-7.2047554E-2,-5.6359764E-2,-9.5506287E-1,-2.1116892E-2,1.02845006E-1],"split_indices":[29,5,0,0,17,0,0],"split_type":[0,0,0,0,0,0,0],"sum_hessian":[4.96247E0,3.8446167E0,1.1178533E0,1.0057105E0,2.8389063E0,1.1361357E0,1.7027706E0],"tree_param":{"num_deleted":"0","num_feature":"49","num_nodes":"7","size_leaf_vector":"1"}},{"base_weights":[-2.074718E-2,-1.4209233E-1,5.0975915E-2,-8.5928544E-2,2.8068382E-2],"categories":[],"categories_nodes":[],"categories_segments":[],"categories_sizes":[],"default_left":[0,0,0,0,0],"id":34,"left_children":[1,3,-1,-1,-1],"loss_changes":[1.5904015E-1,1.6650847E-1,0E0,0E0,0E0],"parents":[2147483647,0,0,1,1],"right_children":[2,4,-1,-1,-1],"split_conditions":[9.024801E-1,9.950737E-1,5.0975915E-2,-8.5928544E-2,2.8068382E-2],"split_indices":[0,44,0,0,0],"split_type":[0,0,0,0,0],"sum_hessian":[4.830434E0,3.107503E0,1.7229307E0,1.7935205E0,1.3139825E0],"tree_param":{"num_deleted":"0","num_feature":"49","num_nodes":"5","size_leaf_vector":"1"}},{"base_weights":[-1.631899E-2,1.0256552E-1,-6.377996E-2,9.539551E-2,-7.412283E-2,3.032287E-2,-6.6889495E-2],"categories":[],"categories_nodes":[],"categories_segments":[],"categories_sizes":[],"default_left":[0,0,0,0,0,0,0],"id":35,"left_children":[1,3,-1,-1,5,-1,-1],"loss_changes":[1.5585385E-1,1.8541837E-1,0E0,0E0,1.04602925E-1,0E0,0E0],"parents":[2147483647,0,0,1,1,4,4],"right_children":[2,4,-1,-1,6,-1,-1],"split_conditions":[-8.022469E-1,-3.833865E-1,-6.377996E-2,9.539551E-2,-9.999983E-1,3.032287E-2,-6.6889495E-2],"split_indices":[18,10,0,0,2,0,0],"split_type":[0,0,0,0,0,0,0],"sum_hessian":[4.744584E0,3.2522175E0,1.4923666E0,1.1051354E0,2.1470823E0,1.1336281E0,1.0134541E0],"tree_param":{"num_deleted":"0","num_feature":"49","num_nodes":"7","size_leaf_vector":"1"}},{"base_weights":[-1.2406849E-2,-1.2968448E-1,5.004561E-2,-9.601393E-2,4.068738E-2],"categories":[],"categories_nodes":[],"categories_segments":[],"categories_sizes":[],"default_left":[0,0,0,0,0],"id":36,"left_children":[1,3,-1,-1,-1],"loss_changes":[1.3989753E-1,2.4358799E-1,0E0,0E0,0E0],"parents":[2147483647,0,0,1,1],"right_children":[2,4,-1,-1,-1],"split_conditions":[9.8912585E-1,3.5228318E-1,5.004561E-2,-9.601393E-2,4.068738E-2],"split_indices":[44,14,0,0,0],"split_type":[0,0,0,0,0],"sum_hessian":[4.626477E0,2.9636238E0,1.6628529E0,1.6054101E0,1.3582138E0],"tree_param":{"num_deleted":"0","num_feature":"49","num_nodes":"5","size_leaf_vector":"1"}},{"base_weights":[-1.0284997E-2,1.3356973E-1,-1.7416081E-1,8.9827165E-2,-1.8780546E-2,-8.907252E-2,1.1073013E-2],"categories":[],"categories_nodes":[],"categories_segments":[],"categories_sizes":[],"default_left":[0,0,0,0,0,0,0],"id":37,"left_children":[1,3,5,-1,-1,-1,-1],"loss_changes":[1.5371427E-1,1.3303584E-1,8.922453E-2,0E0,0E0,0E0,0E0],"parents":[2147483647,0,0,1,1,2,2],"right_children":[2,4,6,-1,-1,-1,-1],"split_conditions":[-9.0865946E-1,3.364083E-1,-9.333636E-1,8.9827165E-2,-1.8780546E-2,-8.907252E-2,1.1073013E-2],"split_indices":[18,35,17,0,0,0,0],"split_type":[0,0,0,0,0,0,0],"sum_hessian":[4.5336356E0,2.5127804E0,2.0208552E0,1.0763979E0,1.4363825E0,1.020633E0,1.0002222E0],"tree_param":{"num_deleted":"0","num_feature":"49","num_nodes":"7","size_leaf_vector":"1"}},{"base_weights":[-8.629532E-3,-1.5862392E-1,1.3510874E-1,1.6870406E-2,-8.59394E-2,8.001399E-2,-2.2736646E-2],"categories":[],"categories_nodes":[],"categories_segments":[],"categories_sizes":[],"default_left":[0,0,0,0,0,0,0],"id":38,"left_children":[1,3,5,-1,-1,-1,-1],"loss_changes":[1.3868955E-1,1.01847E-1,1.1228576E-1,0E0,0E0,0E0,0E0],"parents":[2147483647,0,0,1,1,2,2],"right_children":[2,4,6,-1,-1,-1,-1],"split_conditions":[7.631079E-1,-9.160302E-1,9.173807E-1,1.6870406E-2,-8.59394E-2,8.001399E-2,-2.2736646E-2],"split_indices":[0,18,12,0,0,0,0],"split_type":[0,0,0,0,0,0,0],"sum_hessian":[4.4387026E0,2.1214046E0,2.3172982E0,1.0003171E0,1.1210874E0,1.2639245E0,1.0533738E0],"tree_param":{"num_deleted":"0","num_feature":"49","num_nodes":"7","size_leaf_vector":"1"}},{"base_weights":[-8.432067E-3,9.876494E-2,-6.708704E-2,8.498492E-2,-5.3982485E-2,-6.650095E-2,4.3235086E-2],"categories":[],"categories_nodes":[],"categories_segments":[],"categories_sizes":[],"default_left":[0,0,0,0,0,0,0],"id":39,"left_children":[1,3,-1,-1,5,-1,-1],"loss_changes":[1.453313E-1,1.3535513E-1,0E0,0E0,1.372669E-1,0E0,0E0],"parents":[2147483647,0,0,1,1,4,4],"right_children":[2,4,-1,-1,6,-1,-1],"split_conditions":[1.7045236E-1,-9.654684E-1,-6.708704E-2,8.498492E-2,3.2046574E-1,-6.650095E-2,4.3235086E-2],"split_indices":[20,8,0,0,45,0,0],"split_type":[0,0,0,0,0,0,0],"sum_hessian":[4.342717E0,3.2598622E0,1.0828549E0,1.0893493E0,2.1705132E0,1.111049E0,1.059464E0],"tree_param":{"num_deleted":"0","num_feature":"49","num_nodes":"7","size_leaf_vector":"1"}},{"base_weights":[-7.036983E-3,1.2861528E-1,-5.264359E-2,-4.627745E-2,1.10022716E-1],"categories":[],"categories_nodes":[],"categories_segments":[],"categories_sizes":[],"default_left":[0,0,0,0,0],"id":40,"left_children":[1,3,-1,-1,-1],"loss_changes":[1.4222491E-1,2.9083204E-1,0E0,0E0,0E0],"parents":[2147483647,0,0,1,1],"right_children":[2,4,-1,-1,-1],"split_conditions":[-6.817737E-1,-1.9824392E-1,-5.264359E-2,-4.627745E-2,1.10022716E-1],"split_indices":[24,14,0,0,0],"split_type":[0,0,0,0,0],"sum_hessian":[4.2366896E0,2.4777257E0,1.7589636E0,1.2934394E0,1.1842864E0],"tree_param":{"num_deleted":"0","num_feature":"49","num_nodes":"5","size_leaf_vector":"1"}},{"base_weights":[-2.2519452E-3,1.092179E-1,-5.8162358E-2,8.795486E-2,-3.338846E-2],"categories":[],"categories_nodes":[],"categories_segments":[],"categories_sizes":[],"default_left":[0,0,0,0,0],"id":41,"left_children":[1,3,-1,-1,-1],"loss_changes":[1.3062073E-1,1.8999094E-1,0E0,0E0,0E0],"parents":[2147483647,0,0,1,1],"right_children":[2,4,-1,-1,-1],"split_conditions":[-5.528008E-1,-7.5791675E-1,-5.8162358E-2,8.795486E-2,-3.338846E-2],"split_indices":[26,13,0,0,0],"split_type":[0,0,0,0,0],"sum_hessian":[4.123851E0,2.879081E0,1.2447698E0,1.3899505E0,1.4891305E0],"tree_param":{"num_deleted":"0","num_feature":"49","num_nodes":"5","size_leaf_vector":"1"}},{"base_weights":[-2.0447602E-3,5.600832E-2,-1.1184008E-1,3.533448E-2,-7.261031E-2],"categories":[],"categories_nodes":[],"categories_segments":[],"categories_sizes":[],"default_left":[0,0,0,0,0],"id":42,"left_children":[1,-1,3,-1,-1],"loss_changes":[1.2536734E-1,0E0,1.4250235E-1,0E0,0E0],"parents":[2147483647,0,0,2,2],"right_children":[2,-1,4,-1,-1],"split_conditions":[-9.999998E-1,5.600832E-2,6.9488096E-1,3.533448E-2,-7.261031E-2],"split_indices":[2,0,12,0,0],"split_type":[0,0,0,0,0],"sum_hessian":[4.042178E0,1.2290479E0,2.8131306E0,1.0523885E0,1.760742E0],"tree_param":{"num_deleted":"0","num_feature":"49","num_nodes":"5","size_leaf_vector":"1"}},{"base_weights":[2.1133462E-3,1.3975264E-1,-4.5228384E-2,7.754989E-2,-1.1871618E-2],"categories":[],"categories_nodes":[],"categories_segments":[],"categories_sizes":[],"default_left":[0,0,0,0,0],"id":43,"left_children":[1,3,-1,-1,-1],"loss_changes":[1.2569353E-1,7.69967E-2,0E0,0E0,0E0],"parents":[2147483647,0,0,1,1],"right_children":[2,4,-1,-1,-1],"split_conditions":[-9.1902626E-1,6.159922E-1,-4.5228384E-2,7.754989E-2,-1.1871618E-2],"split_indices":[18,35,0,0,0],"split_type":[0,0,0,0,0],"sum_hessian":[3.9722676E0,2.1354604E0,1.8368074E0,1.0191033E0,1.116357E0],"tree_param":{"num_deleted":"0","num_feature":"49","num_nodes":"5","size_leaf_vector":"1"}},{"base_weights":[5.825873E-3,1.2636776E-1,-4.41036E-2,-3.638473E-2,9.8406166E-2],"categories":[],"categories_nodes":[],"categories_segments":[],"categories_sizes":[],"default_left":[0,0,0,0,0],"id":44,"left_children":[1,3,-1,-1,-1],"loss_changes":[1.0922938E-1,2.0401567E-1,0E0,0E0,0E0],"parents":[2147483647,0,0,1,1],"right_children":[2,4,-1,-1,-1],"split_conditions":[-6.817737E-1,-1.9824392E-1,-4.41036E-2,-3.638473E-2,9.8406166E-2],"split_indices":[24,14,0,0,0],"split_type":[0,0,0,0,0],"sum_hessian":[3.9204798E0,2.28864E0,1.6318398E0,1.206048E0,1.082592E0],"tree_param":{"num_deleted":"0","num_feature":"49","num_nodes":"5","size_leaf_vector":"1"}},{"base_weights":[8.3299065E-3,1.0812714E-1,-4.8948374E-2,7.596268E-2,-2.7471926E-2],"categories":[],"categories_nodes":[],"categories_segments":[],"categories_sizes":[],"default_left":[0,0,0,0,0],"id":45,"left_children":[1,3,-1,-1,-1],"loss_changes":[1.0043869E-1,1.292164E-1,0E0,0E0,0E0],"parents":[2147483647,0,0,1,1],"right_children":[2,4,-1,-1,-1],"split_conditions":[-8.022469E-1,6.159922E-1,-4.8948374E-2,7.596268E-2,-2.7471926E-2],"split_indices":[18,35,0,0,0],"split_type":[0,0,0,0,0],"sum_hessian":[3.8378453E0,2.6596072E0,1.1782383E0,1.3852681E0,1.2743391E0],"tree_param":{"num_deleted":"0","num_feature":"49","num_nodes":"5","size_leaf_vector":"1"}},{"base_weights":[6.008725E-3,1.3332836E-1,-4.064898E-2,6.840747E-2,-7.979107E-3],"categories":[],"categories_nodes":[],"categories_segments":[],"categories_sizes":[],"default_left":[0,0,0,0,0],"id":46,"left_children":[1,3,-1,-1,-1],"loss_changes":[1.04146145E-1,5.178636E-2,0E0,0E0,0E0],"parents":[2147483647,0,0,1,1],"right_children":[2,4,-1,-1,-1],"split_conditions":[-1.2658319E-1,-8.563692E-1,-4.064898E-2,6.840747E-2,-7.979107E-3],"split_indices":[43,13,0,0,0],"split_type":[0,0,0,0,0],"sum_hessian":[3.7779012E0,2.0190463E0,1.758855E0,1.0006888E0,1.0183575E0],"tree_param":{"num_deleted":"0","num_feature":"49","num_nodes":"5","size_leaf_vector":"1"}},{"base_weights":[8.53595E-3,1.0509497E-1,-4.8059694E-2,8.387162E-2,-2.160622E-2],"categories":[],"categories_nodes":[],"categories_segments":[],"categories_sizes":[],"default_left":[0,0,0,0,0],"id":47,"left_children":[1,3,-1,-1,-1],"loss_changes":[9.401737E-2,1.319037E-1,0E0,0E0,0E0],"parents":[2147483647,0,0,1,1],"right_children":[2,4,-1,-1,-1],"split_conditions":[-5.528008E-1,-6.104063E-1,-4.8059694E-2,8.387162E-2,-2.160622E-2],"split_indices":[26,42,0,0,0],"split_type":[0,0,0,0,0],"sum_hessian":[3.7371163E0,2.616803E0,1.1203133E0,1.0268145E0,1.5899885E0],"tree_param":{"num_deleted":"0","num_feature":"49","num_nodes":"5","size_leaf_vector":"1"}},{"base_weights":[9.33317E-3,-8.9650206E-2,5.3579215E-2,-6.0784996E-2,2.6058227E-2],"categories":[],"categories_nodes":[],"categories_segments":[],"categories_sizes":[],"default_left":[0,0,0,0,0],"id":48,"left_children":[1,3,-1,-1,-1],"loss_changes":[9.443031E-2,8.976561E-2,0E0,0E0,0E0],"parents":[2147483647,0,0,1,1],"right_children":[2,4,-1,-1,-1],"split_conditions":[9.3784297E-1,9.918051E-1,5.3579215E-2,-6.0784996E-2,2.6058227E-2],"split_indices":[0,44,0,0,0],"split_type":[0,0,0,0,0],"sum_hessian":[3.6805189E0,2.6192E0,1.0613188E0,1.5068942E0,1.1123059E0],"tree_param":{"num_deleted":"0","num_feature":"49","num_nodes":"5","size_leaf_vector":"1"}},{"base_weights":[1.0587858E-2,1.0988649E-1,-4.8040748E-2,7.619805E-2,-2.5122559E-2],"categories":[],"categories_nodes":[],"categories_segments":[],"categories_sizes":[],"default_left":[0,0,0,0,0],"id":49,"left_children":[1,3,-1,-1,-1],"loss_changes":[9.612391E-2,1.1953826E-1,0E0,0E0,0E0],"parents":[2147483647,0,0,1,1],"right_children":[2,4,-1,-1,-1],"split_conditions":[-8.022469E-1,-2.1767902E-1,-4.8040748E-2,7.619805E-2,-2.5122559E-2],"split_indices":[18,10,0,0,0],"split_type":[0,0,0,0,0],"sum_hessian":[3.632152E0,2.5217605E0,1.1103917E0,1.2670252E0,1.2547352E0],"tree_param":{"num_deleted":"0","num_feature":"49","num_nodes":"5","size_leaf_vector":"1"}},{"base_weights":[8.392778E-3,5.104773E-2,-9.192728E-2,-7.034619E-2,2.4767838E-2],"categories":[],"categories_nodes":[],"categories_segments":[],"categories_sizes":[],"default_left":[0,0,0,0,0],"id":50,"left_children":[1,-1,3,-1,-1],"loss_changes":[8.986902E-2,0E0,1.0573353E-1,0E0,0E0],"parents":[2147483647,0,0,2,2],"right_children":[2,-1,4,-1,-1],"split_conditions":[-9.999998E-1,5.104773E-2,2.7185324E-1,-7.034619E-2,2.4767838E-2],"split_indices":[2,0,45,0,0],"split_type":[0,0,0,0,0],"sum_hessian":[3.5738778E0,1.101517E0,2.4723608E0,1.171416E0,1.3009449E0],"tree_param":{"num_deleted":"0","num_feature":"49","num_nodes":"5","size_leaf_vector":"1"}},{"base_weights":[6.985938E-3,1.1742493E-1,-4.015346E-2,-3.6355812E-2,8.79891E-2],"categories":[],"categories_nodes":[],"categories_segments":[],"categories_sizes":[],"default_left":[0,0,0,0,0],"id":51,"left_children":[1,3,-1,-1,-1],"loss_changes":[8.606059E-2,1.642749E-1,0E0,0E0,0E0],"parents":[2147483647,0,0,1,1],"right_children":[2,4,-1,-1,-1],"split_conditions":[-6.817737E-1,-2.637902E-1,-4.015346E-2,-3.6355812E-2,8.79891E-2],"split_indices":[24,14,0,0,0],"split_type":[0,0,0,0,0],"sum_hessian":[3.5227873E0,2.0675895E0,1.4551978E0,1.0092505E0,1.058339E0],"tree_param":{"num_deleted":"0","num_feature":"49","num_nodes":"5","size_leaf_vector":"1"}},{"base_weights":[7.9006385E-3,3.885892E-2,-3.890243E-2],"categories":[],"categories_nodes":[],"categories_segments":[],"categories_sizes":[],"default_left":[0,0,0],"id":52,"left_children":[1,-1,-1],"loss_changes":[9.137032E-2,0E0,0E0],"parents":[2147483647,0,0],"right_children":[2,-1,-1],"split_conditions":[-9.1902626E-1,3.885892E-2,-3.890243E-2],"split_indices":[18,0,0],"split_type":[0,0,0],"sum_hessian":[3.456631E0,1.8656816E0,1.5909493E0],"tree_param":{"num_deleted":"0","num_feature":"49","num_nodes":"3","size_leaf_vector":"1"}},{"base_weights":[5.542748E-3,-1.009058E-1,4.242746E-2,-7.579288E-2,3.1387858E-2],"categories":[],"categories_nodes":[],"categories_segments":[],"categories_sizes":[],"default_left":[0,0,0,0,0],"id":53,"left_children":[1,3,-1,-1,-1],"loss_changes":[7.8397326E-2,1.2216247E-1,0E0,0E0,0E0],"parents":[2147483647,0,0,1,1],"right_children":[2,4,-1,-1,-1],"split_conditions":[9.735991E-1,3.5228318E-1,4.242746E-2,-7.579288E-2,3.1387858E-2],"split_indices":[44,14,0,0,0],"split_type":[0,0,0,0,0],"sum_hessian":[3.4334018E0,2.069545E0,1.3638568E0,1.0587167E0,1.0108285E0],"tree_param":{"num_deleted":"0","num_feature":"49","num_nodes":"5","size_leaf_vector":"1"}},{"base_weights":[3.238993E-3,9.6097186E-2,-4.4953763E-2,6.636388E-2,-2.3864612E-2],"categories":[],"categories_nodes":[],"categories_segments":[],"categories_sizes":[],"default_left":[0,0,0,0,0],"id":54,"left_children":[1,3,-1,-1,-1],"loss_changes":[7.670943E-2,9.094503E-2,0E0,0E0,0E0],"parents":[2147483647,0,0,1,1],"right_children":[2,4,-1,-1,-1],"split_conditions":[-8.022469E-1,6.159922E-1,-4.4953763E-2,6.636388E-2,-2.3864612E-2],"split_indices":[18,35,0,0,0],"split_type":[0,0,0,0,0],"sum_hessian":[3.3833175E0,2.337624E0,1.0456935E0,1.2136755E0,1.1239485E0],"tree_param":{"num_deleted":"0","num_feature":"49","num_nodes":"5","size_leaf_vector":"1"}},{"base_weights":[1.856974E-3,8.980733E-2,-4.3620683E-2,-2.2009611E-2,5.7892386E-2],"categories":[],"categories_nodes":[],"categories_segments":[],"categories_sizes":[],"default_left":[0,0,0,0,0],"id":55,"left_children":[1,3,-1,-1,-1],"loss_changes":[6.9252126E-2,7.0292614E-2,0E0,0E0,0E0],"parents":[2147483647,0,0,1,1],"right_children":[2,4,-1,-1,-1],"split_conditions":[-4.143398E-3,6.886135E-1,-4.3620683E-2,-2.2009611E-2,5.7892386E-2],"split_indices":[20,0,0,0,0],"split_type":[0,0,0,0,0],"sum_hessian":[3.338797E0,2.3346012E0,1.0041958E0,1.0162064E0,1.3183949E0],"tree_param":{"num_deleted":"0","num_feature":"49","num_nodes":"5","size_leaf_vector":"1"}},{"base_weights":[-4.100733E-4,8.7288864E-2,-4.3373406E-2,6.874445E-2,-2.5441883E-2],"categories":[],"categories_nodes":[],"categories_segments":[],"categories_sizes":[],"default_left":[0,0,0,0,0],"id":56,"left_children":[1,3,-1,-1,-1],"loss_changes":[6.7017905E-2,9.9965155E-2,0E0,0E0,0E0],"parents":[2147483647,0,0,1,1],"right_children":[2,4,-1,-1,-1],"split_conditions":[-5.9457576E-1,-7.5791675E-1,-4.3373406E-2,6.874445E-2,-2.5441883E-2],"split_indices":[26,13,0,0,0],"split_type":[0,0,0,0,0],"sum_hessian":[3.302479E0,2.2986927E0,1.0037864E0,1.0783119E0,1.2203807E0],"tree_param":{"num_deleted":"0","num_feature":"49","num_nodes":"5","size_leaf_vector":"1"}},{"base_weights":[-1.60617E-4,9.3410105E-2,-4.117059E-2,-1.3213399E-2,5.7678416E-2],"categories":[],"categories_nodes":[],"categories_segments":[],"categories_sizes":[],"default_left":[0,0,0,0,0],"id":57,"left_children":[1,3,-1,-1,-1],"loss_changes":[6.7446925E-2,5.0945826E-2,0E0,0E0,0E0],"parents":[2147483647,0,0,1,1],"right_children":[2,4,-1,-1,-1],"split_conditions":[-1.494559E-1,6.451897E-1,-4.117059E-2,-1.3213399E-2,5.7678416E-2],"split_indices":[10,0,0,0,0],"split_type":[0,0,0,0,0],"sum_hessian":[3.259084E0,2.1262183E0,1.1328658E0,1.1213678E0,1.0048505E0],"tree_param":{"num_deleted":"0","num_feature":"49","num_nodes":"5","size_leaf_vector":"1"}},{"base_weights":[7.4116274E-4,3.6121912E-2,-3.6809172E-2],"categories":[],"categories_nodes":[],"categories_segments":[],"categories_sizes":[],"default_left":[0,0,0],"id":58,"left_children":[1,-1,-1],"loss_changes":[7.720214E-2,0E0,0E0],"parents":[2147483647,0,0],"right_children":[2,-1,-1],"split_conditions":[-9.415733E-1,3.6121912E-2,-3.6809172E-2],"split_indices":[18,0,0],"split_type":[0,0,0],"sum_hessian":[3.2263505E0,1.6506855E0,1.5756651E0],"tree_param":{"num_deleted":"0","num_feature":"49","num_nodes":"3","size_leaf_vector":"1"}},{"base_weights":[3.4737444E-4,3.0765869E-2,-3.638564E-2],"categories":[],"categories_nodes":[],"categories_segments":[],"categories_sizes":[],"default_left":[0,0,0],"id":59,"left_children":[1,-1,-1],"loss_changes":[6.47323E-2,0E0,0E0],"parents":[2147483647,0,0],"right_children":[2,-1,-1],"split_conditions":[2.2141752E-1,3.0765869E-2,-3.638564E-2],"split_indices":[35,0,0],"split_type":[0,0,0],"sum_hessian":[3.2065659E0,1.8276745E0,1.3788913E0],"tree_param":{"num_deleted":"0","num_feature":"49","num_nodes":"3","size_leaf_vector":"1"}},{"base_weights":[-1.1160496E-3,3.3129472E-2,-3.1882647E-2],"categories":[],"categories_nodes":[],"categories_segments":[],"categories_sizes":[],"default_left":[0,0,0],"id":60,"left_children":[1,-1,-1],"loss_changes":[6.0885113E-2,0E0,0E0],"parents":[2147483647,0,0],"right_children":[2,-1,-1],"split_conditions":[-9.464652E-1,3.3129472E-2,-3.1882647E-2],"split_indices":[18,0,0],"split_type":[0,0,0],"sum_hessian":[3.1899192E0,1.5236144E0,1.6663047E0],"tree_param":{"num_deleted":"0","num_feature":"49","num_nodes":"3","size_leaf_vector":"1"}},{"base_weights":[-4.9016206E-4,3.002669E-2,-3.7231777E-2],"categories":[],"categories_nodes":[],"categories_segments":[],"categories_sizes":[],"default_left":[0,0,0],"id":61,"left_children":[1,-1,-1],"loss_changes":[6.432266E-2,0E0,0E0],"parents":[2147483647,0,0],"right_children":[2,-1,-1],"split_conditions":[-6.817737E-1,3.002669E-2,-3.7231777E-2],"split_indices":[24,0,0],"split_type":[0,0,0],"sum_hessian":[3.1744032E0,1.8552299E0,1.3191732E0],"tree_param":{"num_deleted":"0","num_feature":"49","num_nodes":"3","size_leaf_vector":"1"}},{"base_weights":[-2.0993424E-3,2.653432E-2,-3.711599E-2],"categories":[],"categories_nodes":[],"categories_segments":[],"categories_sizes":[],"default_left":[0,0,0],"id":62,"left_children":[1,-1,-1],"loss_changes":[5.6734297E-2,0E0,0E0],"parents":[2147483647,0,0],"right_children":[2,-1,-1],"split_conditions":[-9.9999696E-1,2.653432E-2,-3.711599E-2],"split_indices":[2,0,0],"split_type":[0,0,0],"sum_hessian":[3.1581836E0,1.9667138E0,1.1914699E0],"tree_param":{"num_deleted":"0","num_feature":"49","num_nodes":"3","size_leaf_vector":"1"}},{"base_weights":[-4.056723E-3,-2.833058E-2,3.5260342E-2],"categories":[],"categories_nodes":[],"categories_segments":[],"categories_sizes":[],"default_left":[0,0,0],"id":63,"left_children":[1,-1,-1],"loss_changes":[5.6627743E-2,0E0,0E0],"parents":[2147483647,0,0],"right_children":[2,-1,-1],"split_conditions":[-8.958416E-1,-2.833058E-2,3.5260342E-2],"split_indices":[4,0,0],"split_type":[0,0,0],"sum_hessian":[3.1429949E0,1.9310136E0,1.2119813E0],"tree_param":{"num_deleted":"0","num_feature":"49","num_nodes":"3","size_leaf_vector":"1"}},{"base_weights":[-1.1660431E-3,3.439433E-2,-2.6703818E-2],"categories":[],"categories_nodes":[],"categories_segments":[],"categories_sizes":[],"default_left":[0,0,0],"id":64,"left_children":[1,-1,-1],"loss_changes":[5.220275E-2,0E0,0E0],"parents":[2147483647,0,0],"right_children":[2,-1,-1],"split_conditions":[-8.7350523E-1,3.439433E-2,-2.6703818E-2],"split_indices":[26,0,0],"split_type":[0,0,0],"sum_hessian":[3.1279953E0,1.217629E0,1.9103664E0],"tree_param":{"num_deleted":"0","num_feature":"49","num_nodes":"3","size_leaf_vector":"1"}},{"base_weights":[1.0584533E-3,8.73975E-2,-3.7837647E-2,-1.2639907E-2,5.159882E-2],"categories":[],"categories_nodes":[],"categories_segments":[],"categories_sizes":[],"default_left":[0,0,0,0,0],"id":65,"left_children":[1,3,-1,-1,-1],"loss_changes":[5.6193557E-2,4.0569153E-2,0E0,0E0,0E0],"parents":[2147483647,0,0,1,1],"right_children":[2,4,-1,-1,-1],"split_conditions":[-1.494559E-1,-2.3074868E-1,-3.7837647E-2,-1.2639907E-2,5.159882E-2],"split_indices":[10,9,0,0,0],"split_type":[0,0,0,0,0],"sum_hessian":[3.1135373E0,2.0408967E0,1.0726405E0,1.0046391E0,1.0362576E0],"tree_param":{"num_deleted":"0","num_feature":"49","num_nodes":"5","size_leaf_vector":"1"}},{"base_weights":[1.0709915E-3,-8.511007E-2,3.8407724E-2,-5.3478226E-2,1.4636972E-2],"categories":[],"categories_nodes":[],"categories_segments":[],"categories_sizes":[],"default_left":[0,0,0,0,0],"id":66,"left_children":[1,3,-1,-1,-1],"loss_changes":[5.5616215E-2,4.655631E-2,0E0,0E0,0E0],"parents":[2147483647,0,0,1,1],"right_children":[2,4,-1,-1,-1],"split_conditions":[9.024801E-1,8.974145E-1,3.8407724E-2,-5.3478226E-2,1.4636972E-2],"split_indices":[0,33,0,0,0],"split_type":[0,0,0,0,0],"sum_hessian":[3.087336E0,2.0353062E0,1.0520297E0,1.0049154E0,1.0303909E0],"tree_param":{"num_deleted":"0","num_feature":"49","num_nodes":"5","size_leaf_vector":"1"}},{"base_weights":[5.712913E-4,-2.5721475E-2,3.6060393E-2],"categories":[],"categories_nodes":[],"categories_segments":[],"categories_sizes":[],"default_left":[0,0,0],"id":67,"left_children":[1,-1,-1],"loss_changes":[5.2225962E-2,0E0,0E0],"parents":[2147483647,0,0],"right_children":[2,-1,-1],"split_conditions":[9.8912585E-1,-2.5721475E-2,3.6060393E-2],"split_indices":[44,0,0],"split_type":[0,0,0],"sum_hessian":[3.059976E0,1.9421074E0,1.1178687E0],"tree_param":{"num_deleted":"0","num_feature":"49","num_nodes":"3","size_leaf_vector":"1"}},{"base_weights":[2.9691993E-3,2.966363E-2,-3.3267412E-2],"categories":[],"categories_nodes":[],"categories_segments":[],"categories_sizes":[],"default_left":[0,0,0],"id":68,"left_children":[1,-1,-1],"loss_changes":[5.515381E-2,0E0,0E0],"parents":[2147483647,0,0],"right_children":[2,-1,-1],"split_conditions":[-9.0865946E-1,2.966363E-2,-3.3267412E-2],"split_indices":[18,0,0],"split_type":[0,0,0],"sum_hessian":[3.0464945E0,1.7250187E0,1.3214757E0],"tree_param":{"num_deleted":"0","num_feature":"49","num_nodes":"3","size_leaf_vector":"1"}},{"base_weights":[1.1801515E-3,2.5127398E-2,-3.364213E-2],"categories":[],"categories_nodes":[],"categories_segments":[],"categories_sizes":[],"default_left":[0,0,0],"id":69,"left_children":[1,-1,-1],"loss_changes":[4.7125638E-2,0E0,0E0],"parents":[2147483647,0,0],"right_children":[2,-1,-1],"split_conditions":[-9.9999696E-1,2.5127398E-2,-3.364213E-2],"split_indices":[2,0,0],"split_type":[0,0,0],"sum_hessian":[3.0322628E0,1.9049689E0,1.1272941E0],"tree_param":{"num_deleted":"0","num_feature":"49","num_nodes":"3","size_leaf_vector":"1"}},{"base_weights":[-1.3081342E-3,-3.4690775E-2,2.3709143E-2],"categories":[],"categories_nodes":[],"categories_segments":[],"categories_sizes":[],"default_left":[0,0,0],"id":70,"left_children":[1,-1,-1],"loss_changes":[4.6059035E-2,0E0,0E0],"parents":[2147483647,0,0],"right_children":[2,-1,-1],"split_conditions":[-4.0024966E-1,-3.4690775E-2,2.3709143E-2],"split_indices":[14,0,0],"split_type":[0,0,0],"sum_hessian":[3.0196562E0,1.0648866E0,1.9547695E0],"tree_param":{"num_deleted":"0","num_feature":"49","num_nodes":"3","size_leaf_vector":"1"}},{"base_weights":[-3.6813957E-3,-2.5300784E-2,3.2944288E-2],"categories":[],"categories_nodes":[],"categories_segments":[],"categories_sizes":[],"default_left":[0,0,0],"id":71,"left_children":[1,-1,-1],"loss_changes":[4.5947276E-2,0E0,0E0],"parents":[2147483647,0,0],"right_children":[2,-1,-1],"split_conditions":[9.8912585E-1,-2.5300784E-2,3.2944288E-2],"split_indices":[44,0,0],"split_type":[0,0,0],"sum_hessian":[3.0076697E0,1.9084051E0,1.0992647E0],"tree_param":{"num_deleted":"0","num_feature":"49","num_nodes":"3","size_leaf_vector":"1"}},{"base_weights":[-6.660988E-4,3.0738281E-2,-2.941602E-2],"categories":[],"categories_nodes":[],"categories_segments":[],"categories_sizes":[],"default_left":[0,0,0],"id":72,"left_children":[1,-1,-1],"loss_changes":[5.0176155E-2,0E0,0E0],"parents":[2147483647,0,0],"right_children":[2,-1,-1],"split_conditions":[-9.464652E-1,3.0738281E-2,-2.941602E-2],"split_indices":[18,0,0],"split_type":[0,0,0],"sum_hessian":[2.995665E0,1.4296538E0,1.5660113E0],"tree_param":{"num_deleted":"0","num_feature":"49","num_nodes":"3","size_leaf_vector":"1"}},{"base_weights":[-1.3916784E-4,2.4156928E-2,-3.487583E-2],"categories":[],"categories_nodes":[],"categories_segments":[],"categories_sizes":[],"default_left":[0,0,0],"id":73,"left_children":[1,-1,-1],"loss_changes":[4.666427E-2,0E0,0E0],"parents":[2147483647,0,0],"right_children":[2,-1,-1],"split_conditions":[-1.7519554E-1,2.4156928E-2,-3.487583E-2],"split_indices":[10,0,0],"split_type":[0,0,0],"sum_hessian":[2.982843E0,1.9409858E0,1.0418571E0],"tree_param":{"num_deleted":"0","num_feature":"49","num_nodes":"3","size_leaf_vector":"1"}},{"base_weights":[-2.8203789E-3,-2.5162777E-2,3.5316773E-2],"categories":[],"categories_nodes":[],"categories_segments":[],"categories_sizes":[],"default_left":[0,0,0],"id":74,"left_children":[1,-1,-1],"loss_changes":[4.866582E-2,0E0,0E0],"parents":[2147483647,0,0],"right_children":[2,-1,-1],"split_conditions":[9.024801E-1,-2.5162777E-2,3.5316773E-2],"split_indices":[0,0,0],"split_type":[0,0,0],"sum_hessian":[2.9702213E0,1.9578831E0,1.0123383E0],"tree_param":{"num_deleted":"0","num_feature":"49","num_nodes":"3","size_leaf_vector":"1"}},{"base_weights":[5.972362E-4,2.5239209E-2,-2.9763687E-2],"categories":[],"categories_nodes":[],"categories_segments":[],"categories_sizes":[],"default_left":[0,0,0],"id":75,"left_children":[1,-1,-1],"loss_changes":[4.13338E-2,0E0,0E0],"parents":[2147483647,0,0],"right_children":[2,-1,-1],"split_conditions":[-6.817737E-1,2.5239209E-2,-2.9763687E-2],"split_indices":[24,0,0],"split_type":[0,0,0],"sum_hessian":[2.9564934E0,1.6949929E0,1.2615006E0],"tree_param":{"num_deleted":"0","num_feature":"49","num_nodes":"3","size_leaf_vector":"1"}},{"base_weights":[-7.381221E-4,2.6239472E-2,-3.117691E-2],"categories":[],"categories_nodes":[],"categories_segments":[],"categories_sizes":[],"default_left":[0,0,0],"id":76,"left_children":[1,-1,-1],"loss_changes":[4.500209E-2,0E0,0E0],"parents":[2147483647,0,0],"right_children":[2,-1,-1],"split_conditions":[-9.0865946E-1,2.6239472E-2,-3.117691E-2],"split_indices":[18,0,0],"split_type":[0,0,0],"sum_hessian":[2.9458964E0,1.6703877E0,1.2755085E0],"tree_param":{"num_deleted":"0","num_feature":"49","num_nodes":"3","size_leaf_vector":"1"}},{"base_weights":[-1.7858478E-3,2.2394687E-2,-3.3255912E-2],"categories":[],"categories_nodes":[],"categories_segments":[],"categories_sizes":[],"default_left":[0,0,0],"id":77,"left_children":[1,-1,-1],"loss_changes":[4.107294E-2,0E0,0E0],"parents":[2147483647,0,0],"right_children":[2,-1,-1],"split_conditions":[-1.7519554E-1,2.2394687E-2,-3.3255912E-2],"split_indices":[10,0,0],"split_type":[0,0,0],"sum_hessian":[2.9342365E0,1.9107459E0,1.0234907E0],"tree_param":{"num_deleted":"0","num_feature":"49","num_nodes":"3","size_leaf_vector":"1"}},{"base_weights":[-4.0434045E-3,-3.375503E-2,2.2121385E-2],"categories":[],"categories_nodes":[],"categories_segments":[],"categories_sizes":[],"default_left":[0,0,0],"id":78,"left_children":[1,-1,-1],"loss_changes":[4.139615E-2,0E0,0E0],"parents":[2147483647,0,0],"right_children":[2,-1,-1],"split_conditions":[-4.0024966E-1,-3.375503E-2,2.2121385E-2],"split_indices":[14,0,0],"split_type":[0,0,0],"sum_hessian":[2.9230282E0,1.0341842E0,1.8888439E0],"tree_param":{"num_deleted":"0","num_feature":"49","num_nodes":"3","size_leaf_vector":"1"}},{"base_weights":[-5.8345203E-3,3.1454075E-2,-2.684181E-2],"categories":[],"categories_nodes":[],"categories_segments":[],"categories_sizes":[],"default_left":[0,0,0],"id":79,"left_children":[1,-1,-1],"loss_changes":[4.5596395E-2,0E0,0E0],"parents":[2147483647,0,0],"right_children":[2,-1,-1],"split_conditions":[-7.8229123E-1,3.1454075E-2,-2.684181E-2],"split_indices":[16,0,0],"split_type":[0,0,0],"sum_hessian":[2.9121425E0,1.1442877E0,1.7678547E0],"tree_param":{"num_deleted":"0","num_feature":"49","num_nodes":"3","size_leaf_vector":"1"}},{"base_weights":[-2.9140466E-3,-2.4556158E-2,2.95937E-2],"categories":[],"categories_nodes":[],"categories_segments":[],"categories_sizes":[],"default_left":[0,0,0],"id":80,"left_children":[1,-1,-1],"loss_changes":[3.9340682E-2,0E0,0E0],"parents":[2147483647,0,0],"right_children":[2,-1,-1],"split_conditions":[9.7531416E-2,-2.4556158E-2,2.95937E-2],"split_indices":[17,0,0],"split_type":[0,0,0],"sum_hessian":[2.8999314E0,1.740847E0,1.1590846E0],"tree_param":{"num_deleted":"0","num_feature":"49","num_nodes":"3","size_leaf_vector":"1"}},{"base_weights":[-7.478179E-4,-2.440864E-2,3.285458E-2],"categories":[],"categories_nodes":[],"categories_segments":[],"categories_sizes":[],"default_left":[0,0,0],"id":81,"left_children":[1,-1,-1],"loss_changes":[4.347984E-2,0E0,0E0],"parents":[2147483647,0,0],"right_children":[2,-1,-1],"split_conditions":[9.8912585E-1,-2.440864E-2,3.285458E-2],"split_indices":[44,0,0],"split_type":[0,0,0],"sum_hessian":[2.8891094E0,1.8203467E0,1.0687627E0],"tree_param":{"num_deleted":"0","num_feature":"49","num_nodes":"3","size_leaf_vector":"1"}},{"base_weights":[1.6609268E-3,-3.1755652E-2,2.3254778E-2],"categories":[],"categories_nodes":[],"categories_segments":[],"categories_sizes":[],"default_left":[0,0,0],"id":82,"left_children":[1,-1,-1],"loss_changes":[3.9830547E-2,0E0,0E0],"parents":[2147483647,0,0],"right_children":[2,-1,-1],"split_conditions":[-9.2898226E-1,-3.1755652E-2,2.3254778E-2],"split_indices":[17,0,0],"split_type":[0,0,0],"sum_hessian":[2.877835E0,1.0269016E0,1.8509334E0],"tree_param":{"num_deleted":"0","num_feature":"49","num_nodes":"3","size_leaf_vector":"1"}},{"base_weights":[-1.0476969E-3,2.5577884E-2,-2.8227067E-2],"categories":[],"categories_nodes":[],"categories_segments":[],"categories_sizes":[],"default_left":[0,0,0],"id":83,"left_children":[1,-1,-1],"loss_changes":[3.9081275E-2,0E0,0E0],"parents":[2147483647,0,0],"right_children":[2,-1,-1],"split_conditions":[-7.7103215E-1,2.5577884E-2,-2.8227067E-2],"split_indices":[13,0,0],"split_type":[0,0,0],"sum_hessian":[2.867773E0,1.5311291E0,1.3366439E0],"tree_param":{"num_deleted":"0","num_feature":"49","num_nodes":"3","size_leaf_vector":"1"}},{"base_weights":[-1.4295612E-3,3.1137343E-2,-2.4634488E-2],"categories":[],"categories_nodes":[],"categories_segments":[],"categories_sizes":[],"default_left":[0,0,0],"id":84,"left_children":[1,-1,-1],"loss_changes":[4.128167E-2,0E0,0E0],"parents":[2147483647,0,0],"right_children":[2,-1,-1],"split_conditions":[-7.8229123E-1,3.1137343E-2,-2.4634488E-2],"split_indices":[16,0,0],"split_type":[0,0,0],"sum_hessian":[2.8586261E0,1.1163896E0,1.7422365E0],"tree_param":{"num_deleted":"0","num_feature":"49","num_nodes":"3","size_leaf_vector":"1"}},{"base_weights":[6.914083E-4,-2.3393365E-2,3.1284187E-2],"categories":[],"categories_nodes":[],"categories_segments":[],"categories_sizes":[],"default_left":[0,0,0],"id":85,"left_children":[1,-1,-1],"loss_changes":[3.948707E-2,0E0,0E0],"parents":[2147483647,0,0],"right_children":[2,-1,-1],"split_conditions":[3.7870455E-1,-2.3393365E-2,3.1284187E-2],"split_indices":[7,0,0],"split_type":[0,0,0],"sum_hessian":[2.847635E0,1.7590158E0,1.0886192E0],"tree_param":{"num_deleted":"0","num_feature":"49","num_nodes":"3","size_leaf_vector":"1"}},{"base_weights":[2.5483991E-3,2.5561716E-2,-2.7080553E-2],"categories":[],"categories_nodes":[],"categories_segments":[],"categories_sizes":[],"default_left":[0,0,0],"id":86,"left_children":[1,-1,-1],"loss_changes":[3.7132595E-2,0E0,0E0],"parents":[2147483647,0,0],"right_children":[2,-1,-1],"split_conditions":[-1.2658319E-1,2.5561716E-2,-2.7080553E-2],"split_indices":[43,0,0],"split_type":[0,0,0],"sum_hessian":[2.837489E0,1.5442617E0,1.2932272E0],"tree_param":{"num_deleted":"0","num_feature":"49","num_nodes":"3","size_leaf_vector":"1"}},{"base_weights":[1.3865771E-3,2.7115226E-2,-2.5099806E-2],"categories":[],"categories_nodes":[],"categories_segments":[],"categories_sizes":[],"default_left":[0,0,0],"id":87,"left_children":[1,-1,-1],"loss_changes":[3.653376E-2,0E0,0E0],"parents":[2147483647,0,0],"right_children":[2,-1,-1],"split_conditions":[-9.464652E-1,2.7115226E-2,-2.5099806E-2],"split_indices":[18,0,0],"split_type":[0,0,0],"sum_hessian":[2.8274395E0,1.3510454E0,1.4763943E0],"tree_param":{"num_deleted":"0","num_feature":"49","num_nodes":"3","size_leaf_vector":"1"}},{"base_weights":[1.5000899E-3,-2.7315076E-2,2.6939688E-2],"categories":[],"categories_nodes":[],"categories_segments":[],"categories_sizes":[],"default_left":[0,0,0],"id":88,"left_children":[1,-1,-1],"loss_changes":[3.9377425E-2,0E0,0E0],"parents":[2147483647,0,0],"right_children":[2,-1,-1],"split_conditions":[9.015546E-1,-2.7315076E-2,2.6939688E-2],"split_indices":[44,0,0],"split_type":[0,0,0],"sum_hessian":[2.8180206E0,1.360673E0,1.4573476E0],"tree_param":{"num_deleted":"0","num_feature":"49","num_nodes":"3","size_leaf_vector":"1"}},{"base_weights":[9.5052656E-4,-2.256321E-2,2.8772218E-2],"categories":[],"categories_nodes":[],"categories_segments":[],"categories_sizes":[],"default_left":[0,0,0],"id":89,"left_children":[1,-1,-1],"loss_changes":[3.475071E-2,0E0,0E0],"parents":[2147483647,0,0],"right_children":[2,-1,-1],"split_conditions":[9.7531416E-2,-2.256321E-2,2.8772218E-2],"split_indices":[17,0,0],"split_type":[0,0,0],"sum_hessian":[2.807706E0,1.6734474E0,1.1342587E0],"tree_param":{"num_deleted":"0","num_feature":"49","num_nodes":"3","size_leaf_vector":"1"}},{"base_weights":[2.3067768E-3,2.5194954E-2,-2.864242E-2],"categories":[],"categories_nodes":[],"categories_segments":[],"categories_sizes":[],"default_left":[0,0,0],"id":90,"left_children":[1,-1,-1],"loss_changes":[3.8351458E-2,0E0,0E0],"parents":[2147483647,0,0],"right_children":[2,-1,-1],"split_conditions":[-6.817737E-1,2.5194954E-2,-2.864242E-2],"split_indices":[24,0,0],"split_type":[0,0,0],"sum_hessian":[2.7980855E0,1.6014861E0,1.1965995E0],"tree_param":{"num_deleted":"0","num_feature":"49","num_nodes":"3","size_leaf_vector":"1"}},{"base_weights":[7.0139486E-4,-3.000027E-2,2.1831825E-2],"categories":[],"categories_nodes":[],"categories_segments":[],"categories_sizes":[],"default_left":[0,0,0],"id":91,"left_children":[1,-1,-1],"loss_changes":[3.4771796E-2,0E0,0E0],"parents":[2147483647,0,0],"right_children":[2,-1,-1],"split_conditions":[-9.2898226E-1,-3.000027E-2,2.1831825E-2],"split_indices":[17,0,0],"split_type":[0,0,0],"sum_hessian":[2.788289E0,1.001462E0,1.7868271E0],"tree_param":{"num_deleted":"0","num_feature":"49","num_nodes":"3","size_leaf_vector":"1"}},{"base_weights":[-1.6826118E-3,2.4843482E-2,-3.0801132E-2],"categories":[],"categories_nodes":[],"categories_segments":[],"categories_sizes":[],"default_left":[0,0,0],"id":92,"left_children":[1,-1,-1],"loss_changes":[4.0751673E-2,0E0,0E0],"parents":[2147483647,0,0],"right_children":[2,-1,-1],"split_conditions":[2.2141752E-1,2.4843482E-2,-3.0801132E-2],"split_indices":[35,0,0],"split_type":[0,0,0],"sum_hessian":[2.7794204E0,1.6112819E0,1.1681385E0],"tree_param":{"num_deleted":"0","num_feature":"49","num_nodes":"3","size_leaf_vector":"1"}},{"base_weights":[-2.7755036E-3,2.3416081E-2,-2.655073E-2],"categories":[],"categories_nodes":[],"categories_segments":[],"categories_sizes":[],"default_left":[0,0,0],"id":93,"left_children":[1,-1,-1],"loss_changes":[3.3022467E-2,0E0,0E0],"parents":[2147483647,0,0],"right_children":[2,-1,-1],"split_conditions":[-7.7103215E-1,2.3416081E-2,-2.655073E-2],"split_indices":[13,0,0],"split_type":[0,0,0],"sum_hessian":[2.7687495E0,1.4711548E0,1.2975947E0],"tree_param":{"num_deleted":"0","num_feature":"49","num_nodes":"3","size_leaf_vector":"1"}},{"base_weights":[-2.7879127E-3,2.318109E-2,-2.8556008E-2],"categories":[],"categories_nodes":[],"categories_segments":[],"categories_sizes":[],"default_left":[0,0,0],"id":94,"left_children":[1,-1,-1],"loss_changes":[3.517598E-2,0E0,0E0],"parents":[2147483647,0,0],"right_children":[2,-1,-1],"split_conditions":[-9.0865946E-1,2.318109E-2,-2.8556008E-2],"split_indices":[18,0,0],"split_type":[0,0,0],"sum_hessian":[2.7609599E0,1.5669866E0,1.1939733E0],"tree_param":{"num_deleted":"0","num_feature":"49","num_nodes":"3","size_leaf_vector":"1"}},{"base_weights":[-3.4000773E-3,2.1488778E-2,-3.1277798E-2],"categories":[],"categories_nodes":[],"categories_segments":[],"categories_sizes":[],"default_left":[0,0,0],"id":95,"left_children":[1,-1,-1],"loss_changes":[3.5859022E-2,0E0,0E0],"parents":[2147483647,0,0],"right_children":[2,-1,-1],"split_conditions":[-2.1767902E-1,2.1488778E-2,-3.1277798E-2],"split_indices":[10,0,0],"split_type":[0,0,0],"sum_hessian":[2.7517507E0,1.7441126E0,1.0076382E0],"tree_param":{"num_deleted":"0","num_feature":"49","num_nodes":"3","size_leaf_vector":"1"}},{"base_weights":[-5.019645E-3,2.8528988E-2,-2.2895783E-2],"categories":[],"categories_nodes":[],"categories_segments":[],"categories_sizes":[],"default_left":[0,0,0],"id":96,"left_children":[1,-1,-1],"loss_changes":[3.3969216E-2,0E0,0E0],"parents":[2147483647,0,0],"right_children":[2,-1,-1],"split_conditions":[-6.7629325E-1,2.8528988E-2,-2.2895783E-2],"split_indices":[29,0,0],"split_type":[0,0,0],"sum_hessian":[2.742023E0,1.0017054E0,1.7403176E0],"tree_param":{"num_deleted":"0","num_feature":"49","num_nodes":"3","size_leaf_vector":"1"}},{"base_weights":[-2.010805E-3,2.7904334E-2,-2.2570137E-2],"categories":[],"categories_nodes":[],"categories_segments":[],"categories_sizes":[],"default_left":[0,0,0],"id":97,"left_children":[1,-1,-1],"loss_changes":[3.297737E-2,0E0,0E0],"parents":[2147483647,0,0],"right_children":[2,-1,-1],"split_conditions":[-8.7350523E-1,2.7904334E-2,-2.2570137E-2],"split_indices":[26,0,0],"split_type":[0,0,0],"sum_hessian":[2.7337482E0,1.0721167E0,1.6616315E0],"tree_param":{"num_deleted":"0","num_feature":"49","num_nodes":"3","size_leaf_vector":"1"}},{"base_weights":[2.4284369E-5,-2.6780928E-2,2.2894543E-2],"categories":[],"categories_nodes":[],"categories_segments":[],"categories_sizes":[],"default_left":[0,0,0],"id":98,"left_children":[1,-1,-1],"loss_changes":[3.2184597E-2,0E0,0E0],"parents":[2147483647,0,0],"right_children":[2,-1,-1],"split_conditions":[6.451897E-1,-2.6780928E-2,2.2894543E-2],"split_indices":[0,0,0],"split_type":[0,0,0],"sum_hessian":[2.724424E0,1.176857E0,1.547567E0],"tree_param":{"num_deleted":"0","num_feature":"49","num_nodes":"3","size_leaf_vector":"1"}},{"base_weights":[-1.0367888E-3,2.8914167E-2,-2.3223335E-2],"categories":[],"categories_nodes":[],"categories_segments":[],"categories_sizes":[],"default_left":[0,0,0],"id":99,"left_children":[1,-1,-1],"loss_changes":[3.5104856E-2,0E0,0E0],"parents":[2147483647,0,0],"right_children":[2,-1,-1],"split_conditions":[-7.8229123E-1,2.8914167E-2,-2.3223335E-2],"split_indices":[16,0,0],"split_type":[0,0,0],"sum_hessian":[2.7154903E0,1.0782307E0,1.6372597E0],"tree_param":{"num_deleted":"0","num_feature":"49","num_nodes":"3","size_leaf_vector":"1"}}]},"name":"gbtree"},"learner_model_param":{"base_score":"[1.6666667E-1]","boost_from_average":"1","num_class":"0","num_feature":"49","num_target":"1"},"objective":{"name":"binary:logistic","reg_loss_param":{"scale_pos_weight":"1"}}},"version":[3,2,0]}